{"learner":{"attributes":{"scikit_learn":"{\"_estimator_type\": \"regressor\"}"},"feature_names":["G","b_pa","AVG","ISO","BABIP","K_pct","BB_pct","BB_K_pct","SB_pct","wOBA","wRC_plus","RE24","GB_pct","LD_pct","HR_FB_pct","brl_percent","ev95percent","anglesweetspotpercent","est_ba","est_slg","est_woba","sprint_speed","BABIP_gap","xBA_AVG_gap","xSLG_SLG_gap","team_rpg","experience","SB_rate","career_BABIP","K_pct_delta","BB_pct_delta","ISO_delta","BABIP_delta"],"feature_types":["int","float","float","float","float","float","float","float","float","float","float","float","float","float","float","float","float","float","float","float","float","float","float","float","float","float","int","float","float","float","float","float","float"],"gradient_booster":{"model":{"cats":{"enc":[],"feature_segments":[],"sorted_idx":[]},"gbtree_model_param":{"num_parallel_tree":"1","num_trees":"927"},"iteration_indptr":[0,1,2,3,4,5,6,7,8,9,10,11,12,13,14,15,16,17,18,19,20,21,22,23,24,25,26,27,28,29,30,31,32,33,34,35,36,37,38,39,40,41,42,43,44,45,46,47,48,49,50,51,52,53,54,55,56,57,58,59,60,61,62,63,64,65,66,67,68,69,70,71,72,73,74,75,76,77,78,79,80,81,82,83,84,85,86,87,88,89,90,91,92,93,94,95,96,97,98,99,100,101,102,103,104,105,106,107,108,109,110,111,112,113,114,115,116,117,118,119,120,121,122,123,124,125,126,127,128,129,130,131,132,133,134,135,136,137,138,139,140,141,142,143,144,145,146,147,148,149,150,151,152,153,154,155,156,157,158,159,160,161,162,163,164,165,166,167,168,169,170,171,172,173,174,175,176,177,178,179,180,181,182,183,184,185,186,187,188,189,190,191,192,193,194,195,196,197,198,199,200,201,202,203,204,205,206,207,208,209,210,211,212,213,214,215,216,217,218,219,220,221,222,223,224,225,226,227,228,229,230,231,232,233,234,235,236,237,238,239,240,241,242,243,244,245,246,247,248,249,250,251,252,253,254,255,256,257,258,259,260,261,262,263,264,265,266,267,268,269,270,271,272,273,274,275,276,277,278,279,280,281,282,283,284,285,286,287,288,289,290,291,292,293,294,295,296,297,298,299,300,301,302,303,304,305,306,307,308,309,310,311,312,313,314,315,316,317,318,319,320,321,322,323,324,325,326,327,328,329,330,331,332,333,334,335,336,337,338,339,340,341,342,343,344,345,346,347,348,349,350,351,352,353,354,355,356,357,358,359,360,361,362,363,364,365,366,367,368,369,370,371,372,373,374,375,376,377,378,379,380,381,382,383,384,385,386,387,388,389,390,391,392,393,394,395,396,397,398,399,400,401,402,403,404,405,406,407,408,409,410,411,412,413,414,415,416,417,418,419,420,421,422,423,424,425,426,427,428,429,430,431,432,433,434,435,436,437,438,439,440,441,442,443,444,445,446,447,448,449,450,451,452,453,454,455,456,457,458,459,460,461,462,463,464,465,466,467,468,469,470,471,472,473,474,475,476,477,478,479,480,481,482,483,484,485,486,487,488,489,490,491,492,493,494,495,496,497,498,499,500,501,502,503,504,505,506,507,508,509,510,511,512,513,514,515,516,517,518,519,520,521,522,523,524,525,526,527,528,529,530,531,532,533,534,535,536,537,538,539,540,541,542,543,544,545,546,547,548,549,550,551,552,553,554,555,556,557,558,559,560,561,562,563,564,565,566,567,568,569,570,571,572,573,574,575,576,577,578,579,580,581,582,583,584,585,586,587,588,589,590,591,592,593,594,595,596,597,598,599,600,601,602,603,604,605,606,607,608,609,610,611,612,613,614,615,616,617,618,619,620,621,622,623,624,625,626,627,628,629,630,631,632,633,634,635,636,637,638,639,640,641,642,643,644,645,646,647,648,649,650,651,652,653,654,655,656,657,658,659,660,661,662,663,664,665,666,667,668,669,670,671,672,673,674,675,676,677,678,679,680,681,682,683,684,685,686,687,688,689,690,691,692,693,694,695,696,697,698,699,700,701,702,703,704,705,706,707,708,709,710,711,712,713,714,715,716,717,718,719,720,721,722,723,724,725,726,727,728,729,730,731,732,733,734,735,736,737,738,739,740,741,742,743,744,745,746,747,748,749,750,751,752,753,754,755,756,757,758,759,760,761,762,763,764,765,766,767,768,769,770,771,772,773,774,775,776,777,778,779,780,781,782,783,784,785,786,787,788,789,790,791,792,793,794,795,796,797,798,799,800,801,802,803,804,805,806,807,808,809,810,811,812,813,814,815,816,817,818,819,820,821,822,823,824,825,826,827,828,829,830,831,832,833,834,835,836,837,838,839,840,841,842,843,844,845,846,847,848,849,850,851,852,853,854,855,856,857,858,859,860,861,862,863,864,865,866,867,868,869,870,871,872,873,874,875,876,877,878,879,880,881,882,883,884,885,886,887,888,889,890,891,892,893,894,895,896,897,898,899,900,901,902,903,904,905,906,907,908,909,910,911,912,913,914,915,916,917,918,919,920,921,922,923,924,925,926,927],"tree_info":[0,0,0,0,0,0,0,0,0,0,0,0,0,0,0,0,0,0,0,0,0,0,0,0,0,0,0,0,0,0,0,0,0,0,0,0,0,0,0,0,0,0,0,0,0,0,0,0,0,0,0,0,0,0,0,0,0,0,0,0,0,0,0,0,0,0,0,0,0,0,0,0,0,0,0,0,0,0,0,0,0,0,0,0,0,0,0,0,0,0,0,0,0,0,0,0,0,0,0,0,0,0,0,0,0,0,0,0,0,0,0,0,0,0,0,0,0,0,0,0,0,0,0,0,0,0,0,0,0,0,0,0,0,0,0,0,0,0,0,0,0,0,0,0,0,0,0,0,0,0,0,0,0,0,0,0,0,0,0,0,0,0,0,0,0,0,0,0,0,0,0,0,0,0,0,0,0,0,0,0,0,0,0,0,0,0,0,0,0,0,0,0,0,0,0,0,0,0,0,0,0,0,0,0,0,0,0,0,0,0,0,0,0,0,0,0,0,0,0,0,0,0,0,0,0,0,0,0,0,0,0,0,0,0,0,0,0,0,0,0,0,0,0,0,0,0,0,0,0,0,0,0,0,0,0,0,0,0,0,0,0,0,0,0,0,0,0,0,0,0,0,0,0,0,0,0,0,0,0,0,0,0,0,0,0,0,0,0,0,0,0,0,0,0,0,0,0,0,0,0,0,0,0,0,0,0,0,0,0,0,0,0,0,0,0,0,0,0,0,0,0,0,0,0,0,0,0,0,0,0,0,0,0,0,0,0,0,0,0,0,0,0,0,0,0,0,0,0,0,0,0,0,0,0,0,0,0,0,0,0,0,0,0,0,0,0,0,0,0,0,0,0,0,0,0,0,0,0,0,0,0,0,0,0,0,0,0,0,0,0,0,0,0,0,0,0,0,0,0,0,0,0,0,0,0,0,0,0,0,0,0,0,0,0,0,0,0,0,0,0,0,0,0,0,0,0,0,0,0,0,0,0,0,0,0,0,0,0,0,0,0,0,0,0,0,0,0,0,0,0,0,0,0,0,0,0,0,0,0,0,0,0,0,0,0,0,0,0,0,0,0,0,0,0,0,0,0,0,0,0,0,0,0,0,0,0,0,0,0,0,0,0,0,0,0,0,0,0,0,0,0,0,0,0,0,0,0,0,0,0,0,0,0,0,0,0,0,0,0,0,0,0,0,0,0,0,0,0,0,0,0,0,0,0,0,0,0,0,0,0,0,0,0,0,0,0,0,0,0,0,0,0,0,0,0,0,0,0,0,0,0,0,0,0,0,0,0,0,0,0,0,0,0,0,0,0,0,0,0,0,0,0,0,0,0,0,0,0,0,0,0,0,0,0,0,0,0,0,0,0,0,0,0,0,0,0,0,0,0,0,0,0,0,0,0,0,0,0,0,0,0,0,0,0,0,0,0,0,0,0,0,0,0,0,0,0,0,0,0,0,0,0,0,0,0,0,0,0,0,0,0,0,0,0,0,0,0,0,0,0,0,0,0,0,0,0,0,0,0,0,0,0,0,0,0,0,0,0,0,0,0,0,0,0,0,0,0,0,0,0,0,0,0,0,0,0,0,0,0,0,0,0,0,0,0,0,0,0,0,0,0,0,0,0,0,0,0,0,0,0,0,0,0,0,0,0,0,0,0,0,0,0,0,0,0,0,0,0,0,0,0,0,0,0,0,0,0,0,0,0,0,0,0,0,0,0,0,0,0,0,0,0,0,0,0,0,0,0,0,0,0,0,0,0,0,0,0,0,0,0,0,0,0,0,0,0,0,0,0,0,0,0,0,0,0,0,0,0,0,0,0,0,0,0,0,0,0,0,0,0,0,0,0,0,0,0,0,0,0,0,0,0,0,0,0,0,0,0,0,0,0,0,0,0,0,0,0,0,0,0,0,0,0,0,0,0,0,0,0,0,0,0,0,0,0,0,0,0,0,0,0,0,0,0,0,0,0,0,0,0,0,0,0,0,0,0,0,0,0,0,0,0,0,0,0,0,0,0,0,0,0,0,0,0,0,0,0,0,0,0,0,0,0,0,0,0,0,0,0,0,0,0,0,0,0,0,0,0,0,0,0,0,0,0,0,0,0],"trees":[{"base_weights":[-1.3251649E3,-3.3076935E1,-4.935157E2,-1.0577761E1,-3.7597537E0],"categories":[],"categories_nodes":[],"categories_segments":[],"categories_sizes":[],"default_left":[0,0,0,0,0],"id":0,"left_children":[1,-1,3,-1,-1],"loss_changes":[5.2113904E7,0E0,9.48002E5,0E0,0E0],"parents":[2147483647,0,0,2,2],"right_children":[2,-1,4,-1,-1],"split_conditions":[6.08E2,-3.3076935E1,2.8911509E1,-1.0577761E1,-3.7597537E0],"split_indices":[1,0,11,0,0],"split_type":[0,0,0,0,0],"sum_hessian":[1.0683809E2,5.34315E1,5.340659E1,2.757302E1,2.5833569E1],"tree_param":{"num_deleted":"0","num_feature":"33","num_nodes":"5","size_leaf_vector":"1"}},{"base_weights":[-1.0790853E3,-1.6347797E3,-5.914667E2,-3.2480118E1,-1.2888321E1,-1.2143048E1,-3.7192452E0],"categories":[],"categories_nodes":[],"categories_segments":[],"categories_sizes":[],"default_left":[0,0,0,0,0,0,0],"id":1,"left_children":[1,3,5,-1,-1,-1,-1],"loss_changes":[2.7857488E7,8.76224E5,2.644898E6,0E0,0E0,0E0,0E0],"parents":[2147483647,0,0,1,1,2,2],"right_children":[2,4,6,-1,-1,-1,-1],"split_conditions":[5.38E2,1.15E2,3.7070414E-1,-3.2480118E1,-1.2888321E1,-1.2143048E1,-3.7192452E0],"split_indices":[1,10,9,0,0,0,0],"split_type":[0,0,0,0,0,0,0],"sum_hessian":[1.2695044E2,4.8997932E1,7.795251E1,2.830796E1,2.0689972E1,5.148195E1,2.647056E1],"tree_param":{"num_deleted":"0","num_feature":"33","num_nodes":"7","size_leaf_vector":"1"}},{"base_weights":[-9.5617365E2,-1.1108809E3,-4.222429E0,-2.049652E1,-6.835012E0],"categories":[],"categories_nodes":[],"categories_segments":[],"categories_sizes":[],"default_left":[0,0,0,0,0],"id":2,"left_children":[1,3,-1,-1,-1],"loss_changes":[1.418512E7,4.320704E6,0E0,0E0,0E0],"parents":[2147483647,0,0,1,1],"right_children":[2,4,-1,-1,-1],"split_conditions":[2.813603E1,6.52E2,-4.222429E0,-2.049652E1,-6.835012E0],"split_indices":[11,1,0,0,0],"split_type":[0,0,0,0,0],"sum_hessian":[1.4432895E2,1.13973915E2,3.0355034E1,9.362626E1,2.0347658E1],"tree_param":{"num_deleted":"0","num_feature":"33","num_nodes":"5","size_leaf_vector":"1"}},{"base_weights":[-7.9843835E2,-2.0205416E1,-5.064116E2,-9.940091E0,-4.0833235E0],"categories":[],"categories_nodes":[],"categories_segments":[],"categories_sizes":[],"default_left":[0,0,0,0,0],"id":3,"left_children":[1,-1,3,-1,-1],"loss_changes":[1.4869872E7,0E0,1.23415E6,0E0,0E0],"parents":[2147483647,0,0,2,2],"right_children":[2,-1,4,-1,-1],"split_conditions":[4.814931E0,-2.0205416E1,-5.6285176E-2,-9.940091E0,-4.0833235E0],"split_indices":[11,0,7,0,0],"split_type":[0,0,0,0,0],"sum_hessian":[1.676334E2,5.864657E1,1.0898683E2,7.44134E1,3.4573433E1],"tree_param":{"num_deleted":"0","num_feature":"33","num_nodes":"5","size_leaf_vector":"1"}},{"base_weights":[-7.099143E2,-8.156775E2,-3.6183107E0,-1.4786919E1,-6.279665E0],"categories":[],"categories_nodes":[],"categories_segments":[],"categories_sizes":[],"default_left":[0,0,0,0,0],"id":4,"left_children":[1,3,-1,-1,-1],"loss_changes":[8.858728E6,1.229904E6,0E0,0E0,0E0],"parents":[2147483647,0,0,1,1],"right_children":[2,4,-1,-1,-1],"split_conditions":[2.8911509E1,2.78E-1,-3.6183107E0,-1.4786919E1,-6.279665E0],"split_indices":[11,18,0,0,0],"split_type":[0,0,0,0,0],"sum_hessian":[1.9090082E2,1.5233162E2,3.856919E1,1.2620841E2,2.6123209E1],"tree_param":{"num_deleted":"0","num_feature":"33","num_nodes":"5","size_leaf_vector":"1"}},{"base_weights":[-6.3462616E2,-1.548352E1,-4.4194424E2,-4.8429953E2,-2.247659E0,-8.908019E0,-3.1479402E0],"categories":[],"categories_nodes":[],"categories_segments":[],"categories_sizes":[],"default_left":[0,0,0,0,0,0,0],"id":5,"left_children":[1,-1,3,5,-1,-1,-1],"loss_changes":[8.1412E6,0E0,1.340754E6,7.09674E5,0E0,0E0,0E0],"parents":[2147483647,0,0,2,2,3,3],"right_children":[2,-1,4,6,-1,-1,-1],"split_conditions":[4.67E2,-1.548352E1,2.89E-1,6.75E2,-2.247659E0,-8.908019E0,-3.1479402E0],"split_indices":[1,0,18,1,0,0,0],"split_type":[0,0,0,0,0,0,0],"sum_hessian":[2.1048532E2,7.109794E1,1.3938737E2,1.1788385E2,2.1503529E1,9.666829E1,2.1215557E1],"tree_param":{"num_deleted":"0","num_feature":"33","num_nodes":"7","size_leaf_vector":"1"}},{"base_weights":[-5.681077E2,-6.751297E2,-2.9772552E2,-1.2109712E1,-5.157857E0,-5.757382E0,-1.8973858E0],"categories":[],"categories_nodes":[],"categories_segments":[],"categories_sizes":[],"default_left":[0,0,0,0,0,0,0],"id":6,"left_children":[1,3,5,-1,-1,-1,-1],"loss_changes":[5.241E6,5.55832E5,3.332165E5,0E0,0E0,0E0,0E0],"parents":[2147483647,0,0,1,1,2,2],"right_children":[2,4,6,-1,-1,-1,-1],"split_conditions":[1.7405499E1,1.53E2,2.94E-1,-1.2109712E1,-5.157857E0,-5.757382E0,-1.8973858E0],"split_indices":[11,0,18,0,0,0,0],"split_type":[0,0,0,0,0,0,0],"sum_hessian":[2.3701303E2,1.5972137E2,7.729164E1,1.3557323E2,2.4148155E1,5.63112E1,2.0980442E1],"tree_param":{"num_deleted":"0","num_feature":"33","num_nodes":"7","size_leaf_vector":"1"}},{"base_weights":[-5.1325946E2,-1.0972327E1,-3.4025092E2,-2.0114835E2,-7.943071E0,-4.216411E0,-1.5433353E0],"categories":[],"categories_nodes":[],"categories_segments":[],"categories_sizes":[],"default_left":[0,0,0,0,0,0,0],"id":7,"left_children":[1,-1,3,5,-1,-1,-1],"loss_changes":[4.15276E6,0E0,1.572967E6,2.2302725E5,0E0,0E0,0E0],"parents":[2147483647,0,0,2,2,3,3],"right_children":[2,-1,4,6,-1,-1,-1],"split_conditions":[3.36E-1,-1.0972327E1,2.0040485E-1,1.7391304E-2,-7.943071E0,-4.216411E0,-1.5433353E0],"split_indices":[20,0,5,27,0,0,0],"split_type":[0,0,0,0,0,0,0],"sum_hessian":[2.5475568E2,1.28E2,1.2675568E2,7.28007E1,5.3954975E1,4.219526E1,3.0605436E1],"tree_param":{"num_deleted":"0","num_feature":"33","num_nodes":"7","size_leaf_vector":"1"}},{"base_weights":[-4.6942007E2,-5.1600665E2,-3.4238474E0,-5.763801E2,-4.774407E0,-1.0470664E1,-5.254485E0],"categories":[],"categories_nodes":[],"categories_segments":[],"categories_sizes":[],"default_left":[0,0,0,0,0,0,0],"id":8,"left_children":[1,3,-1,5,-1,-1,-1],"loss_changes":[2.48306E6,1.728584E6,0E0,2.04932E5,0E0,0E0,0E0],"parents":[2147483647,0,0,1,1,3,3],"right_children":[2,4,-1,6,-1,-1,-1],"split_conditions":[-4.587156E-2,6.25E2,-3.4238474E0,2.7E-1,-4.774407E0,-1.0470664E1,-5.254485E0],"split_indices":[7,1,0,18,0,0,0],"split_type":[0,0,0,0,0,0,0],"sum_hessian":[2.6955994E2,2.2199907E2,4.7560875E1,1.6539044E2,5.6608627E1,1.3129552E2,3.4094925E1],"tree_param":{"num_deleted":"0","num_feature":"33","num_nodes":"7","size_leaf_vector":"1"}},{"base_weights":[-4.4594733E2,-5.11738E2,-2.4838446E2,-9.979669E0,-6.196453E0,-2.926635E2,-1.9733092E0,-6.005949E0,-2.4633155E0],"categories":[],"categories_nodes":[],"categories_segments":[],"categories_sizes":[],"default_left":[0,0,0,0,0,0,0,0,0],"id":9,"left_children":[1,3,5,-1,-1,7,-1,-1,-1],"loss_changes":[2.60844E6,3.763E5,2.10842E5,0E0,0E0,8.6245E4,0E0,0E0,0E0],"parents":[2147483647,0,0,1,1,2,2,5,5],"right_children":[2,4,6,-1,-1,8,-1,-1,-1],"split_conditions":[2.73E-1,4.3E-1,2.3622047E-2,-9.979669E0,-6.196453E0,5.17E-1,-1.9733092E0,-6.005949E0,-2.4633155E0],"split_indices":[18,19,27,0,0,19,0,0,0],"split_type":[0,0,0,0,0,0,0,0,0],"sum_hessian":[2.8320654E2,2.0124231E2,8.196424E1,1.11472115E2,8.9770195E1,5.2712128E1,2.925211E1,2.7547411E1,2.5164717E1],"tree_param":{"num_deleted":"0","num_feature":"33","num_nodes":"9","size_leaf_vector":"1"}},{"base_weights":[-3.9528674E2,-4.2011166E2,-2.3064995E0,-7.3539333E0,-3.455673E0],"categories":[],"categories_nodes":[],"categories_segments":[],"categories_sizes":[],"default_left":[0,0,0,0,0],"id":10,"left_children":[1,3,-1,-1,-1],"loss_changes":[1.527848E6,1.1356E5,0E0,0E0,0E0],"parents":[2147483647,0,0,1,1],"right_children":[2,4,-1,-1,-1],"split_conditions":[3.380518E1,3.72E-1,-2.3064995E0,-7.3539333E0,-3.455673E0],"split_indices":[11,20,0,0,0],"split_type":[0,0,0,0,0],"sum_hessian":[3.1242017E2,2.7971927E2,3.27009E1,2.5227132E2,2.7447954E1],"tree_param":{"num_deleted":"0","num_feature":"33","num_nodes":"5","size_leaf_vector":"1"}},{"base_weights":[-3.8090717E2,-4.9364575E2,-2.902572E2,-4.2583823E0,-9.186736E0,-3.1583835E2,-2.1179333E0,-5.637842E0,-2.1857936E0],"categories":[],"categories_nodes":[],"categories_segments":[],"categories_sizes":[],"default_left":[0,0,0,0,0,0,0,0,0],"id":11,"left_children":[1,3,5,-1,-1,7,-1,-1,-1],"loss_changes":[2.060984E6,3.51554E5,5.03528E5,0E0,0E0,1.74372E5,0E0,0E0,0E0],"parents":[2147483647,0,0,1,1,2,2,5,5],"right_children":[2,4,6,-1,-1,8,-1,-1,-1],"split_conditions":[4.81E2,-4.748344E-2,6.82E2,-4.2583823E0,-9.186736E0,1.41E2,-2.1179333E0,-5.637842E0,-2.1857936E0],"split_indices":[1,31,1,0,0,10,0,0,0],"split_type":[0,0,0,0,0,0,0,0,0],"sum_hessian":[3.2405682E2,1.2580654E2,1.9825027E2,3.139901E1,9.440753E1,1.6417049E2,3.4079796E1,1.4298627E2,2.1184221E1],"tree_param":{"num_deleted":"0","num_feature":"33","num_nodes":"9","size_leaf_vector":"1"}},{"base_weights":[-3.4486105E2,-7.8619494E0,-2.715004E2,-1.80073E2,-5.895382E0,-3.5754707E0,-1.6582799E0],"categories":[],"categories_nodes":[],"categories_segments":[],"categories_sizes":[],"default_left":[0,0,0,0,0,0,0],"id":12,"left_children":[1,-1,3,5,-1,-1,-1],"loss_changes":[1.966248E6,0E0,1.14028E6,1.44984E5,0E0,0E0,0E0],"parents":[2147483647,0,0,2,2,3,3],"right_children":[2,-1,4,6,-1,-1,-1],"split_conditions":[4.07E-1,-7.8619494E0,2.0186335E-1,1.7391304E-2,-5.895382E0,-3.5754707E0,-1.6582799E0],"split_indices":[19,0,5,27,0,0,0],"split_type":[0,0,0,0,0,0,0],"sum_hessian":[3.471499E2,1.1230766E2,2.3484224E2,1.22087326E2,1.12754906E2,7.7345825E1,4.4741505E1],"tree_param":{"num_deleted":"0","num_feature":"33","num_nodes":"7","size_leaf_vector":"1"}},{"base_weights":[-3.1888675E2,-4.3223383E2,-2.5058412E2,-3.019602E0,-7.9007864E0,-2.7535196E2,-1.1122038E2,-2.2243123E0,-5.027421E0,-7.984322E-1,-2.2967858E0],"categories":[],"categories_nodes":[],"categories_segments":[],"categories_sizes":[],"default_left":[0,0,0,0,0,0,0,0,0,0,0],"id":13,"left_children":[1,3,5,-1,-1,7,9,-1,-1,-1,-1],"loss_changes":[1.839744E6,3.46632E5,5.84408E5,0E0,0E0,2.98115E5,2.4917562E4,0E0,0E0,0E0,0E0],"parents":[2147483647,0,0,1,1,2,2,5,5,6,6],"right_children":[2,4,6,-1,-1,8,10,-1,-1,-1,-1],"split_conditions":[2.538071E-1,1.6640747E-1,2.9909351E1,-3.019602E0,-7.9007864E0,1.84E-1,1.6307692E-1,-2.2243123E0,-5.027421E0,-7.984322E-1,-2.2967858E0],"split_indices":[2,5,11,0,0,13,5,0,0,0,0],"split_type":[0,0,0,0,0,0,0,0,0,0,0],"sum_hessian":[3.5974194E2,1.1643507E2,2.4330687E2,2.1278378E1,9.5156685E1,1.9880318E2,4.4503696E1,3.5415718E1,1.6338745E2,2.0051579E1,2.4452118E1],"tree_param":{"num_deleted":"0","num_feature":"33","num_nodes":"11","size_leaf_vector":"1"}},{"base_weights":[-3.1388477E2,-3.6722427E2,-2.2716429E2,-6.663706E0,-3.4342818E0,-1.8701165E0,-2.5135179E2,-4.727231E0,-2.37688E0],"categories":[],"categories_nodes":[],"categories_segments":[],"categories_sizes":[],"default_left":[0,0,0,0,0,0,0,0,0],"id":14,"left_children":[1,3,5,-1,-1,-1,7,-1,-1],"loss_changes":[1.008184E6,2.5071E5,2.23464E5,0E0,0E0,0E0,5.6263E4,0E0,0E0],"parents":[2147483647,0,0,1,1,2,2,6,6],"right_children":[2,4,6,-1,-1,-1,8,-1,-1],"split_conditions":[2.61E-1,6.06E2,3.72E-1,-6.663706E0,-3.4342818E0,-1.8701165E0,2.5830258E-2,-4.727231E0,-2.37688E0],"split_indices":[18,1,12,0,0,0,27,0,0],"split_type":[0,0,0,0,0,0,0,0,0],"sum_hessian":[3.780788E2,2.1526823E2,1.6281056E2,1.7321178E2,4.2056458E1,3.7017822E1,1.2579273E2,8.85854E1,3.7207325E1],"tree_param":{"num_deleted":"0","num_feature":"33","num_nodes":"9","size_leaf_vector":"1"}},{"base_weights":[-2.9025128E2,-3.254991E2,-1.5887985E2,-6.5792737E0,-4.4208136E0,-3.0992491E0,-9.8203444E-1],"categories":[],"categories_nodes":[],"categories_segments":[],"categories_sizes":[],"default_left":[0,0,0,0,0,0,0],"id":15,"left_children":[1,3,5,-1,-1,-1,-1],"loss_changes":[1.41318E6,3.2536E5,1.603025E5,0E0,0E0,0E0,0E0],"parents":[2147483647,0,0,1,1,2,2],"right_children":[2,4,6,-1,-1,-1,-1],"split_conditions":[-6.435644E-2,1.7105263E-1,9.7E0,-6.5792737E0,-4.4208136E0,-3.0992491E0,-9.8203444E-1],"split_indices":[7,3,15,0,0,0,0],"split_type":[0,0,0,0,0,0,0],"sum_hessian":[4.0076764E2,3.0503455E2,9.573311E1,1.2827852E2,1.7675603E2,7.073721E1,2.4995893E1],"tree_param":{"num_deleted":"0","num_feature":"33","num_nodes":"7","size_leaf_vector":"1"}},{"base_weights":[-2.8961362E2,-6.1953783E0,-2.2012721E2,-2.3226578E2,-1.3904078E0,-4.1292305E0,-1.4349139E0],"categories":[],"categories_nodes":[],"categories_segments":[],"categories_sizes":[],"default_left":[0,0,0,0,0,0,0],"id":16,"left_children":[1,-1,3,5,-1,-1,-1],"loss_changes":[1.443236E6,0E0,2.21112E5,1.9112E5,0E0,0E0,0E0],"parents":[2147483647,0,0,2,2,3,3],"right_children":[2,-1,4,6,-1,-1,-1],"split_conditions":[4.82E2,-6.1953783E0,2.94E-1,6.91E2,-1.3904078E0,-4.1292305E0,-1.4349139E0],"split_indices":[1,0,18,1,0,0,0],"split_type":[0,0,0,0,0,0,0],"sum_hessian":[4.01293E2,1.7108229E2,2.3021071E2,2.0565399E2,2.4556705E1,1.8420717E2,2.1446833E1],"tree_param":{"num_deleted":"0","num_feature":"33","num_nodes":"7","size_leaf_vector":"1"}},{"base_weights":[-2.641458E2,-6.5552945E0,-2.3676743E2,-1.3671494E2,-2.5335788E2,-2.6078618E0,-1.0989715E0,-4.6657457E0,-2.509E0],"categories":[],"categories_nodes":[],"categories_segments":[],"categories_sizes":[],"default_left":[0,0,0,0,0,0,0,0,0],"id":17,"left_children":[1,-1,3,5,7,-1,-1,-1,-1],"loss_changes":[6.25078E5,0E0,3.10932E5,5.20125E2,3.7626E5,0E0,0E0,0E0,0E0],"parents":[2147483647,0,0,2,2,3,3,4,4],"right_children":[2,-1,4,6,8,-1,-1,-1,-1],"split_conditions":[2.9654524E-1,-6.5552945E0,-3.9090544E-2,1.436098E1,6.47E2,-2.6078618E0,-1.0989715E0,-4.6657457E0,-2.509E0],"split_indices":[9,0,31,11,1,0,0,0,0],"split_type":[0,0,0,0,0,0,0,0,0],"sum_hessian":[4.2934076E2,5.5273136E1,3.7406763E2,6.555913E1,3.0850848E2,4.3879944E1,2.1679186E1,2.406434E2,6.786509E1],"tree_param":{"num_deleted":"0","num_feature":"33","num_nodes":"9","size_leaf_vector":"1"}},{"base_weights":[-2.6117773E2,-2.7240875E2,-1.1056633E0,-5.904772E0,-2.315915E2,-4.130844E0,-2.0649035E0],"categories":[],"categories_nodes":[],"categories_segments":[],"categories_sizes":[],"default_left":[0,0,0,0,0,0,0],"id":18,"left_children":[1,3,-1,-1,5,-1,-1],"loss_changes":[7.84094E5,5.19346E5,0E0,0E0,1.35338E5,0E0,0E0],"parents":[2147483647,0,0,1,1,4,4],"right_children":[2,4,-1,-1,6,-1,-1],"split_conditions":[6.91E2,2.42E-1,-1.1056633E0,-5.904772E0,1.4E2,-4.130844E0,-2.0649035E0],"split_indices":[1,18,0,0,10,0,0],"split_type":[0,0,0,0,0,0,0],"sum_hessian":[4.2356052E2,3.97091E2,2.6469505E1,1.12775856E2,2.8431516E2,2.4378732E2,4.0527824E1],"tree_param":{"num_deleted":"0","num_feature":"33","num_nodes":"7","size_leaf_vector":"1"}},{"base_weights":[-2.35436E2,-2.5898123E2,-1.4555243E2,-5.380559E0,-2.2128117E2,-2.7130964E0,-9.7305626E-1,-4.21702E0,-2.5169055E0],"categories":[],"categories_nodes":[],"categories_segments":[],"categories_sizes":[],"default_left":[0,0,0,0,0,0,0,0,0],"id":19,"left_children":[1,3,5,-1,7,-1,-1,-1,-1],"loss_changes":[6.05346E5,1.17202E5,6.621175E4,0E0,1.49603E5,0E0,0E0,0E0,0E0],"parents":[2147483647,0,0,1,1,2,2,4,4],"right_children":[2,4,6,-1,8,-1,-1,-1,-1],"split_conditions":[-6.7175575E-2,4.77707E-3,5.16E-1,-5.380559E0,4.1E1,-2.7130964E0,-9.7305626E-1,-4.21702E0,-2.5169055E0],"split_indices":[7,27,19,0,16,0,0,0,0],"split_type":[0,0,0,0,0,0,0,0,0],"sum_hessian":[4.4406342E2,3.378728E2,1.0619063E2,1.0382347E2,2.3404933E2,8.402511E1,2.2165522E1,1.5149796E2,8.255137E1],"tree_param":{"num_deleted":"0","num_feature":"33","num_nodes":"9","size_leaf_vector":"1"}},{"base_weights":[-2.3759242E2,-2.9337143E2,-1.8024937E2,-2.7861004E0,-3.1450626E2,-1.8936401E2,-1.0382254E0,-5.586569E0,-2.3028345E0,-3.3501859E0,-1.4917953E0],"categories":[],"categories_nodes":[],"categories_segments":[],"categories_sizes":[],"default_left":[0,0,0,0,0,0,0,0,0,0,0],"id":20,"left_children":[1,3,5,-1,7,9,-1,-1,-1,-1,-1],"loss_changes":[9.76362E5,1.0554E5,1.62907E5,0E0,8.8878E4,4.30905E4,0E0,0E0,0E0,0E0,0E0],"parents":[2147483647,0,0,1,1,2,2,4,4,5,5],"right_children":[2,4,6,-1,8,10,-1,-1,-1,-1,-1],"split_conditions":[4.93E2,6.1E1,6.95E2,-2.7861004E0,2.76E-1,1.41E2,-1.0382254E0,-5.586569E0,-2.3028345E0,-3.3501859E0,-1.4917953E0],"split_indices":[1,0,1,0,18,10,0,0,0,0,0],"split_type":[0,0,0,0,0,0,0,0,0,0,0],"sum_hessian":[4.5125674E2,2.0913509E2,2.4212166E2,4.124803E1,1.6788705E2,2.1967967E2,2.244198E1,1.4649248E2,2.1394577E1,1.9344704E2,2.623264E1],"tree_param":{"num_deleted":"0","num_feature":"33","num_nodes":"11","size_leaf_vector":"1"}},{"base_weights":[-2.2189778E2,-4.4946485E0,-1.7186952E2,-1.7940608E2,-9.784992E-1,-3.1396906E0,-1.3968298E0],"categories":[],"categories_nodes":[],"categories_segments":[],"categories_sizes":[],"default_left":[0,0,0,0,0,0,0],"id":21,"left_children":[1,-1,3,5,-1,-1,-1],"loss_changes":[6.43132E5,0E0,1.20573E5,1.905E3,0E0,0E0,0E0],"parents":[2147483647,0,0,2,2,3,3],"right_children":[2,-1,4,6,-1,-1,-1],"split_conditions":[5.07E2,-4.4946485E0,6.91E2,5.61E-1,-9.784992E-1,-3.1396906E0,-1.3968298E0],"split_indices":[1,0,1,19,0,0,0],"split_type":[0,0,0,0,0,0,0],"sum_hessian":[4.7590088E2,2.311241E2,2.447768E2,2.2452473E2,2.0252047E1,2.0232056E2,2.2204187E1],"tree_param":{"num_deleted":"0","num_feature":"33","num_nodes":"7","size_leaf_vector":"1"}},{"base_weights":[-2.1539365E2,-2.675658E2,-1.7037254E2,-1.5136609E2,-2.9065488E2,-1.7745164E2,-1.2168591E0,-3.1369324E0,-1.1961666E0,-5.148564E0,-2.2021873E0,-1.299692E0,-3.1506476E0],"categories":[],"categories_nodes":[],"categories_segments":[],"categories_sizes":[],"default_left":[0,0,0,0,0,0,0,0,0,0,0,0,0],"id":22,"left_children":[1,3,5,7,9,11,-1,-1,-1,-1,-1,-1,-1],"loss_changes":[7.33592E5,1.57104E5,8.2714E4,2.81935E4,5.775E3,1.071895E5,0E0,0E0,0E0,0E0,0E0,0E0,0E0],"parents":[2147483647,0,0,1,1,2,2,3,3,4,4,5,5],"right_children":[2,4,6,8,10,12,-1,-1,-1,-1,-1,-1,-1],"split_conditions":[4.67E2,6.1E1,3.9434338E1,2.17E2,2.74E-1,1.25E2,-1.2168591E0,-3.1369324E0,-1.1961666E0,-5.148564E0,-2.2021873E0,-1.299692E0,-3.1506476E0],"split_indices":[1,0,11,1,18,0,0,0,0,0,0,0,0],"split_type":[0,0,0,0,0,0,0,0,0,0,0,0,0],"sum_hessian":[4.8535104E2,2.0329736E2,2.8205368E2,4.5472523E1,1.5782484E2,2.5605624E2,2.5997417E1,2.3275373E1,2.2197147E1,1.3723167E2,2.059317E1,2.8582144E1,2.2747412E2],"tree_param":{"num_deleted":"0","num_feature":"33","num_nodes":"13","size_leaf_vector":"1"}},{"base_weights":[-2.0622696E2,-5.0290203E0,-1.818216E2,-1.9291098E2,-9.344573E1,-3.377895E0,-1.0168428E0,-2.0859845E0,-7.680289E-1],"categories":[],"categories_nodes":[],"categories_segments":[],"categories_sizes":[],"default_left":[0,0,0,0,0,0,0,0,0],"id":23,"left_children":[1,-1,3,5,7,-1,-1,-1,-1],"loss_changes":[6.40468E5,0E0,2.52397E5,2.37314E5,4.2686E4,0E0,0E0,0E0,0E0],"parents":[2147483647,0,0,2,2,3,3,4,4],"right_children":[2,-1,4,6,8,-1,-1,-1,-1],"split_conditions":[3.69E-1,-5.0290203E0,-4.5360826E-2,6.9E2,6.9E0,-3.377895E0,-1.0168428E0,-2.0859845E0,-7.680289E-1],"split_indices":[19,0,7,1,15,0,0,0,0],"split_type":[0,0,0,0,0,0,0,0,0],"sum_hessian":[5.0526105E2,8.4220505E1,4.2104056E2,3.642197E2,5.6820843E1,3.4127823E2,2.2941477E1,2.584011E1,3.0980732E1],"tree_param":{"num_deleted":"0","num_feature":"33","num_nodes":"9","size_leaf_vector":"1"}},{"base_weights":[-2.0124799E2,-2.5451541E2,-1.641861E2,-2.2102892E0,-4.9218826E0,-1.7288153E2,-1.432869E0,-3.0270805E0,-1.3708018E0],"categories":[],"categories_nodes":[],"categories_segments":[],"categories_sizes":[],"default_left":[0,0,0,0,0,0,0,0,0],"id":24,"left_children":[1,3,5,-1,-1,7,-1,-1,-1],"loss_changes":[6.34144E5,5.36841E5,9.2096E4,0E0,0E0,3.2381E4,0E0,0E0,0E0],"parents":[2147483647,0,0,1,1,2,2,5,5],"right_children":[2,4,6,-1,-1,8,-1,-1,-1],"split_conditions":[4.38E2,6.2E1,6.82E2,-2.2102892E0,-4.9218826E0,3.8102424E-1,-1.432869E0,-3.0270805E0,-1.3708018E0],"split_indices":[1,0,1,0,0,9,0,0,0],"split_type":[0,0,0,0,0,0,0,0,0],"sum_hessian":[5.107852E2,1.8694504E2,3.2384015E2,5.2759205E1,1.3418584E2,2.8187582E2,4.1964325E1,2.5529634E2,2.6579475E1],"tree_param":{"num_deleted":"0","num_feature":"33","num_nodes":"9","size_leaf_vector":"1"}},{"base_weights":[-1.8998135E2,-4.264119E0,-1.6297882E2,-1.2638333E0,-1.6849261E2,-1.4898851E0,-2.9951174E0],"categories":[],"categories_nodes":[],"categories_segments":[],"categories_sizes":[],"default_left":[0,0,0,0,0,0,0],"id":25,"left_children":[1,-1,3,-1,5,-1,-1],"loss_changes":[4.92534E5,0E0,7.1304E4,0E0,1.08064E5,0E0,0E0],"parents":[2147483647,0,0,2,2,4,4],"right_children":[2,-1,4,-1,6,-1,-1],"split_conditions":[2.4E-1,-4.264119E0,1.1329305E-1,-1.2638333E0,-4.748344E-2,-1.4898851E0,-2.9951174E0],"split_indices":[18,0,5,0,31,0,0],"split_type":[0,0,0,0,0,0,0],"sum_hessian":[5.1190015E2,1.308129E2,3.8108725E2,3.0493956E1,3.505933E2,4.4956264E1,3.0563702E2],"tree_param":{"num_deleted":"0","num_feature":"33","num_nodes":"7","size_leaf_vector":"1"}},{"base_weights":[-1.767821E2,-1.3393523E2,-1.9820876E2,-2.8634415E0,-8.536077E1,-3.5421052E0,-2.2128534E0,-5.8800054E-1,-2.042628E0],"categories":[],"categories_nodes":[],"categories_segments":[],"categories_sizes":[],"default_left":[0,0,0,0,1,0,0,0,0],"id":26,"left_children":[1,3,5,-1,7,-1,-1,-1,-1],"loss_changes":[2.53736E5,2.2999325E5,8.871E3,0E0,1.5544356E5,0E0,0E0,0E0,0E0],"parents":[2147483647,0,0,1,1,2,2,4,4],"right_children":[2,4,6,-1,8,-1,-1,-1,-1],"split_conditions":[1.8706048E-1,1.6155419E-1,1.51E2,-2.8634415E0,-8.805918E-3,-3.5421052E0,-2.2128534E0,-5.8800054E-1,-2.042628E0],"split_indices":[5,3,0,0,31,0,0,0,0],"split_type":[0,0,0,0,0,0,0,0,0],"sum_hessian":[5.3879333E2,2.0233723E2,3.364561E2,1.0327166E2,9.906558E1,2.7030048E2,6.615562E1,4.8597412E1,5.0468166E1],"tree_param":{"num_deleted":"0","num_feature":"33","num_nodes":"9","size_leaf_vector":"1"}},{"base_weights":[-1.7709285E2,-3.8217824E0,-1.5509663E2,-1.8948679E2,-1.237093E2,-2.111226E0,-3.5491726E0,-1.0244042E0,-2.2649844E0],"categories":[],"categories_nodes":[],"categories_segments":[],"categories_sizes":[],"default_left":[0,0,0,1,0,0,0,0,0],"id":27,"left_children":[1,-1,3,5,7,-1,-1,-1,-1],"loss_changes":[2.9822E5,0E0,2.45036E5,3.382E3,8.888375E4,0E0,0E0,0E0,0E0],"parents":[2147483647,0,0,2,2,3,3,4,4],"right_children":[2,-1,4,6,8,-1,-1,-1,-1],"split_conditions":[2.4E-1,-3.8217824E0,7.434944E-3,-8.726145E-2,1.89E-1,-2.111226E0,-3.5491726E0,-1.0244042E0,-2.2649844E0],"split_indices":[18,0,27,31,13,0,0,0,0],"split_type":[0,0,0,0,0,0,0,0,0],"sum_hessian":[5.7137396E2,1.4963087E2,4.217431E2,1.7865181E2,2.4309128E2,5.937863E1,1.19273186E2,4.3457172E1,1.9963411E2],"tree_param":{"num_deleted":"0","num_feature":"33","num_nodes":"9","size_leaf_vector":"1"}},{"base_weights":[-1.7533545E2,-3.581857E0,-1.4587183E2,-7.8053105E-1,-2.5531414E0],"categories":[],"categories_nodes":[],"categories_segments":[],"categories_sizes":[],"default_left":[0,0,0,0,0],"id":28,"left_children":[1,-1,3,-1,-1],"loss_changes":[3.10836E5,0E0,1.12547E5,0E0,0E0],"parents":[2147483647,0,0,2,2],"right_children":[2,-1,4,-1,-1],"split_conditions":[2.5E-1,-3.581857E0,-3.8044658E-2,-7.8053105E-1,-2.5531414E0],"split_indices":[18,0,22,0,0],"split_type":[0,0,0,0,0],"sum_hessian":[5.4667426E2,2.1743893E2,3.292353E2,2.1177418E1,3.080579E2],"tree_param":{"num_deleted":"0","num_feature":"33","num_nodes":"5","size_leaf_vector":"1"}},{"base_weights":[-1.658785E2,-2.115935E2,-1.3991667E2,-1.13986694E2,-4.18762E0,-1.4843651E2,-5.737321E1,-2.5885215E0,-1.024545E0,-2.0495138E0,-2.9686027E0,-4.106639E-1,-1.2227484E0],"categories":[],"categories_nodes":[],"categories_segments":[],"categories_sizes":[],"default_left":[0,0,0,0,0,1,1,0,0,0,0,0,0],"id":29,"left_children":[1,3,5,7,-1,9,11,-1,-1,-1,-1,-1,-1],"loss_changes":[3.93026E5,3.95678E5,1.93165E5,5.4977312E4,0E0,5.58185E4,9.108625E3,0E0,0E0,0E0,0E0,0E0,0E0],"parents":[2147483647,0,0,1,1,2,2,3,3,5,5,6,6],"right_children":[2,4,6,8,-1,10,12,-1,-1,-1,-1,-1,-1],"split_conditions":[4.07E2,6.2E1,6.82E2,2.1E2,-4.18762E0,-4.124619E-2,-2.0735597E-2,-2.5885215E0,-1.024545E0,-2.0495138E0,-2.9686027E0,-4.106639E-1,-1.2227484E0],"split_indices":[1,0,1,1,0,22,31,0,0,0,0,0,0],"split_type":[0,0,0,0,0,0,0,0,0,0,0,0,0],"sum_hessian":[5.562299E2,1.7712582E2,3.791041E2,5.8588173E1,1.1853764E2,3.3683362E2,4.227048E1,2.3602509E1,3.498567E1,1.9475041E2,1.420832E2,2.0892092E1,2.137839E1],"tree_param":{"num_deleted":"0","num_feature":"33","num_nodes":"13","size_leaf_vector":"1"}},{"base_weights":[-1.6455031E2,-2.1614561E2,-1.4030742E2,-1.6168623E0,-3.8336024E0,-9.1061966E1,-1.4936943E2,-1.8305856E0,-6.091672E-1,-2.5904868E0,-1.0520486E0],"categories":[],"categories_nodes":[],"categories_segments":[],"categories_sizes":[],"default_left":[0,0,0,0,0,0,0,0,0,0,0],"id":30,"left_children":[1,3,5,-1,-1,7,9,-1,-1,-1,-1],"loss_changes":[4.41477E5,1.49175E4,6.0452E4,0E0,0E0,4.8634688E4,2.9049E4,0E0,0E0,0E0,0E0],"parents":[2147483647,0,0,1,1,2,2,5,5,6,6],"right_children":[2,4,6,-1,-1,8,10,-1,-1,-1,-1],"split_conditions":[2.42E-1,-3.508134E-2,-2.8441127E-2,-1.6168623E0,-3.8336024E0,2.73E-1,2.1540793E-2,-1.8305856E0,-6.091672E-1,-2.5904868E0,-1.0520486E0],"split_indices":[18,23,32,0,0,18,23,0,0,0,0],"split_type":[0,0,0,0,0,0,0,0,0,0,0],"sum_hessian":[5.714568E2,1.588896E2,4.125672E2,2.072174E1,1.3816786E2,8.026156E1,3.3230563E2,5.410627E1,2.6155287E1,3.10895E2,2.1410667E1],"tree_param":{"num_deleted":"0","num_feature":"33","num_nodes":"11","size_leaf_vector":"1"}},{"base_weights":[-1.6051318E2,-1.9472568E2,-1.3094304E2,-1.1540451E2,-3.5836241E0,-1.3767924E2,-7.4308443E-1,-2.4742427E0,-1.075186E0,-2.41822E0,-8.040299E-1],"categories":[],"categories_nodes":[],"categories_segments":[],"categories_sizes":[],"default_left":[0,0,0,0,0,0,0,0,0,0,0],"id":31,"left_children":[1,3,5,7,-1,9,-1,-1,-1,-1,-1],"loss_changes":[3.39297E5,1.1006E5,1.39676E5,1.6794625E4,0E0,8.76895E4,0E0,0E0,0E0,0E0,0E0],"parents":[2147483647,0,0,1,1,2,2,3,3,5,5],"right_children":[2,4,6,8,-1,10,-1,-1,-1,-1,-1],"split_conditions":[4.67E2,6.2E1,6.95E2,2.1E2,-3.5836241E0,3.94E-1,-7.4308443E-1,-2.4742427E0,-1.075186E0,-2.41822E0,-8.040299E-1],"split_indices":[1,0,1,1,0,20,0,0,0,0,0],"split_type":[0,0,0,0,0,0,0,0,0,0,0],"sum_hessian":[5.628973E2,2.3662396E2,3.262733E2,5.5540638E1,1.8108333E2,2.977241E2,2.8549196E1,2.3951319E1,3.1589317E1,2.7541394E2,2.231016E1],"tree_param":{"num_deleted":"0","num_feature":"33","num_nodes":"11","size_leaf_vector":"1"}},{"base_weights":[-1.5174371E2,-1.1791694E2,-3.0685792E0,-2.618867E0,-8.692149E1,-5.842518E-1,-1.6696459E0],"categories":[],"categories_nodes":[],"categories_segments":[],"categories_sizes":[],"default_left":[0,0,0,0,0,0,0],"id":32,"left_children":[1,3,-1,-1,5,-1,-1],"loss_changes":[4.06499E5,2.28515E5,0E0,0E0,8.6198375E4,0E0,0E0],"parents":[2147483647,0,0,1,1,4,4],"right_children":[2,4,-1,-1,6,-1,-1],"split_conditions":[2.0408164E-1,1.4873418E-1,-3.0685792E0,-2.618867E0,-2.0735597E-2,-5.842518E-1,-1.6696459E0],"split_indices":[5,3,0,0,31,0,0],"split_type":[0,0,0,0,0,0,0],"sum_hessian":[5.9112585E2,2.992649E2,2.91861E2,1.1904901E2,1.8021588E2,4.0250225E1,1.3996565E2],"tree_param":{"num_deleted":"0","num_feature":"33","num_nodes":"7","size_leaf_vector":"1"}},{"base_weights":[-1.437487E2,-1.8280473E2,-1.1836024E2,-1.0550643E2,-2.0162883E2,-1.2254607E2,-7.354726E-1,-2.3439178E0,-9.6988124E-1,-1.5343969E0,-3.6491876E0,-1.5889924E0,-2.3369231E0],"categories":[],"categories_nodes":[],"categories_segments":[],"categories_sizes":[],"default_left":[0,0,0,0,0,0,0,0,0,0,0,0,0],"id":33,"left_children":[1,3,5,7,9,11,-1,-1,-1,-1,-1,-1,-1],"loss_changes":[4.09755E5,1.29375E5,7.5555E4,2.7528875E4,8.9667E4,4.64075E4,0E0,0E0,0E0,0E0,0E0,0E0,0E0],"parents":[2147483647,0,0,1,1,2,2,3,3,4,4,5,5],"right_children":[2,4,6,8,10,12,-1,-1,-1,-1,-1,-1,-1],"split_conditions":[4.28E2,6.2E1,6.91E2,2.1E2,1.563786E-1,1.8283582E-1,-7.354726E-1,-2.3439178E0,-9.6988124E-1,-1.5343969E0,-3.6491876E0,-1.5889924E0,-2.3369231E0],"split_indices":[1,0,1,1,5,5,0,0,0,0,0,0,0],"split_type":[0,0,0,0,0,0,0,0,0,0,0,0,0],"sum_hessian":[6.089499E2,2.1694019E2,3.9200967E2,5.464286E1,1.6229733E2,3.655615E2,2.6448181E1,2.1823414E1,3.2819447E1,2.6584E1,1.3571333E2,1.5381122E2,2.1175026E2],"tree_param":{"num_deleted":"0","num_feature":"33","num_nodes":"13","size_leaf_vector":"1"}},{"base_weights":[-1.3871463E2,-1.6451602E2,-1.12996086E2,-2.1375226E2,-1.3378664E2,-1.1763415E2,-7.685996E-1,-4.355086E0,-2.0777516E0,-8.214226E-1,-2.3979478E0,-2.392963E0,-1.572702E0],"categories":[],"categories_nodes":[],"categories_segments":[],"categories_sizes":[],"default_left":[0,0,0,0,0,0,0,0,0,0,0,0,0],"id":34,"left_children":[1,3,5,7,9,11,-1,-1,-1,-1,-1,-1,-1],"loss_changes":[2.30177E5,1.60876E5,5.47445E4,7.5506E4,7.437125E4,5.7633E4,0E0,0E0,0E0,0E0,0E0,0E0,0E0],"parents":[2147483647,0,0,1,1,2,2,3,3,4,4,5,5],"right_children":[2,4,6,8,10,12,-1,-1,-1,-1,-1,-1,-1],"split_conditions":[2.51E-1,2.68E1,2.0214286E-2,1.27E2,-7.046875E-2,7.434944E-3,-7.685996E-1,-4.355086E0,-2.0777516E0,-8.214226E-1,-2.3979478E0,-2.392963E0,-1.572702E0],"split_indices":[18,21,23,0,24,27,0,0,0,0,0,0,0],"split_type":[0,0,0,0,0,0,0,0,0,0,0,0,0],"sum_hessian":[6.0080786E2,2.7459695E2,3.2621094E2,8.4008545E1,1.905884E2,2.9870126E2,2.7509668E1,4.489353E1,3.9115013E1,2.2419832E1,1.6816856E2,1.2818741E2,1.7051387E2],"tree_param":{"num_deleted":"0","num_feature":"33","num_nodes":"13","size_leaf_vector":"1"}},{"base_weights":[-1.3654376E2,-2.921268E0,-1.185774E2,-1.23627556E2,-7.172203E-1,-1.8075575E0,-2.5300994E0],"categories":[],"categories_nodes":[],"categories_segments":[],"categories_sizes":[],"default_left":[0,0,0,0,0,0,0],"id":35,"left_children":[1,-1,3,5,-1,-1,-1],"loss_changes":[2.13338E5,0E0,1.219635E5,2.88525E4,0E0,0E0,0E0],"parents":[2147483647,0,0,2,2,3,3],"right_children":[2,-1,4,6,-1,-1,-1],"split_conditions":[2.42E-1,-2.921268E0,5.61E-1,2.26E-1,-7.172203E-1,-1.8075575E0,-2.5300994E0],"split_indices":[18,0,19,13,0,0,0],"split_type":[0,0,0,0,0,0,0],"sum_hessian":[6.11545E2,1.7529335E2,4.3625165E2,4.0360587E2,3.2645767E1,2.7609418E2,1.27511696E2],"tree_param":{"num_deleted":"0","num_feature":"33","num_nodes":"7","size_leaf_vector":"1"}},{"base_weights":[-1.3598021E2,-1.5700275E2,-1.00698685E2,-3.2484782E0,-1.3052751E2,-1.8451073E0,-5.2971584E1,-2.293928E0,-8.1957424E-1,-1.3227977E0,-9.181197E-2],"categories":[],"categories_nodes":[],"categories_segments":[],"categories_sizes":[],"default_left":[0,0,0,0,1,0,0,0,0,0,0],"id":36,"left_children":[1,3,5,-1,7,-1,9,-1,-1,-1,-1],"loss_changes":[3.20006E5,1.18479E5,5.239375E4,0E0,4.451125E4,0E0,6.5886984E4,0E0,0E0,0E0,0E0],"parents":[2147483647,0,0,1,1,2,2,4,4,6,6],"right_children":[2,4,6,-1,8,-1,10,-1,-1,-1,-1],"split_conditions":[5.45E2,2.68E1,-4.5360826E-2,-3.2484782E0,3.3513826E-1,-1.8451073E0,1.7391304E-2,-2.293928E0,-8.1957424E-1,-1.3227977E0,-9.181197E-2],"split_indices":[1,21,7,0,28,0,27,0,0,0,0],"split_type":[0,0,0,0,0,0,0,0,0,0,0],"sum_hessian":[6.2241077E2,3.696968E2,2.5271394E2,1.3317525E2,2.3652156E2,2.0409705E2,4.8616898E1,2.1642458E2,2.0096987E1,2.7741982E1,2.0874918E1],"tree_param":{"num_deleted":"0","num_feature":"33","num_nodes":"11","size_leaf_vector":"1"}},{"base_weights":[-1.27365326E2,-1.312528E2,-8.099197E-1,-2.6781242E0,-1.128239E2,-1.1298429E0,-1.9877304E0],"categories":[],"categories_nodes":[],"categories_segments":[],"categories_sizes":[],"default_left":[0,0,0,0,0,0,0],"id":37,"left_children":[1,3,-1,-1,5,-1,-1],"loss_changes":[1.33803E5,1.28887E5,0E0,0E0,1.18745E4,0E0,0E0],"parents":[2147483647,0,0,1,1,4,4],"right_children":[2,4,-1,-1,6,-1,-1],"split_conditions":[5.61E-1,2.68E1,-8.099197E-1,-2.6781242E0,-4.748344E-2,-1.1298429E0,-1.9877304E0],"split_indices":[19,21,0,0,31,0,0],"split_type":[0,0,0,0,0,0,0],"sum_hessian":[6.1561346E2,5.8103577E2,3.4577713E1,2.053632E2,3.7567258E2,4.9185173E1,3.264874E2],"tree_param":{"num_deleted":"0","num_feature":"33","num_nodes":"7","size_leaf_vector":"1"}},{"base_weights":[-1.2554012E2,-1.1392851E2,-1.7622514E2,-2.7303214E0,-1.0335256E2,-1.3126022E0,-3.2355664E0,-1.8733335E0,-8.1699204E-1],"categories":[],"categories_nodes":[],"categories_segments":[],"categories_sizes":[],"default_left":[0,0,0,0,0,0,0,0,0],"id":38,"left_children":[1,3,5,-1,7,-1,-1,-1,-1],"loss_changes":[1.89141E5,1.199745E5,1.483025E4,0E0,1.47025E5,0E0,0E0,0E0,0E0],"parents":[2147483647,0,0,1,1,2,2,4,4],"right_children":[2,4,6,-1,8,-1,-1,-1,-1],"split_conditions":[2.6138613E-1,2.9E1,-2.6519878E-2,-2.7303214E0,-4.6875E-2,-1.3126022E0,-3.2355664E0,-1.8733335E0,-8.1699204E-1],"split_indices":[5,16,23,0,7,0,0,0,0],"split_type":[0,0,0,0,0,0,0,0,0],"sum_hessian":[6.3264197E2,5.395609E2,9.308107E1,7.353657E1,4.6602435E2,2.0214417E1,7.286665E1,4.0133353E2,6.469081E1],"tree_param":{"num_deleted":"0","num_feature":"33","num_nodes":"9","size_leaf_vector":"1"}},{"base_weights":[-1.21813675E2,-1.5819458E2,-1.0084019E2,-9.468368E1,-1.7614761E2,-1.0494227E2,-5.301744E-1,-5.6893426E-1,-1.9236228E0,-1.247154E0,-3.154283E0,-2.2857087E0,-1.5228155E0],"categories":[],"categories_nodes":[],"categories_segments":[],"categories_sizes":[],"default_left":[0,0,0,0,0,0,0,0,0,0,0,0,0],"id":39,"left_children":[1,3,5,7,9,11,-1,-1,-1,-1,-1,-1,-1],"loss_changes":[3.60422E5,1.032715E5,9.73015E4,4.6613812E4,5.12675E4,7.4483E4,0E0,0E0,0E0,0E0,0E0,0E0,0E0],"parents":[2147483647,0,0,1,1,2,2,3,3,4,4,5,5],"right_children":[2,4,6,8,10,12,-1,-1,-1,-1,-1,-1,-1],"split_conditions":[4.09E2,6.2E1,5.61E-1,1.92E-1,-5.4656576E-2,3.1151652E-1,-5.301744E-1,-5.6893426E-1,-1.9236228E0,-1.247154E0,-3.154283E0,-2.2857087E0,-1.5228155E0],"split_indices":[1,0,19,13,32,28,0,0,0,0,0,0,0],"split_type":[0,0,0,0,0,0,0,0,0,0,0,0,0],"sum_hessian":[6.5947266E2,2.1866803E2,4.4080463E2,6.118698E1,1.5748105E2,4.116859E2,2.9118696E1,2.0845587E1,4.0341393E1,2.180451E1,1.3567654E2,1.0970924E2,3.0197668E2],"tree_param":{"num_deleted":"0","num_feature":"33","num_nodes":"13","size_leaf_vector":"1"}},{"base_weights":[-1.1753539E2,-2.5569885E0,-9.837673E1,-1.10144264E2,-6.329824E1,-1.9139363E0,-7.425485E-1,-1.4364201E0,-5.797052E-1],"categories":[],"categories_nodes":[],"categories_segments":[],"categories_sizes":[],"default_left":[0,0,0,0,0,0,0,0,0],"id":40,"left_children":[1,-1,3,5,7,-1,-1,-1,-1],"loss_changes":[2.92161E5,0E0,1.212145E5,2.14855E4,5.808875E4,0E0,0E0,0E0,0E0],"parents":[2147483647,0,0,2,2,3,3,4,4],"right_children":[2,-1,4,6,8,-1,-1,-1,-1],"split_conditions":[4.09E2,-2.5569885E0,2.73E-1,6.83E2,1.3289036E-2,-1.9139363E0,-7.425485E-1,-1.4364201E0,-5.797052E-1],"split_indices":[1,0,18,1,27,0,0,0,0],"split_type":[0,0,0,0,0,0,0,0,0],"sum_hessian":[6.570713E2,2.1405843E2,4.4301288E2,3.1666742E2,1.2634544E2,2.9582617E2,2.0841263E1,6.1796867E1,6.454858E1],"tree_param":{"num_deleted":"0","num_feature":"33","num_nodes":"9","size_leaf_vector":"1"}},{"base_weights":[-1.1432948E2,-1.4638803E2,-9.521405E1,-1.6492206E2,-1.04621574E2,-2.04515E0,-7.154925E1,-1.2236607E0,-2.9894996E0,-2.236991E0,-8.377562E-1,-1.3532964E0,-4.7032568E-1],"categories":[],"categories_nodes":[],"categories_segments":[],"categories_sizes":[],"default_left":[0,0,0,0,1,0,0,0,0,0,0,0,0],"id":41,"left_children":[1,3,5,7,9,-1,11,-1,-1,-1,-1,-1,-1],"loss_changes":[2.78916E5,1.7698E4,1.9151725E5,4.0851E4,8.691475E4,0E0,7.485075E4,0E0,0E0,0E0,0E0,0E0,0E0],"parents":[2147483647,0,0,1,1,2,2,3,3,4,4,6,6],"right_children":[2,4,6,8,10,-1,12,-1,-1,-1,-1,-1,-1],"split_conditions":[4.09E2,1.06E2,3.402915E-1,-6.6264994E-2,7.692308E-1,-2.04515E0,1.32E2,-1.2236607E0,-2.9894996E0,-2.236991E0,-8.377562E-1,-1.3532964E0,-4.7032568E-1],"split_indices":[1,10,28,31,8,0,10,0,0,0,0,0,0],"split_type":[0,0,0,0,0,0,0,0,0,0,0,0,0],"sum_hessian":[6.595371E2,2.2298407E2,4.3655307E2,1.3524937E2,8.7734695E1,1.9009814E2,2.4645491E2,2.320529E1,1.1204409E2,4.9492958E1,3.824174E1,1.9950648E2,4.694842E1],"tree_param":{"num_deleted":"0","num_feature":"33","num_nodes":"13","size_leaf_vector":"1"}},{"base_weights":[-1.1536785E2,-1.04598335E2,-1.597837E2,-2.077452E0,-7.839758E1,-1.61741E0,-3.131156E0,-8.9244944E-1,-1.6973461E0],"categories":[],"categories_nodes":[],"categories_segments":[],"categories_sizes":[],"default_left":[0,0,0,0,1,0,0,0,0],"id":42,"left_children":[1,3,5,-1,7,-1,-1,-1,-1],"loss_changes":[1.59794E5,1.79421E5,1.578175E4,0E0,9.5249E4,0E0,0E0,0E0,0E0],"parents":[2147483647,0,0,1,1,2,2,4,4],"right_children":[2,4,6,-1,8,-1,-1,-1,-1],"split_conditions":[2.6138613E-1,1.764706E-1,1.87E-1,-2.077452E0,-6.8668746E-3,-1.61741E0,-3.131156E0,-8.9244944E-1,-1.6973461E0],"split_indices":[5,3,13,0,31,0,0,0,0],"split_type":[0,0,0,0,0,0,0,0,0],"sum_hessian":[6.5309644E2,5.5102576E2,1.0207065E2,3.0335794E2,2.4766785E2,4.187143E1,6.0199215E1,1.2958792E2,1.18079926E2],"tree_param":{"num_deleted":"0","num_feature":"33","num_nodes":"9","size_leaf_vector":"1"}},{"base_weights":[-1.08797386E2,-2.6057625E0,-9.655761E1,-1.1439464E2,-7.853703E1,-8.5432464E-1,-2.062386E0,-7.131113E-1,-1.4431309E0],"categories":[],"categories_nodes":[],"categories_segments":[],"categories_sizes":[],"default_left":[0,0,0,0,0,0,0,0,0],"id":43,"left_children":[1,-1,3,5,7,-1,-1,-1,-1],"loss_changes":[2.360675E5,0E0,9.4767E4,6.958225E4,4.3112125E4,0E0,0E0,0E0,0E0],"parents":[2147483647,0,0,2,2,3,3,4,4],"right_children":[2,-1,4,6,8,-1,-1,-1,-1],"split_conditions":[2.9897836E-1,-2.6057625E0,7.434944E-3,3.092399E-1,3.65E-1,-8.5432464E-1,-2.062386E0,-7.131113E-1,-1.4431309E0],"split_indices":[9,0,27,9,12,0,0,0,0],"split_type":[0,0,0,0,0,0,0,0,0],"sum_hessian":[6.663543E2,1.1819478E2,5.4815955E2,2.5021875E2,2.979408E2,3.461123E1,2.1560751E2,5.8247902E1,2.396929E2],"tree_param":{"num_deleted":"0","num_feature":"33","num_nodes":"9","size_leaf_vector":"1"}},{"base_weights":[-1.0793444E2,-8.7570076E1,-1.2410418E2,-2.054966E0,-7.3635254E1,-1.4273875E2,-1.7357632E0,-1.655446E0,-8.5784966E-1,-3.1804805E0,-1.9569436E0],"categories":[],"categories_nodes":[],"categories_segments":[],"categories_sizes":[],"default_left":[0,0,0,0,0,0,0,0,0,0,0],"id":44,"left_children":[1,3,5,-1,7,9,-1,-1,-1,-1,-1],"loss_changes":[1.252505E5,7.61535E4,6.261E3,0E0,9.990975E4,2.298E3,0E0,0E0,0E0,0E0,0E0],"parents":[2147483647,0,0,1,1,2,2,4,4,5,5],"right_children":[2,4,6,-1,8,10,-1,-1,-1,-1,-1],"split_conditions":[2.0408164E-1,-1.9306635E-2,3.94E1,-2.054966E0,1.4873418E-1,3.2062677E-1,-1.7357632E0,-1.655446E0,-8.5784966E-1,-3.1804805E0,-1.9569436E0],"split_indices":[5,29,16,0,3,28,0,0,0,0,0],"split_type":[0,0,0,0,0,0,0,0,0,0,0],"sum_hessian":[6.81206E2,3.2818832E2,3.5301764E2,7.414375E1,2.5404457E2,1.5992278E2,1.9309488E2,1.0796511E2,1.4607947E2,3.8405983E1,1.21516785E2],"tree_param":{"num_deleted":"0","num_feature":"33","num_nodes":"11","size_leaf_vector":"1"}},{"base_weights":[-1.0675521E2,-2.4703822E0,-9.719469E1,-1.0227217E2,-4.9687004E1,-1.3792979E0,-1.9232455E0,-1.0493184E0,-1.9252749E-1],"categories":[],"categories_nodes":[],"categories_segments":[],"categories_sizes":[],"default_left":[0,0,0,0,0,0,0,0,0],"id":45,"left_children":[1,-1,3,5,7,-1,-1,-1,-1],"loss_changes":[1.23137E5,0E0,9.1045E4,3.46795E4,2.8504516E4,0E0,0E0,0E0,0E0],"parents":[2147483647,0,0,2,2,3,3,4,4],"right_children":[2,-1,4,6,8,-1,-1,-1,-1],"split_conditions":[1.5873016E-3,-2.4703822E0,3.75E-1,1.8706048E-1,3.1819027E-2,-1.3792979E0,-1.9232455E0,-1.0493184E0,-1.9252749E-1],"split_indices":[27,0,20,5,24,0,0,0,0],"split_type":[0,0,0,0,0,0,0,0,0],"sum_hessian":[6.7054407E2,1.0448622E2,5.660578E2,5.016113E2,6.444653E1,2.0772702E2,2.9388428E2,4.4230663E1,2.0215872E1],"tree_param":{"num_deleted":"0","num_feature":"33","num_nodes":"9","size_leaf_vector":"1"}},{"base_weights":[-1.026397E2,-9.006032E1,-1.5481436E2,-1.2366453E2,-7.7389694E1,-1.0633118E0,-2.8215706E0,-1.5731976E0,-2.6773381E0,-1.1113681E0,-1.7346262E0],"categories":[],"categories_nodes":[],"categories_segments":[],"categories_sizes":[],"default_left":[0,0,0,1,0,0,0,0,0,0,0],"id":46,"left_children":[1,3,5,7,9,-1,-1,-1,-1,-1,-1],"loss_changes":[3.303725E5,1.60806E5,3.99035E4,1.602725E4,6.9331E4,0E0,0E0,0E0,0E0,0E0,0E0],"parents":[2147483647,0,0,1,1,2,2,3,3,4,4],"right_children":[2,4,6,8,10,-1,-1,-1,-1,-1,-1],"split_conditions":[2.5925925E-1,3.75E-1,1.68E-1,-8.171188E-2,9.375E-1,-1.0633118E0,-2.8215706E0,-1.5731976E0,-2.6773381E0,-1.1113681E0,-1.7346262E0],"split_indices":[5,19,13,22,8,0,0,0,0,0,0],"split_type":[0,0,0,0,0,0,0,0,0,0,0],"sum_hessian":[6.9365356E2,5.79549E2,1.1410459E2,1.361413E2,4.4340768E2,2.0194439E1,9.391015E1,9.096487E1,4.517643E1,3.2728943E2,1.1611827E2],"tree_param":{"num_deleted":"0","num_feature":"33","num_nodes":"11","size_leaf_vector":"1"}},{"base_weights":[-1.0142828E2,-1.22338585E2,-8.295355E1,-6.892489E1,-1.3501497E2,-9.345885E1,-4.666679E1,-1.476363E0,-6.303599E-1,-9.4652593E-1,-2.3683555E0,-1.0828012E0,-1.8113936E0,-7.078258E-2,-9.881327E-1],"categories":[],"categories_nodes":[],"categories_segments":[],"categories_sizes":[],"default_left":[0,0,0,0,0,0,0,0,0,0,0,0,0,0,0],"id":47,"left_children":[1,3,5,7,9,11,13,-1,-1,-1,-1,-1,-1,-1,-1],"loss_changes":[1.77918E5,1.23826E5,1.1332125E5,1.5514594E4,2.56475E4,5.8575E4,5.2813484E4,0E0,0E0,0E0,0E0,0E0,0E0,0E0,0E0],"parents":[2147483647,0,0,1,1,2,2,3,3,4,4,5,5,6,6],"right_children":[2,4,6,8,10,12,14,-1,-1,-1,-1,-1,-1,-1,-1],"split_conditions":[7.3746312E-3,1.6197184E-1,2.73E-1,1.5849057E-1,-6.8255E-2,-1.8479334E-3,-8.049433E-3,-1.476363E0,-6.303599E-1,-9.4652593E-1,-2.3683555E0,-1.0828012E0,-1.8113936E0,-7.078258E-2,-9.881327E-1],"split_indices":[27,5,18,3,31,31,22,0,0,0,0,0,0,0,0],"split_type":[0,0,0,0,0,0,0,0,0,0,0,0,0,0,0],"sum_hessian":[6.9808984E2,3.02671E2,3.9541882E2,6.965978E1,2.3301122E2,2.951581E2,1.002607E2,3.348635E1,3.617343E1,2.1224821E1,2.1178639E2,1.112654E2,1.8389273E2,2.4618326E1,7.564237E1],"tree_param":{"num_deleted":"0","num_feature":"33","num_nodes":"15","size_leaf_vector":"1"}},{"base_weights":[-9.822732E1,-1.2277602E2,-8.579568E1,-2.212633E0,-1.1337606E0,-3.8380432E-1,-8.8491615E1,-3.5761154E-1,-1.539963E0],"categories":[],"categories_nodes":[],"categories_segments":[],"categories_sizes":[],"default_left":[0,0,0,0,0,0,0,0,0],"id":48,"left_children":[1,3,5,-1,-1,-1,7,-1,-1],"loss_changes":[1.198835E5,1.76505E4,6.73725E4,0E0,0E0,0E0,6.898425E4,0E0,0E0],"parents":[2147483647,0,0,1,1,2,2,6,6],"right_children":[2,4,6,-1,-1,-1,8,-1,-1],"split_conditions":[2.4E-1,4.36E-1,-7.6818466E-2,-2.212633E0,-1.1337606E0,-3.8380432E-1,-4.372877E-2,-3.5761154E-1,-1.539963E0],"split_indices":[18,19,31,0,0,0,22,0,0],"split_type":[0,0,0,0,0,0,0,0,0],"sum_hessian":[7.0787915E2,2.0991891E2,4.979602E2,1.7182553E2,3.8093388E1,2.4044577E1,4.7391562E2,2.1332663E1,4.5258298E2],"tree_param":{"num_deleted":"0","num_feature":"33","num_nodes":"9","size_leaf_vector":"1"}},{"base_weights":[-9.309363E1,-1.0997073E2,-7.407501E1,-2.3447878E0,-9.044291E1,-4.8871197E1,-8.929656E1,-7.928226E-1,-1.6778309E0,-2.0082998E-3,-9.4907594E-1,-9.501089E-1,-1.7313491E0],"categories":[],"categories_nodes":[],"categories_segments":[],"categories_sizes":[],"default_left":[0,0,0,0,0,0,1,0,0,0,0,0,0],"id":49,"left_children":[1,3,5,-1,7,9,11,-1,-1,-1,-1,-1,-1],"loss_changes":[1.568555E5,8.81055E4,1.012035E5,0E0,5.0986E4,5.7133656E4,4.1700125E4,0E0,0E0,0E0,0E0,0E0,0E0],"parents":[2147483647,0,0,1,1,2,2,4,4,5,5,6,6],"right_children":[2,4,6,-1,8,10,12,-1,-1,-1,-1,-1,-1],"split_conditions":[4.27E-1,2.71E1,2.0186335E-1,-2.3447878E0,8.3E1,-2.6956655E-2,-6.4490624E-2,-7.928226E-1,-1.6778309E0,-2.0082998E-3,-9.4907594E-1,-9.501089E-1,-1.7313491E0],"split_indices":[19,21,5,0,0,22,31,0,0,0,0,0,0],"split_type":[0,0,0,0,0,0,0,0,0,0,0,0,0],"sum_hessian":[7.178395E2,3.565153E2,3.613242E2,1.20739456E2,2.3577583E2,1.5095427E2,2.1036992E2,5.001438E1,1.8576144E2,2.094438E1,1.3000989E2,7.416965E1,1.3620027E2],"tree_param":{"num_deleted":"0","num_feature":"33","num_nodes":"13","size_leaf_vector":"1"}},{"base_weights":[-9.160287E1,-8.146136E1,-2.2081637E0,-1.1269768E2,-6.860631E1,-1.1913446E0,-2.246506E0,-4.226713E-1,-1.2428218E0],"categories":[],"categories_nodes":[],"categories_segments":[],"categories_sizes":[],"default_left":[0,0,0,0,0,0,0,0,0],"id":50,"left_children":[1,3,-1,5,7,-1,-1,-1,-1],"loss_changes":[1.85309E5,1.6671225E5,0E0,4.8097E4,7.9416E4,0E0,0E0,0E0,0E0],"parents":[2147483647,0,0,1,1,3,3,4,4],"right_children":[2,4,-1,6,8,-1,-1,-1,-1],"split_conditions":[2.5925925E-1,3.79E-1,-2.2081637E0,6.315789E-2,-5.296948E-2,-1.1913446E0,-2.246506E0,-4.226713E-1,-1.2428218E0],"split_indices":[5,19,0,6,31,0,0,0,0],"split_type":[0,0,0,0,0,0,0,0,0],"sum_hessian":[7.098964E2,5.8677356E2,1.2312288E2,1.4979103E2,4.3698254E2,6.234678E1,8.744426E1,5.0550755E1,3.864318E2],"tree_param":{"num_deleted":"0","num_feature":"33","num_nodes":"9","size_leaf_vector":"1"}},{"base_weights":[-9.1879776E1,-1.1382042E2,-7.784111E1,-7.796126E1,-2.367186E0,-8.130524E1,-3.968016E-1,-1.6590476E0,-6.7370015E-1,-1.811029E0,-1.1758215E0],"categories":[],"categories_nodes":[],"categories_segments":[],"categories_sizes":[],"default_left":[0,0,0,0,0,0,0,0,0,0,0],"id":51,"left_children":[1,3,5,7,-1,9,-1,-1,-1,-1,-1],"loss_changes":[1.37438E5,1.4202E5,6.99165E4,6.4176125E4,0E0,6.16325E4,0E0,0E0,0E0,0E0,0E0],"parents":[2147483647,0,0,1,1,2,2,3,3,5,5],"right_children":[2,4,6,8,-1,10,-1,-1,-1,-1,-1],"split_conditions":[4.09E2,8.3E1,5.61E-1,2.44E2,-2.367186E0,-9.535531E-3,-3.968016E-1,-1.6590476E0,-6.7370015E-1,-1.811029E0,-1.1758215E0],"split_indices":[1,0,19,1,0,29,0,0,0,0,0],"split_type":[0,0,0,0,0,0,0,0,0,0,0],"sum_hessian":[7.0718176E2,2.498644E2,4.5731738E2,1.2153628E2,1.2832812E2,4.255327E2,3.1784649E1,6.963844E1,5.1897835E1,1.0844587E2,3.1708685E2],"tree_param":{"num_deleted":"0","num_feature":"33","num_nodes":"11","size_leaf_vector":"1"}},{"base_weights":[-9.160329E1,-1.1752586E2,-7.76883E1,-1.0169374E0,-2.1061954E0,-8.2287834E1,-3.66923E1,-1.7028068E0,-1.127983E0,-3.250856E-1,-8.6328727E-1],"categories":[],"categories_nodes":[],"categories_segments":[],"categories_sizes":[],"default_left":[0,0,0,0,0,0,1,0,0,0,0],"id":52,"left_children":[1,3,5,-1,-1,7,9,-1,-1,-1,-1],"loss_changes":[1.78048E5,2.686025E4,6.6606E4,0E0,0E0,6.465275E4,7.801758E3,0E0,0E0,0E0,0E0],"parents":[2147483647,0,0,1,1,2,2,5,5,6,6],"right_children":[2,4,6,-1,-1,8,10,-1,-1,-1,-1],"split_conditions":[3.91E2,1.563786E-1,-4.1152265E-2,-1.0169374E0,-2.1061954E0,3.3420298E-1,-2.4043217E-2,-1.7028068E0,-1.127983E0,-3.250856E-1,-8.6328727E-1],"split_indices":[1,5,7,0,0,28,22,0,0,0,0],"split_type":[0,0,0,0,0,0,0,0,0,0,0],"sum_hessian":[7.221345E2,2.277889E2,4.9434558E2,3.5132652E1,1.9265625E2,4.359649E2,5.838069E1,1.751163E2,2.608486E2,3.634513E1,2.2035563E1],"tree_param":{"num_deleted":"0","num_feature":"33","num_nodes":"11","size_leaf_vector":"1"}},{"base_weights":[-8.649069E1,-1.0929073E2,-7.202276E1,-1.2047869E2,-4.5131977E1,-4.4449314E1,-8.1597145E1,-2.3949106E0,-1.54476E0,-3.8566226E-1,-9.4574696E-1,-1.2951096E0,-4.0264934E-1,-1.185851E0,-2.0234659E0],"categories":[],"categories_nodes":[],"categories_segments":[],"categories_sizes":[],"default_left":[0,0,0,0,0,0,0,0,0,0,0,0,0,0,0],"id":53,"left_children":[1,3,5,7,9,11,13,-1,-1,-1,-1,-1,-1,-1,-1],"loss_changes":[1.67773E5,1.40082E5,9.1557E4,1.4891E4,1.1997109E3,7.800947E4,6.977575E4,0E0,0E0,0E0,0E0,0E0,0E0,0E0,0E0],"parents":[2147483647,0,0,1,1,2,2,3,3,4,4,5,5,6,6],"right_children":[2,4,6,8,10,12,14,-1,-1,-1,-1,-1,-1,-1,-1],"split_conditions":[2.68E1,6.45E2,1.91E-1,4.32E-1,4.5666666E0,2.3417722E-1,2.6138613E-1,-2.3949106E0,-1.54476E0,-3.8566226E-1,-9.4574696E-1,-1.2951096E0,-4.0264934E-1,-1.185851E0,-2.0234659E0],"split_indices":[21,1,13,19,25,2,5,0,0,0,0,0,0,0,0],"split_type":[0,0,0,0,0,0,0,0,0,0,0,0,0,0,0],"sum_hessian":[7.2350745E2,2.5695865E2,4.6654883E2,2.1177756E2,4.5181087E1,1.3391727E2,3.3263156E2,1.0107048E2,1.1070707E2,2.4346413E1,2.0834675E1,4.2267967E1,9.164929E1,2.7676492E2,5.5866634E1],"tree_param":{"num_deleted":"0","num_feature":"33","num_nodes":"15","size_leaf_vector":"1"}},{"base_weights":[-8.897522E1,-1.1528666E2,-7.09929E1,-1.3873979E2,-8.730578E1,-3.2153E1,-7.484674E1,-9.8692423E-1,-2.4958508E0,-1.6032461E0,-5.148588E-1,-7.97276E-1,-2.0694475E-1,-1.3353007E0,-6.1559E-1],"categories":[],"categories_nodes":[],"categories_segments":[],"categories_sizes":[],"default_left":[0,0,0,0,0,0,0,0,0,0,0,0,0,0,0],"id":54,"left_children":[1,3,5,7,9,11,13,-1,-1,-1,-1,-1,-1,-1,-1],"loss_changes":[2.73492E5,7.35735E4,4.689425E4,1.985275E4,4.00905E4,1.2053426E4,4.002075E4,0E0,0E0,0E0,0E0,0E0,0E0,0E0,0E0],"parents":[2147483647,0,0,1,1,2,2,3,3,4,4,5,5,6,6],"right_children":[2,4,6,8,10,12,14,-1,-1,-1,-1,-1,-1,-1,-1],"split_conditions":[4.28E2,7.434944E-3,1.73E-1,-6.297169E-2,1.23E2,6.289308E-3,3.6758315E-2,-9.8692423E-1,-2.4958508E0,-1.6032461E0,-5.148588E-1,-7.97276E-1,-2.0694475E-1,-1.3353007E0,-6.1559E-1],"split_indices":[1,27,13,31,10,27,24,0,0,0,0,0,0,0,0],"split_type":[0,0,0,0,0,0,0,0,0,0,0,0,0,0,0],"sum_hessian":[7.312371E2,2.76217E2,4.550201E2,1.3002425E2,1.4619276E2,4.9001034E1,4.0601907E2,2.0226694E1,1.0979756E2,1.2336973E2,2.2823038E1,2.0560745E1,2.8440289E1,3.569699E2,4.9049156E1],"tree_param":{"num_deleted":"0","num_feature":"33","num_nodes":"15","size_leaf_vector":"1"}},{"base_weights":[-8.408427E1,-1.2021974E2,-7.450286E1,-1.3187471E2,-5.840133E-1,-9.628243E1,-6.1556614E1,-2.5363533E0,-1.2042989E0,-7.773976E-1,-1.7360928E0,-6.011631E-1,-1.2060151E0],"categories":[],"categories_nodes":[],"categories_segments":[],"categories_sizes":[],"default_left":[0,0,0,0,0,0,0,0,0,0,0,0,0],"id":55,"left_children":[1,3,5,7,-1,9,11,-1,-1,-1,-1,-1,-1],"loss_changes":[1.728965E5,9.719025E4,1.1674725E5,3.2447125E4,0E0,2.4566E4,8.08135E4,0E0,0E0,0E0,0E0,0E0,0E0],"parents":[2147483647,0,0,1,1,2,2,3,3,5,5,6,6],"right_children":[2,4,6,8,-1,10,12,-1,-1,-1,-1,-1,-1],"split_conditions":[2.0325202E-3,4.75E1,1.4576803E-1,2.67E1,-5.840133E-1,1.194605E-1,-1.8479334E-3,-2.5363533E0,-1.2042989E0,-7.773976E-1,-1.7360928E0,-6.011631E-1,-1.2060151E0],"split_indices":[27,16,3,21,0,5,31,0,0,0,0,0,0],"split_type":[0,0,0,0,0,0,0,0,0,0,0,0,0],"sum_hessian":[7.331403E2,1.3090405E2,6.022363E2,1.1075763E2,2.0146416E1,2.0196349E2,4.0027283E2,7.440145E1,3.6356182E1,3.1822239E1,1.7014124E2,1.2194478E2,2.7832803E2],"tree_param":{"num_deleted":"0","num_feature":"33","num_nodes":"13","size_leaf_vector":"1"}},{"base_weights":[-7.870998E1,-1.0190307E2,-6.524734E1,-6.321842E1,-1.1558555E2,-8.872096E1,-5.419735E1,-1.6653801E0,-4.6389535E-1,-8.8773125E-1,-2.061299E0,-1.8445984E0,-9.1998875E-1,-9.573104E-1,-2.0692544E-1],"categories":[],"categories_nodes":[],"categories_segments":[],"categories_sizes":[],"default_left":[0,0,0,0,0,0,0,0,0,0,0,0,0,0,0],"id":56,"left_children":[1,3,5,7,9,11,13,-1,-1,-1,-1,-1,-1,-1,-1],"loss_changes":[1.69759E5,6.7059E4,8.36585E4,8.554622E4,1.21005E4,4.5306375E4,3.109E4,0E0,0E0,0E0,0E0,0E0,0E0,0E0,0E0],"parents":[2147483647,0,0,1,1,2,2,3,3,4,4,5,5,6,6],"right_children":[2,4,6,8,10,12,14,-1,-1,-1,-1,-1,-1,-1,-1],"split_conditions":[4.09E2,7E1,-1.0624483E-2,2.14E2,2.85E1,6.01E2,1.46E2,-1.6653801E0,-4.6389535E-1,-8.8773125E-1,-2.061299E0,-1.8445984E0,-9.1998875E-1,-9.573104E-1,-2.0692544E-1],"split_indices":[1,0,29,1,17,1,10,0,0,0,0,0,0,0,0],"split_type":[0,0,0,0,0,0,0,0,0,0,0,0,0,0,0],"sum_hessian":[7.344452E2,2.4706197E2,4.873832E2,7.835608E1,1.687059E2,1.3484912E2,3.525341E2,3.1082363E1,4.7273712E1,2.3640379E1,1.4506552E2,7.151752E1,6.3331596E1,3.2975586E2,2.2778223E1],"tree_param":{"num_deleted":"0","num_feature":"33","num_nodes":"15","size_leaf_vector":"1"}},{"base_weights":[-8.20433E1,-1.0697559E2,-6.809597E1,-1.0357851E0,-1.15859825E2,-9.726203E1,-5.835423E1,-8.4769577E-1,-2.0376527E0,-7.618644E-1,-1.906819E0,-1.233092E0,-6.9310004E-1],"categories":[],"categories_nodes":[],"categories_segments":[],"categories_sizes":[],"default_left":[0,0,0,0,0,0,0,0,0,0,0,0,0],"id":57,"left_children":[1,3,5,-1,7,9,11,-1,-1,-1,-1,-1,-1],"loss_changes":[1.891785E5,3.4349E4,8.899875E4,0E0,5.218E3,4.2886125E4,7.309025E4,0E0,0E0,0E0,0E0,0E0,0E0],"parents":[2147483647,0,0,1,1,2,2,4,4,5,5,6,6],"right_children":[2,4,6,-1,8,10,12,-1,-1,-1,-1,-1,-1],"split_conditions":[3.98E2,1.78E-1,-1.692421E-2,-1.0357851E0,3.31E-1,2.9963496E-1,1E-2,-8.4769577E-1,-2.0376527E0,-7.618644E-1,-1.906819E0,-1.233092E0,-6.9310004E-1],"split_indices":[1,13,29,0,12,28,27,0,0,0,0,0,0],"split_type":[0,0,0,0,0,0,0,0,0,0,0,0,0],"sum_hessian":[7.315391E2,2.399343E2,4.9160483E2,5.118465E1,1.8874963E2,1.01943665E2,3.8966116E2,2.012415E1,1.6862549E2,3.1922678E1,7.002098E1,1.9475093E2,1.9491023E2],"tree_param":{"num_deleted":"0","num_feature":"33","num_nodes":"13","size_leaf_vector":"1"}},{"base_weights":[-7.756901E1,-9.2245155E1,-5.9263588E1,-2.0475404E0,-8.0575676E1,-6.326193E1,-2.9633808E-1,-1.5790645E0,-9.2370695E-1,-7.53929E-1,-1.227991E0],"categories":[],"categories_nodes":[],"categories_segments":[],"categories_sizes":[],"default_left":[0,0,0,0,0,0,0,0,0,0,0],"id":58,"left_children":[1,3,5,-1,7,9,-1,-1,-1,-1,-1],"loss_changes":[1.513345E5,4.4082E4,4.9963625E4,0E0,5.7071875E4,2.6950875E4,0E0,0E0,0E0,0E0,0E0],"parents":[2147483647,0,0,1,1,2,2,4,4,5,5],"right_children":[2,4,6,-1,8,10,-1,-1,-1,-1,-1],"split_conditions":[5.14E2,-5.148979E-3,6.91E2,-2.0475404E0,3.26E-1,2.01E-1,-2.9633808E-1,-1.5790645E0,-9.2370695E-1,-7.53929E-1,-1.227991E0],"split_indices":[1,29,1,0,20,13,0,0,0,0,0],"split_type":[0,0,0,0,0,0,0,0,0,0,0],"sum_hessian":[7.451866E2,3.9251996E2,3.5266666E2,8.736302E1,3.0515692E2,3.173944E2,3.5272236E1,1.8725224E2,1.1790469E2,1.24845276E2,1.9254915E2],"tree_param":{"num_deleted":"0","num_feature":"33","num_nodes":"11","size_leaf_vector":"1"}},{"base_weights":[-7.593505E1,-6.773738E1,-1.0789596E2,-8.0891205E1,-5.0312057E1,-8.303601E-1,-1.9418342E0,-1.7412672E0,-1.137277E0,-3.6818624E-1,-9.739532E-1],"categories":[],"categories_nodes":[],"categories_segments":[],"categories_sizes":[],"default_left":[0,0,0,0,0,0,0,0,0,0,0],"id":59,"left_children":[1,3,5,7,9,-1,-1,-1,-1,-1,-1],"loss_changes":[1.297815E5,1.0572575E5,4.471375E3,3.785175E4,5.00135E4,0E0,0E0,0E0,0E0,0E0,0E0],"parents":[2147483647,0,0,1,1,2,2,3,3,4,4],"right_children":[2,4,6,8,10,-1,-1,-1,-1,-1,-1],"split_conditions":[2.6044226E-1,6.9E0,1.73E-1,2.67E1,3.14E1,-8.303601E-1,-1.9418342E0,-1.7412672E0,-1.137277E0,-3.6818624E-1,-9.739532E-1],"split_indices":[5,15,13,21,17,0,0,0,0,0,0],"split_type":[0,0,0,0,0,0,0,0,0,0,0],"sum_hessian":[7.4815045E2,6.18765E2,1.2938547E2,3.330899E2,2.8567508E2,2.1924E1,1.0746147E2,1.02795944E2,2.3029398E2,6.617396E1,2.1950111E2],"tree_param":{"num_deleted":"0","num_feature":"33","num_nodes":"11","size_leaf_vector":"1"}},{"base_weights":[-7.527186E1,-6.778344E1,-1.0323614E2,-9.360211E1,-5.6467804E1,-7.6427865E-1,-1.8688681E0,-2.1436696E0,-1.1718596E0,-3.429357E-1,-1.0859874E0],"categories":[],"categories_nodes":[],"categories_segments":[],"categories_sizes":[],"default_left":[0,0,0,0,0,0,0,0,0,0,0],"id":60,"left_children":[1,3,5,7,9,-1,-1,-1,-1,-1,-1],"loss_changes":[9.50905E4,1.3534225E5,1.4904E4,6.1422875E4,1.19049125E5,0E0,0E0,0E0,0E0,0E0,0E0],"parents":[2147483647,0,0,1,1,2,2,3,3,4,4],"right_children":[2,4,6,8,10,-1,-1,-1,-1,-1,-1],"split_conditions":[2.6138613E-1,3.81E-1,1.68E-1,3.5153347E-1,-3.088951E-2,-7.6427865E-1,-1.8688681E0,-2.1436696E0,-1.1718596E0,-3.429357E-1,-1.0859874E0],"split_indices":[5,19,13,28,31,0,0,0,0,0,0],"split_type":[0,0,0,0,0,0,0,0,0,0,0],"sum_hessian":[7.588055E2,6.2391504E2,1.3489044E2,1.6929115E2,4.5462387E2,2.2843393E1,1.1204705E2,5.4505516E1,1.1478564E2,8.688098E1,3.677429E2],"tree_param":{"num_deleted":"0","num_feature":"33","num_nodes":"11","size_leaf_vector":"1"}},{"base_weights":[-7.25464E1,-9.333066E1,-6.132824E1,-9.912894E1,-3.2208037E-1,-7.624614E1,-4.3226963E1,-1.747376E0,-6.6433275E-1,-1.4274397E0,-8.314893E-1,-5.8871996E-1,-1.3772483E0],"categories":[],"categories_nodes":[],"categories_segments":[],"categories_sizes":[],"default_left":[0,1,0,0,0,0,0,0,0,0,0,0,0],"id":61,"left_children":[1,3,5,7,-1,9,11,-1,-1,-1,-1,-1,-1],"loss_changes":[1.25275E5,9.040625E4,1.11118125E5,2.1372E4,0E0,2.2546875E4,5.651375E4,0E0,0E0,0E0,0E0,0E0,0E0],"parents":[2147483647,0,0,1,1,2,2,3,3,5,5,6,6],"right_children":[2,4,6,8,-1,10,12,-1,-1,-1,-1,-1,-1],"split_conditions":[4.3290043E-3,4.6121944E-2,4.21E-1,-4.1152265E-2,-3.2208037E-1,3.57E1,2.6680243E-1,-1.747376E0,-6.6433275E-1,-1.4274397E0,-8.314893E-1,-5.8871996E-1,-1.3772483E0],"split_indices":[27,29,19,7,0,16,5,0,0,0,0,0,0],"split_type":[0,0,0,0,0,0,0,0,0,0,0,0,0],"sum_hessian":[7.5864655E2,2.4181831E2,5.168282E2,2.2138551E2,2.0432798E1,2.6677512E2,2.500531E2,2.0007104E2,2.131446E1,1.8899005E2,7.7785065E1,2.1993372E2,3.0119394E1],"tree_param":{"num_deleted":"0","num_feature":"33","num_nodes":"13","size_leaf_vector":"1"}},{"base_weights":[-7.0466736E1,-9.4960335E1,-6.0035385E1,-6.01502E-1,-9.948044E1,-9.165254E1,-5.006013E1,-1.3119608E0,-2.1565385E0,-8.1517947E-1,-1.7903314E0,-7.2728056E-1,-1.6731832E0],"categories":[],"categories_nodes":[],"categories_segments":[],"categories_sizes":[],"default_left":[0,0,0,0,1,0,0,0,0,0,0,0,0],"id":62,"left_children":[1,3,5,-1,7,9,11,-1,-1,-1,-1,-1,-1],"loss_changes":[1.426935E5,2.392075E4,1.3485575E5,0E0,2.5424875E4,2.9091125E4,1.1421875E5,0E0,0E0,0E0,0E0,0E0,0E0],"parents":[2147483647,0,0,1,1,2,2,4,4,5,5,6,6],"right_children":[2,4,6,-1,8,10,12,-1,-1,-1,-1,-1,-1],"split_conditions":[3.81E-1,2.63E1,1.9455253E-3,-6.01502E-1,-6.0268853E-2,7.379135E-2,2.860412E-1,-1.3119608E0,-2.1565385E0,-8.1517947E-1,-1.7903314E0,-7.2728056E-1,-1.6731832E0],"split_indices":[19,17,27,0,22,6,5,0,0,0,0,0,0],"split_type":[0,0,0,0,0,0,0,0,0,0,0,0,0],"sum_hessian":[7.588251E2,2.0389447E2,5.549306E2,2.0335762E1,1.835587E2,1.1463181E2,4.402988E2,1.23396355E2,6.016235E1,3.8664875E1,7.5966934E1,4.0068607E2,3.9612724E1],"tree_param":{"num_deleted":"0","num_feature":"33","num_nodes":"13","size_leaf_vector":"1"}},{"base_weights":[-7.204776E1,-9.639465E1,-5.9043095E1,-2.0526772E0,-6.856872E1,-7.8717384E1,-5.0829144E1,-1.3911992E0,-3.7520868E-1,-1.5542213E0,-6.918327E-1,-1.31916E0,-6.811111E-1],"categories":[],"categories_nodes":[],"categories_segments":[],"categories_sizes":[],"default_left":[0,0,0,0,0,0,0,0,0,0,0,0,0],"id":63,"left_children":[1,3,5,-1,7,9,11,-1,-1,-1,-1,-1,-1],"loss_changes":[1.8748125E5,9.65725E4,4.6482625E4,0E0,7.2490125E4,3.291975E4,8.316375E4,0E0,0E0,0E0,0E0,0E0,0E0],"parents":[2147483647,0,0,1,1,2,2,4,4,5,5,6,6],"right_children":[2,4,6,-1,8,10,12,-1,-1,-1,-1,-1,-1],"split_conditions":[3.98E2,7.0422534E-3,-1.4613994E-2,-2.0526772E0,3.34E-1,6.23E2,3.0868262E-1,-1.3911992E0,-3.7520868E-1,-1.5542213E0,-6.918327E-1,-1.31916E0,-6.811111E-1],"split_indices":[1,27,29,0,20,1,28,0,0,0,0,0,0],"split_type":[0,0,0,0,0,0,0,0,0,0,0,0,0],"sum_hessian":[7.516964E2,2.4073157E2,5.1096487E2,1.0986451E2,1.3086705E2,1.2673133E2,3.8423352E2,9.522919E1,3.5637863E1,8.373828E1,4.2993046E1,9.004365E1,2.9418988E2],"tree_param":{"num_deleted":"0","num_feature":"33","num_nodes":"13","size_leaf_vector":"1"}},{"base_weights":[-6.6483505E1,-8.1423965E1,-5.358587E1,-1.11804855E2,-6.8767E1,-6.473099E1,-3.1677034E1,-6.8342686E-1,-2.3438706E0,-6.784751E-1,-1.4942931E0,-1.2294524E0,-5.332434E-1,-4.0821914E-2,-7.916306E-1],"categories":[],"categories_nodes":[],"categories_segments":[],"categories_sizes":[],"default_left":[0,0,0,0,0,0,0,0,0,0,0,0,0,0,0],"id":64,"left_children":[1,3,5,7,9,11,13,-1,-1,-1,-1,-1,-1,-1,-1],"loss_changes":[1.0894875E5,5.9417E4,8.9423625E4,1.12043125E5,1.165515E5,5.48155E4,7.3827766E4,0E0,0E0,0E0,0E0,0E0,0E0,0E0,0E0],"parents":[2147483647,0,0,1,1,2,2,3,3,4,4,5,5,6,6],"right_children":[2,4,6,8,10,12,14,-1,-1,-1,-1,-1,-1,-1,-1],"split_conditions":[7.3746312E-3,3.46E1,3.99E1,1.6042781E-1,6.086956E-1,8.518519E-1,2.0770878E-1,-6.8342686E-1,-2.3438706E0,-6.784751E-1,-1.4942931E0,-1.2294524E0,-5.332434E-1,-4.0821914E-2,-7.916306E-1],"split_indices":[27,16,16,5,8,8,5,0,0,0,0,0,0,0,0],"split_type":[0,0,0,0,0,0,0,0,0,0,0,0,0,0,0],"sum_hessian":[7.688276E2,3.330657E2,4.357619E2,7.629605E1,2.5676965E2,2.7665402E2,1.5910786E2,2.7369698E1,4.892635E1,1.1637578E2,1.4039388E2,2.1354799E2,6.3106045E1,5.8093685E1,1.01014175E2],"tree_param":{"num_deleted":"0","num_feature":"33","num_nodes":"15","size_leaf_vector":"1"}},{"base_weights":[-7.244338E1,-5.539702E1,-8.4540115E1,-6.894661E1,-3.532318E1,-4.2979862E1,-8.840236E1,-1.3894823E-1,-1.2793053E0,-8.480555E-1,-3.288882E-1,-1.1304543E0,-1.7136903E-1,-2.0481837E0,-1.3287164E0],"categories":[],"categories_nodes":[],"categories_segments":[],"categories_sizes":[],"default_left":[0,0,0,0,0,0,0,0,0,0,0,0,0,0,0],"id":65,"left_children":[1,3,5,7,9,11,13,-1,-1,-1,-1,-1,-1,-1,-1],"loss_changes":[1.1682775E5,7.25905E4,3.46545E4,7.6497875E4,2.8736266E4,3.730983E4,3.584425E4,0E0,0E0,0E0,0E0,0E0,0E0,0E0,0E0],"parents":[2147483647,0,0,1,1,2,2,3,3,4,4,5,5,6,6],"right_children":[2,4,6,8,10,12,14,-1,-1,-1,-1,-1,-1,-1,-1],"split_conditions":[2.0186335E-1,5.68E2,6.1E1,-5.5657186E-2,1.63142E-1,2.05E2,8.5E1,-1.3894823E-1,-1.2793053E0,-8.480555E-1,-3.288882E-1,-1.1304543E0,-1.7136903E-1,-2.0481837E0,-1.3287164E0],"split_indices":[5,1,0,31,3,1,10,0,0,0,0,0,0,0,0],"split_type":[0,0,0,0,0,0,0,0,0,0,0,0,0,0,0],"sum_hessian":[7.70649E2,3.4165115E2,4.289978E2,1.9030927E2,1.5134189E2,4.6171074E1,3.8282672E2,2.1234884E1,1.6907437E2,6.754877E1,8.379312E1,2.1055717E1,2.5115358E1,6.2923367E1,3.1990338E2],"tree_param":{"num_deleted":"0","num_feature":"33","num_nodes":"15","size_leaf_vector":"1"}},{"base_weights":[-6.4696434E1,-5.726606E1,-1.59622E0,-6.7701515E1,-4.1292274E1,-3.1878197E-1,-1.2109714E0,-3.0921713E-1,-9.849322E-1],"categories":[],"categories_nodes":[],"categories_segments":[],"categories_sizes":[],"default_left":[0,0,0,0,1,0,0,0,0],"id":66,"left_children":[1,3,-1,5,7,-1,-1,-1,-1],"loss_changes":[1.2178375E5,8.1725E4,0E0,6.0785375E4,9.954044E4,0E0,0E0,0E0,0E0],"parents":[2147483647,0,0,1,1,3,3,4,4],"right_children":[2,4,-1,6,8,-1,-1,-1,-1],"split_conditions":[2.6044226E-1,1.8090452E-1,-1.59622E0,1.1329305E-1,-8.805918E-3,-3.1878197E-1,-1.2109714E0,-3.0921713E-1,-9.849322E-1],"split_indices":[5,3,0,5,31,0,0,0,0],"split_type":[0,0,0,0,0,0,0,0,0],"sum_hessian":[7.7024066E2,6.3851337E2,1.3172734E2,3.6779694E2,2.707164E2,3.1858086E1,3.3593884E2,1.23465576E2,1.4725082E2],"tree_param":{"num_deleted":"0","num_feature":"33","num_nodes":"9","size_leaf_vector":"1"}},{"base_weights":[-6.1356564E1,-1.6126769E0,-5.4978092E1,-7.079416E1,-4.033291E1,-3.3954683E-1,-1.2529076E0,-1.1290038E0,-5.3015447E-1],"categories":[],"categories_nodes":[],"categories_segments":[],"categories_sizes":[],"default_left":[0,0,0,0,0,0,0,0,0],"id":67,"left_children":[1,-1,3,5,7,-1,-1,-1,-1],"loss_changes":[1.2284125E5,0E0,1.326935E5,4.0602875E4,7.026575E4,0E0,0E0,0E0,0E0],"parents":[2147483647,0,0,2,2,3,3,4,4],"right_children":[2,-1,4,6,8,-1,-1,-1,-1],"split_conditions":[3.49E-1,-1.6126769E0,7.3746312E-3,-6.040886E-2,-1.6981132E-1,-3.3954683E-1,-1.2529076E0,-1.1290038E0,-5.3015447E-1],"split_indices":[19,0,27,24,7,0,0,0,0],"split_type":[0,0,0,0,0,0,0,0,0],"sum_hessian":[7.818055E2,1.0245984E2,6.7934564E2,3.092895E2,3.7005615E2,2.3420553E1,2.8586893E2,7.8032845E1,2.9202332E2],"tree_param":{"num_deleted":"0","num_feature":"33","num_nodes":"9","size_leaf_vector":"1"}},{"base_weights":[-6.517998E1,-5.631735E1,-8.7617714E1,-6.0747425E1,-1.7139101E1,-9.793073E1,-5.085384E1,-1.0712765E0,-2.3838653E-1,-6.2141836E-1,4.7706883E-2,-2.0906909E0,-1.1641338E0,-1.1192282E0,-2.2525269E-1],"categories":[],"categories_nodes":[],"categories_segments":[],"categories_sizes":[],"default_left":[0,0,0,0,0,0,0,0,0,0,0,0,0,0,0],"id":68,"left_children":[1,3,5,7,9,11,13,-1,-1,-1,-1,-1,-1,-1,-1],"loss_changes":[1.0496175E5,8.9471875E4,2.8479E4,5.521175E4,2.8904264E4,2.8471625E4,2.814414E4,0E0,0E0,0E0,0E0,0E0,0E0,0E0,0E0],"parents":[2147483647,0,0,1,1,2,2,3,3,4,4,5,5,6,6],"right_children":[2,4,6,8,10,12,14,-1,-1,-1,-1,-1,-1,-1,-1],"split_conditions":[9.4736844E-1,-4.1152265E-2,2.71E1,2.88E-1,1.4685315E-1,1.6911764E-1,3.9180327E-2,-1.0712765E0,-2.3838653E-1,-6.2141836E-1,4.7706883E-2,-2.0906909E0,-1.1641338E0,-1.1192282E0,-2.2525269E-1],"split_indices":[8,7,21,18,3,3,32,0,0,0,0,0,0,0,0],"split_type":[0,0,0,0,0,0,0,0,0,0,0,0,0,0,0],"sum_hessian":[7.516728E2,5.6248956E2,1.8918321E2,5.0069818E2,6.179141E1,1.3552602E2,5.365719E1,4.703385E2,3.035969E1,2.7147303E1,3.4644108E1,5.543809E1,8.008793E1,3.2932182E1,2.0725008E1],"tree_param":{"num_deleted":"0","num_feature":"33","num_nodes":"15","size_leaf_vector":"1"}},{"base_weights":[-6.3452152E1,-7.110562E1,-4.0714493E1,-6.0672802E1,-9.274483E1,-1.1831262E0,-2.5316889E1,-1.515674E0,-8.8070065E-1,-1.7055025E0,-7.4917513E-1,1.3510583E-1,-6.8039066E-1],"categories":[],"categories_nodes":[],"categories_segments":[],"categories_sizes":[],"default_left":[0,0,0,0,0,0,1,0,0,0,0,0,0],"id":69,"left_children":[1,3,5,7,9,-1,11,-1,-1,-1,-1,-1,-1],"loss_changes":[1.0856E5,7.604375E4,8.199469E4,5.8314875E4,2.477325E4,0E0,8.1787695E4,0E0,0E0,0E0,0E0,0E0,0E0],"parents":[2147483647,0,0,1,1,2,2,3,3,4,4,6,6],"right_children":[2,4,6,8,10,-1,12,-1,-1,-1,-1,-1,-1],"split_conditions":[-8.037094E-2,2.26E-1,1.3012049E-1,2.919587E-1,4.93E-1,-1.1831262E0,-1.7208109E-2,-1.515674E0,-8.8070065E-1,-1.7055025E0,-7.4917513E-1,1.3510583E-1,-6.8039066E-1],"split_indices":[7,13,3,9,19,0,30,0,0,0,0,0,0],"split_type":[0,0,0,0,0,0,0,0,0,0,0,0,0],"sum_hessian":[7.708083E2,5.617337E2,2.0907454E2,4.0313013E2,1.586036E2,6.0490944E1,1.485836E2,7.1205505E1,3.3192462E2,1.2683331E2,3.1770298E1,4.7408596E1,1.01175E2],"tree_param":{"num_deleted":"0","num_feature":"33","num_nodes":"13","size_leaf_vector":"1"}},{"base_weights":[-6.216244E1,-8.800091E1,-5.5588306E1,-1.6035227E0,-5.310056E-1,-5.7385754E1,-1.4098642E-4,-6.032479E-1,-1.0626005E0],"categories":[],"categories_nodes":[],"categories_segments":[],"categories_sizes":[],"default_left":[0,1,0,0,0,0,0,0,0],"id":70,"left_children":[1,3,5,-1,-1,7,-1,-1,-1],"loss_changes":[9.15995E4,3.00355E4,6.7048875E4,0E0,0E0,5.669825E4,0E0,0E0,0E0],"parents":[2147483647,0,0,1,1,2,2,5,5],"right_children":[2,4,6,-1,-1,8,-1,-1,-1],"split_conditions":[1.5873016E-3,3.1181566E-2,1.5625E-1,-1.6035227E0,-5.310056E-1,2.764505E-1,-1.4098642E-4,-6.032479E-1,-1.0626005E0],"split_indices":[27,29,6,0,0,4,0,0,0],"split_type":[0,0,0,0,0,0,0,0,0],"sum_hessian":[8.005489E2,1.3875806E2,6.6179083E2,1.1793064E2,2.0827421E1,6.407633E2,2.102756E1,1.4437955E2,4.9638373E2],"tree_param":{"num_deleted":"0","num_feature":"33","num_nodes":"9","size_leaf_vector":"1"}},{"base_weights":[-6.0288944E1,-5.240555E1,-8.456856E1,-1.5264304E0,-4.765475E1,-5.0017483E1,-9.8697136E1,-4.1256896E-1,-9.0890115E-1,-1.2623861E0,-1.2776162E-1,-1.0933403E0,-2.0007284E0],"categories":[],"categories_nodes":[],"categories_segments":[],"categories_sizes":[],"default_left":[0,0,0,0,0,0,1,0,0,0,0,0,0],"id":71,"left_children":[1,3,5,-1,7,9,11,-1,-1,-1,-1,-1,-1],"loss_changes":[1.0787075E5,7.0338E4,3.9593875E4,0E0,6.8563E4,6.8341984E4,5.34E3,0E0,0E0,0E0,0E0,0E0,0E0],"parents":[2147483647,0,0,1,1,2,2,4,4,5,5,6,6],"right_children":[2,4,6,-1,8,10,12,-1,-1,-1,-1,-1,-1],"split_conditions":[2.5266904E-1,3.32E-1,1.94E-1,-1.5264304E0,3.08E1,2.852459E-1,-4.7748584E-2,-4.1256896E-1,-9.0890115E-1,-1.2623861E0,-1.2776162E-1,-1.0933403E0,-2.0007284E0],"split_indices":[5,19,13,0,17,4,32,0,0,0,0,0,0],"split_type":[0,0,0,0,0,0,0,0,0,0,0,0,0],"sum_hessian":[7.718205E2,6.050533E2,1.6676717E2,4.8455082E1,5.565982E2,6.078825E1,1.0597891E2,1.2635906E2,4.3023917E2,3.3901283E1,2.6886965E1,5.374684E1,5.223207E1],"tree_param":{"num_deleted":"0","num_feature":"33","num_nodes":"13","size_leaf_vector":"1"}},{"base_weights":[-6.0970074E1,-5.184291E1,-8.470391E1,-5.5799946E1,-9.959947E0,-1.5957345E0,-4.9499184E1,-3.3090192E-1,-9.8337674E-1,1.2476309E-1,-5.349106E-1,-1.2069294E0,-2.986233E-1],"categories":[],"categories_nodes":[],"categories_segments":[],"categories_sizes":[],"default_left":[0,0,0,0,1,0,0,0,0,0,0,0,0],"id":72,"left_children":[1,3,5,7,9,-1,11,-1,-1,-1,-1,-1,-1],"loss_changes":[1.2976275E5,9.3304125E4,2.6354125E4,3.6664625E4,2.5831662E4,0E0,3.2943094E4,0E0,0E0,0E0,0E0,0E0,0E0],"parents":[2147483647,0,0,1,1,2,2,3,3,4,4,6,6],"right_children":[2,4,6,8,10,-1,12,-1,-1,-1,-1,-1,-1],"split_conditions":[9.285714E-1,2.88E-1,6.898515E-2,-3.292181E-2,-2.8038793E-3,-1.5957345E0,2.5742576E-1,-3.3090192E-1,-9.8337674E-1,1.2476309E-1,-5.349106E-1,-1.2069294E0,-2.986233E-1],"split_indices":[8,18,29,30,22,0,2,0,0,0,0,0,0],"split_type":[0,0,0,0,0,0,0,0,0,0,0,0,0],"sum_hessian":[7.8017975E2,5.8510315E2,1.950766E2,5.3174164E2,5.3361496E1,1.4032085E2,5.4755756E1,3.864489E1,4.9309677E2,3.3107697E1,2.0253798E1,2.5472952E1,2.9282806E1],"tree_param":{"num_deleted":"0","num_feature":"33","num_nodes":"13","size_leaf_vector":"1"}},{"base_weights":[-5.888948E1,-5.1809864E1,-8.5562195E1,-6.666442E1,-4.2648296E1,-5.5931442E1,-1.0660118E2,-1.551914E0,-8.9094454E-1,-1.0296161E0,-5.801348E-1,-1.1682613E0,-2.542655E-1,-2.0211291E0,-8.3052903E-1],"categories":[],"categories_nodes":[],"categories_segments":[],"categories_sizes":[],"default_left":[0,0,1,0,0,0,0,0,0,0,0,0,0,0,0],"id":73,"left_children":[1,3,5,7,9,11,13,-1,-1,-1,-1,-1,-1,-1,-1],"loss_changes":[1.084835E5,6.2034375E4,3.8934625E4,3.5897562E4,4.5606812E4,3.5130156E4,3.71675E3,0E0,0E0,0E0,0E0,0E0,0E0,0E0,0E0],"parents":[2147483647,0,0,1,1,2,2,3,3,4,4,5,5,6,6],"right_children":[2,4,6,8,10,12,14,-1,-1,-1,-1,-1,-1,-1,-1],"split_conditions":[2.5925925E-1,1.4453125E-1,-4.679268E-2,2.67E1,-1.200087E-2,3.3365998E-1,2.84E1,-1.551914E0,-8.9094454E-1,-1.0296161E0,-5.801348E-1,-1.1682613E0,-2.542655E-1,-2.0211291E0,-8.3052903E-1],"split_indices":[5,3,32,21,29,9,21,0,0,0,0,0,0,0,0],"split_type":[0,0,0,0,0,0,0,0,0,0,0,0,0,0,0],"sum_hessian":[7.8576483E2,6.428063E2,1.4295857E2,2.2270828E2,4.2009796E2,7.363803E1,6.932054E1,6.0487663E1,1.6222061E2,1.1247952E2,3.0761844E2,5.0716724E1,2.2921309E1,4.8183983E1,2.1136559E1],"tree_param":{"num_deleted":"0","num_feature":"33","num_nodes":"15","size_leaf_vector":"1"}},{"base_weights":[-5.608734E1,-7.6019325E1,-4.434413E1,-4.6124756E1,-8.599275E1,-6.754223E1,-3.3725693E1,-1.1444619E0,-3.7359348E-1,-1.527681E0,-5.770477E-1,-1.2127802E0,-4.4757032E-1,-6.2808406E-1,1.895256E-2],"categories":[],"categories_nodes":[],"categories_segments":[],"categories_sizes":[],"default_left":[0,0,0,0,1,0,0,0,0,0,0,0,0,0,0],"id":74,"left_children":[1,3,5,7,9,11,13,-1,-1,-1,-1,-1,-1,-1,-1],"loss_changes":[1.5689825E5,4.7851125E4,1.0903131E5,3.3534688E4,1.7827375E4,9.5341875E3,4.6435094E4,0E0,0E0,0E0,0E0,0E0,0E0,0E0,0E0],"parents":[2147483647,0,0,1,1,2,2,3,3,4,4,5,5,6,6],"right_children":[2,4,6,8,10,12,14,-1,-1,-1,-1,-1,-1,-1,-1],"split_conditions":[4.07E2,6.6E1,-1.0624483E-2,2.08E2,4.5021646E-2,-4.400978E-2,3.81E-1,-1.1444619E0,-3.7359348E-1,-1.527681E0,-5.770477E-1,-1.2127802E0,-4.4757032E-1,-6.2808406E-1,1.895256E-2],"split_indices":[1,0,29,1,29,7,20,0,0,0,0,0,0,0,0],"split_type":[0,0,0,0,0,0,0,0,0,0,0,0,0,0,0],"sum_hessian":[7.9629626E2,2.76143E2,5.2015326E2,8.230691E1,1.938361E2,1.4750584E2,3.7264737E2,3.4286236E1,4.802067E1,1.7206206E2,2.1774052E1,1.2726282E2,2.0243032E1,3.3843054E2,3.4216835E1],"tree_param":{"num_deleted":"0","num_feature":"33","num_nodes":"15","size_leaf_vector":"1"}},{"base_weights":[-5.425523E1,-1.6246799E0,-4.99137E1,-4.36002E1,-7.440451E1,-9.503872E-1,-5.7540023E-1,-7.101774E-1,-1.5046456E0],"categories":[],"categories_nodes":[],"categories_segments":[],"categories_sizes":[],"default_left":[0,0,0,0,1,0,0,0,0],"id":75,"left_children":[1,-1,3,5,7,-1,-1,-1,-1],"loss_changes":[9.878275E4,0E0,8.3295625E4,5.5381625E4,3.0099875E4,0E0,0E0,0E0,0E0],"parents":[2147483647,0,0,2,2,3,3,4,4],"right_children":[2,-1,4,6,8,-1,-1,-1,-1],"split_conditions":[3.31E-1,-1.6246799E0,2.6138613E-1,5.9435363E-3,-1.4146577E-1,-9.503872E-1,-5.7540023E-1,-7.101774E-1,-1.5046456E0],"split_indices":[19,0,5,27,31,0,0,0,0],"split_type":[0,0,0,0,0,0,0,0,0],"sum_hessian":[7.8115234E2,5.4636105E1,7.2651624E2,5.9839105E2,1.281252E2,2.3722806E2,3.6116296E2,5.130848E1,7.681673E1],"tree_param":{"num_deleted":"0","num_feature":"33","num_nodes":"9","size_leaf_vector":"1"}},{"base_weights":[-6.013719E1,-1.05849625E2,-5.49305E1,-2.0798311E0,-8.068699E-1,-7.6939354E1,-4.6177322E1,-1.6148341E0,-8.8188046E-1,-8.7538975E-1,-3.8710222E-1],"categories":[],"categories_nodes":[],"categories_segments":[],"categories_sizes":[],"default_left":[0,0,0,0,0,0,0,0,0,0,0],"id":76,"left_children":[1,3,5,-1,-1,7,9,-1,-1,-1,-1],"loss_changes":[1.3619225E5,1.6829812E4,1.0904525E5,0E0,0E0,4.3670125E4,6.141825E4,0E0,0E0,0E0,0E0],"parents":[2147483647,0,0,1,1,2,2,5,5,6,6],"right_children":[2,4,6,-1,-1,8,10,-1,-1,-1,-1],"split_conditions":[-4.2442292E-2,6.6666666E-4,3.6E2,-2.0798311E0,-8.068699E-1,6.9444445E-3,-6.525573E-2,-1.6148341E0,-8.8188046E-1,-8.7538975E-1,-3.8710222E-1],"split_indices":[29,23,1,0,0,27,7,0,0,0,0],"split_type":[0,0,0,0,0,0,0,0,0,0,0],"sum_hessian":[7.9244293E2,6.245136E1,7.299916E2,4.0017025E1,2.2434334E1,1.868798E2,5.4311176E2,9.115236E1,9.572745E1,4.2771353E2,1.1539825E2],"tree_param":{"num_deleted":"0","num_feature":"33","num_nodes":"11","size_leaf_vector":"1"}},{"base_weights":[-5.412734E1,-4.2042435E1,-7.059526E1,-4.7723E1,-1.5950903E1,-8.889377E1,-5.1964638E1,-1.0893068E0,-6.391288E-1,-4.775586E-1,-3.9226008E-3,-6.6952235E-1,-1.6663117E0,-1.8218932E-1,-9.530255E-1],"categories":[],"categories_nodes":[],"categories_segments":[],"categories_sizes":[],"default_left":[1,0,0,0,0,0,0,0,0,0,0,0,0,0,0],"id":77,"left_children":[1,3,5,7,9,11,13,-1,-1,-1,-1,-1,-1,-1,-1],"loss_changes":[1.3144175E5,6.4731688E4,6.738675E4,4.229475E4,1.9468338E4,3.568625E4,2.7989219E4,0E0,0E0,0E0,0E0,0E0,0E0,0E0,0E0],"parents":[2147483647,0,0,1,1,2,2,3,3,4,4,5,5,6,6],"right_children":[2,4,6,8,10,12,14,-1,-1,-1,-1,-1,-1,-1,-1],"split_conditions":[-9.278034E-3,6.2E2,5.08E2,2.67E1,4.3641977E0,7E1,-2.47779E-2,-1.0893068E0,-6.391288E-1,-4.775586E-1,-3.9226008E-3,-6.6952235E-1,-1.6663117E0,-1.8218932E-1,-9.530255E-1],"split_indices":[31,1,1,21,25,0,30,0,0,0,0,0,0,0,0],"split_type":[0,0,0,0,0,0,0,0,0,0,0,0,0,0,0],"sum_hessian":[7.9125446E2,4.7562054E2,3.156339E2,3.841841E2,9.1436424E1,1.4135155E2,1.7428236E2,1.23234924E2,2.609492E2,4.704837E1,4.4388058E1,3.123574E1,1.1011581E2,2.0160017E1,1.5412234E2],"tree_param":{"num_deleted":"0","num_feature":"33","num_nodes":"15","size_leaf_vector":"1"}},{"base_weights":[-5.3224895E1,-4.665075E1,-7.996334E1,-1.6202553E1,-5.0023327E1,-1.4580663E0,-6.1722887E-1,-6.1926854E-1,8.5191764E-2,-1.1127775E0,-6.9683146E-1],"categories":[],"categories_nodes":[],"categories_segments":[],"categories_sizes":[],"default_left":[0,0,0,0,0,0,0,0,0,0,0],"id":78,"left_children":[1,3,5,7,9,-1,-1,-1,-1,-1,-1],"loss_changes":[1.0761375E5,6.159975E4,1.09360625E4,3.6999816E4,5.820425E4,0E0,0E0,0E0,0E0,0E0,0E0],"parents":[2147483647,0,0,1,1,2,2,3,3,4,4],"right_children":[2,4,6,8,10,-1,-1,-1,-1,-1,-1],"split_conditions":[2.6138613E-1,-5.5657186E-2,2.43E-1,6.837607E-3,4.25E2,-1.4580663E0,-6.1722887E-1,-6.1926854E-1,8.5191764E-2,-1.1127775E0,-6.9683146E-1],"split_indices":[5,31,13,27,1,0,0,0,0,0,0],"split_type":[0,0,0,0,0,0,0,0,0,0,0],"sum_hessian":[8.022788E2,6.646598E2,1.37619E2,7.171985E1,5.9293994E2,1.1194224E2,2.567677E1,3.3061607E1,3.8658237E1,1.8935303E2,4.0358694E2],"tree_param":{"num_deleted":"0","num_feature":"33","num_nodes":"11","size_leaf_vector":"1"}},{"base_weights":[-5.1972538E1,-6.2452442E1,-4.173616E1,-4.0461773E1,-7.3498276E1,-4.725851E1,-1.3592186E1,-8.978181E-1,-2.8643253E-1,-5.349466E-1,-1.3782277E0,-5.8821994E-1,-1.0094643E0,-6.136644E-1,5.0632723E-2],"categories":[],"categories_nodes":[],"categories_segments":[],"categories_sizes":[],"default_left":[0,0,0,0,0,1,1,0,0,0,0,0,0,0,0],"id":79,"left_children":[1,3,5,7,9,11,13,-1,-1,-1,-1,-1,-1,-1,-1],"loss_changes":[6.118475E4,6.33145E4,6.116625E4,3.5240344E4,5.6508625E4,3.6050125E4,3.2756555E4,0E0,0E0,0E0,0E0,0E0,0E0,0E0,0E0],"parents":[2147483647,0,0,1,1,2,2,3,3,4,4,5,5,6,6],"right_children":[2,4,6,8,10,12,14,-1,-1,-1,-1,-1,-1,-1,-1],"split_conditions":[7.434944E-3,7.479224E-2,2.76E-1,4.43E-1,3.05E1,-8.511988E-3,-4.2442292E-2,-8.978181E-1,-2.8643253E-1,-5.349466E-1,-1.3782277E0,-5.8821994E-1,-1.0094643E0,-6.136644E-1,5.0632723E-2],"split_indices":[27,6,18,19,17,30,29,0,0,0,0,0,0,0,0],"split_type":[0,0,0,0,0,0,0,0,0,0,0,0,0,0,0],"sum_hessian":[7.893399E2,3.663378E2,4.230021E2,1.3714148E2,2.291963E2,3.482793E2,7.472279E1,8.135599E1,5.5785496E1,4.4655357E1,1.8454095E2,1.9246503E2,1.5581427E2,2.6802135E1,4.7920662E1],"tree_param":{"num_deleted":"0","num_feature":"33","num_nodes":"15","size_leaf_vector":"1"}},{"base_weights":[-5.0254707E1,-4.309129E1,-6.706912E1,-5.1576263E1,-2.8312567E1,-7.957904E1,-3.4770176E1,-8.809243E-2,-9.15065E-1,1.3639085E-1,-5.544553E-1,-3.5713336E-1,-1.4943593E0,-8.63744E-1,-1.9862437E-1],"categories":[],"categories_nodes":[],"categories_segments":[],"categories_sizes":[],"default_left":[0,0,0,0,0,0,0,0,0,0,0,0,0,0,0],"id":80,"left_children":[1,3,5,7,9,11,13,-1,-1,-1,-1,-1,-1,-1,-1],"loss_changes":[6.924475E4,5.9956625E4,6.3787688E4,4.0922438E4,4.110314E4,6.1852562E4,2.400018E4,0E0,0E0,0E0,0E0,0E0,0E0,0E0,0E0],"parents":[2147483647,0,0,1,1,2,2,3,3,4,4,5,5,6,6],"right_children":[2,4,6,8,10,12,14,-1,-1,-1,-1,-1,-1,-1,-1],"split_conditions":[9.375E-1,3.97E1,6.045309E-2,3.735632E-2,4.04E1,-4.2020727E-2,2.48E-1,-8.809243E-2,-9.15065E-1,1.3639085E-1,-5.544553E-1,-3.5713336E-1,-1.4943593E0,-8.63744E-1,-1.9862437E-1],"split_indices":[8,16,29,6,16,22,18,0,0,0,0,0,0,0,0],"split_type":[0,0,0,0,0,0,0,0,0,0,0,0,0,0,0],"sum_hessian":[7.9103577E2,5.781971E2,2.1283865E2,3.5244275E2,2.2575433E2,1.4349916E2,6.933949E1,2.0200644E1,3.322421E2,2.4088955E1,2.0166537E2,2.3142494E1,1.20356674E2,3.3807156E1,3.5532337E1],"tree_param":{"num_deleted":"0","num_feature":"33","num_nodes":"15","size_leaf_vector":"1"}},{"base_weights":[-5.006838E1,-8.183199E1,-4.543077E1,-1.5223341E0,-6.2141687E-1,-4.78922E1,-3.8432827E0,-8.443475E-1,-1.2772752E-1,-3.6417004E-1,2.5349358E-1],"categories":[],"categories_nodes":[],"categories_segments":[],"categories_sizes":[],"default_left":[0,0,0,0,0,0,0,0,0,0,0],"id":81,"left_children":[1,3,5,-1,-1,7,9,-1,-1,-1,-1],"loss_changes":[8.4564E4,3.0634375E3,7.290075E4,0E0,0E0,5.45405E4,2.006038E4,0E0,0E0,0E0,0E0],"parents":[2147483647,0,0,1,1,2,2,5,5,6,6],"right_children":[2,4,6,-1,-1,8,10,-1,-1,-1,-1],"split_conditions":[2.8111023E-1,2.85E1,1.8648649E-2,-1.5223341E0,-6.2141687E-1,-2.690583E-2,2.58E-1,-8.443475E-1,-1.2772752E-1,-3.6417004E-1,2.5349358E-1],"split_indices":[9,21,23,0,0,7,18,0,0,0,0],"split_type":[0,0,0,0,0,0,0,0,0,0,0],"sum_hessian":[8.018988E2,8.222995E1,7.196688E2,6.149787E1,2.0732077E1,6.7810876E2,4.1560085E1,6.4248114E2,3.562761E1,2.0728228E1,2.0831856E1],"tree_param":{"num_deleted":"0","num_feature":"33","num_nodes":"11","size_leaf_vector":"1"}},{"base_weights":[-5.2679676E1,-6.372384E1,-3.986809E1,-6.586688E1,-2.67918E-1,-2.9378365E1,-5.3984463E1,-1.2614937E0,-8.248885E-1,-8.465867E-1,-3.2363847E-1,-1.0657935E0,-2.518636E-1],"categories":[],"categories_nodes":[],"categories_segments":[],"categories_sizes":[],"default_left":[0,1,1,0,0,0,0,0,0,0,0,0,0],"id":82,"left_children":[1,3,5,7,-1,9,11,-1,-1,-1,-1,-1,-1],"loss_changes":[9.08045E4,3.3216875E4,4.4374875E4,2.557325E4,0E0,4.4022703E4,4.7932656E4,0E0,0E0,0E0,0E0,0E0,0E0],"parents":[2147483647,0,0,1,1,2,2,3,3,5,5,6,6],"right_children":[2,4,6,8,-1,10,12,-1,-1,-1,-1,-1,-1],"split_conditions":[9.009009E-3,5.8231246E-2,-1.096683E-2,2.68E1,-2.67918E-1,2.3880596E-1,2.75E-1,-1.2614937E0,-8.248885E-1,-8.465867E-1,-3.2363847E-1,-1.0657935E0,-2.518636E-1],"split_indices":[27,29,31,21,0,2,18,0,0,0,0,0,0],"split_type":[0,0,0,0,0,0,0,0,0,0,0,0,0],"sum_hessian":[8.011367E2,4.1018457E2,3.9095215E2,3.8922116E2,2.0963388E1,2.4090257E2,1.5004958E2,2.3549597E2,1.537252E2,6.739451E1,1.7350806E2,1.1698581E2,3.306377E1],"tree_param":{"num_deleted":"0","num_feature":"33","num_nodes":"13","size_leaf_vector":"1"}},{"base_weights":[-4.9969208E1,-4.0076263E1,-6.0661854E1,-4.359125E1,-9.539352E0,-7.493824E1,-4.375229E1,-4.8560086E-1,-9.411845E-1,1.77479E-1,-4.391182E-1,-4.9416405E-1,-1.3332281E0,-3.686675E-1,-1.0025481E0],"categories":[],"categories_nodes":[],"categories_segments":[],"categories_sizes":[],"default_left":[0,0,0,0,1,0,1,0,0,0,0,0,0,0,0],"id":83,"left_children":[1,3,5,7,9,11,13,-1,-1,-1,-1,-1,-1,-1,-1],"loss_changes":[6.365225E4,4.46575E4,5.9635125E4,5.7515812E4,2.194643E4,1.293975E4,5.4224875E4,0E0,0E0,0E0,0E0,0E0,0E0,0E0,0E0],"parents":[2147483647,0,0,1,1,2,2,3,3,4,4,5,5,6,6],"right_children":[2,4,6,8,10,12,14,-1,-1,-1,-1,-1,-1,-1,-1],"split_conditions":[7.826087E-1,1.57E2,2.5925925E-1,2.988048E-1,-7.306661E-3,-7.001521E-2,-3.088951E-2,-4.8560086E-1,-9.411845E-1,1.77479E-1,-4.391182E-1,-4.9416405E-1,-1.3332281E0,-3.686675E-1,-1.0025481E0],"split_indices":[8,0,2,4,30,32,31,0,0,0,0,0,0,0,0],"split_type":[0,0,0,0,0,0,0,0,0,0,0,0,0,0,0],"sum_hessian":[8.0836304E2,4.4306543E2,3.652976E2,3.937266E2,4.9338814E1,1.8057997E2,1.8471764E2,1.9130452E2,2.0242209E2,2.3776154E1,2.5562658E1,2.0803457E1,1.5977652E2,8.616614E1,9.85515E1],"tree_param":{"num_deleted":"0","num_feature":"33","num_nodes":"15","size_leaf_vector":"1"}},{"base_weights":[-4.691124E1,-4.1009296E1,-7.7506325E1,-6.864676E1,-3.5817005E1,-1.6555184E0,-3.8757534E1,-4.306568E-1,-1.3006021E0,-9.420442E-1,-4.6321943E-1,-9.3141425E-1,-2.2749881E-1],"categories":[],"categories_nodes":[],"categories_segments":[],"categories_sizes":[],"default_left":[0,0,0,0,0,0,0,0,0,0,0,0,0],"id":84,"left_children":[1,3,5,7,9,-1,11,-1,-1,-1,-1,-1,-1],"loss_changes":[1.18319375E5,7.84815E4,6.1347812E4,1.8203656E4,8.8732875E4,0E0,1.697636E4,0E0,0E0,0E0,0E0,0E0,0E0],"parents":[2147483647,0,0,1,1,2,2,3,3,4,4,6,6],"right_children":[2,4,6,8,10,-1,12,-1,-1,-1,-1,-1,-1],"split_conditions":[2.7115718E-1,3.51E-1,8.8833325E-2,2.72E1,-1.2854349E-2,-1.6555184E0,4.17E-1,-4.306568E-1,-1.3006021E0,-9.420442E-1,-4.6321943E-1,-9.3141425E-1,-2.2749881E-1],"split_indices":[5,19,29,17,29,0,19,0,0,0,0,0,0],"split_type":[0,0,0,0,0,0,0,0,0,0,0,0,0],"sum_hessian":[8.1131476E2,6.985588E2,1.12756E2,9.231426E1,6.062445E2,6.4335945E1,4.842005E1,2.11478E1,7.116646E1,1.6379033E2,4.424542E2,2.2649515E1,2.5770536E1],"tree_param":{"num_deleted":"0","num_feature":"33","num_nodes":"13","size_leaf_vector":"1"}},{"base_weights":[-5.0494606E1,-4.5033226E1,-8.812397E1,-3.9351555E1,-6.775857E1,-5.9651536E-1,-1.7895404E0,-9.0530777E-1,-4.62307E-1,-3.0641517E-1,-1.3076762E0],"categories":[],"categories_nodes":[],"categories_segments":[],"categories_sizes":[],"default_left":[1,0,0,0,0,0,0,0,0,0,0],"id":85,"left_children":[1,3,5,7,9,-1,-1,-1,-1,-1,-1],"loss_changes":[1.2828075E5,6.8267E4,5.1691062E4,8.873544E4,4.9846562E4,0E0,0E0,0E0,0E0,0E0,0E0],"parents":[2147483647,0,0,1,1,2,2,3,3,4,4],"right_children":[2,4,6,8,10,-1,-1,-1,-1,-1,-1],"split_conditions":[9.949169E-3,2.6680243E-1,-4.4895522E-2,3.58E1,-2.247436E-2,-5.9651536E-1,-1.7895404E0,-9.0530777E-1,-4.62307E-1,-3.0641517E-1,-1.3076762E0],"split_indices":[22,5,24,16,23,0,0,0,0,0,0],"split_type":[0,0,0,0,0,0,0,0,0,0,0],"sum_hessian":[7.9633185E2,7.134359E2,8.289592E1,5.9128326E2,1.2215264E2,2.798769E1,5.4908234E1,2.552178E2,3.3606546E2,2.4312605E1,9.7840034E1],"tree_param":{"num_deleted":"0","num_feature":"33","num_nodes":"11","size_leaf_vector":"1"}},{"base_weights":[-4.415762E1,-6.979696E1,-3.73373E1,-7.57263E1,-3.637034E-1,-3.113427E1,-6.193467E1,-5.7474536E-1,-1.3532282E0,-4.3964484E-1,-1.0279727E0,-1.3145906E0,-6.294339E-1],"categories":[],"categories_nodes":[],"categories_segments":[],"categories_sizes":[],"default_left":[0,1,0,0,0,1,0,0,0,0,0,0,0],"id":86,"left_children":[1,3,5,7,-1,9,11,-1,-1,-1,-1,-1,-1],"loss_changes":[1.19130625E5,3.0966875E4,8.394569E4,5.3875E1,0E0,6.906706E4,2.1836688E4,0E0,0E0,0E0,0E0,0E0,0E0],"parents":[2147483647,0,0,1,1,2,2,3,3,5,5,6,6],"right_children":[2,4,6,8,-1,10,12,-1,-1,-1,-1,-1,-1],"split_conditions":[1.5873016E-3,3.2380953E-2,2.6138613E-1,5.352798E-2,-3.637034E-1,9.949169E-3,6.503079E-2,-5.7474536E-1,-1.3532282E0,-4.3964484E-1,-1.0279727E0,-1.3145906E0,-6.294339E-1],"split_indices":[27,29,5,6,0,22,29,0,0,0,0,0,0],"split_type":[0,0,0,0,0,0,0,0,0,0,0,0,0],"sum_hessian":[8.119436E2,1.5236569E2,6.595779E2,1.3093234E2,2.143335E1,5.437512E2,1.1582668E2,2.0300774E1,1.1063157E2,4.7908157E2,6.466964E1,5.8128536E1,5.7698143E1],"tree_param":{"num_deleted":"0","num_feature":"33","num_nodes":"13","size_leaf_vector":"1"}},{"base_weights":[-4.1581547E1,-4.4625874E1,-7.5226226E0,-4.6565273E1,-1.2384637E-1,-5.3998685E-1,2.7649957E-1,-5.800662E-1,-9.078807E-1],"categories":[],"categories_nodes":[],"categories_segments":[],"categories_sizes":[],"default_left":[0,0,0,0,0,0,0,0,0],"id":87,"left_children":[1,3,5,7,-1,-1,-1,-1,-1],"loss_changes":[8.443175E4,5.27375E4,5.2003902E4,4.7059875E4,0E0,0E0,0E0,0E0,0E0],"parents":[2147483647,0,0,1,1,2,2,3,3],"right_children":[2,4,6,8,-1,-1,-1,-1,-1],"split_conditions":[-4.1152265E-2,6.82E2,1.5849057E-1,2.01E-1,-1.2384637E-1,-5.3998685E-1,2.7649957E-1,-5.800662E-1,-9.078807E-1],"split_indices":[7,1,3,13,0,0,0,0,0],"split_type":[0,0,0,0,0,0,0,0,0],"sum_hessian":[8.35333E2,7.6411676E2,7.121629E1,7.2412317E2,3.9993565E1,3.3629604E1,3.7586685E1,2.881376E2,4.3598557E2],"tree_param":{"num_deleted":"0","num_feature":"33","num_nodes":"9","size_leaf_vector":"1"}},{"base_weights":[-4.099449E1,-5.9398125E1,-3.3757137E1,-1.3612399E0,-4.313284E1,-5.7400806E1,-2.7085724E1,-1.2839555E0,-4.8994243E-1,-1.0761728E0,-3.74348E-1,2.0709229E-1,-5.0464255E-1],"categories":[],"categories_nodes":[],"categories_segments":[],"categories_sizes":[],"default_left":[0,0,1,0,0,0,0,0,0,0,0,0,0],"id":88,"left_children":[1,3,5,-1,7,9,11,-1,-1,-1,-1,-1,-1],"loss_changes":[9.1972375E4,4.4004188E4,8.3017375E4,0E0,4.7132406E4,1.51526875E4,5.839625E4,0E0,0E0,0E0,0E0,0E0,0E0],"parents":[2147483647,0,0,1,1,2,2,4,4,5,5,6,6],"right_children":[2,4,6,-1,8,10,12,-1,-1,-1,-1,-1,-1],"split_conditions":[3.75E-1,3.5234523E-1,1.6666667E-1,-1.3612399E0,2.38E1,4.76E-1,-6.502131E-2,-1.2839555E0,-4.8994243E-1,-1.0761728E0,-3.74348E-1,2.0709229E-1,-5.0464255E-1],"split_indices":[19,28,8,0,16,12,31,0,0,0,0,0,0],"split_type":[0,0,0,0,0,0,0,0,0,0,0,0,0],"sum_hessian":[8.226246E2,2.1306973E2,6.095549E2,7.638355E1,1.3668617E2,1.18414276E2,4.9114056E2,2.8702978E1,1.0798319E2,9.398617E1,2.442811E1,3.0411116E1,4.6072946E2],"tree_param":{"num_deleted":"0","num_feature":"33","num_nodes":"13","size_leaf_vector":"1"}},{"base_weights":[-4.4252453E1,-7.427749E1,-4.0137444E1,-8.842525E1,-6.1452055E-1,-5.406805E1,-3.0953176E1,-1.8469293E0,-8.0022097E-1,-1.3110267E0,-7.157086E-1,-3.643598E-1,-7.729202E-1],"categories":[],"categories_nodes":[],"categories_segments":[],"categories_sizes":[],"default_left":[0,1,0,0,0,0,1,0,0,0,0,0,0],"id":89,"left_children":[1,3,5,7,-1,9,11,-1,-1,-1,-1,-1,-1],"loss_changes":[7.6721875E4,1.8621938E4,8.2278E4,2.6462188E3,0E0,4.94515E4,5.790597E4,0E0,0E0,0E0,0E0,0E0,0E0],"parents":[2147483647,0,0,1,1,2,2,3,3,5,5,6,6],"right_children":[2,4,6,8,-1,10,12,-1,-1,-1,-1,-1,-1],"split_conditions":[2.72E1,-1.3613749E-2,4.6948357E-3,-2.7214954E-2,-6.1452055E-1,1.5849057E-1,-1.3227513E-3,-1.8469293E0,-8.0022097E-1,-1.3110267E0,-7.157086E-1,-3.643598E-1,-7.729202E-1],"split_indices":[16,32,27,24,0,3,31,0,0,0,0,0,0],"split_type":[0,0,0,0,0,0,0,0,0,0,0,0,0],"sum_hessian":[8.383784E2,8.173429E1,7.5664417E2,5.03893E1,3.1344988E1,2.823861E2,4.7425806E2,2.302094E1,2.736836E1,7.6133446E1,2.0625266E2,3.0443414E2,1.698239E2],"tree_param":{"num_deleted":"0","num_feature":"33","num_nodes":"13","size_leaf_vector":"1"}},{"base_weights":[-4.2464897E1,-1.3735188E0,-3.931438E1,-3.0754122E1,-5.5099174E1,-8.2879955E-1,-4.1635987E-1,-1.0014067E0,-8.6896025E-2],"categories":[],"categories_nodes":[],"categories_segments":[],"categories_sizes":[],"default_left":[0,0,1,0,1,0,0,0,0],"id":90,"left_children":[1,-1,3,5,7,-1,-1,-1,-1],"loss_changes":[7.4281125E4,0E0,9.3066875E4,4.9478094E4,5.3967E4,0E0,0E0,0E0,0E0],"parents":[2147483647,0,0,2,2,3,3,4,4],"right_children":[2,-1,4,6,8,-1,-1,-1,-1],"split_conditions":[2.44E1,-1.3735188E0,5.9430716E-3,-1.7983651E-1,3.4372714E-1,-8.2879955E-1,-4.1635987E-1,-1.0014067E0,-8.6896025E-2],"split_indices":[16,0,31,7,28,0,0,0,0],"split_type":[0,0,0,0,0,0,0,0,0],"sum_hessian":[8.42983E2,4.5738914E1,7.972441E2,5.348847E2,2.6235938E2,1.17188324E2,4.1769638E2,2.4045244E2,2.1906933E1],"tree_param":{"num_deleted":"0","num_feature":"33","num_nodes":"9","size_leaf_vector":"1"}},{"base_weights":[-4.458475E1,-3.908844E1,-6.440864E1,-2.4827839E1,-4.631865E1,-4.313932E1,-7.9386734E1,1.2100535E-1,-6.2621874E-1,-9.51559E-3,-8.286058E-1,-1.1226403E0,-1.2918864E-1,-5.195224E-1,-1.5802027E0],"categories":[],"categories_nodes":[],"categories_segments":[],"categories_sizes":[],"default_left":[0,0,1,1,0,0,0,0,0,0,0,0,0,0,0],"id":91,"left_children":[1,3,5,7,9,11,13,-1,-1,-1,-1,-1,-1,-1,-1],"loss_changes":[6.693325E4,5.8778812E4,2.0686375E4,9.93885E4,5.4461062E4,6.9038875E4,3.2337375E4,0E0,0E0,0E0,0E0,0E0,0E0,0E0,0E0],"parents":[2147483647,0,0,1,1,2,2,3,3,4,4,5,5,6,6],"right_children":[2,4,6,8,10,12,14,-1,-1,-1,-1,-1,-1,-1,-1],"split_conditions":[2.6138613E-1,-2.3057263E-3,-4.893048E-2,-8.4038384E-2,1.1082474E-1,4.41E-1,3E-1,1.2100535E-1,-6.2621874E-1,-9.51559E-3,-8.286058E-1,-1.1226403E0,-1.2918864E-1,-5.195224E-1,-1.5802027E0],"split_indices":[5,31,32,22,5,19,20,0,0,0,0,0,0,0,0],"split_type":[0,0,0,0,0,0,0,0,0,0,0,0,0,0,0],"sum_hessian":[8.220998E2,6.655155E2,1.5658423E2,2.379231E2,4.2759244E2,7.977487E1,7.6809364E1,6.694165E1,1.7098145E2,2.4771902E1,4.0282053E2,4.318922E1,3.6585648E1,2.4050838E1,5.275853E1],"tree_param":{"num_deleted":"0","num_feature":"33","num_nodes":"15","size_leaf_vector":"1"}},{"base_weights":[-4.013653E1,-2.5717237E1,-5.1608402E1,-3.4373634E1,-5.8644905E0,-3.8897808E1,-5.990064E1,-3.6962608E-1,-9.7913146E-1,2.0158601E-1,-3.4998786E-1,-8.3084315E-1,-4.049894E-1,-8.060729E-1,-1.3477038E0],"categories":[],"categories_nodes":[],"categories_segments":[],"categories_sizes":[],"default_left":[0,0,0,0,0,0,0,0,0,0,0,0,0,0,0],"id":92,"left_children":[1,3,5,7,9,11,13,-1,-1,-1,-1,-1,-1,-1,-1],"loss_changes":[1.2773625E5,6.586784E4,2.6869125E4,6.842569E4,3.69781E4,2.10815E4,2.7818E4,0E0,0E0,0E0,0E0,0E0,0E0,0E0,0E0],"parents":[2147483647,0,0,1,1,2,2,3,3,4,4,5,5,6,6],"right_children":[2,4,6,8,10,12,14,-1,-1,-1,-1,-1,-1,-1,-1],"split_conditions":[2.0408164E-1,7E0,2.02E-1,2.29E-1,1.24E2,3.23E-1,4.716049E0,-3.6962608E-1,-9.7913146E-1,2.0158601E-1,-3.4998786E-1,-8.3084315E-1,-4.049894E-1,-8.060729E-1,-1.3477038E0],"split_indices":[5,15,13,13,10,20,25,0,0,0,0,0,0,0,0],"split_type":[0,0,0,0,0,0,0,0,0,0,0,0,0,0,0],"sum_hessian":[8.382313E2,3.8490573E2,4.533256E2,2.632468E2,1.2165893E2,2.0009995E2,2.5322566E2,1.8396776E2,7.927905E1,5.6187645E1,6.547128E1,1.0565341E2,9.4446526E1,1.7686458E2,7.636109E1],"tree_param":{"num_deleted":"0","num_feature":"33","num_nodes":"15","size_leaf_vector":"1"}},{"base_weights":[-4.267071E1,-6.1853035E1,-3.6883152E1,-6.889816E1,-1.9700755E-1,-5.3019222E1,-3.069037E1,-5.0895035E-1,-1.2262502E0,-3.7211177E-1,-1.0639544E0,1.17916346E-1,-5.898853E-1],"categories":[],"categories_nodes":[],"categories_segments":[],"categories_sizes":[],"default_left":[0,1,0,0,0,0,0,0,0,0,0,0,0],"id":93,"left_children":[1,3,5,7,-1,9,11,-1,-1,-1,-1,-1,-1],"loss_changes":[7.2764125E4,5.7083562E4,5.21735E4,2.148875E3,0E0,4.0817094E4,8.364147E4,0E0,0E0,0E0,0E0,0E0,0E0],"parents":[2147483647,0,0,1,1,2,2,3,3,5,5,6,6],"right_children":[2,4,6,8,-1,10,12,-1,-1,-1,-1,-1,-1],"split_conditions":[2.004008E-3,3.1940177E-2,3.69E-1,-2.6689662E-2,-1.9700755E-1,-5.1088292E-2,-3.271939E-2,-5.0895035E-1,-1.2262502E0,-3.7211177E-1,-1.0639544E0,1.17916346E-1,-5.898853E-1],"split_indices":[27,29,19,22,0,24,22,0,0,0,0,0,0],"split_type":[0,0,0,0,0,0,0,0,0,0,0,0,0],"sum_hessian":[8.391818E2,1.7340096E2,6.657808E2,1.4898419E2,2.4416767E1,1.6493777E2,5.0084308E2,2.0464708E1,1.2851949E2,4.7489754E1,1.1744802E2,4.9968224E1,4.5087485E2],"tree_param":{"num_deleted":"0","num_feature":"33","num_nodes":"13","size_leaf_vector":"1"}},{"base_weights":[-3.7869816E1,-2.931413E1,-5.09931E1,-4.9546364E1,-2.2532345E1,-4.0775646E1,-1.2930173E0,-1.0670588E0,-3.6339185E-1,1.7172809E-1,-4.6661848E-1,-1.0041312E0,-3.0650303E-1],"categories":[],"categories_nodes":[],"categories_segments":[],"categories_sizes":[],"default_left":[0,0,1,0,0,0,0,0,0,0,0,0,0],"id":94,"left_children":[1,3,5,7,9,11,-1,-1,-1,-1,-1,-1,-1],"loss_changes":[8.2419375E4,6.390528E4,5.5884188E4,3.6226094E4,7.3136E4,9.687656E4,0E0,0E0,0E0,0E0,0E0,0E0,0E0],"parents":[2147483647,0,0,1,1,2,2,3,3,4,4,5,5],"right_children":[2,4,6,8,10,12,-1,-1,-1,-1,-1,-1,-1],"split_conditions":[2.2379032E-1,2.4096386E-3,1.7015465E-2,2.3178295E-3,3.65E-1,3.97E1,-1.2930173E0,-1.0670588E0,-3.6339185E-1,1.7172809E-1,-4.6661848E-1,-1.0041312E0,-3.0650303E-1],"split_indices":[5,27,31,23,12,16,0,0,0,0,0,0,0],"split_type":[0,0,0,0,0,0,0,0,0,0,0,0,0],"sum_hessian":[8.498053E2,5.328273E2,3.169781E2,1.1888409E2,4.1394315E2,2.4387502E2,7.310307E1,7.2069695E1,4.6814396E1,5.451837E1,3.5942477E2,1.2524568E2,1.18629326E2],"tree_param":{"num_deleted":"0","num_feature":"33","num_nodes":"13","size_leaf_vector":"1"}},{"base_weights":[-3.661454E1,-4.887311E1,-2.8851442E1,-6.173012E1,-3.3642635E1,-5.560781E1,-2.4462906E1,-1.3663287E0,-7.371065E-1,1.457537E-1,-7.2657317E-1,-1.1655188E0,-3.172869E-1,-5.0285304E-1,4.982897E-2],"categories":[],"categories_nodes":[],"categories_segments":[],"categories_sizes":[],"default_left":[0,0,0,0,0,0,0,0,0,0,0,0,0,0,0],"id":95,"left_children":[1,3,5,7,9,11,13,-1,-1,-1,-1,-1,-1,-1,-1],"loss_changes":[6.6356375E4,4.1342438E4,5.005003E4,2.1338312E4,6.804047E4,2.1365094E4,7.015203E4,0E0,0E0,0E0,0E0,0E0,0E0,0E0,0E0],"parents":[2147483647,0,0,1,1,2,2,3,3,4,4,5,5,6,6],"right_children":[2,4,6,8,10,12,14,-1,-1,-1,-1,-1,-1,-1,-1],"split_conditions":[2.68E1,4.35E-1,2.66E1,1.2631629E-2,3.2081378E-1,3.46E-1,-7.29927E-2,-1.3663287E0,-7.371065E-1,1.457537E-1,-7.2657317E-1,-1.1655188E0,-3.172869E-1,-5.0285304E-1,4.982897E-2],"split_indices":[21,19,16,29,9,19,7,0,0,0,0,0,0,0,0],"split_type":[0,0,0,0,0,0,0,0,0,0,0,0,0,0,0],"sum_hessian":[8.2715936E2,3.0141788E2,5.2574146E2,1.478824E2,1.5353548E2,5.8622047E1,4.6711942E2,5.597482E1,9.1907585E1,2.7998579E1,1.25536896E2,3.6963554E1,2.1658491E1,3.9067572E2,7.64437E1],"tree_param":{"num_deleted":"0","num_feature":"33","num_nodes":"15","size_leaf_vector":"1"}},{"base_weights":[-3.9004417E1,-1.2588699E0,-3.4828907E1,-4.8541344E1,