tree
version=v4
num_class=1
num_tree_per_iteration=1
label_index=0
max_feature_idx=32
objective=huber
feature_names=G b_pa AVG ISO BABIP K_pct BB_pct BB_K_pct SB_pct wOBA wRC_plus RE24 GB_pct LD_pct HR_FB_pct brl_percent ev95percent anglesweetspotpercent est_ba est_slg est_woba sprint_speed BABIP_gap xBA_AVG_gap xSLG_SLG_gap team_rpg experience SB_rate career_BABIP K_pct_delta BB_pct_delta ISO_delta BABIP_delta
feature_infos=[17:162] [70:747] [0.127906976744186:0.37647058823529411] [0:0.39153439153439151] [0.141025641025641:0.45000000000000001] [0.052631578947368397:0.4567901234567901] [0.0148148148148148:0.23200000000000001] [-0.37037037037037029:0.079510703363914303] [0:1] [0.15828680796604061:0.45460280721921598] [-8:220.18299362065247] [-38.972564577375451:80.458901099535879] [0.23529411764705879:0.67400000000000004] [0.10299999999999999:0.38700000000000001] [0:0.44400000000000001] [0:26.5] [8.5:62.200000000000003] [18:49.700000000000003] [0.158:0.35899999999999999] [0.22:0.73199999999999998] [0.193:0.47499999999999998] [21.899999999999999:30.699999999999999] [-0.14322769063438789:0.13294790781648261] [-0.085470588235294104:0.084428571428571395] [-0.19635294117647059:0.165904761904762] [3.4382716049382722:5.8209876543209873] [0:7] [0:0.1260869565217391] [0.21047247023809521:0.40225486986413478] [-0.16460905349794239:0.2144502905877094] [-0.1123191489361702:0.1207561728395062] [-0.2596909610575206:0.21121781904133219] [-0.1731080768340662:0.1773082942097027]
tree_sizes=816 827 833 824 833 828 838 829 819 823 826 825 827 832 820 825 823 828 826 824 820 825 822 834 836 830 810 825 817 818 817 826 851 823 833 832 821 842 822 745 846 839 843 831 760 827 829 835 849 828 848 826 854 840 843 751 838 837 842 846 836 850 850 836 839 848 747 840 853 851 837 846 840 834 844 841 757 846 842 835 841 834 833 757 761 848 841 748 757 758 842 780 843 845 752 844 744 609 851 833 838 856 835 825 844 595 600 770 854 883 767 756 841 756 841 595 843 853 840 839 824 838 684 818 846 836 844 764 846 765 849 749 832 853 768 593 753 769 749 754 862 847 758 754 666 756 752 872 866 588 859 820 673 845 759 662 759 756 754 841 773 848 774 776 771 667 853 589 664 839 763 767 756 828 755 519 594 875 856 841 766 786 759 671 846 755 835 676 748 520 601 698 764 861 853 836 594 755 851 833 765 750 850 846 763 771 760 859 845 591 842 590 859 594 749 519 842 852 764 758 593 766 760 857 771 850 847 765 847 520 851 675 854 754 826 667 593 770 829 859 786 866 681 669 767 593 763 671 509 666 594 592 783 856 845 751 855 669 768 673 766 842 751 840 838 774 834 857 593 777 670 742 670 842 835 775 761 833 766 684 842 756 517 854 680 757 844 672 858 596 673 764 766 837 769 847 593 771 764 756 759 832 703 850 868 763 872 676 761 510 767 859 856 858 756 764 752 849 679 859 680 857 756 522 831 763 759 694 749 593 847 764 773 669 823 858 680 848 761 693 679 749 764 846 845 781 748 853 849 831 756 845 767 610 595 661 513 526 591 596 703 834 775 756 842 765 676 682 829 616 688 516 601 757 759 840 755 765 848 776 591 768 782 847 669 841 691 840 760 699 593 672 681 855 838 595 855 772 764 839 835 769 690 516 848 769 606 512 685 863 761 610 841 847 607 788 845 837 770 675 593 595 760 766 678 842 838 518 770 851 845 757 837 685 775 765 763 676 677 675 832 834 859 779 863 749 674 856 511 766 593 591 673 851 668 849 762 756 678 855 753 589 593 756 767 869 785 692 850 849 765 608 855 864 587 778 779 843 863 759 758 788 766 625 763 848 842 850 853 842 852 705 765 879 608 869 836 840 758 839 694 837 694 676 675 853 528 511 843 850 762 764 676 757 793 868 762 680 852 775 878 860 675 828 696 766 846 750 766 775 694 833 862 843 850 843 786 850 756 780 768 609 611 674 691 509 756 845 772 683 843 766 856 518 680 847 853 596 777 842 785 512 764 773 836 776 605 836 823 844 776 704 844 758 842 841 767 757 838 777 709 764 529 760 673 844 845 518 605 851 516 854 755 840 612 511 766 786 516 682 783 764 708 839 758 842 890 848 777 785 751 857 855 760 794 844 777 863 855 758 846 848 670 673 874 753 834 682 842 857 859 845 762 685 764 679 685 847 676 763 761 781 751 774 840 844 849 589 839 849 826 510 854 769 680 690 518 602 768 783 763 770 836 850 679 585 842 782 687 767 855 782 530 852 847 848 754 607 779 850 679 519 852 610 852 776 836 699 513 671 681 766 787 515 771 767 757 781 848 861 855 747 853 510 843 674 767 843 528 839 850 614 869 844 755 704 754 858 609 845 692 857 843 785 850 762 762 850 850 766 850 695 684 775 857 843 826 832 788 673 857 866 771 676 770 863 769 685 835 838 825 765 593 761 675 605 865 766 756 835 607 758 829 841 687 781 837 870 768 853 851 696 691 515 590 776 697 777 770 849 857 877 846 754 851 769 865 765 844 847 785 779 853 850 850 516 845 602 673 713 672 852 533 758 769 832 845 857 835 778 610 759 887 840 750 670 850 842 771 853 870 770 859 767 763 845 836 852 762 772 767 859 682 763 671 515 770 609

Tree=0
num_leaves=8
num_cat=0
split_feature=11 10 11 7 7 9 30
split_gain=1.06998e+06 314778 174475 103839 87183 55415.1 7767.02
threshold=11.548940337958927 88.080744508399292 36.322646474970121 -0.091086541844917226 -0.13588900292343092 0.27640058713053856 -0.0070989272467138495
decision_type=2 2 2 2 2 2 8
left_child=1 5 3 -2 -3 -1 -4
right_child=2 4 6 -5 -6 -7 -8
leaf_value=247.68037079073852 252.34723665590687 250.09371345567794 255.41229626245348 254.44642140447235 251.41597905406863 249.24035894462622 256.91588580503247
leaf_weight=170.5 285.5 416.5 22 187.5 563.5 305 66
leaf_count=189 294 449 22 194 611 327 66
internal_value=251.135 250.144 253.707 253.179 250.854 248.681 256.54
internal_weight=2016.5 1455.5 561 473 980 475.5 88
internal_count=2152 1576 576 488 1060 516 88
is_linear=0
shrinkage=1


Tree=1
num_leaves=8
num_cat=0
split_feature=1 20 18 1 18 27 11
split_gain=1.51962e+06 307537 211482 118669 84971.5 79225.4 31821.6
threshold=544.50000000000011 0.32550000000000007 0.27350000000000008 620.50000000000011 0.22650000000000003 0.0069304077393222011 5.3913231221939055
decision_type=2 2 2 2 2 2 2
left_child=1 4 3 -2 -1 -3 -4
right_child=2 5 6 -5 -6 -7 -8
leaf_value=-3.622861067852674 0.42947434095959303 -1.1389443510877961 1.7270748643435827 2.5528803064932659 -2.0879619881675309 0.6076214920470745 4.3564068667332139
leaf_weight=259.5 260 301 25 246 521 213 191
leaf_count=286 260 340 25 246 558 246 191
internal_value=-0.310656 -1.73145 2.23673 1.4618 -2.59828 -0.415173 4.05209
internal_weight=2016.5 1294.5 722 506 780.5 514 216
internal_count=2152 1430 722 506 844 586 216
is_linear=0
shrinkage=0.0693017


Tree=2
num_leaves=8
num_cat=0
split_feature=1 20 1 2 20 27 9
split_gain=1.43605e+06 277569 275273 104226 94172.6 76160.7 65809.9
threshold=511.50000000000006 0.32550000000000007 622.50000000000011 0.25512303686906862 0.33250000000000007 0.0069304077393222011 0.29158791629514325
decision_type=2 2 2 2 2 2 2
left_child=1 6 3 -2 -4 -3 -1
right_child=2 5 4 -5 -6 -7 -8
leaf_value=-3.6090380792705408 -0.53260840194846104 -1.2756074661701062 1.7385354079237627 1.5663264400432892 4.0397374048555585 0.56337305256166748 -2.2270977942433747
leaf_weight=263.5 186 271 130 292 249 180 445
leaf_count=292 186 310 130 292 249 213 480
internal_value=-0.295619 -1.88557 1.85555 0.749586 3.25041 -0.541646 -2.74106
internal_weight=2016.5 1159.5 857 478 379 451 708.5
internal_count=2152 1295 857 478 379 523 772
is_linear=0
shrinkage=0.0693017


Tree=3
num_leaves=8
num_cat=0
split_feature=1 19 2 7 11 27 1
split_gain=1.36101e+06 282639 147887 125762 86841.5 57021.1 48501
threshold=558.50000000000011 0.38050000000000006 0.25512303686906862 -0.066189505858379988 36.322646474970121 0.0042553384125776509 620.50000000000011
decision_type=2 2 2 2 2 2 2
left_child=1 5 6 -3 -4 -1 -2
right_child=2 3 4 -5 -6 -7 -8
leaf_value=-4.0792160401235353 -0.43383011494840579 -1.0991071808971544 2.5528221263240574 1.3270836747498858 5.0964031104044851 -2.3949704892293253 1.861193325504175
leaf_weight=130.5 96 745 396 119 77 371 82
leaf_count=140 96 824 396 139 77 398 82
internal_value=-0.281415 -1.52456 2.32613 -0.764944 2.96689 -2.83324 0.623428
internal_weight=2016.5 1365.5 651 864 473 501.5 178
internal_count=2152 1501 651 963 473 538 178
is_linear=0
shrinkage=0.0693017


Tree=4
num_leaves=8
num_cat=0
split_feature=1 1 11 11 2 5 27
split_gain=1.29219e+06 254457 186453 96550.8 89220.6 78359.7 76765
threshold=511.50000000000006 622.50000000000011 1.811077420156231 1.6349441806581908 0.25512303686906862 0.1656097397819252 0.004509588595367351
decision_type=2 2 2 2 2 2 2
left_child=2 4 5 -3 -2 -1 -4
right_child=1 3 6 -5 -6 -7 -8
leaf_value=-0.95049626951848221 -0.47682850909972613 0.92330102271086245 -1.7659306100077043 3.6724159980500346 1.4651423882886569 -2.8795204904716711 -0.0030032182864613553
leaf_weight=124 186 77 204.5 302 292 548.5 282.5
leaf_count=135 186 77 230 302 292 609 321
internal_value=-0.267773 1.77281 -1.77599 3.11389 0.70948 -2.52383 -0.743288
internal_weight=2016.5 857 1159.5 379 478 672.5 487
internal_count=2152 857 1295 379 478 744 551
is_linear=0
shrinkage=0.0693017


Tree=5
num_leaves=8
num_cat=0
split_feature=1 18 18 1 18 9 12
split_gain=1.21781e+06 250108 194161 98693.5 92574.2 68873 36649.1
threshold=544.50000000000011 0.24050000000000002 0.27350000000000008 635.50000000000011 0.28350000000000003 0.27640058713053856 0.46150000000000008
decision_type=2 2 2 2 2 2 2
left_child=1 5 3 -2 -3 -1 -4
right_child=2 4 6 -5 -6 -7 -8
leaf_value=-4.1076714223079769 0.52102211099575346 -0.96767765299243347 4.378047737046816 2.5116292965071954 1.5011691376964962 -2.2337374059418593 2.4344019805481474
leaf_weight=120.5 312 660.5 148 194 82 431.5 68
leaf_count=136 312 723 148 194 104 467 68
internal_value=-0.253698 -1.5256 2.02674 1.28422 -0.695024 -2.64281 3.76616
internal_weight=2016.5 1294.5 722 506 742.5 552 216
internal_count=2152 1430 722 506 827 603 216
is_linear=0
shrinkage=0.0693017


Tree=6
num_leaves=8
num_cat=0
split_feature=18 10 10 5 18 18 8
split_gain=800263 228296 203439 94092.7 91710.1 55164.7 38851.6
threshold=0.25550000000000006 129.50000000000003 88.080744508399292 0.2523818165320752 0.27350000000000008 0.22050000000000003 0.22500000000000003
decision_type=2 2 2 2 2 2 10
left_child=2 4 5 -4 -2 -1 -3
right_child=1 6 3 -5 -6 -7 -8
leaf_value=-3.7397189279592555 -0.0099217851554008387 0.80089418091953668 -0.17890243491558358 -1.8296659835127891 1.8413887063700589 -2.0731355237407993 3.2858113395065898
leaf_weight=150 408.5 34.5 476 254.5 187.5 262 243.5
leaf_count=167 428 45 499 274 198 280 261
internal_value=-0.241009 1.33745 -1.44851 -0.754014 0.572496 -2.6799 2.97743
internal_weight=2016.5 874 1142.5 730.5 596 412 278
internal_count=2152 932 1220 773 626 447 306
is_linear=0
shrinkage=0.0693017


Tree=7
num_leaves=8
num_cat=0
split_feature=1 1 20 11 5 27 18
split_gain=1.13524e+06 232832 223787 103864 80958.5 66027.8 58097.4
threshold=511.50000000000006 618.50000000000011 0.32550000000000007 1.6349441806581908 0.28615302680631988 0.0069304077393222011 0.22450000000000003
decision_type=2 2 2 2 2 2 2
left_child=2 4 6 -3 -2 -4 -1
right_child=1 3 5 -5 -6 -7 -8
leaf_value=-3.3230529177074701 0.84280746860693057 0.75934396518462766 -1.1220175889192656 3.4910636487330402 -3.1387336466866573 0.59026329481537687 -1.9805082419311955
leaf_weight=228.5 433 85 271 313 26 180 480
leaf_count=254 433 85 310 313 26 213 518
internal_value=-0.231691 1.68095 -1.64535 2.90766 0.617274 -0.438624 -2.4135
internal_weight=2016.5 857 1159.5 398 459 451 708.5
internal_count=2152 857 1295 398 459 523 772
is_linear=0
shrinkage=0.0693017


Tree=8
num_leaves=8
num_cat=0
split_feature=11 9 11 5 5 5 11
split_gain=753264 221802 154702 121487 120514 57024 6795.44
threshold=11.548940337958927 0.29158791629514325 36.322646474970121 0.20334284296700569 0.20451542025570399 0.27661562934977141 42.593446757852995
decision_type=2 2 2 2 2 2 2
left_child=1 5 4 -3 -2 -1 -4
right_child=2 3 6 -5 -6 -7 -8
leaf_value=-2.2201090534464911 2.496972992652847 0.22936688445480671 3.7999422200159003 -1.2190679703492897 0.28217960575867579 -4.5975413060832837 5.065917412910367
leaf_weight=261 247.5 487.5 32 647.5 225.5 59.5 56
leaf_count=281 254 522 32 703 234 70 56
internal_value=-0.21999 -1.05155 1.93747 -0.596943 1.44108 -2.66147 4.60556
internal_weight=2016.5 1455.5 561 1135 473 320.5 88
internal_count=2152 1576 576 1225 488 351 88
is_linear=0
shrinkage=0.0693017


Tree=9
num_leaves=8
num_cat=0
split_feature=1 1 20 20 5 21 2
split_gain=1.03587e+06 219030 202070 87767.1 73890 72674.6 58465.9
threshold=511.50000000000006 618.50000000000011 0.32550000000000007 0.33250000000000007 0.28615302680631988 26.650000000000002 0.28905774706154336
decision_type=2 2 2 2 2 2 2
left_child=2 4 5 -3 -2 -1 -4
right_child=1 3 6 -5 -6 -7 -8
leaf_value=-3.303703600818511 0.8014100656282297 1.4180106681676243 -0.79334904732370592 3.5696802462912895 -3.002346859498243 -1.8038589990670693 1.2242444031278481
leaf_weight=229.5 433 141 366 257 26 479 85
leaf_count=254 433 141 417 257 26 518 106
internal_value=-0.209401 1.61762 -1.55977 2.80741 0.585947 -2.28969 -0.413093
internal_weight=2016.5 857 1159.5 398 459 708.5 451
internal_count=2152 857 1295 398 459 772 523
is_linear=0
shrinkage=0.0693017


Tree=10
num_leaves=8
num_cat=0
split_feature=0 18 18 11 0 31 12
split_gain=763864 283337 206491 112878 102234 56464.8 37550
threshold=135.50000000000003 0.24150000000000002 0.27350000000000008 4.4784800507550626 151.50000000000003 -0.0093453871237147972 0.46150000000000008
decision_type=2 2 2 2 2 10 2
left_child=1 5 4 -3 -2 -1 -4
right_child=2 3 6 -5 -6 -7 -8
leaf_value=-2.0829991135348056 0.094600303327946167 -1.2379838994921031 4.0132526200377443 0.51577867335286143 1.9566143226710739 -3.7077979015747271 1.9846377318342063
leaf_weight=368 366 366 139 340 231 142.5 64
leaf_count=407 366 413 139 376 231 156 64
internal_value=-0.19895 -1.29276 1.46433 -0.393396 0.815078 -2.53654 3.37369
internal_weight=2016.5 1216.5 800 706 597 510.5 203
internal_count=2152 1352 800 789 597 563 203
is_linear=0
shrinkage=0.0693017


Tree=11
num_leaves=8
num_cat=0
split_feature=1 19 1 1 19 27 28
split_gain=924407 210903 118350 97437.4 63941.8 60701.6 33812.6
threshold=558.50000000000011 0.38050000000000006 635.50000000000011 407.50000000000006 0.42650000000000005 0.0042553384125776509 0.29940588670404455
decision_type=2 2 2 2 2 2 8
left_child=1 5 6 -3 -4 -1 -2
right_child=2 3 4 -5 -6 -7 -8
leaf_value=-3.6307911391876417 -0.38377686453527105 -1.2827117684316232 1.3903498604613771 0.18938774236000738 3.5520757906315388 -1.8930397895572486 1.3879017411361374
leaf_weight=130.5 64 439 93 425 224 371 270
leaf_count=140 64 538 93 425 224 398 270
internal_value=-0.190239 -1.21476 1.95874 -0.558589 2.91788 -2.34524 1.04842
internal_weight=2016.5 1365.5 651 864 317 501.5 334
internal_count=2152 1501 651 963 317 538 334
is_linear=0
shrinkage=0.0693017


Tree=12
num_leaves=8
num_cat=0
split_feature=1 1 20 20 21 20 31
split_gain=869532 192387 173993 81898.2 69375.3 56533.8 55789.7
threshold=511.50000000000006 618.50000000000011 0.32550000000000007 0.33250000000000007 26.650000000000002 0.38750000000000007 -0.051188698836058998
decision_type=2 2 2 2 2 2 10
left_child=2 5 4 -3 -1 -2 -4
right_child=1 3 6 -5 -6 -7 -8
leaf_value=-3.0853975582950612 0.35847088899649471 1.2667117996316093 0.5298358267284734 3.3451968302696038 -1.6199935236674177 4.0394041414676938 -1.0260299595878886
leaf_weight=229.5 438 141 195 257 479 21 256
leaf_count=254 438 141 218 257 518 21 305
internal_value=-0.180145 1.49377 -1.41735 2.60885 -2.09467 0.52688 -0.353316
internal_weight=2016.5 857 1159.5 398 708.5 459 451
internal_count=2152 857 1295 398 772 459 523
is_linear=0
shrinkage=0.0693017


Tree=13
num_leaves=8
num_cat=0
split_feature=18 20 18 27 18 5 29
split_gain=583936 129029 120122 73039.6 72445 70759.8 51556
threshold=0.25550000000000006 0.37050000000000005 0.24050000000000002 0.0072634849955683011 0.20250000000000004 0.19898665679699318 -0.042701173754515244
decision_type=2 2 2 2 2 2 8
left_child=2 5 4 -3 -1 -2 -4
right_child=1 3 6 -5 -6 -7 -8
leaf_value=-3.8533110691999695 1.2029090606189887 1.3999939716638092 -2.8078891931589443 4.1034938763575495 -1.5467914801851308 -0.32623667878961526 -0.14668504605556812
leaf_weight=73.5 472 95 38 97 593.5 210 437.5
leaf_count=86 494 106 41 106 632 226 461
internal_value=-0.169508 1.17883 -1.20097 2.76582 -1.80096 0.732058 -0.359358
internal_weight=2016.5 874 1142.5 192 667 682 475.5
internal_count=2152 932 1220 212 718 720 502
is_linear=0
shrinkage=0.0693017


Tree=14
num_leaves=8
num_cat=0
split_feature=1 18 10 18 1 18 27
split_gain=799439 174014 125066 76032.7 74237.1 49377.7 39103.7
threshold=567.50000000000011 0.24150000000000002 129.50000000000003 0.27650000000000008 410.50000000000006 0.23950000000000002 0.0072634849955683011
decision_type=2 2 2 2 2 2 2
left_child=1 4 5 -3 -1 -2 -4
right_child=2 3 6 -5 -6 -7 -8
leaf_value=-2.57633970723115 -0.2771696657357417 -0.72725616703845253 2.2954254747615606 1.0315418881245115 -0.98343449966193552 1.6401569812518346 4.4272148474340005
leaf_weight=371.5 78 655 72 144 226 373 97
leaf_count=424 78 709 72 173 226 373 97
internal_value=-0.159835 -1.07925 1.91108 -0.410276 -1.97383 1.30856 3.519
internal_weight=2016.5 1396.5 620 799 597.5 451 169
internal_count=2152 1532 620 882 650 451 169
is_linear=0
shrinkage=0.0693017


Tree=15
num_leaves=8
num_cat=0
split_feature=0 9 11 8 5 27 0
split_gain=586339 190527 168431 104523 89508.5 71123.4 65843.9
threshold=135.50000000000003 0.33263455438210499 15.23241389833934 0.7236111111111112 0.16161677167484828 0.0027739731297803504 157.50000000000003
decision_type=2 2 2 10 2 2 2
left_child=1 4 6 -3 -1 -4 -2
right_child=2 3 5 -5 -6 -7 -8
leaf_value=-0.1238061006764986 0.19662144725825678 -0.82790719795012047 0.26616068979801683 1.3823912505358082 -2.0804357608230859 3.0038288267062372 2.7867835027551844
leaf_weight=135.5 426 252 55 173.5 655.5 266 53
leaf_count=147 426 288 55 202 715 266 53
internal_value=-0.150841 -1.10916 1.3064 0.0733543 -1.74526 2.53476 0.483216
internal_weight=2016.5 1216.5 800 425.5 791 321 479
internal_count=2152 1352 800 490 862 321 479
is_linear=0
shrinkage=0.0693017


Tree=16
num_leaves=8
num_cat=0
split_feature=11 11 19 8 17 8 2
split_gain=513509 174443 131622 114569 55382.2 28077.7 8969.62
threshold=5.3913231221939055 36.322646474970121 0.33050000000000007 1.0000000180025095e-35 37.45000000000001 0.63397129186602885 0.28582712705935459
decision_type=2 2 2 10 2 10 2
left_child=2 3 5 -2 -4 -1 -3
right_child=1 6 4 -5 -6 -7 -8
leaf_value=-4.2396091792627209 -1.1033334523867173 2.9957533977013284 -0.6038618266001643 1.1623018021411375 -2.1882925928852766 -2.3016323427483583 4.5128937801630835
leaf_weight=52 128 27 852 659.5 121 116 61
leaf_count=59 140 27 920 685 137 123 61
internal_value=-0.141453 1.12105 -1.11019 0.794046 -0.800898 -2.90148 4.04741
internal_weight=2016.5 875.5 1141 787.5 973 168 88
internal_count=2152 913 1239 825 1057 182 88
is_linear=0
shrinkage=0.0693017


Tree=17
num_leaves=8
num_cat=0
split_feature=0 18 18 0 9 21 27
split_gain=533028 204323 163094 79516.9 71359.8 66529.8 39896.1
threshold=135.50000000000003 0.24150000000000002 0.27350000000000008 156.50000000000003 0.34584731324154205 26.750000000000004 0.0015479913254975001
decision_type=2 2 2 2 2 2 2
left_child=1 5 3 -2 -3 -1 -4
right_child=2 4 6 -5 -6 -7 -8
leaf_value=-3.0950568588239582 0.31169856775103449 -0.77963506926127046 0.30181699981957283 2.4124940523750911 0.69273147525641188 -1.4714061090464157 3.310840035019218
leaf_weight=198 492 467 24 105 239 312.5 179
leaf_count=225 492 511 24 105 278 338 179
internal_value=-0.131223 -1.04493 1.25819 0.681185 -0.281199 -2.10115 2.95509
internal_weight=2016.5 1216.5 800 597 706 510.5 203
internal_count=2152 1352 800 597 789 563 203
is_linear=0
shrinkage=0.0693017


Tree=18
num_leaves=8
num_cat=0
split_feature=1 1 10 10 13 5 5
split_gain=652051 158097 128115 81510.2 67650.4 65079.5 63154.2
threshold=511.50000000000006 635.50000000000011 113.50000000000001 114.50000000000001 0.18450000000000003 0.21402502273047416 0.25842731369472299
decision_type=2 2 2 2 2 2 2
left_child=2 5 6 -3 -4 -2 -1
right_child=1 3 4 -5 -6 -7 -8
leaf_value=-1.2523809288686911 1.2061944233223119 1.1105835250657683 2.1870114629836861 3.4094420932722151 -0.46627623923338674 -0.35717836463436314 -2.5705727774500367
leaf_weight=616.5 332 118 57 199 242.5 208 243.5
leaf_count=666 332 118 65 199 289 208 275
internal_value=-0.124348 1.32519 -1.19572 2.55372 0.03869 0.604006 -1.62561
internal_weight=2016.5 857 1159.5 317 299.5 540 860
internal_count=2152 857 1295 317 354 540 941
is_linear=0
shrinkage=0.0693017


Tree=19
num_leaves=8
num_cat=0
split_feature=11 11 27 19 5 27 28
split_gain=432815 156648 122105 115372 120033 39559.6 16871.3
threshold=5.3913231221939055 36.322646474970121 0.0015479913254975001 0.33050000000000007 0.25842731369472299 0.013460464133109801 0.31321922375307348
decision_type=2 2 2 2 2 2 8
left_child=3 2 -2 5 -5 -1 -3
right_child=1 6 -4 4 -6 -7 -8
leaf_value=-3.9715468547975252 -1.1384188128846073 2.4120005487629865 1.1314871574169052 -0.26996388658520454 -2.0457558261806863 -1.8049901624684956 4.4721828945647886
leaf_weight=68 138 28 649.5 729 244 100 60
leaf_count=76 150 28 675 781 276 106 60
internal_value=-0.11548 1.04359 0.733713 -1.00485 -0.715281 -2.68193 3.81667
internal_weight=2016.5 875.5 787.5 1141 973 168 88
internal_count=2152 913 825 1239 1057 182 88
is_linear=0
shrinkage=0.0693017


Tree=20
num_leaves=8
num_cat=0
split_feature=1 19 5 2 21 20 1
split_gain=586469 149282 127011 96976.7 55905.9 54839.3 39974
threshold=567.50000000000011 0.38050000000000006 0.25448665187517899 0.25512303686906862 26.750000000000004 0.33250000000000007 620.50000000000011
decision_type=2 2 2 2 2 2 2
left_child=1 4 -3 6 -1 -5 -2
right_child=3 2 -4 5 -6 -7 -8
leaf_value=-2.9683978467680538 -0.78288230279982829 0.18612902475414803 -1.6243615320736904 1.157660707196762 -1.3721213090149911 2.7594888033960694 1.3497195223207232
leaf_weight=149.5 87 625 265 158 357 293 82
leaf_count=164 87 690 299 158 379 293 82
internal_value=-0.105996 -0.893482 -0.35295 1.66775 -1.84328 2.19832 0.251871
internal_weight=2016.5 1396.5 890 620 506.5 451 169
internal_count=2152 1532 989 620 543 451 169
is_linear=0
shrinkage=0.0693017


Tree=21
num_leaves=8
num_cat=0
split_feature=1 1 19 10 21 20 29
split_gain=550764 138557 115940 73333.8 71236.8 47515.3 47117.1
threshold=511.50000000000006 635.50000000000011 0.43950000000000006 114.50000000000001 26.650000000000002 0.38750000000000007 -0.033430338478882195
decision_type=2 2 2 2 2 2 8
left_child=2 5 4 -3 -1 -2 -4
right_child=1 3 6 -5 -6 -7 -8
leaf_value=-2.4300297006684399 0.41802021449627275 1.0146310853785683 -2.0145807448664863 3.1951422027085354 -1.0651773187899365 3.57249820870206 0.30437344236756486
leaf_weight=280.5 516 118 49 199 532 24 298
leaf_count=310 516 118 64 199 581 24 340
internal_value=-0.0988399 1.23337 -1.08349 2.38347 -1.53637 0.558219 -0.0230869
internal_weight=2016.5 857 1159.5 317 812.5 540 347
internal_count=2152 857 1295 317 891 540 404
is_linear=0
shrinkage=0.0693017


Tree=22
num_leaves=8
num_cat=0
split_feature=1 1 10 10 8 1 7
split_gain=512387 130422 103393 69213 61711 58787.3 50464.6
threshold=511.50000000000006 635.50000000000011 113.50000000000001 114.50000000000001 0.70900537634408611 422.50000000000006 -0.041034396826358989
decision_type=2 2 2 2 10 2 2
left_child=2 6 5 -3 -4 -1 -2
right_child=1 3 4 -5 -6 -7 -8
leaf_value=-1.8037539424241176 0.32083872588369694 0.97822761083432619 -0.7668308008541076 3.0965885336544909 1.2540186545414411 -0.55341692395885655 2.6116794701358157
leaf_weight=602 489 118 176 199 123.5 258 51
leaf_count=683 489 118 205 199 149 258 51
internal_value=-0.0927323 1.19223 -1.04246 2.30805 0.0664744 -1.42865 0.537196
internal_weight=2016.5 857 1159.5 317 299.5 860 540
internal_count=2152 857 1295 317 354 941 540
is_linear=0
shrinkage=0.0693017


Tree=23
num_leaves=8
num_cat=0
split_feature=11 5 19 11 27 3 22
split_gain=339197 150880 157965 83168.4 64871.4 35752.6 10355.8
threshold=15.23241389833934 0.25842731369472299 0.38050000000000006 36.322646474970121 0.0020492147476274002 0.19102056814364107 -0.0065237632258933493
decision_type=2 2 2 2 2 2 10
left_child=1 2 -1 4 -2 -3 -5
right_child=3 5 -4 6 -6 -7 -8
leaf_value=-1.1926871532215191 -0.70425188879344958 -2.4362704494558205 0.43694010584312709 4.2196828630380878 1.5961994810457252 -1.0553495476107497 2.7145554969170687
leaf_weight=466.5 74 197.5 737 46 288 165.5 42
leaf_count=489 76 219 799 46 292 189 42
internal_value=-0.0865261 -0.568265 -0.194735 1.59046 1.12594 -1.80668 3.50133
internal_weight=2016.5 1566.5 1203.5 450 362 363 88
internal_count=2152 1696 1288 456 368 408 88
is_linear=0
shrinkage=0.0693017


Tree=24
num_leaves=8
num_cat=0
split_feature=18 3 3 5 5 8 27
split_gain=330272 118567 89664.7 83171.3 80275.5 61027.2 54101
threshold=0.25550000000000006 0.19026269177671848 0.14372487058736738 0.20157359699206237 0.25746051301279521 0.88057040998217484 0.004914034579348951
decision_type=2 2 2 2 2 8 2
left_child=2 6 5 -3 -4 -1 -2
right_child=1 3 4 -5 -6 -7 -8
leaf_value=-1.1450779679338949 -0.87665072154518575 2.7683871429996918 0.12392944489388769 0.78398500785828096 -1.3479363111247837 -3.0544640845774791 0.70653438438307892
leaf_weight=264.5 155 208 479.5 198 283 115.5 313
leaf_count=275 166 222 502 216 311 132 328
internal_value=-0.0800335 0.934002 -0.85576 1.80062 -0.42235 -1.72543 0.182189
internal_weight=2016.5 874 1142.5 406 762.5 380 468
internal_count=2152 932 1220 438 813 407 494
is_linear=0
shrinkage=0.0693017


Tree=25
num_leaves=8
num_cat=0
split_feature=18 18 11 27 6 8 12
split_gain=308588 144607 102042 70631.6 74348.8 65062.4 32398.9
threshold=0.27350000000000008 0.24150000000000002 5.1810626090565082 0.0069304077393222011 0.060733136027119307 inf 0.46349999999999997
decision_type=2 2 2 2 2 8 2
left_child=1 5 -3 6 -5 -1 -2
right_child=3 2 -4 4 -6 -7 -8
leaf_value=-0.98743032305405642 1.1828049199428123 -0.60079834683259825 0.8354815282627156 -0.018756037649813335 3.2078165077893455 -2.9902522899849231 -1.1265146959177701
leaf_weight=601 120.5 509 445.5 43 169.5 89.5 38.5
leaf_count=637 134 548 458 47 182 106 40
internal_value=-0.0756742 -0.483084 0.0695659 1.72833 2.55491 -1.24703 0.62363
internal_weight=2016.5 1645 954.5 371.5 212.5 690.5 159
internal_count=2152 1749 1006 403 229 743 174
is_linear=0
shrinkage=0.0693017


Tree=26
num_leaves=8
num_cat=0
split_feature=1 1 0 11 18 16 1
split_gain=434407 149171 137259 64203.9 62679.9 37357.4 21350.7
threshold=604.50000000000011 422.50000000000006 61.500000000000007 28.12328708864386 0.27750000000000008 26.550000000000004 679.50000000000011
decision_type=2 2 2 2 2 2 2
left_child=1 2 -1 5 -3 -2 -5
right_child=3 4 -4 6 -6 -7 -8
leaf_value=0.42458573240658387 -1.4598154598859359 -0.15011743553100046 -1.7579817469397017 2.4525676779678274 1.8181858668743687 1.4952245252636973 4.3263185692755917
leaf_weight=177.5 22 664 628 80 88 311 46
leaf_count=313 22 664 628 80 88 311 46
internal_value=-0.069532 -0.621718 -1.27703 1.80417 0.0802159 1.3 3.13664
internal_weight=2016.5 1557.5 805.5 459 752 333 126
internal_count=2152 1693 941 459 752 333 126
is_linear=0
shrinkage=0.0693017


Tree=27
num_leaves=8
num_cat=0
split_feature=0 18 18 13 3 10 8
split_gain=309636 122162 104777 61279.7 49050.2 48755.6 37855
threshold=135.50000000000003 0.24150000000000002 0.27350000000000008 0.25250000000000006 0.16057478243270593 157.50000000000003 0.93095238095238109
decision_type=2 2 2 2 2 2 8
left_child=1 4 3 -2 -1 -3 -4
right_child=2 5 6 -5 -6 -7 -8
leaf_value=-2.2172082003975135 0.66295909950405951 -0.27338915176934031 2.7717790244613467 -3.2390371763000774 -0.85616048136514966 3.0411211784604495 0.20686786233980373
leaf_weight=270.5 577 684 170 20 240 22 33
leaf_count=293 577 758 170 20 270 31 33
internal_value=-0.0642455 -0.760647 0.99472 0.532239 -1.57734 -0.170104 2.35482
internal_weight=2016.5 1216.5 800 597 510.5 706 203
internal_count=2152 1352 800 597 563 789 203
is_linear=0
shrinkage=0.0693017


Tree=28
num_leaves=8
num_cat=0
split_feature=1 1 5 10 7 1 3
split_gain=383052 130730 66227.8 65908 63395.8 77807.8 23561.4
threshold=604.50000000000011 422.50000000000006 0.27346591254637237 108.50000000000001 -0.04305710048201699 688.50000000000011 0.15929910929530289
decision_type=2 2 2 2 2 2 2
left_child=1 3 -3 -1 5 -2 -6
right_child=4 2 -4 -5 6 -7 -8
leaf_value=-1.6234599657288629 0.89431004546020032 0.33776881120164215 -1.5538443743214347 -0.28131040245068106 1.4860928857607936 3.5420158545015434 4.2571284989073321
leaf_weight=546.5 319 649 103 259 20 64 56
leaf_count=620 319 649 103 321 20 64 56
internal_value=-0.0599154 -0.578436 0.0786782 -1.19191 1.69955 1.33675 3.52791
internal_weight=2016.5 1557.5 752 805.5 459 383 76
internal_count=2152 1693 752 941 459 383 76
is_linear=0
shrinkage=0.0693017


Tree=29
num_leaves=8
num_cat=0
split_feature=1 1 9 7 1 29 3
split_gain=356779 120319 68603.3 60302.6 73507.6 58882.6 23127
threshold=604.50000000000011 422.50000000000006 0.3245388162060639 -0.04305710048201699 688.50000000000011 -0.015779614339146996 0.15929910929530289
decision_type=2 2 2 2 2 8 2
left_child=1 2 -1 4 -2 -3 -5
right_child=3 5 -4 6 -6 -7 -8
leaf_value=-1.6527988693876172 0.85953284370079552 -1.0138558637824278 -0.34029423512350038 1.4037018061369273 3.4330331314413254 0.42060648623006169 4.1490751107957298
leaf_weight=493 319 181 312.5 20 64 571 56
leaf_count=556 319 181 385 20 64 571 56
internal_value=-0.0546422 -0.555065 -1.1436 1.64341 1.28957 0.0753436 3.42661
internal_weight=2016.5 1557.5 805.5 459 383 752 76
internal_count=2152 1693 941 459 383 752 76
is_linear=0
shrinkage=0.0693017


Tree=30
num_leaves=8
num_cat=0
split_feature=1 1 7 1 21 7 27
split_gain=331823 110870 56973.5 69328.8 54915.3 51998.5 22252.6
threshold=604.50000000000011 422.50000000000006 -0.04305710048201699 688.50000000000011 26.650000000000002 -0.21501873839795446 0.015794684691005704
decision_type=2 2 2 2 2 2 2
left_child=1 4 3 -2 -1 -3 -4
right_child=2 5 6 -5 -6 -7 -8
leaf_value=-1.8433758503863169 0.8259463585626966 -1.902547672453667 2.4656690441016269 3.3252278212291522 -0.65856952553406245 0.24061829805481039 4.9652626574440752
leaf_weight=298.5 319 59 50 64 507 693 26
leaf_count=352 319 59 50 64 589 693 26
internal_value=-0.0500732 -0.532677 1.58752 1.24358 -1.09763 0.072471 3.32079
internal_weight=2016.5 1557.5 459 383 805.5 752 76
internal_count=2152 1693 459 383 941 752 76
is_linear=0
shrinkage=0.0693017


Tree=31
num_leaves=8
num_cat=0
split_feature=1 1 0 18 19 27 19
split_gain=308559 102207 121574 56419.5 56283.1 54624.2 19994.1
threshold=604.50000000000011 422.50000000000006 65.500000000000014 0.27750000000000008 0.42650000000000005 0.0015479913254975001 0.41750000000000004
decision_type=2 2 2 2 2 2 2
left_child=1 2 -1 -3 6 -6 -2
right_child=4 3 -4 -5 5 -7 -8
leaf_value=0.40566631176298185 0.73578702492585413 -0.14896931288723322 -1.5505369771883692 1.7184517039209737 -0.20327034544284231 2.4313646631525145 -1.6216298892724468
leaf_weight=204.5 127 664 601 88 44 268 20
leaf_count=340 127 664 601 88 44 268 20
internal_value=-0.0460856 -0.511464 -1.0539 0.0695587 1.53306 2.05981 0.41505
internal_weight=2016.5 1557.5 805.5 752 459 312 147
internal_count=2152 1693 941 752 459 312 147
is_linear=0
shrinkage=0.0693017


Tree=32
num_leaves=8
num_cat=0
split_feature=19 8 27 19 27 29 21
split_gain=198041 119688 91413.6 57845.2 49369.7 46056 35020
threshold=0.42650000000000005 0.92582417582417598 0.0038350946088056008 0.34550000000000003 0.0026317429756702007 -0.0078295055839181487 27.150000000000002
decision_type=2 8 2 2 2 8 2
left_child=2 5 6 -4 -3 -2 -1
right_child=1 4 3 -5 -6 -7 -8
leaf_value=-2.1078404520323608 0.41350227853302485 -1.2069761938016039 -1.2824569383009419 0.057329025173909448 0.55520247764192887 1.6595318528578944 -0.087294946541010485
leaf_weight=234 216 172.5 211.5 577 137 418.5 50
leaf_count=252 231 190 224 612 156 431 56
internal_value=-0.0416912 0.690349 -0.686024 -0.302043 -0.426949 1.23535 -1.75211
internal_weight=2016.5 944 1072.5 788.5 309.5 634.5 284
internal_count=2152 1008 1144 836 346 662 308
is_linear=0
shrinkage=0.0693017


Tree=33
num_leaves=8
num_cat=0
split_feature=1 1 31 20 16 9 1
split_gain=280277 101358 61310.1 58625.3 48664.8 41735.4 40279.5
threshold=618.50000000000011 429.50000000000006 -0.051188698836058998 0.39250000000000007 37.45000000000001 0.31519858534303352 693.50000000000011
decision_type=2 2 8 2 2 2 2
left_child=1 2 -1 -3 5 -2 -6
right_child=4 3 -4 -5 6 -7 -8
leaf_value=0.49262045606726246 -1.2799037292183453 0.0080539617563896281 -1.2116802358524597 3.1834956670919738 1.8034353616587218 1.3381126019216425 4.1745760375016445
leaf_weight=118 41 752 719.5 29 214 102 41
leaf_count=154 41 752 819 29 214 102 41
internal_value=-0.0367927 -0.44195 -0.971552 0.125964 1.61081 0.587493 2.18468
internal_weight=2016.5 1618.5 837.5 781 398 143 255
internal_count=2152 1754 973 781 398 143 255
is_linear=0
shrinkage=0.0693017


Tree=34
num_leaves=8
num_cat=0
split_feature=1 5 19 19 5 13 17
split_gain=260399 84755.5 92771.2 47577.1 64401.7 45816.2 28261.1
threshold=604.50000000000011 0.2612719607969014 0.38050000000000006 0.42650000000000005 0.20401450053705691 0.16150000000000003 31.550000000000004
decision_type=2 2 2 2 2 2 2
left_child=1 2 -1 6 -5 -3 -2
right_child=3 5 -4 4 -6 -7 -8
leaf_value=-0.99816771810195704 1.5467460505879129 1.1296823687813844 0.27401394359399567 2.7714328420582754 0.76180102778461156 -1.6375138951601489 -0.40832181154649472
leaf_weight=428.5 60 31.5 770 177 135 327.5 87
leaf_count=452 60 36 840 177 135 365 87
internal_value=-0.0331056 -0.460626 -0.180829 1.41758 1.90188 -1.39471 0.389665
internal_weight=2016.5 1557.5 1198.5 459 312 359 147
internal_count=2152 1693 1292 459 312 401 147
is_linear=0
shrinkage=0.0693017


Tree=35
num_leaves=8
num_cat=0
split_feature=0 21 16 0 7 7 31
split_gain=174653 91518.1 104324 67588.5 55784.7 44622.3 44181
threshold=135.50000000000003 26.350000000000005 39.650000000000013 157.50000000000003 -0.041034396826358989 -0.075784266409266332 0.011923627798995253
decision_type=2 2 2 2 2 2 10
left_child=1 5 -3 4 -2 -1 -5
right_child=3 2 -4 6 -6 -7 -8
leaf_value=-1.8607395232274155 0.25615584998852969 -0.71742159940275863 0.90299272590904134 3.3433902574845855 2.2059134716871585 -0.090925814492513662 0.74248716483249311
leaf_weight=290.5 592 542 294.5 73 80 89.5 55
leaf_count=322 592 591 339 73 80 100 55
internal_value=-0.0290465 -0.552071 -0.146935 0.766277 0.48827 -1.4439 2.22581
internal_weight=2016.5 1216.5 836.5 800 672 380 128
internal_count=2152 1352 930 800 672 422 128
is_linear=0
shrinkage=0.0693017


Tree=36
num_leaves=8
num_cat=0
split_feature=1 0 1 1 1 5 29
split_gain=230781 80930 77648.7 77609.7 76275.1 59670.5 34191.7
threshold=478.50000000000006 61.500000000000007 203.50000000000003 690.50000000000011 320.50000000000006 0.20401450053705691 -0.013564953726821349
decision_type=2 2 2 2 2 2 8
left_child=1 2 -1 5 -3 -2 -5
right_child=3 4 -4 6 -6 -7 -8
leaf_value=-0.93427796385717643 1.0621213908623075 -1.9236606224262387 1.9688423087608014 0.71742470093360677 -0.55062288734355191 -0.066021501160755933 3.8895077698426177
leaf_weight=84 501 299 93.5 24 555 409 51
leaf_count=165 501 299 148 24 555 409 51
internal_value=-0.027007 -0.751491 0.594971 0.731678 -1.03135 0.555077 2.87444
internal_weight=2016.5 1031.5 177.5 985 854 910 75
internal_count=2152 1167 313 985 854 910 75
is_linear=0
shrinkage=0.0693017


Tree=37
num_leaves=8
num_cat=0
split_feature=18 5 15 28 32 12 28
split_gain=181269 79420 112740 44381.9 44109 38855 16863.6
threshold=0.27350000000000008 0.2612719607969014 5.8500000000000005 0.34047484834466119 -0.048446133038909142 0.45050000000000007 0.35000248382288962
decision_type=2 2 2 10 10 2 10
left_child=1 2 -1 5 -3 -2 -5
right_child=3 4 -4 6 -6 -7 -8
leaf_value=-0.73285193225526735 1.6599412553591375 -0.41597975198169285 0.57806592981147775 4.5045229498204522 -1.9035348399378025 0.094335834436258009 1.8574366959748305
leaf_weight=622.5 202.5 180 638 26.5 204.5 122 20.5
leaf_count=656 222 201 669 30 223 130 21
internal_value=-0.0230345 -0.335285 -0.069333 1.35961 -1.20715 1.07133 3.34994
internal_weight=2016.5 1645 1260.5 371.5 384.5 324.5 47
internal_count=2152 1749 1325 403 424 352 51
is_linear=0
shrinkage=0.0693017


Tree=38
num_leaves=8
num_cat=0
split_feature=1 1 0 29 19 5 28
split_gain=208766 78858 105933 65952 40627.1 46262.4 25925.8
threshold=618.50000000000011 410.50000000000006 65.500000000000014 -0.045623511645861446 0.42650000000000005 0.20401450053705691 0.30982172005991276
decision_type=2 2 2 8 2 2 8
left_child=1 2 -1 -3 6 -6 -2
right_child=4 3 -4 -5 5 -7 -8
leaf_value=0.47093376392669456 -1.2629532682357398 -1.9814504812799794 -1.3706778745537447 0.2685765536477826 2.6452934826633858 0.81356151917368702 0.97660555323742682
leaf_weight=204.5 34 68 563 783 158 114 92
leaf_count=340 34 68 563 783 158 114 92
internal_value=-0.0209369 -0.370608 -0.879981 0.0887859 1.40103 1.87758 0.37228
internal_weight=2016.5 1618.5 767.5 851 398 272 126
internal_count=2152 1754 903 851 398 272 126
is_linear=0
shrinkage=0.0693017


Tree=39
num_leaves=7
num_cat=0
split_feature=1 21 3 18 11 1
split_gain=192829 78540.4 61920.6 55775.9 43781.1 31443.4
threshold=618.50000000000011 26.750000000000004 0.17920597484276729 0.27950000000000008 -9.4095939079853288 705.50000000000011
decision_type=2 2 2 2 2 2
left_child=1 3 -3 -1 -2 -6
right_child=4 2 -4 -5 5 -7
leaf_value=-1.1948125240787417 -1.3462362752309343 -0.40824974612617426 0.71396699353277271 0.8876308968114166 1.358394493364816 3.7351448061205148
leaf_weight=555.5 27 607 386.5 69.5 342 29
leaf_count=601 27 647 424 82 342 29
internal_value=-0.01852 -0.35458 0.0283248 -0.963245 1.34809 1.54418
internal_weight=2016.5 1618.5 993.5 625 398 371
internal_count=2152 1754 1071 683 398 371
is_linear=0
shrinkage=0.0693017


Tree=40
num_leaves=8
num_cat=0
split_feature=18 13 18 27 6 11 6
split_gain=152090 93543 84403.8 59174.8 57832.7 50675.6 29360.8
threshold=0.27350000000000008 0.22949999999999998 0.24150000000000002 0.0072634849955683011 0.060733136027119307 17.713835493813601 0.070025670196318612
decision_type=2 2 2 2 2 2 2
left_child=1 2 -1 6 -5 -3 -2
right_child=3 5 -4 4 -6 -7 -8
leaf_value=-0.64437684813194174 1.7649543400746905 -1.5648282977570807 0.4835827229024271 -0.25140382632067304 2.5977469618686797 1.1936706856356452 -0.32770335418909502
leaf_weight=581 44.5 323 705.5 43 167.5 35.5 116.5
leaf_count=621 49 356 736 47 180 36 127
internal_value=-0.0156728 -0.30169 -0.0258184 1.25081 2.01574 -1.29167 0.250702
internal_weight=2016.5 1645 1286.5 371.5 210.5 358.5 161
internal_count=2152 1749 1357 403 227 392 176
is_linear=0
shrinkage=0.0693017


Tree=41
num_leaves=8
num_cat=0
split_feature=11 27 5 19 5 27 32
split_gain=129038 100740 76259.4 49030.7 56281.7 27540 20819.2
threshold=5.3913231221939055 0.0015479913254975001 0.28615302680631988 0.33050000000000007 0.25842731369472299 0.023893921903232255 -0.021193062702496646
decision_type=2 2 2 2 2 2 8
left_child=3 6 -3 5 -5 -1 -2
right_child=1 2 -4 4 -6 -7 -8
leaf_value=-2.2878544030974397 -2.6853860250411992 1.1335973138458906 -1.7520426136438552 -0.0048007235811569635 -1.2207785602253369 -0.46070583849903241 -0.63165193078045956
leaf_weight=104 30 685.5 47 729 244 64 113
leaf_count=114 31 709 49 781 276 68 124
internal_value=-0.0128912 0.619985 0.948444 -0.498503 -0.309732 -1.5918 -1.06251
internal_weight=2016.5 875.5 732.5 1141 973 168 143
internal_count=2152 913 758 1239 1057 182 155
is_linear=0
shrinkage=0.0693017


Tree=42
num_leaves=8
num_cat=0
split_feature=11 27 5 13 5 5 29
split_gain=118721 92739.1 71843.6 48794.9 45176.2 32974.4 23865.2
threshold=5.3913231221939055 0.0015479913254975001 0.20157359699206237 0.22949999999999998 0.25842731369472299 0.13349779145423368 0.029843388085878105
decision_type=2 2 2 2 2 2 8
left_child=3 6 -3 4 -1 -5 -2
right_child=1 2 -4 5 -6 -7 -8
leaf_value=0.065257127853569519 -1.6831383579179662 1.6043857059804396 0.2316826585376911 0.71874995456750468 -1.1093341431281596 -1.5555639969264206 0.18588897758511541
leaf_weight=654.5 92 363.5 369 35 207 244.5 51
leaf_count=692 100 375 383 38 230 279 55
internal_value=-0.00931506 0.597735 0.912881 -0.47511 -0.216972 -1.27077 -1.01656
internal_weight=2016.5 875.5 732.5 1141 861.5 279.5 143
internal_count=2152 913 758 1239 922 317 155
is_linear=0
shrinkage=0.0693017


Tree=43
num_leaves=8
num_cat=0
split_feature=1 1 31 19 19 3 31
split_gain=162374 62376.6 53545.3 46687.1 43560 40295.9 19396.4
threshold=466.50000000000006 690.50000000000011 -0.016661176997751697 0.55950000000000022 0.43950000000000006 0.16908604415978423 -0.011909040413138748
decision_type=2 2 10 2 2 2 10
left_child=2 3 4 -2 -1 -4 -3
right_child=1 6 5 -5 -6 -7 -8
leaf_value=-0.570388673098568 0.33582421107569749 3.7197413443060667 -2.1698216898534306 2.4715131555462477 0.79882716651058516 -0.67885695736278728 1.4858009114577444
leaf_weight=490 900 35 153 52 144.5 202 40
leaf_count=542 900 35 166 52 170 247 40
internal_value=-0.00634183 0.604073 -0.639891 0.452479 -0.258566 -1.32144 2.52831
internal_weight=2016.5 1027 989.5 952 634.5 355 75
internal_count=2152 1027 1125 952 712 413 75
is_linear=0
shrinkage=0.0693017


Tree=44
num_leaves=7
num_cat=0
split_feature=18 0 31 32 8 16
split_gain=123470 68835.7 59107.6 42122.9 41554 32262.5
threshold=0.27350000000000008 151.50000000000003 -0.0093453871237147972 -0.047368006056531492 0.92582417582417598 34.650000000000013
decision_type=2 2 10 8 8 2
left_child=1 2 -1 -2 -5 -3
right_child=3 5 -4 4 -6 -7
leaf_value=-0.094028557120728731 4.272504331561076 -0.3107138883792574 -1.0184256366314766 1.3768330006745431 -0.40825484104180537 1.4266603412570995
leaf_weight=880.5 19.5 77 533.5 270.5 81.5 154
leaf_count=950 23 77 568 285 95 154
internal_value=-0.00390137 -0.261606 -0.442802 1.13721 0.963524 0.847536
internal_weight=2016.5 1645 1414 371.5 352 231
internal_count=2152 1749 1518 403 380 231
is_linear=0
shrinkage=0.0693017


Tree=45
num_leaves=8
num_cat=0
split_feature=1 0 1 20 1 14 28
split_gain=145316 68920.9 65885.3 59062.9 58348.6 48960 28590.5
threshold=466.50000000000006 65.500000000000014 320.50000000000006 0.37650000000000006 209.50000000000003 0.21450000000000002 0.31196850774023194
decision_type=2 2 2 2 2 2 8
left_child=1 4 -3 5 -1 -2 -5
right_child=3 2 -4 6 -6 -7 -8
leaf_value=-0.68185588414288634 0.51927608884918841 -1.7678052022362809 -0.43357682687043858 0.081998052768878379 1.6609434933427187 -1.5453649048570572 2.6111393056179222
leaf_weight=98.5 848 272 513 28 106 59 92
leaf_count=186 848 272 513 28 154 59 92
internal_value=-0.00132922 -0.600678 -0.895883 0.576135 0.532505 0.384972 2.02101
internal_weight=2016.5 989.5 785 1027 204.5 907 120
internal_count=2152 1125 785 1027 340 907 120
is_linear=0
shrinkage=0.0693017


Tree=46
num_leaves=8
num_cat=0
split_feature=1 21 16 5 27 16 8
split_gain=134897 68121.2 64397.8 50193.5 40910 48001 35011.2
threshold=620.50000000000011 26.750000000000004 27.950000000000003 0.25448665187517899 0.0027739731297803504 39.650000000000013 0.34848484848484851
decision_type=2 2 2 2 2 2 8
left_child=1 3 -3 -1 6 -6 -2
right_child=4 2 -4 -5 5 -7 -8
leaf_value=-0.53133931980015503 1.3361248298176889 -1.2294496157116352 0.31535154354573425 -2.0784112676090789 0.64769396316315364 2.3035206124965644 -2.3130120384667157
leaf_weight=502 23 153 847.5 126 176 161 28
leaf_count=540 23 161 917 146 176 161 28
internal_value=0.000679382 -0.275995 0.0791151 -0.841739 1.16193 1.43876 -0.667323
internal_weight=2016.5 1628.5 1000.5 628 388 337 51
internal_count=2152 1764 1078 686 388 337 51
is_linear=0
shrinkage=0.0693017


Tree=47
num_leaves=8
num_cat=0
split_feature=18 16 17 27 6 20 25
split_gain=105176 62329.8 69705.3 54743.8 43812 38685.9 32072
threshold=0.27350000000000008 23.950000000000003 38.350000000000001 0.021790454986704903 0.056295524725558807 0.39150000000000007 4.5432098765432114
decision_type=2 2 2 2 2 2 2
left_child=1 6 -3 5 -5 -2 -1
right_child=3 2 -4 4 -6 -7 -8
leaf_value=-0.88391195347066365 0.17736737699148228 0.014788931115596449 -1.6770896676951372 -0.13712746230302444 3.4240112875494257 2.2120508690281606 -3.3730999385731004
leaf_weight=62 226 1414 127.5 22 67.5 56 41.5
leaf_count=63 242 1503 137 24 74 63 46
internal_value=0.00216229 -0.235686 -0.125149 1.05535 2.54865 0.581418 -1.88199
internal_weight=2016.5 1645 1541.5 371.5 89.5 282 103.5
internal_count=2152 1749 1640 403 98 305 109
is_linear=0
shrinkage=0.0693017


Tree=48
num_leaves=8
num_cat=0
split_feature=3 31 8 21 16 29 25
split_gain=102335 75819.2 59574.4 59060.9 39226.6 47758.8 24701.5
threshold=0.17920597484276729 0.0040438451069686509 0.69397993311036799 25.850000000000005 23.950000000000003 -0.041659012253205598 4.8055555555555562
decision_type=2 10 10 2 2 8 2
left_child=4 2 -2 -3 6 -6 -1
right_child=1 3 -4 -5 5 -7 -8
leaf_value=-1.1632082290057497 0.40411438850292514 -1.7278662337771338 1.9332357163799878 0.29218352991425744 -1.7373098952204229 -0.1445918987788353 -3.7551186710519393
leaf_weight=89.5 256.5 88.5 234 324 100.5 901.5 22
leaf_count=93 272 99 250 351 105 957 25
internal_value=0.00303239 0.551256 1.1336 -0.141209 -0.441553 -0.304341 -1.67462
internal_weight=2016.5 903 490.5 412.5 1113.5 1002 111.5
internal_count=2152 972 522 450 1180 1062 118
is_linear=0
shrinkage=0.0693017


Tree=49
num_leaves=8
num_cat=0
split_feature=1 0 7 1 1 7 22
split_gain=122454 76168.6 63487.6 64861.9 51778.9 45295.1 29285.3
threshold=429.50000000000006 65.500000000000014 -0.041034396826358989 688.50000000000011 209.50000000000003 -0.08056402933731413 0.0086405065222047023
decision_type=2 2 2 2 2 2 10
left_child=1 4 3 -2 -1 -3 -4
right_child=2 5 6 -5 -6 -7 -8
leaf_value=-0.61727412289447359 0.14440867200538057 -1.2626452170488101 2.4024758637875481 2.4044578542852064 1.5896957365367916 0.3579772780972299 -0.4325041733234174
leaf_weight=98.5 988 535 105 65 106 98 21
leaf_count=186 988 535 105 65 154 98 21
internal_value=0.00466935 -0.636092 0.459833 0.283918 0.526681 -1.01174 1.92998
internal_weight=2016.5 837.5 1179 1053 204.5 633 126
internal_count=2152 973 1179 1053 340 633 126
is_linear=0
shrinkage=0.0693017


Tree=50
num_leaves=8
num_cat=0
split_feature=5 3 16 21 28 21 28
split_gain=99554.7 120683 63942.6 65085.6 46064.6 41366.6 36871.9
threshold=0.20401450053705691 0.16808161518156517 39.650000000000013 25.850000000000005 0.3200318032870097 24.550000000000004 0.3249572085537738
decision_type=2 2 2 2 8 2 8
left_child=1 6 4 -4 -2 -3 -1
right_child=2 5 3 -5 -6 -7 -8
leaf_value=-0.95642239770400173 -1.9590898640459011 -0.96003982185220926 -1.4623236930555155 0.45178143465223375 -0.56076871136918083 1.6792938948423934 0.26718676206397918
leaf_weight=177 160.5 31 105.5 446 383.5 356.5 356.5
leaf_count=188 175 32 116 487 405 381 368
internal_value=0.00624994 0.537321 -0.440228 0.0856199 -0.973325 1.46815 -0.138772
internal_weight=2016.5 921 1095.5 551.5 544 387.5 533.5
internal_count=2152 969 1183 603 580 413 556
is_linear=0
shrinkage=0.0693017


Tree=51
num_leaves=8
num_cat=0
split_feature=1 0 7 1 27 1 21
split_gain=108603 69477.6 57065.6 58056.4 49274.6 46555.9 35996.6
threshold=429.50000000000006 69.500000000000014 -0.041034396826358989 688.50000000000011 0.018040333796940155 262.50000000000006 27.250000000000004
decision_type=2 2 2 2 2 2 2
left_child=1 6 3 -2 -4 -3 -1
right_child=2 5 4 -5 -6 -7 -8
leaf_value=-0.37689334697021842 0.13863343091894048 -2.3243341213469555 1.0148421863561083 2.2768336618553007 4.1318846642358737 -0.70794266851296683 1.3667717390058549
leaf_weight=122 988 103 93 65 33 506 106.5
leaf_count=201 988 103 93 65 33 506 163
internal_value=0.00875345 -0.594681 0.437402 0.270621 1.83121 -0.981323 0.4358
internal_weight=2016.5 837.5 1179 1053 126 609 228.5
internal_count=2152 973 1179 1053 126 609 364
is_linear=0
shrinkage=0.0693017


Tree=52
num_leaves=8
num_cat=0
split_feature=5 19 27 22 13 31 22
split_gain=89558.2 89408 76298.9 68082.3 49756.5 34498.2 15882.5
threshold=0.2612719607969014 0.38050000000000006 0.0020060200722730004 -0.078491443631064986 0.16250000000000003 0.035372620360480007 -0.089626445318088235
decision_type=2 2 2 10 2 10 10
left_child=1 3 -3 -1 6 -6 -2
right_child=4 2 -4 -5 5 -7 -8
leaf_value=0.094718556385891758 2.9251760187202454 -0.44281228303289744 0.89008469321266559 -1.6031802467717902 -0.87827077837938283 -2.736895943160035 0.072470480347416197
leaf_weight=297 18.5 270.5 868.5 183.5 302.5 57 19
leaf_count=308 21 295 914 196 332 65 21
internal_value=0.0104232 0.23909 0.573536 -0.553699 -0.922386 -1.17296 1.47981
internal_weight=2016.5 1619.5 1139 480.5 397 359.5 37.5
internal_count=2152 1713 1209 504 439 397 42
is_linear=0
shrinkage=0.0693017


Tree=53
num_leaves=8
num_cat=0
split_feature=7 16 21 28 3 9 21
split_gain=90247.8 74385.9 53185.8 41575.6 34245.4 23929.3 23146.4
threshold=-0.041034396826358989 39.650000000000013 25.850000000000005 0.32267572171007558 0.13553674304290056 0.33646835683824933 26.250000000000004
decision_type=2 2 2 8 2 2 2
left_child=1 3 -3 -1 6 -6 -2
right_child=4 2 -4 -5 5 -7 -8
leaf_value=-1.1032029522305282 -1.7543808016007139 -0.75907526943608472 0.69209069240247978 -0.19474172140144069 4.5278620591119649 1.7975372101435476 1.1190096857791629
leaf_weight=362.5 19.5 152 600.5 727.5 18.5 92.5 43.5
leaf_count=393 20 165 650 758 20 100 46
internal_value=0.0114751 -0.130998 0.398965 -0.496868 1.52014 2.25259 0.229627
internal_weight=2016.5 1842.5 752.5 1090 174 111 63
internal_count=2152 1966 815 1151 186 120 66
is_linear=0
shrinkage=0.0693017


Tree=54
num_leaves=8
num_cat=0
split_feature=1 29 5 27 27 30 27
split_gain=95922.9 61601.8 59106 40684.2 33540.9 31278.1 14805.9
threshold=620.50000000000011 -0.047799223173229245 0.25746051301279521 0.0062761780964010012 0.0027739731297803504 -0.020448367758208397 1.0000000180025095e-35
decision_type=2 8 2 2 2 10 2
left_child=1 3 -3 -1 6 -6 -2
right_child=4 2 -4 -5 5 -7 -8
leaf_value=-3.2839061390523971 0.28494291744633599 0.14957991695590755 -0.85262209584685056 -0.67236837245800485 2.2861286962447478 0.8159593871418952 -2.1335866362186895
leaf_weight=48.5 31 1133.5 376.5 70 98 239 20
leaf_count=54 31 1211 420 79 98 239 20
internal_value=0.0135967 -0.219711 -0.100307 -1.74123 0.992826 1.24349 -0.6635
internal_weight=2016.5 1628.5 1510 118.5 388 337 51
internal_count=2152 1764 1631 133 388 337 51
is_linear=0
shrinkage=0.0693017


Tree=55
num_leaves=7
num_cat=0
split_feature=1 29 1 14 13 18
split_gain=91373.1 56991.1 52963.9 38213.9 33994.5 32740.1
threshold=422.50000000000006 -0.045623511645861446 702.50000000000011 0.29250000000000004 0.22949999999999998 0.26350000000000007
decision_type=2 8 2 2 2 2
left_child=3 5 -3 4 -1 -2
right_child=1 2 -4 -5 -6 -7
leaf_value=-0.32901500539231449 -2.2115755427928829 0.4521122417950697 3.1916050540648793 2.5985020808012242 -1.3176197085437109 0.29391632439502441
leaf_weight=547 60 1073 35 18 240.5 43
leaf_count=623 60 1073 35 26 292 43
internal_value=0.0132312 0.393697 0.538649 -0.558766 -0.630932 -1.16559
internal_weight=2016.5 1211 1108 805.5 787.5 103
internal_count=2152 1211 1108 941 915 103
is_linear=0
shrinkage=0.0693017


Tree=56
num_leaves=8
num_cat=0
split_feature=1 7 15 32 24 16 23
split_gain=83712.5 56584.2 47761 32968.6 31986.6 44088.7 24956.1
threshold=620.50000000000011 -0.065476741495024235 5.8500000000000005 0.021218851536797704 -0.047895571761521642 37.45000000000001 -0.032526694770466442
decision_type=2 2 2 10 2 2 2
left_child=1 3 -3 -1 6 -6 -2
right_child=4 2 -4 -5 5 -7 -8
leaf_value=-0.21285437521025952 0.58372589169338818 0.06832821133666174 2.1057495559779897 -1.0769658021008037 -0.48905842784126685 1.2219333682905456 3.476013505633341
leaf_weight=1121.5 23 161.5 84 261.5 108 219 38
leaf_count=1210 23 174 96 284 108 219 38
internal_value=0.0138232 -0.204129 0.76545 -0.376242 0.928606 0.656835 2.38548
internal_weight=2016.5 1628.5 245.5 1383 388 327 61
internal_count=2152 1764 270 1494 388 327 61
is_linear=0
shrinkage=0.0693017


Tree=57
num_leaves=8
num_cat=0
split_feature=1 0 5 10 31 31 3
split_gain=80384.8 66162.3 53160.4 57374.1 39648.7 38853.1 34445.3
threshold=422.50000000000006 69.500000000000014 0.27346591254637237 140.50000000000003 -0.014596316566299098 0.016464934151252251 0.13290087892678407
decision_type=2 2 2 2 10 10 2
left_child=1 6 3 -2 -3 -4 -1
right_child=2 4 5 -5 -6 -7 -8
leaf_value=-0.94941982149074866 0.37177384767437627 -0.52375504298854014 -0.17764416218307752 2.1463829460260704 -1.7564095022334403 -2.8247550507107642 0.98422410304422758
leaf_weight=60 988 393 89 96 184 38 168.5
leaf_count=93 988 393 89 96 184 38 271
internal_value=0.0149148 -0.521587 0.371771 0.528935 -0.916837 -0.969693 0.476484
internal_weight=2016.5 805.5 1211 1084 577 127 228.5
internal_count=2152 941 1211 1084 577 127 364
is_linear=0
shrinkage=0.0693017


Tree=58
num_leaves=8
num_cat=0
split_feature=7 27 3 27 22 13 7
split_gain=76762.8 60596.1 58279.3 49361.2 42897.2 33466.3 17342.2
threshold=-0.041034396826358989 0.0051391872380884508 0.16680440771349861 0.018040333796940155 0.041624347311985353 0.18849999999999997 -0.029473814842392598
decision_type=2 2 2 2 10 2 2
left_child=1 2 -1 5 -3 -2 -5
right_child=3 4 -4 6 -6 -7 -8
leaf_value=-1.3876971896022781 2.5310363543767167 0.27219400434691704 -0.10687338766811048 1.8848506201356769 -2.3018686410972151 -0.017218141220647663 4.4972752063804782
leaf_weight=283.5 34 1098.5 428.5 23 32 91 26
leaf_count=304 35 1162 462 23 38 99 29
internal_value=0.0153271 -0.116072 -0.616864 1.40672 0.199332 0.675907 3.27104
internal_weight=2016.5 1842.5 712 174 1130.5 125 49
internal_count=2152 1966 766 186 1200 134 52
is_linear=0
shrinkage=0.0693017


Tree=59
num_leaves=8
num_cat=0
split_feature=18 16 29 12 27 25 27
split_gain=63627.8 51953.1 57624.8 46708.7 36324.8 27346.6 20009.7
threshold=0.27350000000000008 23.950000000000003 -0.017235974042157248 0.37050000000000005 0.0072634849955683011 4.5432098765432114 0.014042752721344752
decision_type=2 2 8 2 2 2 2
left_child=1 5 -3 6 -5 -1 -2
right_child=3 2 -4 4 -6 -7 -8
leaf_value=-0.74971128655329944 1.6251953491776989 -0.90348019170857141 0.14734752399535161 -0.40041699977665907 1.127244927836571 -3.0482187799904814 4.1576298836134402
leaf_weight=62 43 315 1226.5 130.5 175 41.5 23
leaf_count=63 50 334 1306 140 188 46 25
internal_value=0.0166946 -0.168303 -0.0673854 0.835861 0.474676 -1.67134 2.50771
internal_weight=2016.5 1645 1541.5 371.5 305.5 103.5 66
internal_count=2152 1749 1640 403 328 109 75
is_linear=0
shrinkage=0.0693017


Tree=60
num_leaves=8
num_cat=0
split_feature=7 1 31 19 29 25 29
split_gain=71083.7 56467.4 43497.6 42598 41622.8 39607.7 13758.3
threshold=-0.065476741495024235 429.50000000000006 -0.05614864523103439 0.52550000000000019 -0.045623511645861446 5.2253086419753094 -0.011615824975697299
decision_type=2 2 8 2 8 2 8
left_child=1 2 -1 5 -3 -2 -5
right_child=3 4 -4 6 -6 -7 -8
leaf_value=0.77652554896370973 0.89542813254102538 -1.3682248750979196 -0.83114973062607522 1.3416330604269979 0.3244683032631796 -1.5941584337205166 3.8729413039926128
leaf_weight=92.5 278 76 640.5 16.5 851 34.5 27.5
leaf_count=119 294 76 725 20 851 38 29
internal_value=0.0169541 -0.173726 -0.628271 0.904834 0.185693 0.620578 2.9237
internal_weight=2016.5 1660 733 356.5 927 312.5 44
internal_count=2152 1771 844 381 927 332 49
is_linear=0
shrinkage=0.0693017


Tree=61
num_leaves=8
num_cat=0
split_feature=5 15 29 16 29 28 27
split_gain=69840 92759.4 59369.6 47106.1 46529.8 37672.2 35377.9
threshold=0.20401450053705691 6.8500000000000005 -0.015382942771095398 39.650000000000013 -0.0145692952043878 0.3200318032870097 0.004914034579348951
decision_type=2 2 8 2 8 8 2
left_child=1 6 -3 5 -5 -2 -1
right_child=3 2 -4 4 -6 -7 -8
leaf_value=-0.81941648537434042 -1.7047680668058374 0.13762138115437117 2.2018825243227145 -1.0863452452431741 0.43842171196240881 -0.44022363031504891 0.32290687681287267
leaf_weight=184.5 160.5 103 191 124 427.5 383.5 442.5
leaf_count=196 175 112 199 137 466 405 462
internal_value=0.0182078 0.463017 1.47869 -0.355749 0.0955911 -0.813311 -0.0132313
internal_weight=2016.5 921 294 1095.5 551.5 544 627
internal_count=2152 969 311 1183 603 580 658
is_linear=0
shrinkage=0.0693017


Tree=62
num_leaves=8
num_cat=0
split_feature=5 19 28 27 13 22 28
split_gain=67202.1 62564.5 63276.5 59260.2 44881 24013.4 16551.6
threshold=0.2612719607969014 0.38050000000000006 0.3249572085537738 0.0020060200722730004 0.16250000000000003 -0.03296385700963634 0.32842941027222405
decision_type=2 2 8 2 2 10 8
left_child=1 2 -1 -3 6 -6 -2
right_child=4 3 -4 -5 5 -7 -8
leaf_value=-1.5977776216492998 0.017720262548758116 -0.39806370785807915 0.10348251138585372 0.77661535289403061 -0.63654165543321195 -1.8494679677365276 2.9298897572960501
leaf_weight=155 18.5 270.5 325.5 868.5 244 115.5 19
leaf_count=166 21 295 338 914 269 128 21
internal_value=0.0197908 0.217871 -0.445311 0.497642 -0.788247 -1.02623 1.49322
internal_weight=2016.5 1619.5 480.5 1139 397 359.5 37.5
internal_count=2152 1713 504 1209 439 397 42
is_linear=0
shrinkage=0.0693017


Tree=63
num_leaves=8
num_cat=0
split_feature=1 20 22 30 24 16 23
split_gain=61681 43593.4 35650.8 32591.5 30389.7 37463.2 24217.9
threshold=620.50000000000011 0.39150000000000007 0.0099282855781928029 0.0072162792592899505 -0.047895571761521642 37.45000000000001 -0.032526694770466442
decision_type=2 2 10 8 2 2 2
left_child=1 2 -1 -3 6 -6 -2
right_child=4 3 -4 -5 5 -7 -8
leaf_value=-0.11124179425824754 0.45072219582390111 -0.47987530208318246 -1.1270307969933486 3.0741178877087671 -0.51559900174664919 1.0615996666299712 3.2999153824188423
leaf_weight=1386.5 23 19.5 188.5 34 108 219 38
leaf_count=1489 23 22 211 42 108 219 38
internal_value=0.0203568 -0.16673 -0.232814 1.77874 0.80559 0.54069 2.22563
internal_weight=2016.5 1628.5 1575 53.5 388 327 61
internal_count=2152 1764 1700 64 388 327 61
is_linear=0
shrinkage=0.0693017


Tree=64
num_leaves=8
num_cat=0
split_feature=7 27 19 27 23 4 7
split_gain=62765.9 50991.8 51948.9 46990.9 44670.2 39865.6 16608.5
threshold=-0.041034396826358989 0.0051391872380884508 0.42750000000000005 0.018040333796940155 0.027837108902502201 0.29036035355443085 -0.029473814842392598
decision_type=2 2 2 2 2 2 2
left_child=1 2 -1 5 -3 -2 -5
right_child=3 4 -4 6 -6 -7 -8
leaf_value=-1.2002553245651064 2.0570917259550456 0.12290963909678546 -0.012249773726748047 1.7418011154682156 2.9506166931061371 -0.46115051912670402 4.2983659946840653
leaf_weight=326.5 51 1103 385.5 23 27.5 74 26
leaf_count=353 54 1163 413 23 37 80 29
internal_value=0.0211808 -0.097636 -0.55703 1.27934 0.191695 0.566292 3.09835
internal_weight=2016.5 1842.5 712 174 1130.5 125 49
internal_count=2152 1966 766 186 1200 134 52
is_linear=0
shrinkage=0.0693017


Tree=65
num_leaves=8
num_cat=0
split_feature=5 3 31 21 13 13 31
split_gain=60552.5 74682.2 59379.5 44263.7 49114.4 42386.6 27802.6
threshold=0.2612719607969014 0.18059191390343224 -0.006853150864865599 26.350000000000005 0.16150000000000003 0.22949999999999998 0.010170490767840702
decision_type=2 2 8 2 2 2 10
left_child=1 5 -3 6 -5 -1 -2
right_child=3 2 -4 4 -6 -7 -8
leaf_value=0.11874953372868163 -1.3027963897788946 1.9708883936439883 0.41517733322616168 2.5795434330014166 -0.59977909386372052 -0.88989239146179289 -3.9232490836626375
leaf_weight=686 69.5 154.5 496.5 25.5 275 282.5 27
leaf_count=716 79 167 528 29 301 302 30
internal_value=0.0223518 0.210377 0.78439 -0.744667 -0.329986 -0.175459 -2.03598
internal_weight=2016.5 1619.5 651 397 300.5 968.5 96.5
internal_count=2152 1713 695 439 330 1018 109
is_linear=0
shrinkage=0.0693017


Tree=66
num_leaves=7
num_cat=0
split_feature=1 0 0 21 13 10
split_gain=55180.5 60365.5 46517.7 42647.5 41671.8 41659.7
threshold=410.50000000000006 82.500000000000014 103.50000000000001 27.250000000000004 0.23249999999999998 140.50000000000003
decision_type=2 2 2 2 2 2
left_child=1 3 -2 -1 -3 -4
right_child=2 4 5 -5 -6 -7
leaf_value=-0.50640371255477434 3.3276233094126804 -0.61993394692101178 0.12504414813429476 1.0110027679809075 -2.2518264480456192 1.5878277907402374
leaf_weight=186 24 312 1123 170.5 99 102
leaf_count=265 24 312 1123 227 99 102
internal_value=0.02186 -0.440606 0.306042 0.219312 -1.01302 0.246843
internal_weight=2016.5 767.5 1249 356.5 411 1225
internal_count=2152 903 1249 492 411 1225
is_linear=0
shrinkage=0.0693017


Tree=67
num_leaves=8
num_cat=0
split_feature=7 16 29 27 4 22 7
split_gain=57386.8 53144 61809.8 44113.9 35763.6 17656.8 16304.9
threshold=-0.041034396826358989 24.250000000000004 -0.013564953726821349 0.018040333796940155 0.29036035355443085 -0.018324008703850644 -0.029473814842392598
decision_type=2 2 8 2 2 8 2
left_child=1 5 -3 4 -2 -1 -5
right_child=3 2 -4 6 -6 -7 -8
leaf_value=-3.6530530501372134 1.9463338164661306 -0.74577971512832386 0.22889040027875102 1.6435441364220444 -0.43883316359281171 -1.2122628045571546 4.1766332420343337
leaf_weight=17 51 408.5 1329.5 23 74 87.5 26
leaf_count=20 54 438 1417 23 80 91 29
internal_value=0.0221509 -0.0914606 -0.000196333 1.22519 0.534315 -1.60933 2.98763
internal_weight=2016.5 1842.5 1738 174 125 104.5 49
internal_count=2152 1966 1855 186 134 111 52
is_linear=0
shrinkage=0.0693017


Tree=68
num_leaves=8
num_cat=0
split_feature=3 31 27 18 27 31 31
split_gain=51325.9 69149.8 51184.5 42939.1 39074.1 29636.7 26141.7
threshold=0.17920597484276729 0.0040438451069686509 0.027088464696223304 0.24050000000000002 0.007458120498011451 -0.067928771718655093 -0.012500265739729448
decision_type=2 10 2 2 2 8 8
left_child=4 2 -2 -3 5 -1 -6
right_child=1 3 -4 -5 6 -7 -8
leaf_value=0.7073500535913978 0.715169942930314 -1.7034557346122314 2.9588326612010181 0.093431890378343541 0.66973836201235926 -0.97865789707419404 -0.26058814310324169
leaf_weight=57 435.5 79 55 333.5 220.5 412 424
leaf_count=70 463 87 59 363 242 430 438
internal_value=0.0223549 0.410608 0.966753 -0.250699 -0.292501 -0.773749 0.0577004
internal_weight=2016.5 903 490.5 412.5 1113.5 469 644.5
internal_count=2152 972 522 450 1180 500 680
is_linear=0
shrinkage=0.0693017


Tree=69
num_leaves=8
num_cat=0
split_feature=5 15 16 31 22 28 31
split_gain=57783.2 71268.8 37513.4 42213.4 37179.1 30771.4 27143.1
threshold=0.20401450053705691 6.8500000000000005 39.650000000000013 0.016464934151252251 -0.030890647423255698 0.3200318032870097 -0.021330390668969249
decision_type=2 2 2 10 10 8 8
left_child=1 4 5 -4 -1 -2 -3
right_child=2 6 3 -5 -6 -7 -8
leaf_value=0.41633632022001987 -1.53185219675068 2.6899345548930103 0.47167678224522586 -0.86559189262333436 -0.6904669696548591 -0.38898185084510162 0.9941710568073282
leaf_weight=396.5 160.5 56 392 159.5 230.5 383.5 238
leaf_count=412 175 60 424 179 246 405 251
internal_value=0.0223022 0.426899 -0.317847 0.0849236 0.00944931 -0.726171 1.31717
internal_weight=2016.5 921 1095.5 551.5 627 544 294
internal_count=2152 969 1183 603 658 580 311
is_linear=0
shrinkage=0.0693017


Tree=70
num_leaves=8
num_cat=0
split_feature=7 29 19 25 13 0 13
split_gain=52477.4 43369.8 34818.1 34800.6 32414.7 28214.8 23614.4
threshold=-0.065476741495024235 -0.045623511645861446 0.52550000000000019 5.2253086419753094 0.20050000000000004 150.50000000000003 0.23349999999999999
decision_type=2 8 2 2 2 2 2
left_child=1 5 3 -2 -3 -1 -4
right_child=2 4 6 -5 -6 -7 -8
leaf_value=-1.964612264848445 0.78703689314352743 0.3475554619357108 1.2441330143440463 -1.5465845886040468 -0.3014136302911069 0.50502155704374552 4.4965265696941215
leaf_weight=95 278 619.5 25.5 34.5 916.5 29 18.5
leaf_count=107 294 655 28 38 980 29 21
internal_value=0.0235173 -0.140318 0.786396 0.529405 -0.0396712 -1.38704 2.61162
internal_weight=2016.5 1660 356.5 312.5 1536 124 44
internal_count=2152 1771 381 332 1635 136 49
is_linear=0
shrinkage=0.0693017


Tree=71
num_leaves=8
num_cat=0
split_feature=5 15 7 28 32 7 20
split_gain=54769.7 50540 55352.9 44191.8 34591.4 39993.9 28921.9
threshold=0.2612719607969014 5.8500000000000005 -0.050384522054019693 0.3249572085537738 -0.048446133038909142 -0.22998192293186634 0.29950000000000004
decision_type=2 2 2 8 10 2 2
left_child=1 3 -3 -1 5 -2 -6
right_child=4 2 -4 -5 6 -7 -8
leaf_value=-0.97003662976099592 -1.5853776782182942 0.35160358294107197 2.0237621554836025 0.16185364646549844 -0.033705523372382265 0.64141951516199669 -1.8278317270468372
leaf_weight=249.5 55 768.5 108.5 493 60.5 131 150.5
leaf_count=273 62 811 117 512 67 146 164
internal_value=0.0234354 0.202257 0.558478 -0.218492 -0.706039 -0.017042 -1.3134
internal_weight=2016.5 1619.5 877 742.5 397 186 211
internal_count=2152 1713 928 785 439 208 231
is_linear=0
shrinkage=0.0693017


Tree=72
num_leaves=8
num_cat=0
split_feature=5 0 27 13 31 29 1
split_gain=50434.3 46501.2 39725.8 37544.6 35267.5 33675.9 26005.8
threshold=0.2612719607969014 156.50000000000003 0.0038350946088056008 0.19422222222222216 0.011923627798995253 0.00086901224133710011 438.50000000000006
decision_type=2 2 2 2 10 8 2
left_child=1 2 -1 6 -3 -5 -2
right_child=3 4 -4 5 -6 -7 -8
leaf_value=-0.45084291323987175 -0.57129620800186676 2.1900079341051684 0.32232489775341305 -2.824133793467102 0.056176411504098273 -0.7995470578006183 1.2690887989648758
leaf_weight=470 91 93 994.5 49.5 62 194.5 62
leaf_count=500 104 93 1058 55 62 218 62
internal_value=0.0234062 0.195004 0.0741932 -0.676602 1.33648 -1.21027 0.174481
internal_weight=2016.5 1619.5 1464.5 397 155 244 153
internal_count=2152 1713 1558 439 155 273 166
is_linear=0
shrinkage=0.0693017


Tree=73
num_leaves=8
num_cat=0
split_feature=16 8 7 31 30 25 8
split_gain=46665.9 49233.7 52176.1 41619.4 29076.1 20335 15581.3
threshold=23.950000000000003 0.94097222222222232 -0.065476741495024235 -0.067141940949159526 -0.011764551238235348 4.5432098765432114 0.76607387140902883
decision_type=2 8 2 10 10 2 10
left_child=4 2 -2 -3 5 -1 -6
right_child=1 3 -4 -5 6 -7 -8
leaf_value=-1.3222787015452191 0.12758839062507824 0.4135798201664917 1.252349211507054 -0.88372812043646332 1.5074508681177219 -3.757485416225304 -1.1374003637294168
leaf_weight=46.5 1123 177 240.5 361 20 25.5 23
leaf_count=47 1169 203 252 406 22 28 25
internal_value=0.0224828 0.10447 0.325979 -0.456919 -1.33316 -2.18475 0.092763
internal_weight=2016.5 1901.5 1363.5 538 115 72 43
internal_count=2152 2030 1421 609 122 75 47
is_linear=0
shrinkage=0.0693017


Tree=74
num_leaves=8
num_cat=0
split_feature=29 21 5 15 10 31 5
split_gain=47779.1 58395.5 47010.4 78592.1 31706.2 27596.2 5419.17
threshold=-0.043718201360363397 25.850000000000005 0.20401450053705691 6.8500000000000005 140.50000000000003 0.017056905644050251 0.18840751059396438
decision_type=8 2 2 2 2 10 2
left_child=1 6 3 -2 -3 -4 -1
right_child=2 4 5 -5 -6 -7 -8
leaf_value=-2.6457600983799408 0.064171049085591431 -0.79782337665911418 0.014008835466946153 1.5332628855640744 2.3936425841384672 -0.8363403204062676 -4.3121003537832063
leaf_weight=18.5 564 124 781 253.5 17 239.5 19
leaf_count=20 591 134 841 265 22 259 20
internal_value=0.0230089 -1.05947 0.128135 0.519724 -0.413037 -0.185559 -3.49004
internal_weight=2016.5 178.5 1838 817.5 141 1020.5 37.5
internal_count=2152 196 1956 856 156 1100 40
is_linear=0
shrinkage=0.0693017


Tree=75
num_leaves=8
num_cat=0
split_feature=29 7 19 27 27 7 6
split_gain=43508.2 44599.5 35959.1 34384.6 30613.9 18850.8 15516.5
threshold=-0.043718201360363397 -0.041034396826358989 0.33050000000000007 0.018040333796940155 0.0066353336562027512 -0.14992113564668766 0.091458843748857266
decision_type=8 2 2 2 2 2 2
left_child=4 2 -2 -3 6 -6 -1
right_child=1 3 -4 -5 5 -7 -8
leaf_value=-3.2971908031173394 -0.99568177453531725 0.58289138633325721 0.1217728194360518 2.8693100772082665 -2.2693731971941249 0.16547913872861197 -1.2434974690484857
leaf_weight=30.5 152 106 1535 45 18.5 87.5 42
leaf_count=35 166 114 1630 46 20 96 45
internal_value=0.022905 0.123223 0.0210893 1.26427 -1.01006 -0.259472 -2.10747
internal_weight=2016.5 1838 1687 151 178.5 106 72.5
internal_count=2152 1956 1796 160 196 116 80
is_linear=0
shrinkage=0.0693017


Tree=76
num_leaves=7
num_cat=0
split_feature=16 29 21 7 16 19
split_gain=41184.9 46799.2 46512.9 44460.8 16596 9740.06
threshold=23.950000000000003 -0.043718201360363397 25.850000000000005 -0.08056402933731413 22.750000000000004 0.32850000000000007
decision_type=2 8 2 2 2 2
left_child=4 2 -2 -3 5 -1
right_child=1 3 -4 -5 -6 -7
leaf_value=-1.3379096980717859 -3.1836858531285528 0.019615021387324277 -0.39965545014337317 0.86243615215109837 -2.7183870825242549 0.18273696026903499
leaf_weight=55 36.5 1340.5 137 387.5 28 32
leaf_count=58 39 1429 151 411 30 34
internal_value=0.0226523 0.0996743 -0.985345 0.208616 -1.25089 -0.778591
internal_weight=2016.5 1901.5 173.5 1728 115 87
internal_count=2152 2030 190 1840 122 92
is_linear=0
shrinkage=0.0693017


Tree=77
num_leaves=8
num_cat=0
split_feature=27 16 30 3 17 14 3
split_gain=42262 55202.7 49589.4 46845 42673.3 38223 17372.8
threshold=0.007458120498011451 39.650000000000013 0.026107329534565255 0.15843496994336148 31.350000000000005 0.14550000000000002 0.15385575654795555
decision_type=2 2 10 2 2 2 2
left_child=3 5 -3 6 -5 -2 -1
right_child=1 2 -4 4 -6 -7 -8
leaf_value=-0.85642714715331203 0.21850060960097664 1.3045109694759311 -1.3596308603983807 1.1697757337243944 -0.25661914976495875 -1.0557202020367977 -2.8335725924260644
leaf_weight=296.5 579 319 37.5 126.5 494.5 140.5 23
leaf_count=318 608 342 46 143 525 147 23
internal_value=0.0224704 0.319086 1.02427 -0.316879 0.0339428 -0.0303222 -0.998757
internal_weight=2016.5 1076 356.5 940.5 621 719.5 319.5
internal_count=2152 1143 388 1009 668 755 341
is_linear=0
shrinkage=0.0693017


Tree=78
num_leaves=8
num_cat=0
split_feature=5 3 5 13 13 21 23
split_gain=44386.8 48088.7 42152.8 35079.4 33760.9 24070 15813.7
threshold=0.2612719607969014 0.18059191390343224 0.16401892744479499 0.16250000000000003 0.22550000000000003 26.350000000000005 0.00032439788097800006
decision_type=2 2 2 2 2 2 2
left_child=1 4 -3 6 -1 -5 -2
right_child=3 2 -4 5 -6 -7 -8
leaf_value=0.16977716375450666 2.714089339145183 1.7218217482525111 0.35558330475759398 -1.8519483013758515 -0.69196315511825446 -0.52534212056980933 -0.13852053917543464
leaf_weight=636 20 137.5 513.5 86.5 332.5 273 17.5
leaf_count=663 22 149 546 98 355 299 20
internal_value=0.0225583 0.18354 0.644151 -0.634142 -0.126071 -0.844539 1.38287
internal_weight=2016.5 1619.5 651 397 968.5 359.5 37.5
internal_count=2152 1713 695 439 1018 397 42
is_linear=0
shrinkage=0.0693017


Tree=79
num_leaves=8
num_cat=0
split_feature=5 3 31 13 23 2 14
split_gain=40248.3 43970.9 47983.2 32944.8 31895 25655.7 21258.7
threshold=0.2612719607969014 0.18059191390343224 -0.006853150864865599 0.19422222222222216 0.019607164727495404 0.23020225329170627 0.29250000000000004
decision_type=2 2 8 2 2 2 2
left_child=1 4 -3 5 -1 -2 -5
right_child=3 2 -4 6 -6 -7 -8
leaf_value=-0.24279008637038574 -0.61850663702541464 1.683255302581788 0.2847784438166876 -1.2982257346291926 1.1665009093347556 1.1850002566601565 1.0335788796098115
leaf_weight=884 84 154.5 496.5 223.5 84.5 69 20.5
leaf_count=922 95 167 528 249 96 71 24
internal_value=0.0229327 0.176226 0.616675 -0.602405 -0.119832 0.19484 -1.10232
internal_weight=2016.5 1619.5 651 397 968.5 153 244
internal_count=2152 1713 695 439 1018 166 273
is_linear=0
shrinkage=0.0693017


Tree=80
num_leaves=8
num_cat=0
split_feature=27 16 16 14 16 5 20
split_gain=39307.5 49683.9 56912.3 41913.3 25318.2 30667.9 27475.6
threshold=0.0020060200722730004 39.650000000000013 39.95000000000001 0.21350000000000002 34.550000000000004 0.16447730540151981 0.30950000000000005
decision_type=2 2 2 2 2 2 2
left_child=4 3 -3 -2 5 -1 -6
right_child=1 2 -4 -5 6 -7 -8
leaf_value=0.50353244846815526 -0.042975054408050356 3.7670212889210779 0.53785099181692331 -2.9171287718024983 1.0930621480066627 -2.2131795680285955 -0.55378413669767157
leaf_weight=27 964 27.5 560 25 59 76.5 277.5
leaf_count=31 1007 28 604 26 64 86 306
internal_value=0.0225818 0.184227 0.689004 -0.115628 -0.556585 -1.50447 -0.265035
internal_weight=2016.5 1576.5 587.5 989 440 103.5 336.5
internal_count=2152 1665 632 1033 487 117 370
is_linear=0
shrinkage=0.0693017


Tree=81
num_leaves=8
num_cat=0
split_feature=5 31 1 31 13 5 21
split_gain=37877.3 36458.2 44068 30824 35363.9 28193.6 18529.6
threshold=0.20401450053705691 -0.05614864523103439 548.50000000000011 0.016464934151252251 0.20050000000000004 0.28911051514135661 26.650000000000002
decision_type=2 8 2 10 2 2 2
left_child=1 6 -3 4 -2 -5 -1
right_child=3 2 -4 5 -6 -7 -8
leaf_value=0.51810492214236303 0.49213221885297365 -0.24373958734399886 0.76017337495144854 -0.604601992204581 -0.42713865243925186 -2.61939872660315 2.7146945019678026
leaf_weight=31.5 345.5 455 390 230.5 480.5 39 44.5
leaf_count=36 370 489 390 251 519 43 54
internal_value=0.0227942 0.35037 0.219605 -0.252602 -0.0426252 -0.896168 1.80427
internal_weight=2016.5 921 845 1095.5 826 269.5 76
internal_count=2152 969 879 1183 889 294 90
is_linear=0
shrinkage=0.0693017


Tree=82
num_leaves=8
num_cat=0
split_feature=29 21 16 5 10 30 5
split_gain=37548.7 45337 41208.5 44870.7 28270.5 24430.3 4243.17
threshold=-0.043718201360363397 25.850000000000005 23.950000000000003 0.20401450053705691 140.50000000000003 -0.012136571783962149 0.18840751059396438
decision_type=8 2 2 2 2 10 2
left_child=1 6 5 -4 -3 -2 -1
right_child=2 4 3 -5 -6 -7 -8
leaf_value=-2.3321290582427197 -1.943213139620191 -0.73132834089095589 0.60996314716506161 -0.10471825316228402 2.2822711979935093 0.22210211293344678 -3.8066206482854263
leaf_weight=18.5 71.5 124 732 996 17 38.5 19
leaf_count=20 74 134 769 1071 22 42 20
internal_value=0.0220424 -0.93757 0.115237 0.198029 -0.367987 -1.18535 -3.0792
internal_weight=2016.5 178.5 1838 1728 141 110 37.5
internal_count=2152 196 1956 1840 156 116 40
is_linear=0
shrinkage=0.0693017


Tree=83
num_leaves=7
num_cat=0
split_feature=19 21 13 14 11 30
split_gain=36311.1 38018.7 34218.5 23814.2 22600.3 16349.9
threshold=0.55550000000000022 24.550000000000004 0.19050000000000003 0.21949999999999997 -2.096704708163617 -0.009351133188698799
decision_type=2 2 2 2 2 8
left_child=1 4 -3 -2 -1 -5
right_child=3 2 -4 5 -6 -7
leaf_value=-0.072037249226709496 3.1397827663854536 0.52282079227705713 -0.15115426061531526 -1.0352112660071118 -2.2067474266203355 1.4193731834048564
leaf_weight=39.5 26.5 496.5 1333.5 19 60 41.5
leaf_count=43 29 527 1422 21 65 45
internal_value=0.0224177 -0.040028 0.0317029 1.40735 -1.3593 0.648512
internal_weight=2016.5 1929.5 1830 87 99.5 60.5
internal_count=2152 2057 1949 95 108 66
is_linear=0
shrinkage=0.0693017


Tree=84
num_leaves=7
num_cat=0
split_feature=29 0 13 22 2 13
split_gain=34125.4 34954.5 32254.4 25539.1 23725.2 18949.7
threshold=-0.043718201360363397 157.50000000000003 0.19050000000000003 0.016779669403857254 0.24102987291632283 0.22713636363636358
decision_type=8 2 2 10 2 2
left_child=3 2 -2 4 -1 -3
right_child=1 5 -4 -5 -6 -7
leaf_value=-2.087717308156849 0.52521227444038887 0.76391048079094859 -0.15011511891982904 -3.0217074841279286 -0.085641446063587479 2.8094858806386158
leaf_weight=37.5 465.5 87 1256.5 23.5 117.5 29
leaf_count=40 494 87 1346 26 130 29
internal_value=0.022038 0.110882 0.0324429 -0.892787 -0.570015 1.2753
internal_weight=2016.5 1838 1722 178.5 155 116
internal_count=2152 1956 1840 196 170 116
is_linear=0
shrinkage=0.0693017


Tree=85
num_leaves=8
num_cat=0
split_feature=27 20 3 31 17 31 32
split_gain=35393.9 45572.5 38222.7 36895.2 35073.8 31610.7 30572.4
threshold=0.007458120498011451 0.37650000000000006 0.15843496994336148 -0.011079352055321649 31.350000000000005 -0.067928771718655093 -0.025879230467019197
decision_type=2 2 2 10 2 8 8
left_child=2 3 5 -2 -4 -1 -3
right_child=1 6 4 -5 -6 -7 -8
leaf_value=0.84269612184273968 0.5106626552138529 4.2585719651619405 1.0572760377572896 -0.34980621328378025 -0.23588683490063159 -1.1771355510037509 1.1154674410882
leaf_weight=43 592.5 19.5 126.5 401.5 494.5 276.5 62.5
leaf_count=53 633 22 143 421 525 288 67
internal_value=0.0211935 0.292639 -0.28936 0.163099 0.0275352 -0.905296 1.86291
internal_weight=2016.5 1076 940.5 994 621 319.5 82
internal_count=2152 1143 1009 1054 668 341 89
is_linear=0
shrinkage=0.0693017


Tree=86
num_leaves=8
num_cat=0
split_feature=5 21 29 21 13 0 4
split_gain=34999.4 37363.2 34597.6 29623.9 37735.1 22309.4 20621.2
threshold=0.2612719607969014 24.550000000000004 -0.012832722537403298 26.350000000000005 0.16150000000000003 65.500000000000014 0.27831595333658432
decision_type=2 2 8 2 2 2 2
left_child=1 6 -3 5 -5 -2 -1
right_child=3 2 -4 4 -6 -7 -8
leaf_value=-0.013265611400649871 0.7016948975731182 -0.29709638340397515 0.44284199753003961 2.3274264699694247 -0.45935434307433248 -2.0970584741974361 -2.1988216131729952
leaf_weight=36.5 16.5 416.5 1118.5 25.5 275 80 48
leaf_count=39 29 448 1175 29 301 80 51
internal_value=0.0210219 0.163971 0.24207 -0.562115 -0.222872 -1.61852 -1.25476
internal_weight=2016.5 1619.5 1535 397 300.5 96.5 84.5
internal_count=2152 1713 1623 439 330 109 90
is_linear=0
shrinkage=0.0693017


Tree=87
num_leaves=7
num_cat=0
split_feature=7 27 8 30 0 7
split_gain=32361.1 35664.3 33291.6 31911.7 30016.1 14014.2
threshold=-0.041034396826358989 0.018040333796940155 0.78759398496240618 0.058044501409135058 157.50000000000003 -0.029473814842392598
decision_type=2 2 8 10 2 2
left_child=3 2 -2 4 -1 -3
right_child=1 5 -4 -5 -6 -7
leaf_value=-0.10635508761116756 1.2893085003118545 1.2627585328602755 -0.99387299800915829 -2.8900295294977729 1.07460666512932 3.6111789156539333
leaf_weight=1713.5 71 23 54 19 110 26
leaf_count=1831 72 23 62 25 110 29
internal_value=0.02076 0.924172 0.302974 -0.0645554 -0.0351153 2.50886
internal_weight=2016.5 174 125 1842.5 1823.5 49
internal_count=2152 186 134 1966 1941 52
is_linear=0
shrinkage=0.0693017


Tree=88
num_leaves=7
num_cat=0
split_feature=16 5 12 21 5 0
split_gain=31596.4 41570.3 40984.5 34130.4 26187.3 28887.2
threshold=26.950000000000003 0.16744246465608698 0.38750000000000001 26.750000000000004 0.22040571199786466 98.500000000000014
decision_type=2 2 2 2 2 2
left_child=4 2 -2 -3 5 -1
right_child=1 3 -4 -5 -6 -7
leaf_value=1.030198918524702 2.0179366634095017 -0.50227576118912298 0.34707210096644914 0.19936681059125216 -2.6012285510798119 -0.99887049026074437
leaf_weight=46 93 529 291.5 898.5 32.5 126
leaf_count=52 102 569 305 960 38 126
internal_value=0.0194686 0.111626 0.751208 -0.0606464 -0.797107 -0.456212
internal_weight=2016.5 1812 384.5 1427.5 204.5 172
internal_count=2152 1936 407 1529 216 178
is_linear=0
shrinkage=0.0693017


Tree=89
num_leaves=7
num_cat=0
split_feature=29 3 1 25 3 1
split_gain=30283.9 43004.5 33947.1 33626.9 22298.5 25586.8
threshold=-0.017235974042157248 0.13875498766058539 702.50000000000011 4.7623456790123475 0.27081112295664539 564.50000000000011
decision_type=8 2 2 2 2 2
left_child=4 3 -3 -2 5 -1
right_child=1 2 -4 -5 -6 -7
leaf_value=-1.0349828867062449 -0.14438289190172426 0.33654646105247898 2.9712839661617387 -1.7627039540518312 1.5425560762025385 0.087903963256990444
leaf_weight=257 383 1097.5 24 73.5 24.5 157
leaf_count=286 408 1165 24 81 31 157
internal_value=0.0205386 0.162112 0.39293 -0.404945 -0.488933 -0.609154
internal_weight=2016.5 1578 1121.5 456.5 438.5 414
internal_count=2152 1678 1189 489 474 443
is_linear=0
shrinkage=0.0693017


Tree=90
num_leaves=8
num_cat=0
split_feature=5 31 16 27 32 19 20
split_gain=30849.2 35494.8 39302.6 29801.8 27197.8 34676.6 25531.4
threshold=0.2612719607969014 -0.05614864523103439 39.350000000000001 0.0090293504846453033 -0.048446133038909142 0.42250000000000004 0.29950000000000004
decision_type=2 8 2 2 10 2 2
left_child=1 3 -3 -1 5 -2 -6
right_child=4 2 -4 -5 6 -7 -8
leaf_value=0.31420479289109793 -0.84208162878840931 -0.22479829054058176 0.52137639059440555 2.2364914310021038 0.13688361359741821 1.0508574925297303 -1.548802974710076
leaf_weight=90 95 927 534.5 68 60.5 91 150.5
leaf_count=105 107 961 569 78 67 101 164
internal_value=0.0205626 0.154768 0.0480928 1.14152 -0.52691 0.0840337 -1.06547
internal_weight=2016.5 1619.5 1461.5 158 397 186 211
internal_count=2152 1713 1530 183 439 208 231
is_linear=0
shrinkage=0.0693017


Tree=91
num_leaves=7
num_cat=0
split_feature=5 12 14 23 30 31
split_gain=29506.2 43621.7 34877.2 33208.9 31020.8 28195.8
threshold=0.20334284296700569 0.39550000000000007 0.014499999999999952 -0.05140910325080824 0.0037901498273527003 0.091702449986957368
decision_type=2 2 2 2 10 10
left_child=1 4 -3 -2 -1 -5
right_child=3 2 -4 5 -6 -7
leaf_value=1.8097672075654767 2.8180008214705197 -3.9347340238523887 0.090743637492041104 -0.19508389859888503 0.20393966456689824 -1.957531158847553
leaf_weight=135 17 10.499999999999998 666 1041.5 101 45.5
leaf_count=144 21 13 692 1121 111 50
internal_value=0.0196853 0.311273 0.0282639 -0.221324 1.12253 -0.268857
internal_weight=2016.5 912.5 676.5 1104 236 1087
internal_count=2152 960 705 1192 255 1171
is_linear=0
shrinkage=0.0693017


Tree=92
num_leaves=8
num_cat=0
split_feature=29 21 16 16 5 23 25
split_gain=28827.5 37674.6 33675.3 46758.2 33377.5 18117.5 7579.51
threshold=-0.043718201360363397 25.850000000000005 39.650000000000013 39.95000000000001 0.17989215239515582 1.0000000180025095e-35 4.6327160493827169
decision_type=8 2 2 2 2 2 2
left_child=1 6 4 -4 -2 -3 -1
right_child=2 5 3 -5 -6 -7 -8
leaf_value=-1.7748900825546567 0.34449397858877728 -0.79623321538153724 3.1455086284542055 0.35164199872458796 -0.43894513922303491 0.94642562809146025 -3.7455776765098028
leaf_weight=18.5 422.5 101 30 701.5 684 40 19
leaf_count=19 441 109 30 759 726 47 21
internal_value=0.0197314 -0.821087 0.101389 0.466223 -0.139801 -0.301862 -2.77337
internal_weight=2016.5 178.5 1838 731.5 1106.5 141 37.5
internal_count=2152 196 1956 789 1167 156 40
is_linear=0
shrinkage=0.0693017


Tree=93
num_leaves=8
num_cat=0
split_feature=27 28 30 4 29 5 25
split_gain=29298.5 38348.2 43980.7 27036.8 26693.4 31005 27175.5
threshold=0.007458120498011451 0.3249572085537738 -0.0087079078412148989 0.31921359890109891 -0.043718201360363397 0.16161677167484828 4.2972164711295155
decision_type=2 8 8 2 8 2 2
left_child=4 3 -3 -2 6 -6 -1
right_child=1 2 -4 -5 5 -7 -8
leaf_value=0.82261475794439509 0.004913848351999167 1.7483215441183162 0.3122247495174939 -1.4377082305518663 0.73034902671369528 -0.34773385817995967 -2.2215787231885509
leaf_weight=18.5 283.5 124 588.5 80 156.5 706.5 59
leaf_count=20 306 131 617 89 167 757 65
internal_value=0.0196794 0.266647 0.562156 -0.312582 -0.26287 -0.15223 -1.4949
internal_weight=2016.5 1076 712.5 363.5 940.5 863 77.5
internal_count=2152 1143 748 395 1009 924 85
is_linear=0
shrinkage=0.0693017


Tree=94
num_leaves=7
num_cat=0
split_feature=16 6 29 5 30 22
split_gain=27764 39137 36939 20307.6 19782.1 15193.4
threshold=24.250000000000004 0.034351645470040611 -0.013564953726821349 0.17574518627882432 -0.026792158277311247 0.034532680339691112
decision_type=2 2 8 2 10 8
left_child=3 -2 -3 5 -5 -1
right_child=1 2 -4 4 -6 -7
leaf_value=-1.7538698179292909 2.451709799177046 -0.49866290719063888 0.21982346275257184 -3.4638870479873196 -0.39973037680971951 0.28403510084020045
leaf_weight=25.5 33 455 1404.5 25 17 56.5
leaf_count=27 36 490 1494 27 20 58
internal_value=0.0201778 0.086001 0.0440174 -0.984422 -2.22363 -0.349704
internal_weight=2016.5 1892.5 1859.5 124 42 82
internal_count=2152 2020 1984 132 47 85
is_linear=0
shrinkage=0.0693017


Tree=95
num_leaves=8
num_cat=0
split_feature=27 16 16 28 16 8 8
split_gain=27646.5 37198.4 50119.2 27751.6 19907.9 38054.5 16435.3
threshold=0.0020060200722730004 39.650000000000013 39.95000000000001 0.32416873286242931 34.550000000000004 0.34848484848484851 0.51190476190476197
decision_type=2 2 2 8 2 8 8
left_child=4 3 -3 -2 6 -6 -1
right_child=1 2 -4 -5 5 -7 -8
leaf_value=-2.201123314892008 -0.6130144839464059 3.480597864096953 0.45026987916899996 0.1607045722059888 0.85369970426084685 -0.71926875757777375 -0.45401420291249184
leaf_weight=50.5 338.5 27.5 560 650.5 109.5 227 53
leaf_count=55 362 28 604 671 116 254 62
internal_value=0.0197804 0.155344 0.592115 -0.104112 -0.465939 -0.207411 -1.30647
internal_weight=2016.5 1576.5 587.5 989 440 336.5 103.5
internal_count=2152 1665 632 1033 487 370 117
is_linear=0
shrinkage=0.0693017


Tree=96
num_leaves=7
num_cat=0
split_feature=19 21 16 11 3 17
split_gain=26757.8 28797.7 24595.2 22480.6 20347.1 11064.7
threshold=0.55550000000000022 24.550000000000004 23.950000000000003 -2.096704708163617 0.30008726003490405 39.050000000000004
decision_type=2 2 2 2 2 2
left_child=1 3 -3 -1 5 -2
right_child=4 2 -4 -5 -6 -7
leaf_value=0.10256635419902206 2.6713024916029924 -0.96571257989554182 0.094209992425842715 -2.0264806777286024 -0.32906714246511082 0.70872364573436508
leaf_weight=39.5 37 112 1718 60 28 22
leaf_count=43 40 118 1831 65 30 25
internal_value=0.0205166 -0.0330886 0.0293404 -1.18128 1.20938 1.93949
internal_weight=2016.5 1929.5 1830 99.5 87 59
internal_count=2152 2057 1949 108 95 65
is_linear=0
shrinkage=0.0693017


Tree=97
num_leaves=5
num_cat=0
split_feature=30 31 1 9
split_gain=26412.9 27206.7 39943.4 22240.4
threshold=0.060762759004310905 -0.05614864523103439 422.50000000000006 0.24564506222137497
decision_type=10 8 2 2
left_child=1 3 -3 -1
right_child=-2 2 -4 -5
leaf_value=-2.224096438983175 -2.5513986711895904 -0.4538788690775919 0.21779439610749379 0.98030457519931946
leaf_weight=10.999999999999998 19 692 1103 191.5
leaf_count=14 24 789 1103 222
internal_value=0.0202974 0.0447591 -0.0411459 0.806238
internal_weight=2016.5 1997.5 1795 202.5
internal_count=2152 2128 1892 236
is_linear=0
shrinkage=0.0693017


Tree=98
num_leaves=8
num_cat=0
split_feature=7 27 16 6 32 16 22
split_gain=25825.5 29346.9 30429.2 29231.4 26677.7 24935.1 23009.5
threshold=-0.045836543175292344 0.018040333796940155 28.650000000000002 0.11102668017561632 -0.017348453200053047 24.250000000000004 -0.029291080633530895
decision_type=2 2 2 2 8 2 8
left_child=3 6 -3 5 -5 -1 -2
right_child=1 2 -4 4 -6 -7 -8
leaf_value=-1.0358288812616787 2.3231633062674182 -0.20248031840639227 3.0882190310826232 0.29644677500644234 -1.1145592671989455 0.13292905919865097 -0.12428297354787363
leaf_weight=93.5 21.5 20 41.5 92.5 211.5 1406 130
leaf_count=99 24 21 44 105 226 1495 138
internal_value=0.0196593 0.741327 2.01807 -0.0655723 -0.685224 0.0600522 0.223044
internal_weight=2016.5 213 61.5 1803.5 304 1499.5 151.5
internal_count=2152 227 65 1925 331 1594 162
is_linear=0
shrinkage=0.0693017


Tree=99
num_leaves=8
num_cat=0
split_feature=5 21 3 29 5 4 21
split_gain=27118.7 29713.2 35459 25777.7 24851.9 18869.9 16892.2
threshold=0.2612719607969014 24.550000000000004 0.18108040728494204 0.0039146060176467011 0.28160639335227039 0.27831595333658432 26.350000000000005
decision_type=2 2 2 8 2 2 2
left_child=1 5 -3 4 -2 -1 -5
right_child=3 2 -4 6 -6 -7 -8
leaf_value=0.067794356818902377 -0.418361483827484 -0.053636628704443981 0.62798353371367988 -1.0889580461889055 -2.7297620689460946 -2.0228972923051223 0.10181017899110907
leaf_weight=36.5 46.5 930 605 76 43 48 231.5
leaf_count=39 52 977 646 86 45 51 256
internal_value=0.0195378 0.145368 0.215015 -0.493767 -1.52887 -1.11982 -0.192494
internal_weight=2016.5 1619.5 1535 397 89.5 84.5 307.5
internal_count=2152 1713 1623 439 97 90 342
is_linear=0
shrinkage=0.0693017


Tree=100
num_leaves=8
num_cat=0
split_feature=28 1 32 19 5 0 8
split_gain=25231.7 37908.7 36743.4 35064.3 35219.7 34132.4 16500.3
threshold=0.33428072597681169 368.50000000000006 -0.076469680173270785 0.37750000000000006 0.24398067632850243 103.50000000000001 0.79057017543859665
decision_type=8 2 8 2 2 2 8
left_child=3 2 -2 6 -5 -3 -1
right_child=1 5 -4 4 -6 -7 -8
leaf_value=-0.43674607616171834 2.7002733177651845 2.1549687769056751 -0.46063490100945165 0.26566286090058094 -0.92283843765442553 0.3790972250084067 -1.7359040995237336
leaf_weight=91 18.5 56 390 480.5 159.5 724 97
leaf_count=97 26 56 446 516 181 724 106
internal_value=0.0187373 0.223351 -0.317485 -0.274962 -0.0305339 0.506596 -1.10706
internal_weight=2016.5 1188.5 408.5 828 640 780 188
internal_count=2152 1252 472 900 697 780 203
is_linear=0
shrinkage=0.0693017


Tree=101
num_leaves=8
num_cat=0
split_feature=27 16 6 14 3 17 14
split_gain=24386.2 33797.6 42642.7 39625.1 28318.7 30626.4 16412.8
threshold=0.007458120498011451 39.650000000000013 0.063132345426673467 0.14550000000000002 0.15843496994336148 31.350000000000005 0.10250000000000001
decision_type=2 2 2 2 2 2 2
left_child=4 3 -3 -2 6 -6 -1
right_child=1 2 -4 -5 5 -7 -8
leaf_value=-0.40538090367759266 0.22540664935014984 -1.0903303389405241 1.1015883875548247 -1.0719740952875199 0.99737568387899844 -0.21102060705824552 -1.4485546510645058
leaf_weight=208.5 579 49.5 307 140.5 126.5 494.5 111
leaf_count=223 608 54 334 147 143 525 118
internal_value=0.0201444 0.245459 0.797241 -0.0279387 -0.237632 0.0351342 -0.767798
internal_weight=2016.5 1076 356.5 719.5 940.5 621 319.5
internal_count=2152 1143 388 755 1009 668 341
is_linear=0
shrinkage=0.0693017


Tree=102
num_leaves=8
num_cat=0
split_feature=7 27 23 3 23 0 10
split_gain=23354.3 22198 37758.9 25820.5 17594 27055 19817.9
threshold=-0.22522645961787313 0.007458120498011451 0.027837108902502201 0.15223181516306059 -0.014251064698675549 80.500000000000014 101.50000000000001
decision_type=2 2 2 2 2 2 2
left_child=4 3 -3 -2 6 -6 -1
right_child=1 2 -4 -5 5 -7 -8
leaf_value=1.3325255212711749 -0.74210420041964287 0.23201724855101563 2.8591886980511805 0.071919852303103729 0.4722893468881148 -2.4918767597292426 -1.4241698473550564
leaf_weight=27.5 267.5 977.5 27 623 21 50 23
leaf_count=29 288 1028 35 666 32 50 24
internal_value=0.0195889 0.0793077 0.302633 -0.172607 -0.911829 -1.61515 0.0770009
internal_weight=2016.5 1895 1004.5 890.5 121.5 71 50.5
internal_count=2152 2017 1063 954 135 82 53
is_linear=0
shrinkage=0.0693017


Tree=103
num_leaves=8
num_cat=0
split_feature=29 16 28 7 15 11 28
split_gain=25435.4 29705.4 24428.1 21249.7 23472.9 21017 20863.1
threshold=-0.013564953726821349 24.250000000000004 0.30851265002919759 -0.15280681546519456 14.15 -0.44450764329077463 0.32666445542430894
decision_type=8 2 8 2 2 2 10
left_child=3 5 -3 6 -5 -2 -1
right_child=1 2 -4 4 -6 -7 -8
leaf_value=-1.8694636705269356 -0.32082417100432592 -0.25962272612188936 0.4039670078319425 -0.31470886780804885 2.1243460498172744 -2.4464712094351628 0.55217464930054982
leaf_weight=76.5 74 354 1077 361 20 32 22
leaf_count=85 79 386 1137 385 23 34 23
internal_value=0.0194143 0.156889 0.239809 -0.421249 -0.186674 -0.962529 -1.32859
internal_weight=2016.5 1537 1431 479.5 381 106 98.5
internal_count=2152 1636 1523 516 408 113 108
is_linear=0
shrinkage=0.0693017


Tree=104
num_leaves=8
num_cat=0
split_feature=5 12 28 3 0 10 18
split_gain=24504.9 48232.8 27377.8 26425.8 32861.9 21610.2 18772.7
threshold=0.18344617603461402 0.52450000000000008 0.32416873286242931 0.11528393072895686 69.500000000000014 65.500000000000014 0.27250000000000008
decision_type=2 2 8 2 2 2 2
left_child=1 2 -1 5 -5 -2 -3
right_child=3 6 -4 4 -6 -7 -8
leaf_value=0.026611624495175127 0.11345928486306407 -0.54175928408013907 0.97971782842882349 0.93549975210477399 -0.17880888433278563 -1.6583153839220308 -2.8679144545344819
leaf_weight=251.5 51 54.5 341 144.5 1056 94 24
leaf_count=270 58 57 353 229 1056 103 26
internal_value=0.0191833 0.361283 0.57515 -0.151422 -0.0446834 -1.03514 -1.25294
internal_weight=2016.5 671 592.5 1345.5 1200.5 145 78.5
internal_count=2152 706 623 1446 1285 161 83
is_linear=0
shrinkage=0.0693017


Tree=105
num_leaves=5
num_cat=0
split_feature=30 31 1 23
split_gain=24034.2 26299.1 31584.5 22674.9
threshold=0.060762759004310905 -0.05614864523103439 422.50000000000006 -0.007055559488831349
decision_type=10 8 2 2
left_child=1 3 -3 -1
right_child=-2 2 -4 -5
leaf_value=1.6580338106044328 -2.433732913535553 -0.40870764119660546 0.18856456349820117 0.17086602487097646
leaf_weight=84.5 19 692 1103 118
leaf_count=95 24 789 1103 141
internal_value=0.0194328 0.042767 -0.041693 0.791437
internal_weight=2016.5 1997.5 1795 202.5
internal_count=2152 2128 1892 236
is_linear=0
shrinkage=0.0693017


Tree=106
num_leaves=5
num_cat=0
split_feature=30 31 16 0
split_gain=21814.2 23787.8 28048.7 21803.9
threshold=0.060762759004310905 -0.05614864523103439 39.650000000000013 121.50000000000001
decision_type=10 8 2 2
left_child=1 3 -3 -1
right_child=-2 2 -4 -5
leaf_value=1.3523596582513691 -2.3183326142047358 -0.26415556395068279 0.29446302917680056 -0.10981896510638602
leaf_weight=119.5 19 1072.5 722.5 83
leaf_count=153 24 1117 775 83
internal_value=0.0187882 0.0410186 -0.0393077 0.753047
internal_weight=2016.5 1997.5 1795 202.5
internal_count=2152 2128 1892 236
is_linear=0
shrinkage=0.0693017


Tree=107
num_leaves=7
num_cat=0
split_feature=29 5 22 31 16 25
split_gain=23703.2 35364.1 29623.8 64552.2 33924.5 20717
threshold=-0.013564953726821349 0.28275455709653691 -0.030890647423255698 -0.0038063821214178498 36.45000000000001 3.842592592592593
decision_type=8 2 10 8 2 2
left_child=1 5 3 -2 -4 -1
right_child=2 -3 4 -5 -6 -7
leaf_value=-2.0631510817658549 1.3956076891757494 -3.3373268327941736 -0.98129528384168418 0.072071410127678523 0.17354281220972076 -0.16481803268215645
leaf_weight=29.5 227.5 19 201 797 311.5 431
leaf_count=30 256 20 214 828 338 466
internal_value=0.0180764 -0.407317 0.150787 0.365975 -0.279379 -0.286427
internal_weight=2016.5 479.5 1537 1024.5 512.5 460.5
internal_count=2152 516 1636 1084 552 496
is_linear=0
shrinkage=0.0693017


Tree=108
num_leaves=8
num_cat=0
split_feature=7 27 15 29 19 31 31
split_gain=23276.1 26588.2 28882.1 25137.3 23939.8 23534.9 16816.1
threshold=-0.045836543175292344 0.018040333796940155 5.9500000000000011 -0.013564953726821349 0.41050000000000003 -0.0093453871237147972 -0.08556690193554968
decision_type=2 2 2 8 2 8 10
left_child=3 2 -2 6 -3 -5 -1
right_child=1 4 -4 5 -6 -7 -8
leaf_value=1.5056694131738539 -0.69440255590943156 0.34741448901182431 1.2223540351429785 0.53328270402455069 3.1085331857158622 -0.1002402032741133 -0.63203302047066579
leaf_weight=18.5 80 26.5 71.5 392.5 35 997 395.5
leaf_count=20 85 28 77 438 37 1044 423
internal_value=0.0184037 0.703527 0.210205 -0.0625119 1.91878 0.0787146 -0.536508
internal_weight=2016.5 213 151.5 1803.5 61.5 1389.5 414
internal_count=2152 227 162 1925 65 1482 443
is_linear=0
shrinkage=0.0693017


Tree=109
num_leaves=8
num_cat=0
split_feature=27 29 12 30 23 25 4
split_gain=21021.6 36266.5 27741.9 45464.5 29821.6 20847.1 16059.4
threshold=0.0020060200722730004 0.047141426715364053 0.36450000000000005 0.0067551833137380014 0.020084872052922153 4.6541925465838521 0.29647715782700618
decision_type=2 10 2 10 2 2 2
left_child=1 5 3 -2 -4 -1 -3
right_child=2 6 4 -5 -6 -7 -8
leaf_value=-0.21663480159213752 1.4414950771059163 3.5092100423643418 -0.083225700411169001 -0.45660825737635324 1.2411849696905166 -1.2550525852709724 0.35286803572569764
leaf_weight=266.5 174 15.000000000000002 1222 93 87.5 142.5 15.999999999999998
leaf_count=287 184 20 1273 105 103 160 20
internal_value=0.0183304 -0.405214 0.136541 0.780358 0.00527062 -0.578431 1.88013
internal_weight=2016.5 440 1576.5 267 1309.5 409 31
internal_count=2152 487 1665 289 1376 447 40
is_linear=0
shrinkage=0.0693017


Tree=110
num_leaves=7
num_cat=0
split_feature=5 21 3 23 0 4
split_gain=24362.6 25971 26707.6 23814.1 20151.7 16974.2
threshold=0.2612719607969014 24.550000000000004 0.18108040728494204 -0.054366204417051846 63.500000000000007 0.27831595333658432
decision_type=2 2 2 2 2 2
left_child=1 5 -3 -2 -5 -1
right_child=3 2 -4 4 -6 -7
leaf_value=0.080471501985409644 4.5439254178233695 -0.031115950756644382 0.56044145210470131 0.67225141752463169 -0.73206026393788792 -1.9024274596227739
leaf_weight=36.5 4.4999999999999991 930 605 57.5 335 48
leaf_count=39 5 977 646 99 335 51
internal_value=0.0176602 0.136925 0.202039 -0.468862 -0.526333 -1.04591
internal_weight=2016.5 1619.5 1535 397 392.5 84.5
internal_count=2152 1713 1623 439 434 90
is_linear=0
shrinkage=0.0693017


Tree=111
num_leaves=7
num_cat=0
split_feature=29 21 1 13 13 31
split_gain=20834.9 28639.5 27735.8 22139.5 18167.5 5707.68
threshold=-0.043718201360363397 25.850000000000005 702.50000000000011 0.14450000000000002 0.24650000000000002 0.0087036208845897526
decision_type=8 2 2 2 2 10
left_child=1 5 3 -2 -3 -1
right_child=2 4 -4 -5 -6 -7
leaf_value=-1.577724350205858 -2.0866438196954347 0.075521011538145111 2.0194486317805613 0.077331056775986048 -2.1792047932620666 -3.2890628709274941
leaf_weight=19.5 23 121 35 1780 20 18
leaf_count=20 28 133 35 1893 23 20
internal_value=0.0178142 -0.697002 0.0872346 0.0497263 -0.244298 -2.39917
internal_weight=2016.5 178.5 1838 1803 141 37.5
internal_count=2152 196 1956 1921 156 40
is_linear=0
shrinkage=0.0693017


Tree=112
num_leaves=8
num_cat=0
split_feature=5 12 8 31 3 5 26
split_gain=22471.3 34525.4 27924.7 27627.2 28637.4 19429.8 17827.4
threshold=0.20334284296700569 0.39550000000000007 0.51190476190476197 0.017056905644050251 0.18428403410761543 0.28911051514135661 3.5000000000000004
decision_type=2 2 8 10 2 2 2
left_child=1 2 -1 4 -2 -5 -3
right_child=3 6 -4 5 -6 -7 -8
leaf_value=2.6878170657881486 -0.33836607480803244 0.18649039887282817 0.65813144760062947 -0.56175920356806841 0.48481370680585989 -2.2351421164078302 -0.74031270159869389
leaf_weight=39 489 555 197 229 347 39 121.5
leaf_count=41 529 571 214 249 371 43 134
internal_value=0.0173503 0.271815 0.993546 -0.192975 0.00331261 -0.805274 0.0200357
internal_weight=2016.5 912.5 236 1104 836 268 676.5
internal_count=2152 960 255 1192 900 292 705
is_linear=0
shrinkage=0.0693017


Tree=113
num_leaves=7
num_cat=0
split_feature=5 8 29 16 12 28
split_gain=21114.1 22470.6 38898.2 31001.9 19721.9 24535.1
threshold=0.11331319234642497 0.92582417582417598 0.062779812212836114 39.650000000000013 0.48050000000000004 0.32842941027222405
decision_type=2 8 10 2 2 8
left_child=4 3 -3 -2 5 -1
right_child=1 2 -4 -5 -6 -7
leaf_value=-0.079174258641751705 -0.13697186535101363 -0.55000311856632689 2.0174440069527844 0.53913685205026518 -0.38808838804393125 2.8866209425720846
leaf_weight=21 863.5 512.5 30 523 29.5 37
leaf_count=22 897 573 41 550 31 38
internal_value=0.0178695 -0.0298911 -0.408024 0.118062 1.07079 1.8128
internal_weight=2016.5 1929 542.5 1386.5 87.5 58
internal_count=2152 2061 614 1447 91 60
is_linear=0
shrinkage=0.0693017


Tree=114
num_leaves=8
num_cat=0
split_feature=7 29 6 24 4 6 24
split_gain=21211.3 20448.9 26774.2 26521.8 16741.4 14701.9 4019.18
threshold=-0.22522645961787313 0.065068079811036211 0.034351645470040611 -0.022846035025645348 0.28346285696557932 0.051171946529939553 0.019140497384601204
decision_type=2 10 2 2 2 2 2
left_child=4 2 -2 -3 6 -6 -1
right_child=1 3 -4 -5 5 -7 -8
leaf_value=-2.8976007488813385 1.9534741352709519 -0.54216345041962977 0.0046542012648496511 3.0521226626553291 -2.0138066733194302 0.15202502125595957 -1.4308271218038908
leaf_weight=17 34.5 16.5 1819.5 24.5 19.5 66 19
leaf_count=19 37 20 1929 31 21 72 23
internal_value=0.0178596 0.0747728 0.0409186 1.60564 -0.869798 -0.341937 -2.12347
internal_weight=2016.5 1895 1854 41 121.5 85.5 36
internal_count=2152 2017 1966 51 135 93 42
is_linear=0
shrinkage=0.0693017


Tree=115
num_leaves=5
num_cat=0
split_feature=30 32 27 20
split_gain=19938.5 21975.9 22810.2 20651
threshold=0.060762759004310905 0.042533969896736114 0.0087203002201461533 0.39250000000000007
decision_type=10 10 2 2
left_child=1 2 -1 -3
right_child=-2 3 -4 -5
leaf_value=-0.12710916257754051 -2.2167450027334086 -0.89063159820560178 0.36592185623985124 1.573834805354926
leaf_weight=920.5 19 176 883 18
leaf_count=982 24 191 933 22
internal_value=0.0176369 0.0388901 0.114281 -0.66197
internal_weight=2016.5 1997.5 1803.5 194
internal_count=2152 2128 1915 213
is_linear=0
shrinkage=0.0693017


Tree=116
num_leaves=8
num_cat=0
split_feature=13 31 2 1 16 23 12
split_gain=19217.5 34128.3 30061.9 25106 23381.6 22868.7 22223.4
threshold=0.19050000000000003 -0.0011029345146317999 0.26033189619398328 368.50000000000006 35.45000000000001 0.020084872052922153 0.46950000000000003
decision_type=2 10 2 2 2 2 2
left_child=1 2 -1 6 -3 -5 -2
right_child=3 4 -4 5 -6 -7 -8
