tree
version=v4
num_class=1
num_tree_per_iteration=1
label_index=0
max_feature_idx=34
objective=huber
feature_names=G p_ipouts p_bfp ERA WHIP K9 BB9 HR9 K_BB_pct BABIP_allowed LOB_pct ERA_minus xFIP_minus is_closer p_gf xera brl_percent_allowed ev95percent_against weighted_whiff_pct avg_hard_hit_pct swstr_pct csw_pct zone_pct chase_pct ff_avg_speed GB_pct BABIP_gap ERA_FIP_gap team_win_pct experience K9_delta ERA_delta WHIP_delta BB9_delta ff_velo_delta
feature_infos=[6:83] [50:442] [64:628] [0.33333333333333331:10.26] [0.62962962962962965:1.9746835443037976] [4.833333333333333:17.666666666666668] [0.79411764705882359:7.5988023952095816] [0:4.2631578947368425] [0.0123456790123456:0.44094488188976377] [0.14545454545454539:0.41509433962264147] [0.4098360655737705:1.0101010101010102] [7:225.47726213956261] [25:146] [0:1] [0:67] [1.4199999999999999:8.6899999999999995] [0.69999999999999996:20] [14:53.700000000000003] [3.6873999999999998:39.536099999999998] [13.9:57] [0.057000000000000002:0.2289999999999999] [0.20899999999999999:0.41062801932367149] [0.315:0.5855855855855856] [0.15873015873015869:0.498] [82.799999999999997:101.8] [0.20624999999999999:0.79220779220779225] [-0.15093280608512991:0.15506906445714391] [-2.8590331488965286:4.599139928026549] [0.29012345679012341:0.71666666666666667] [0:8] [-6.2929973289977923:7.2665982617093183] [-5.8118406640917728:7.7829357798165137] [-0.8089570936423427:0.7852932855526219] [-3.9041101635677329:3.5907655880031566] [-4.3999999999999924:5.5]
tree_sizes=625 726 806 729 731 727 653 556 725 562 488 643 648 732 495 567 486 742 656 571 818 811 655 493 488 489 747 822 574 645 740 486 492 568 561 742 820 579 727 497 563 743 582 574 566 731 578 577 574 652 563 748 730 659 653 573 583 490 495 496 641 666 742 647 814 649 572 657 656 577 828 805 810 731 818 748 571 496 653 727 578 575 817 730 576 661 501 570 490 573 492 501 815 806 730 654 571 579 498 729 822 820 577 649 815 574 577 653 582 732 656 818 752 646 809 579 495 724 829 576 495 832 746 736 818 664 650 657 578 500 502 654

Tree=0
num_leaves=6
num_cat=0
split_feature=14 5 3 5 12
split_gain=537391 273095 67627.2 65458.2 51316.8
threshold=38.500000000000007 10.586348684210527 2.7681334723670497 8.623305396850677 80.500000000000014
decision_type=2 2 2 2 10
left_child=1 3 -3 -1 -2
right_child=4 2 -4 -5 -6
leaf_value=169.80425141423942 193.44939830194951 184.87140506506967 177.65073374034554 174.04175258746113 184.26770461245988
leaf_weight=181.5 36 49 100 195.5 32
leaf_count=196 36 56 113 210 32
internal_value=176.016 174.278 180.064 171.989 189.3
internal_weight=594 526 149 377 68
internal_count=643 575 169 406 68
is_linear=0
shrinkage=1


Tree=1
num_leaves=7
num_cat=0
split_feature=8 8 24 24 11 6
split_gain=342560 123388 92423.2 80117.6 57741.2 22027.1
threshold=0.22634310134310137 0.12717940361740263 97.15000000000002 93.15000000000002 74.230470158217088 4.6229655069434079
decision_type=2 2 8 8 2 2
left_child=1 5 4 -3 -2 -1
right_child=2 3 -4 -5 -6 -7
leaf_value=-7.2590615701541461 7.3543415376033234 -4.3649381217556353 14.927963831341261 1.0360053460912817 -1.521222402450485 -2.6639649457843482
leaf_weight=113 58.5 100.5 29.5 228.5 27 37
leaf_count=121 64 108 31 247 31 41
internal_value=-0.476938 -2.36251 7.32969 -0.622025 4.5663 -6.15066
internal_weight=594 479 115 329 85.5 150
internal_count=643 517 126 355 95 162
is_linear=0
shrinkage=0.160055


Tree=2
num_leaves=8
num_cat=0
split_feature=5 3 21 30 32 5 5
split_gain=336124 88680.6 49433.4 35743.3 33138.2 30946.7 23030.4
threshold=10.481635757751379 2.7681334723670497 0.29150000000000004 2.1709550974286338 -0.30189946423125152 7.0003247385854399 11.209352058729655
decision_type=2 2 2 8 10 2 2
left_child=2 3 5 -2 -4 -1 -3
right_child=1 6 4 -5 -6 -7 -8
leaf_value=-7.4284730136936021 12.401100522247734 -0.40571061956755744 -3.6268747538080173 5.1997659067574897 2.0995356466466419 -3.2655080675437067 4.0762794063341561
leaf_weight=57.5 42 48 41 34 66.5 231 74
leaf_count=61 45 50 47 38 71 246 85
internal_value=-0.339037 5.03026 -3.02957 9.28843 -0.0977416 -4.11793 2.32387
internal_weight=594 198 396 76 107.5 288.5 122
internal_count=643 218 425 83 118 307 135
is_linear=0
shrinkage=0.160055


Tree=3
num_leaves=7
num_cat=0
split_feature=13 21 25 5 0 16
split_gain=323894 135255 64050 48570.2 67579.9 14314.8
threshold=1.0000000180025095e-35 0.28350000000000003 0.45704824976348152 8.623305396850677 49.500000000000007 6.9500000000000011
decision_type=2 2 2 2 2 2
left_child=3 -2 -3 5 -5 -1
right_child=1 2 -4 4 -6 -7
leaf_value=-3.3295528467388724 -3.0988954371401718 12.391546493576357 4.6351608499767316 2.7278090785846327 -2.6708141269384904 -6.4498999654758915
leaf_weight=112.5 30 61 52 84.5 194 60
leaf_count=121 31 63 53 116 194 65
internal_value=-0.237095 6.37393 8.89395 -2.34271 -1.02893 -4.4457
internal_weight=594 143 113 451 278.5 172.5
internal_count=643 147 116 496 310 186
is_linear=0
shrinkage=0.160055


Tree=4
num_leaves=7
num_cat=0
split_feature=5 24 18 24 11 28
split_gain=209598 115927 54380.9 44277.3 36668.3 32547.1
threshold=11.209352058729655 97.350000000000009 13.364050000000001 92.450000000000017 90.500000000000014 0.47839506172839502
decision_type=2 8 10 10 2 2
left_child=2 4 5 -4 -2 -1
right_child=1 -3 3 -5 -6 -7
leaf_value=-5.3285345883933148 4.6401464198413986 14.35146292047561 -3.4431002965212838 1.7224104204213051 -2.0220317243630248 -1.6908855506725007
leaf_weight=114 80 28 59.5 142 28 142.5
leaf_count=126 90 31 60 142 33 161
internal_value=-0.141262 5.35302 -1.78083 0.187674 2.91022 -3.32198
internal_weight=594 136 458 201.5 108 256.5
internal_count=643 154 489 202 123 287
is_linear=0
shrinkage=0.160055


Tree=5
num_leaves=7
num_cat=0
split_feature=13 20 30 31 15 0
split_gain=216762 136848 70370.5 35599 33605 38362.3
threshold=1.0000000180025095e-35 0.13030612244897963 0.61740820419498565 -0.043591460953165746 5.1150000000000011 38.500000000000007
decision_type=2 2 10 10 2 2
left_child=4 3 -3 -2 5 -1
right_child=1 2 -4 -5 -6 -7
leaf_value=1.5914217878247401 -5.2894824116964116 12.940218010804339 3.7621166687440315 2.831424863337213 -6.1718838199703088 -2.1638427031558876
leaf_weight=88 25.5 51.5 38 28 40 323
leaf_count=128 27 53 39 28 45 323
internal_value=-0.0747879 5.33328 9.1277 -1.06523 -1.79752 -1.35789
internal_weight=594 143 89.5 53.5 451 411
internal_count=643 147 92 55 496 451
is_linear=0
shrinkage=0.160055


Tree=6
num_leaves=6
num_cat=0
split_feature=13 24 8 1 24
split_gain=163459 97296.6 54671.2 43052 23010.7
threshold=1.0000000180025095e-35 97.250000000000014 0.24019230769230768 262.50000000000006 92.850000000000009
decision_type=2 8 2 2 10
left_child=3 2 -2 4 -1
right_child=1 -3 -4 -5 -6
leaf_value=-3.8543291078161044 -0.37352502923904507 10.956708370348457 7.9878597812803198 3.3140673020572846 -1.2270808088285723
leaf_weight=121.5 73.5 43 26.5 42 287.5
leaf_count=134 75 44 28 42 320
internal_value=-0.0164533 4.67975 1.89919 -1.51253 -2.01502
internal_weight=594 143 100 451 409
internal_count=643 147 103 496 454
is_linear=0
shrinkage=0.160055


Tree=7
num_leaves=5
num_cat=0
split_feature=14 8 31 2
split_gain=160041 62053 51739.3 25977.5
threshold=38.500000000000007 0.25101214574898789 -0.07867463595668138 376.50000000000006
decision_type=2 2 8 2
left_child=1 3 -2 -1
right_child=2 -3 -4 -5
leaf_value=-1.8065121192516531 1.8920445681492084 4.5630267602989569 10.89747232606573 2.6709627498313688
leaf_weight=444 28 47 40 35
leaf_count=485 28 55 40 35
internal_value=0.0216514 -0.927402 7.27023 -1.47448
internal_weight=594 526 68 479
internal_count=643 575 68 520
is_linear=0
shrinkage=0.160055


Tree=8
num_leaves=7
num_cat=0
split_feature=5 13 30 0 25 11
split_gain=98982.9 66721.6 41357.4 27971.5 23576.1 19137.2
threshold=10.481635757751379 1.0000000180025095e-35 0.64559032861708954 50.500000000000007 0.60355340622371745 106.07329211001361
decision_type=2 2 10 2 2 2
left_child=4 3 -3 -2 5 -1
right_child=1 2 -4 -5 -6 -7
leaf_value=-1.2517902296288339 4.1527077676574233 9.9463827988236364 2.752182326371253 -1.2102342556003218 2.1276971884054645 -4.1910983632216467
leaf_weight=283.5 35 41 42 80 42 70.5
leaf_count=301 52 43 43 80 46 78
internal_value=0.0390077 2.95234 6.38178 0.443617 -1.42141 -1.84728
internal_weight=594 198 83 115 396 354
internal_count=643 218 86 132 425 379
is_linear=0
shrinkage=0.160055


Tree=9
num_leaves=5
num_cat=0
split_feature=14 26 8 34
split_gain=97264 39341.3 37378.9 34555.9
threshold=38.500000000000007 0.020271091532125553 0.25101214574898789 0.80000000000000437
decision_type=2 8 2 10
left_child=2 -2 3 -1
right_child=1 -3 -4 -5
leaf_value=-1.6830852200967248 2.2828682088600378 10.071274337282167 3.5722725592551487 2.11136533223398
leaf_weight=407.5 39 29 47 71.5
leaf_count=444 39 29 55 76
internal_value=0.051088 5.70187 -0.688831 -1.11348
internal_weight=594 68 526 479
internal_count=643 68 575 520
is_linear=0
shrinkage=0.160055


Tree=10
num_leaves=4
num_cat=0
split_feature=14 20 22
split_gain=74260.6 43394.5 23878.7
threshold=49.500000000000007 0.17143750000000005 0.47653094528986989
decision_type=2 2 2
left_child=1 2 -1
right_child=-2 -3 -4
leaf_value=-0.34441186150157505 6.810576005118838 5.8467810403966816 -3.7115057364783626
leaf_weight=470 38 26 60
leaf_count=495 38 32 78
internal_value=0.0585297 -0.414299 -0.731842
internal_weight=594 556 530
internal_count=643 605 573
is_linear=0
shrinkage=0.160055


Tree=11
num_leaves=6
num_cat=0
split_feature=14 31 28 5 0
split_gain=55863.3 33541.5 29479.5 51935 32617.8
threshold=38.500000000000007 -0.07867463595668138 0.47839506172839502 11.209352058729655 39.500000000000007
decision_type=2 8 2 2 2
left_child=2 -2 3 -1 -4
right_child=1 -3 4 -5 -6
leaf_value=-3.1621043378437506 0.071257063129581716 7.260386582670189 3.2935757474589558 3.7940895070180733 -0.45414367214461621
leaf_weight=167 28 40 77 32 250
leaf_count=179 28 40 107 39 250
internal_value=0.061486 4.34394 -0.499305 -2.03019 0.435671
internal_weight=594 68 526 199 327
internal_count=643 68 575 218 357
is_linear=0
shrinkage=0.160055


Tree=12
num_leaves=6
num_cat=0
split_feature=8 30 8 1 19
split_gain=45721.6 30197.4 27279.1 41379.2 18108.6
threshold=0.25489110372831308 0.95894610693797599 0.12717940361740263 262.50000000000006 29.775000000000002
decision_type=2 10 2 2 10
left_child=2 -2 4 -4 -1
right_child=1 -3 3 -5 -6
leaf_value=0.49424963604620675 7.66641038356825 0.52121675872926865 -0.14520045057566788 6.3526717373854709 -3.352895159672332
leaf_weight=44 30.5 29.5 358 26 106
leaf_count=56 35 33 387 26 106
internal_value=0.0676044 4.21926 -0.405863 0.310063 -2.22858
internal_weight=594 60 534 384 150
internal_count=643 68 575 413 162
is_linear=0
shrinkage=0.160055


Tree=13
num_leaves=7
num_cat=0
split_feature=18 13 0 24 19 8
split_gain=37342.4 34510.3 55384 44504.8 25321.2 20207.4
threshold=19.132300000000004 1.0000000180025095e-35 55.500000000000007 96.15000000000002 28.525000000000002 0.12371186613610852
decision_type=10 2 2 8 8 2
left_child=4 2 -2 -3 -1 -6
right_child=1 3 -4 -5 5 -7
leaf_value=3.6547369265573622 6.3171778713922881 0.54297546794249696 -2.3648242090208007 8.8895145458191678 -2.8491731589908129 -0.32896103331446003
leaf_weight=31 25.5 31 64 34 111.5 297
leaf_count=31 26 31 64 34 122 335
internal_value=0.068134 2.20038 0.151139 4.97716 -0.68471 -1.02211
internal_weight=594 154.5 89.5 65 439.5 408.5
internal_count=643 155 90 65 488 457
is_linear=0
shrinkage=0.160055


Tree=14
num_leaves=4
num_cat=0
split_feature=17 15 24
split_gain=40069.5 26531.9 27754.1
threshold=27.350000000000005 2.4750000000000005 91.450000000000017
decision_type=2 2 10
left_child=-1 -2 -3
right_child=1 2 -4
leaf_value=5.0379580446485264 3.9034879908435132 -3.1434513237589634 -0.032724682070748752
leaf_weight=38 35.5 87.5 433
leaf_count=42 40 96 465
internal_value=0.0782174 -0.269164 -0.560668
internal_weight=594 556 520.5
internal_count=643 601 561
is_linear=0
shrinkage=0.160055


Tree=15
num_leaves=5
num_cat=0
split_feature=17 22 8 8
split_gain=28756.4 24246.8 33253.2 22162.3
threshold=27.350000000000005 0.47653094528986989 0.12717940361740263 0.16336342229199369
decision_type=2 2 2 2
left_child=-1 2 -2 -3
right_child=1 3 -4 -5
leaf_value=4.2717985805564096 -1.9949152527708129 0.57676045752458283 0.94850864302619875 -5.6139180209054524
leaf_weight=38 134 24 361 37
leaf_count=42 142 35 378 46
internal_value=0.0701573 -0.224133 0.149296 -3.20812
internal_weight=594 556 495 61
internal_count=643 601 520 81
is_linear=0
shrinkage=0.160055


Tree=16
num_leaves=4
num_cat=0
split_feature=14 1 20
split_gain=30108.1 21494.1 19571.5
threshold=49.500000000000007 284.00000000000006 0.17143750000000005
decision_type=2 2 2
left_child=1 2 -1
right_child=-2 -3 -4
leaf_value=-0.70492526174715453 4.3613076237213546 3.8575879009706409 3.7201807092244521
leaf_weight=500 38 30 26
leaf_count=543 38 30 32
internal_value=0.0620396 -0.239072 -0.479573
internal_weight=594 556 526
internal_count=643 605 575
is_linear=0
shrinkage=0.160055


Tree=17
num_leaves=7
num_cat=0
split_feature=23 24 2 21 3 33
split_gain=24097.1 40729.8 49408.9 25760.1 17765.9 13019.7
threshold=0.30650000000000005 92.850000000000009 324.50000000000006 0.2872768240343348 2.5374076140008373 0.022695319714824056
decision_type=2 8 2 2 2 10
left_child=4 3 -3 -2 -1 -6
right_child=1 2 -4 -5 5 -7
leaf_value=-5.2412777061244169 -3.964327319842706 1.1033593072762569 8.3056995924088834 1.2323887777540325 -1.9288795798401459 0.78864343681186633
leaf_weight=25 61.5 259.5 26 39.5 104 78.5
leaf_count=31 65 273 26 43 119 86
internal_value=0.0633799 0.809805 1.78587 -1.93976 -1.32417 -0.762037
internal_weight=594 386.5 285.5 101 207.5 182.5
internal_count=643 407 299 108 236 205
is_linear=0
shrinkage=0.160055


Tree=18
num_leaves=6
num_cat=0
split_feature=18 7 13 18 3
split_gain=18547.1 31922.9 25114 21588.7 19871
threshold=19.132300000000004 1.4554860866502293 1.0000000180025095e-35 17.599350000000005 2.0499011857707514
decision_type=10 2 2 10 2
left_child=3 2 -2 4 -1
right_child=1 -3 -4 -5 -6
leaf_value=-3.8119104848312597 0.55608718066489027 -3.4559836559198103 5.0406015509425064 -5.0336500477311112 0.1471935795985462
leaf_weight=34.5 70.5 26 58 24 381
leaf_count=43 71 26 58 24 421
internal_value=0.0654315 1.56812 2.60344 -0.465168 -0.189874
internal_weight=594 154.5 128.5 439.5 415.5
internal_count=643 155 129 488 464
is_linear=0
shrinkage=0.160055


Tree=19
num_leaves=5
num_cat=0
split_feature=14 23 30 12
split_gain=17970.9 14052.6 33799.4 27503.4
threshold=49.500000000000007 0.34404301075268823 0.035112555485097709 71.500000000000014
decision_type=2 2 8 8
left_child=1 3 -3 -1
right_child=-2 2 -4 -5
leaf_value=4.997475732396742 3.3800288725923782 1.558185188097635 -3.5817663818850725 -0.070531421218419335
leaf_weight=28.5 38 53 83 391.5
leaf_count=30 38 57 87 431
internal_value=0.0585116 -0.174139 -1.58193 0.284383
internal_weight=594 556 136 420
internal_count=643 605 144 461
is_linear=0
shrinkage=0.160055


Tree=20
num_leaves=8
num_cat=0
split_feature=23 3 23 30 11 22 25
split_gain=17907.2 26400 37192.7 25402.6 14905.1 23498.3 21084.4
threshold=0.30650000000000005 2.810874277456648 0.32950000000000002 -0.096501035055502837 82.418208175688179 0.45150000000000007 0.44374779576002193
decision_type=2 2 2 10 2 2 2
left_child=4 3 -3 -2 6 -6 -1
right_child=1 2 -4 -5 5 -7 -8
leaf_value=-5.7688712498141452 4.5279297516063925 1.7984241287430092 -2.0796911311918165 0.1201702575979449 -1.5188540791085214 3.3668457184191496 -0.83005262907085919
leaf_weight=33.5 72 118 134.5 62 74 37 63
leaf_count=39 78 122 141 66 78 48 71
internal_value=0.0541212 0.697576 -0.267399 2.50446 -1.14202 0.125178 -2.586
internal_weight=594 386.5 252.5 134 207.5 111 96.5
internal_count=643 407 263 144 236 126 110
is_linear=0
shrinkage=0.160055


Tree=21
num_leaves=8
num_cat=0
split_feature=0 18 5 14 30 30 8
split_gain=14839.4 31713.9 30460.5 27113.7 21803.2 14514.1 12353.5
threshold=38.500000000000007 7.7518500000000001 8.320261079420801 10.500000000000002 -1.9658466569262403 0.94435657431723119 0.18544973544973548
decision_type=2 10 2 2 8 8 2
left_child=1 5 -3 6 -5 -1 -2
right_child=3 2 -4 4 -6 -7 -8
leaf_value=2.1357896996053438 -3.1285934434754554 0.62032282300865227 8.5928364057765592 4.6777240440865233 0.079257297118558084 -2.6187260775560821 -0.14469554935377754
leaf_weight=27.5 100 24 24.5 28 297 38 55
leaf_count=50 100 24 25 28 297 64 55
internal_value=0.0479168 1.68122 4.73958 -0.342671 0.48852 -0.620463 -2.07748
internal_weight=594 114 48.5 480 325 65.5 155
internal_count=643 163 49 480 325 114 155
is_linear=0
shrinkage=0.160055


Tree=22
num_leaves=6
num_cat=0
split_feature=33 20 10 8 22
split_gain=19005.1 51138 17690.8 17210.4 17559.2
threshold=0.52957206488790909 0.13030612244897963 0.68986390581948753 0.27223320158102771 0.47653094528986989
decision_type=10 2 2 2 2
left_child=3 2 -2 4 -1
right_child=1 -3 -4 -5 -6
leaf_value=-0.33203754517164458 -4.1539693940884881 6.0265208936374632 0.88005025490446676 2.8183831023164188 -3.4723783317843027
leaf_weight=374 24 45.5 62 37.5 51
leaf_count=394 26 50 65 43 65
internal_value=0.0592454 1.74961 -0.55628 -0.424095 -0.716119
internal_weight=594 131.5 86 462.5 425
internal_count=643 141 91 502 459
is_linear=0
shrinkage=0.160055


Tree=23
num_leaves=4
num_cat=0
split_feature=17 32 9
split_gain=14358.3 14336.4 24735.6
threshold=27.350000000000005 -0.36213442565186754 0.23638980611294552
decision_type=2 8 2
left_child=-1 -2 -3
right_child=1 2 -4
leaf_value=3.0272350063636209 -2.8562272612966257 3.5729915337486973 -0.26143445877877869
leaf_weight=38 45 46.5 464.5
leaf_count=42 51 54 496
internal_value=0.0582904 -0.149676 0.0937653
internal_weight=594 556 511
internal_count=643 601 550
is_linear=0
shrinkage=0.160055


Tree=24
num_leaves=4
num_cat=0
split_feature=1 4 10
split_gain=15238.5 16782.8 14281.1
threshold=284.00000000000006 1.5988935833915927 0.67584804191947057
decision_type=2 2 2
left_child=1 2 -1
right_child=-2 -3 -4
leaf_value=-2.4315594310817135 3.5064009153731108 3.7561975646783377 -0.0097927280495661087
leaf_weight=71 30 26 467
leaf_count=79 30 31 503
internal_value=0.0511654 -0.138483 -0.333298
internal_weight=594 564 538
internal_count=643 613 582
is_linear=0
shrinkage=0.160055


Tree=25
num_leaves=4
num_cat=0
split_feature=15 1 26
split_gain=15031.4 23645.5 19832.6
threshold=5.1150000000000011 262.50000000000006 0.031032499644923401
decision_type=2 2 10
left_child=1 2 -1
right_child=-2 -3 -4
leaf_value=-0.34446356690973307 -2.909512723707949 4.2333349964527125 2.8954679445474047
leaf_weight=466 40 35 53
leaf_count=504 45 35 59
internal_value=0.0480456 0.266428 -0.00868918
internal_weight=594 554 519
internal_count=643 598 563
is_linear=0
shrinkage=0.160055


Tree=26
num_leaves=7
num_cat=0
split_feature=33 20 17 31 17 34
split_gain=12954.4 36858.3 17321.4 24066.9 16812.2 15567.6
threshold=0.52957206488790909 0.13030612244897963 38.250000000000007 -1.4336379632894671 39.550000000000004 -0.35000000000000137
decision_type=10 2 2 8 2 10
left_child=2 5 3 -1 -4 -2
right_child=1 -3 4 -5 -6 -7
leaf_value=-2.5303872389320583 -3.0986000997146612 5.0736776874682183 -4.9534231338637733 0.97994411500398348 -0.8489942808865204 1.242382238436849
leaf_weight=61 34.5 45.5 32.5 258.5 110.5 51.5
leaf_count=65 37 50 35 278 124 54
internal_value=0.0470163 1.4426 -0.35203 0.303957 -1.80964 -0.514603
internal_weight=594 131.5 462.5 319.5 143 86
internal_count=643 141 502 343 159 91
is_linear=0
shrinkage=0.160055


Tree=27
num_leaves=8
num_cat=0
split_feature=0 18 33 21 33 30 27
split_gain=12777.4 23779.5 30700.6 16814.6 26340.8 23666.7 13151.7
threshold=38.500000000000007 7.7518500000000001 0.65739772268048602 0.29250000000000004 0.55925775215184281 1.0000000180025095e-35 -0.058840663871385597
decision_type=2 10 8 2 10 10 2
left_child=1 6 -3 4 -2 -5 -1
right_child=3 2 -4 5 -6 -7 -8
leaf_value=-2.3364096899310289 -2.1540854197108583 0.17658894946439715 8.1566666198580045 2.2877810407541048 1.5383065627293535 -0.99049378309760105 2.188392708564912
leaf_weight=38 190 24.5 24 115 66 109 27.5
leaf_count=65 190 25 24 115 66 109 49
internal_value=0.0465577 1.56213 4.2102 -0.315882 -1.19987 0.695227 -0.432358
internal_weight=594 114 48.5 480 256 224 65.5
internal_count=643 163 49 480 256 224 114
is_linear=0
shrinkage=0.160055


Tree=28
num_leaves=5
num_cat=0
split_feature=30 0 12 10
split_gain=11890.2 12596.1 28234.7 14176.6
threshold=-2.6195101913371079 55.500000000000007 79.500000000000014 0.66518683309052262
decision_type=8 2 8 2
left_child=-1 2 -2 -3
right_child=1 3 -4 -5
leaf_value=3.3331838488319439 5.5529002392222644 -3.7506946915139414 0.14465679013970489 -0.35549501155117269
leaf_weight=26 27.5 34 187.5 319
leaf_count=29 34 34 227 319
internal_value=0.0512122 -0.104593 0.858834 -0.692148
internal_weight=594 568 215 353
internal_count=643 614 261 353
is_linear=0
shrinkage=0.160055


Tree=29
num_leaves=6
num_cat=0
split_feature=24 28 28 0 10
split_gain=10479.9 30051 15724 24332.5 19009
threshold=97.250000000000014 0.53209876543209889 0.4824074074074074 55.500000000000007 0.83883507796551282
decision_type=10 2 2 2 2
left_child=2 -2 4 -4 -1
right_child=1 -3 3 -5 -6
leaf_value=-1.7184928450009067 6.0681178565496472 -1.2145779483496155 2.280908260206481 -0.59129245468466529 2.8889221896775625
leaf_weight=199 25.5 31.5 125 188 25
leaf_count=214 27 32 154 188 28
internal_value=0.0476596 2.09175 -0.172783 0.559351 -1.19376
internal_weight=594 57 537 313 224
internal_count=643 59 584 342 242
is_linear=0
shrinkage=0.160055


Tree=30
num_leaves=7
num_cat=0
split_feature=23 24 23 0 34 28
split_gain=10731.1 26633.6 34355.6 22412.3 15075.6 12942
threshold=0.30650000000000005 91.450000000000017 0.33050000000000007 69.500000000000014 0.80000000000000437 0.55277777777777792
decision_type=2 8 2 2 10 2
left_child=3 5 -3 4 -1 -2
right_child=1 2 -4 -5 -6 -7
leaf_value=-0.83204839529628305 -4.3988018434502063 3.0713194642752355 -0.25961524739442282 -5.0072886798236169 3.206821954177669 0.30391072576874412
leaf_weight=152.5 36 134.5 191 28 27 25
leaf_count=179 38 141 200 28 29 28
internal_value=0.047627 0.54573 1.12193 -0.878338 -0.210181 -2.49755
internal_weight=594 386.5 325.5 207.5 179.5 61
internal_count=643 407 341 236 208 66
is_linear=0
shrinkage=0.160055


Tree=31
num_leaves=4
num_cat=0
split_feature=15 1 15
split_gain=11186.8 18242.5 16338.4
threshold=5.1150000000000011 262.50000000000006 4.495000000000001
decision_type=2 2 2
left_child=1 2 -1
right_child=-2 -3 -4
leaf_value=-0.29804557562861511 -2.5074721379286977 3.7167014350692122 2.7726627307235705
leaf_weight=471 40 35 48
leaf_count=509 45 35 54
internal_value=0.0439745 0.232366 -0.00928062
internal_weight=594 554 519
internal_count=643 598 563
is_linear=0
shrinkage=0.160055


Tree=32
num_leaves=4
num_cat=0
split_feature=15 6 17
split_gain=10591.1 11677.5 13740.2
threshold=2.3600000000000008 1.8579001544004117 38.95000000000001
decision_type=2 2 2
left_child=-1 -2 -3
right_child=1 2 -4
leaf_value=3.2032540297850098 -2.6207108649952953 0.62617176859899371 -1.1768242594815563
leaf_weight=25 42.5 375.5 151
leaf_count=27 47 403 166
internal_value=0.0439666 -0.100199 0.107827
internal_weight=594 569 526.5
internal_count=643 616 569
is_linear=0
shrinkage=0.160055


Tree=33
num_leaves=5
num_cat=0
split_feature=30 8 5 19
split_gain=9538.05 19915.7 14173.9 6972.94
threshold=2.9049620659782884 0.25207700101317126 12.250434782608698 42.775000000000013
decision_type=10 2 2 8
left_child=1 2 -1 -3
right_child=-2 3 -4 -5
leaf_value=0.075233681843540789 -2.7931127979922934 5.05063400586012 -3.8314817604417493 1.2214110141745791
leaf_weight=492.5 28 25 24 24.5
leaf_count=528 33 25 27 30
internal_value=0.0383262 0.18306 -0.113326 3.21686
internal_weight=594 566 516.5 49.5
internal_count=643 610 555 55
is_linear=0
shrinkage=0.160055


Tree=34
num_leaves=5
num_cat=0
split_feature=4 3 2 18
split_gain=10176.6 19625.2 24115.6 12636.6
threshold=1.5988935833915927 4.5083643122676591 367.50000000000006 10.917050000000001
decision_type=2 2 2 8
left_child=1 2 -1 -3
right_child=-2 3 -4 -5
leaf_value=0.012876082104065977 3.0107351501834989 0.64793740464238636 4.9370968662337642 -3.5240157452276124
leaf_weight=453 27 26 26 62
leaf_count=490 32 26 26 69
internal_value=0.0317835 -0.115104 0.289856 -2.29794
internal_weight=594 567 479 88
internal_count=643 611 516 95
is_linear=0
shrinkage=0.160055


Tree=35
num_leaves=7
num_cat=0
split_feature=14 30 10 30 24 24
split_gain=9254.84 23554.7 19055.3 13829.4 21973.6 16111.3
threshold=10.500000000000002 -2.1123529411764701 0.68323556653288064 -0.24798022045782978 94.750000000000014 94.550000000000011
decision_type=2 8 2 8 8 8
left_child=3 -2 -3 5 -5 -1
right_child=1 2 -4 4 -6 -7
leaf_value=-4.5662063769509595 5.3051664690034626 -2.4954729079020797 0.76681801613068201 1.5421437721937654 -1.9690994801380524 0.44686743759762598
leaf_weight=41.5 24 54.5 263.5 104.5 79.5 26.5
leaf_count=49 25 57 267 120 95 30
internal_value=0.0325481 0.574178 0.201666 -0.701887 0.0226231 -2.63434
internal_weight=594 342 318 252 184 68
internal_count=643 349 324 294 215 79
is_linear=0
shrinkage=0.160055


Tree=36
num_leaves=8
num_cat=0
split_feature=26 22 3 19 3 19 23
split_gain=10835.2 16108.6 19419.7 18789.2 13496 34579.5 20042.2
threshold=-0.0040682453361008493 0.41350000000000003 3.2071003206596429 33.975000000000009 2.8460526315789481 35.425000000000004 0.34150000000000008
decision_type=10 2 2 10 2 10 2
left_child=4 3 -3 -2 5 -1 -6
right_child=1 2 -4 -5 6 -7 -8
leaf_value=-1.0376173313024686 2.144913107232544 -0.96214157380901322 3.9618385424366922 -2.9673343092070885 -0.40690918058939585 3.8903434669885208 -3.902573307616541
leaf_weight=97.5 32.5 29 66.5 40 220.5 57 51
leaf_count=113 36 32 73 40 239 57 53
internal_value=0.0321373 1.11686 2.4721 -0.677627 -0.39725 0.793744 -1.07542
internal_weight=594 168 95.5 72.5 426 154.5 271.5
internal_count=643 181 105 76 462 170 292
is_linear=0
shrinkage=0.160055


Tree=37
num_leaves=5
num_cat=0
split_feature=33 27 3 30
split_gain=9844.56 11515.1 26061.3 13286.1
threshold=1.711374378003067 -0.067136678933587837 2.7681334723670497 2.304981199989125
decision_type=10 2 2 10
left_child=1 3 -3 -1
right_child=-2 2 -4 -5
leaf_value=-0.42387434595978768 2.6744031474110064 5.3219044212368702 0.10659845107199151 -4.0981738800502532
leaf_weight=308 33 27 199.5 26.5
leaf_count=332 36 30 217 28
internal_value=0.0296241 -0.130417 0.748877 -0.726269
internal_weight=594 561 226.5 334.5
internal_count=643 607 247 360
is_linear=0
shrinkage=0.160055


Tree=38
num_leaves=7
num_cat=0
split_feature=0 18 5 14 30 30
split_gain=7841.77 17267 25991.2 14210.8 13377.4 10185.8
threshold=38.500000000000007 7.7518500000000001 8.320261079420801 5.5000000000000009 -2.1576538664287677 0.94435657431723119
decision_type=2 10 2 2 8 8
left_child=1 5 -3 -2 -5 -1
right_child=3 2 -4 4 -6 -7
leaf_value=1.8261955589802297 -3.460902912231457 -0.29559103469228326 7.031413658204829 3.2463350694703501 -0.25231148273594334 -2.1565028345079069
leaf_weight=27.5 32 24 24.5 29 419 38
leaf_count=50 32 24 25 29 419 64
internal_value=0.0286429 1.21596 3.47272 -0.25528 -0.0191349 -0.482069
internal_weight=594 114 48.5 480 448 65.5
internal_count=643 163 49 480 448 114
is_linear=0
shrinkage=0.160055


Tree=39
num_leaves=4
num_cat=0
split_feature=32 15 9
split_gain=7800.8 10726.8 11871.2
threshold=-0.46953427929380437 2.4050000000000007 0.23958132355778503
decision_type=8 2 2
left_child=-1 -2 -3
right_child=1 2 -4
leaf_value=-2.6500949459195482 3.2434004962059606 2.2211755401242308 -0.24912622022432218
leaf_weight=25.5 26.5 54.5 487.5
leaf_count=29 29 62 523
internal_value=0.034511 0.159355 0.00289141
internal_weight=594 568.5 542
internal_count=643 614 585
is_linear=0
shrinkage=0.160055


Tree=40
num_leaves=5
num_cat=0
split_feature=4 3 1 18
split_gain=8066.84 13107.4 26846.3 10034.6
threshold=1.5988935833915927 4.5083643122676591 262.50000000000006 13.331950000000003
decision_type=2 2 2 10
left_child=1 2 -1 -3
right_child=-2 3 -4 -5
leaf_value=-0.061762260075764429 2.682382425057789 -0.23612387708363311 5.1336193319040087 -3.6426459589525306
leaf_weight=453 27 46 26 42
leaf_count=490 32 53 26 42
internal_value=0.0301328 -0.100649 0.230313 -1.88454
internal_weight=594 567 479 88
internal_count=643 611 516 95
is_linear=0
shrinkage=0.160055


Tree=41
num_leaves=7
num_cat=0
split_feature=26 19 8 10 4 11
split_gain=7170.55 12974.8 13876.2 11474.1 12927.5 9436.76
threshold=-0.0040682453361008493 33.975000000000009 0.18152769324406567 0.65946310116086237 1.2421182266009854 80.500000000000014
decision_type=10 10 2 2 2 2
left_child=3 5 -3 -1 -5 -2
right_child=1 2 -4 4 -6 -7
leaf_value=-2.918464450928266 0.31931044579287066 1.3607332553860643 -2.5481558395887665 0.56452826520071731 -1.4280820622609127 3.9422680955507898
leaf_weight=38.5 31.5 52 40.5 267.5 120 44
leaf_count=44 35 52 41 289 129 53
internal_value=0.029666 0.912085 -0.359643 -0.319646 -0.0546183 2.45455
internal_weight=594 168 92.5 426 387.5 75.5
internal_count=643 181 93 462 418 88
is_linear=0
shrinkage=0.160055


Tree=42
num_leaves=5
num_cat=0
split_feature=6 18 34 27
split_gain=10815.8 13222.4 19501.5 16680.8
threshold=1.8179802710243129 13.364050000000001 0.80000000000000437 -0.067136678933587837
decision_type=2 10 10 2
left_child=-1 3 -3 -2
right_child=1 2 -4 -5
leaf_value=-2.2914711703848849 -1.6092808806931633 0.44954375842611916 4.2706852645081446 0.94541075047292278
leaf_weight=46.5 160 239 39 109.5
leaf_count=51 186 239 39 128
internal_value=0.0256142 0.226213 0.998941 -0.57163
internal_weight=594 547.5 278 269.5
internal_count=643 592 278 314
is_linear=0
shrinkage=0.160055


Tree=43
num_leaves=5
num_cat=0
split_feature=7 5 23 17
split_gain=7963.76 8498.13 13886.3 10037.3
threshold=0.30085666397665906 7.0003247385854399 0.30350000000000005 34.750000000000007
decision_type=2 2 2 2
left_child=-1 3 -3 -2
right_child=1 2 -4 -5
leaf_value=2.7926431089443011 0.44974428978991715 -1.0983821600105954 0.67509267880536905 -3.8933264221172399
leaf_weight=24.5 24 166 349.5 30
leaf_count=28 25 191 367 32
internal_value=0.0251378 -0.0985905 0.102986 -1.9899
internal_weight=594 569.5 515.5 54
internal_count=643 615 558 57
is_linear=0
shrinkage=0.160055


Tree=44
num_leaves=5
num_cat=0
split_feature=22 25 16 25
split_gain=8646.31 15250.8 15555.1 10714.4
threshold=0.38250000000000001 0.60355340622371745 3.6500000000000008 0.52187585452556751
decision_type=2 2 2 2
left_child=3 2 -2 -1
right_child=1 -3 -4 -5
leaf_value=0.067964096933856882 -2.9701282255177386 3.15390451487389 0.24954055665309596 -4.246449210789577
leaf_weight=34 41 41 453 25
leaf_count=37 46 45 489 26
internal_value=0.0218396 0.225764 -0.0231198 -1.80034
internal_weight=594 535 494 59
internal_count=643 580 535 63
is_linear=0
shrinkage=0.160055


Tree=45
num_leaves=7
num_cat=0
split_feature=0 24 28 14 32 17
split_gain=6657.99 14986.1 21741.9 10060.9 12516.3 8456.93
threshold=38.500000000000007 92.950000000000017 0.4824074074074074 9.5000000000000018 0.25707437723394494 33.400000000000006
decision_type=2 8 2 2 10 2
left_child=1 -1 -3 5 -5 -2
right_child=3 2 -4 4 -6 -7
leaf_value=-1.2930818815259681 0.044027729972524923 -0.98827131273288815 4.6503770436676213 -0.20142764729652368 2.4840403195625704 -2.6270783739724322
leaf_weight=41.5 53 28 44.5 306 51 70
leaf_count=55 53 44 64 306 51 70
internal_value=0.0187491 1.1128 2.48882 -0.242855 0.188057 -1.48501
internal_weight=594 114 72.5 480 357 123
internal_count=643 163 108 480 357 123
is_linear=0
shrinkage=0.160055


Tree=46
num_leaves=5
num_cat=0
split_feature=16 22 2 26
split_gain=6797.36 9829.49 13022.7 12767.8
threshold=10.350000000000003 0.39349999999999996 275.50000000000006 0.013029681639166601
decision_type=2 2 2 8
left_child=1 3 -3 -1
right_child=-2 2 -4 -5
leaf_value=-4.0955292582308465 1.8907218106025521 -0.56467982055844113 1.1434377228467401 -0.039951500076159073
leaf_weight=33.5 45 273.5 195 47
leaf_count=35 51 310 195 52
internal_value=0.0216386 -0.134713 0.147194 -1.75712
internal_weight=594 549 468.5 80.5
internal_count=643 592 505 87
is_linear=0
shrinkage=0.160055


Tree=47
num_leaves=5
num_cat=0
split_feature=6 19 20 18
split_gain=7582.78 10636.3 18168.3 16199.5
threshold=1.8179802710243129 41.850000000000009 0.099223756906077307 13.331950000000003
decision_type=2 8 2 10
left_child=-1 3 -3 -2
right_child=1 2 -4 -5
leaf_value=-1.9197663365167932 -0.91628734680395052 2.101468255914221 -1.3299823098258701 1.5773578810877618
leaf_weight=46.5 96 49 188.5 214
leaf_count=51 96 55 227 214
internal_value=0.0203475 0.188312 -0.616198 0.804671
internal_weight=594 547.5 237.5 310
internal_count=643 592 282 310
is_linear=0
shrinkage=0.160055


Tree=48
num_leaves=5
num_cat=0
split_feature=7 9 14 2
split_gain=6077.5 7287.25 18112.2 15336.1
threshold=0.30085666397665906 0.3042009400705053 33.500000000000007 376.50000000000006
decision_type=2 2 2 2
left_child=-1 3 -3 -2
right_child=1 2 -4 -5
leaf_value=2.4379598449857673 0.030227120860305851 -1.6970926241090154 2.6943117173984499 4.1246260147317741
leaf_weight=24.5 375.5 142 28 24
leaf_count=28 404 159 28 24
internal_value=0.0203157 -0.0877683 -0.962317 0.285848
internal_weight=594 569.5 170 399.5
internal_count=643 615 187 428
is_linear=0
shrinkage=0.160055


Tree=49
num_leaves=6
num_cat=0
split_feature=0 5 8 0 19
split_gain=6151.57 17518.2 13693.7 11624.3 12969.1
threshold=55.500000000000007 10.916149632025347 0.18491098938719616 58.500000000000007 35.725000000000009
decision_type=2 2 2 2 10
left_child=1 2 -1 -2 -5
right_child=3 -3 -4 4 -6
leaf_value=0.62180478938072625 -2.8850833184450675 3.5886070512808188 -3.0715169273768534 -1.0780751329945453 0.92010312909109593
leaf_weight=150 41 42 30 162 169
leaf_count=177 41 60 34 162 169
internal_value=0.0210257 0.686027 -0.0072694 -0.376602 -0.0581577
internal_weight=594 222 180 372 331
internal_count=643 271 211 372 331
is_linear=0
shrinkage=0.160055


Tree=50
num_leaves=5
num_cat=0
split_feature=31 7 0 19
split_gain=6356.68 10213.5 16768.6 15444.4
threshold=-3.0346475607859622 0.5355386532030687 69.500000000000014 38.550000000000004
decision_type=8 2 2 8
left_child=-1 3 -3 -2
right_child=1 2 -4 -5
leaf_value=-2.4800557534847245 3.9853776551366451 0.21958621701238848 -2.461430529420868 -0.14906476033998853
leaf_weight=24 40 408 69 53
leaf_count=27 40 442 69 65
internal_value=0.0182579 0.127594 -0.172556 1.65259
internal_weight=594 570 477 93
internal_count=643 616 511 105
is_linear=0
shrinkage=0.160055


Tree=51
num_leaves=7
num_cat=0
split_feature=22 31 19 8 20 33
split_gain=5670.74 17117 17025.2 16646.8 13528.6 12464.6
threshold=0.41650000000000004 -0.52799611895309961 30.925000000000004 0.12867420602656024 0.091500000000000012 0.52957206488790909
decision_type=2 10 8 2 2 8
left_child=2 4 -1 -3 -2 -4
right_child=1 3 5 -5 -6 -7
leaf_value=2.2845441526161565 2.7531445634900251 -1.3403160553452698 -2.6603640640825681 2.4881148566081541 -1.055530780551809 -0.0062784132621189091
leaf_weight=41 26.5 37 87 126.5 182.5 93.5
leaf_count=41 29 40 94 134 207 98
internal_value=0.0160688 0.397096 -0.62362 1.61887 -0.561841 -1.29312
internal_weight=594 372.5 221.5 163.5 209 180.5
internal_count=643 410 233 174 236 192
is_linear=0
shrinkage=0.160055


Tree=52
num_leaves=7
num_cat=0
split_feature=7 12 12 7 28 22
split_gain=5615.97 14672.6 13466.7 20604.7 9420.55 6471.79
threshold=1.4554860866502293 106.50000000000001 108.50000000000001 1.3217647058823532 0.5277777777777779 0.42550000000000004
decision_type=2 10 10 2 2 2
left_child=2 4 3 -1 -2 -4
right_child=1 -3 5 -5 -6 -7
leaf_value=0.19989717254017927 -0.71280135575523085 1.7299167624708915 -3.8962620347775556 4.271934056970875 -4.5826412820921876 -0.28656163615384228
leaf_weight=414 36.5 31 26.5 33.5 28.5 24
leaf_count=448 43 33 27 35 33 24
internal_value=0.015931 -1.09847 0.23252 0.513545 -2.45315 -2.2195
internal_weight=594 96 498 447.5 65 50.5
internal_count=643 109 534 483 76 51
is_linear=0
shrinkage=0.160055


Tree=53
num_leaves=6
num_cat=0
split_feature=8 25 3 18 25
split_gain=5793.44 16606.1 15199.1 9324.8 10638.6
threshold=0.20652238057301348 0.52017769940314718 2.7681334723670497 26.671850000000003 0.54624542124542141
decision_type=2 2 2 10 2
left_child=3 2 -2 4 -1
right_child=1 -3 -4 -5 -6
leaf_value=-0.29674821911869093 1.4899972534151769 -4.5906499594031391 -1.8177727464679518 3.2632176395106192 1.6874192076023555
leaf_weight=317 72.5 24 68 25 87.5
leaf_count=343 77 27 75 25 96
internal_value=0.0153572 -0.789505 -0.112443 0.324736 0.135552
internal_weight=594 164.5 140.5 429.5 404.5
internal_count=643 179 152 464 439
is_linear=0
shrinkage=0.160055


Tree=54
num_leaves=6
num_cat=0
split_feature=23 6 23 0 1
split_gain=5700.23 15666.2 15243.9 11463 8096.92
threshold=0.30650000000000005 4.6229655069434079 0.31050000000000005 69.500000000000014 185.50000000000003
decision_type=2 2 2 2 2
left_child=3 2 -2 4 -1
right_child=1 -3 -4 -5 -6
leaf_value=-1.1855444437074036 3.7141142511723584 3.6322305132256014 -0.2426528588567298 -3.6141104755526152 0.95703741274400789
leaf_weight=95.5 26 33.5 327 28 84
leaf_count=124 26 35 346 28 84
internal_value=0.0136558 0.37672 0.0584145 -0.661174 -0.18314
internal_weight=594 386.5 353 207.5 179.5
internal_count=643 407 372 236 208
is_linear=0
shrinkage=0.160055


Tree=55
num_leaves=5
num_cat=0
split_feature=15 15 12 22
split_gain=5605.46 10268.8 13985.4 7698.48
threshold=5.1150000000000011 4.495000000000001 104.50000000000001 0.39349999999999996
decision_type=2 2 8 2
left_child=1 3 -3 -1
right_child=-2 2 -4 -5
leaf_value=-1.5989404366881652 -1.7928702645654304 4.5195772181666225 -0.49041952364263502 0.17472081128904546
leaf_weight=72.5 40 29.5 26.5 425.5
leaf_count=78 45 30 32 458
internal_value=0.0131871 0.146573 2.18165 -0.0861702
internal_weight=594 554 56 498
internal_count=643 598 62 536
is_linear=0
shrinkage=0.160055


Tree=56
num_leaves=5
num_cat=0
split_feature=6 22 34 30
split_gain=5710.31 9319.28 19755.6 12025.2
threshold=1.8179802710243129 0.43150000000000005 0.35000000000000148 2.0439634519744732
decision_type=2 2 10 8
left_child=-1 3 -3 -2
right_child=1 2 -4 -5
leaf_value=-1.6716598431787109 -1.2295799340791305 0.03739134441737816 3.2621324688627964 0.89137757254918826
leaf_weight=46.5 186.5 189.5 64.5 107
leaf_count=51 195 215 69 113
internal_value=0.0119443 0.157712 0.86582 -0.455952
internal_weight=594 547.5 254 293.5
internal_count=643 592 284 308
is_linear=0
shrinkage=0.160055


Tree=57
num_leaves=4
num_cat=0
split_feature=16 30 34
split_gain=5419.6 6932.6 8652.23
threshold=10.350000000000003 2.7748550893410715 0.30000000000000426
decision_type=2 10 10
left_child=1 2 -1
right_child=-2 -3 -4
leaf_value=-0.35055886446577511 1.6830481691829173 -2.534211982369778 1.1887898081003532
leaf_weight=400 45 28 121
leaf_count=432 51 32 128
internal_value=0.0140948 -0.125506 0.00853502
internal_weight=594 549 521
internal_count=643 592 560
is_linear=0
shrinkage=0.160055


Tree=58
num_leaves=4
num_cat=0
split_feature=30 5 30
split_gain=5406.07 7644.99 8709.87
threshold=-2.6195101913371079 6.3798837908234836 -1.6595885982623233
decision_type=8 2 8
left_child=-1 -2 -3
right_child=1 2 -4
leaf_value=2.2253127173882761 -2.4765523337651967 -2.3014722450580045 0.22756422793707634
leaf_weight=26 31.5 36.5 500
leaf_count=29 33 40 541
internal_value=0.0122829 -0.0927373 0.0515573
internal_weight=594 568 536.5
internal_count=643 614 581
is_linear=0
shrinkage=0.160055


Tree=59
num_leaves=4
num_cat=0
split_feature=31 25 3
split_gain=4919.58 6588.03 7936.97
threshold=-3.0346475607859622 0.61455720625120602 4.5083643122676591
decision_type=8 2 2
left_child=-1 2 -2
right_child=1 -3 -4
leaf_value=-2.1868396930601062 0.26520187139431334 2.1291869908012697 -1.2899964439173672
leaf_weight=24 429 37.5 103.5
leaf_count=27 461 41 114
internal_value=0.0109896 0.107184 -0.0389209
internal_weight=594 570 532.5
internal_count=643 616 575
is_linear=0
shrinkage=0.160055


Tree=60
num_leaves=6
num_cat=0
split_feature=0 6 18 14 6
split_gain=5544.19 17758 22775.6 9571.5 10371.5
threshold=38.500000000000007 2.7205993269900213 7.7518500000000001 5.5000000000000009 5.0378871128871134
decision_type=2 2 10 2 2
left_child=1 -1 -3 -2 -5
right_child=3 2 -4 4 -6
leaf_value=-1.9550736095075008 -2.8587866112463831 0.066130820815392885 5.5535616013724862 0.18563898233543838 -2.7219481957354961
leaf_weight=35 32 47 32 415 33
leaf_count=51 32 80 32 415 33
internal_value=0.0107647 1.00913 2.33038 -0.227946 -0.0341013
internal_weight=594 114 79 480 448
internal_count=643 163 112 480 448
is_linear=0
shrinkage=0.160055


Tree=61
num_leaves=6
num_cat=0
split_feature=11 10 7 9 19
split_gain=4876.68 24823.9 22509.2 18602.4 10773.3
threshold=88.229467412424398 0.76196842373312978 0.8686389511816458 0.31750616414230365 37.625000000000007
decision_type=2 2 2 2 8
left_child=3 2 -2 4 -1
right_child=1 -3 -4 -5 -6
leaf_value=-0.99457829823935417 2.9151949844572327 4.696581714634771 -1.1153186263237116 -3.7957570893690527 0.81408710129890605
leaf_weight=148 46.5 31.5 139.5 35 193.5
leaf_count=148 51 36 149 40 219
internal_value=0.0132772 0.615045 -0.0975256 -0.335063 0.0296307
internal_weight=594 217.5 186 376.5 341.5
internal_count=643 236 200 407 367
is_linear=0
shrinkage=0.160055


Tree=62
num_leaves=7
num_cat=0
split_feature=23 6 10 7 24 22
split_gain=5569.56 12757.3 15146.1 13658.5 10232.8 14621.3
threshold=0.30650000000000005 4.1806644960781414 0.76791549953314664 1.2128811659192829 97.15000000000002 0.40850000000000003
decision_type=2 2 2 2 8 2
left_child=4 3 -3 -2 5 -1
right_child=1 2 -4 -5 -6 -7
leaf_value=-3.2853385893329095 0.65974137688331558 0.064119487254960805 5.3343630317019937 -1.5822588054427145 -3.3377231267089544 0.48920167594891084
leaf_weight=31 233.5 29 26 98 30 146.5
leaf_count=34 246 31 27 103 33 169
internal_value=0.0127396 0.371619 2.6061 -0.00580748 -0.654309 -0.184674
internal_weight=594 386.5 55 331.5 207.5 177.5
internal_count=643 407 58 349 236 203
is_linear=0
shrinkage=0.160055


Tree=63
num_leaves=6
num_cat=0
split_feature=24 31 14 9 18
split_gain=4777.59 11667.8 10425.9 15115.7 12080.9
threshold=97.250000000000014 0.40853997183980001 28.500000000000004 0.30678332403792535 27.213250000000006
decision_type=10 8 2 2 10
left_child=2 -2 4 -4 -1
right_child=1 -3 3 -5 -6
leaf_value=-0.034646407550392867 -1.1305418087137102 3.4091789751083059 -3.0464106166799807 1.6231364735899607 3.4569854357581939
leaf_weight=425 25.5 31.5 62 24 26
leaf_count=472 26 33 62 24 26
internal_value=0.013542 1.39372 -0.135267 -1.73962 0.173822
internal_weight=594 57 537 86 451
internal_count=643 59 584 86 498
is_linear=0
shrinkage=0.160055


Tree=64
num_leaves=8
num_cat=0
split_feature=17 34 14 31 8 14 0
split_gain=4546.17 13890.6 12649.9 12363.8 16661.2 11964.2 7417.47
threshold=38.95000000000001 1.2500000000000002 49.500000000000007 0.53261391860514518 0.17295821462488128 17.500000000000004 59.500000000000007
decision_type=2 10 2 8 2 2 2
left_child=1 2 -1 5 -5 -2 -3
right_child=3 6 -4 4 -6 -7 -8
leaf_value=0.37024505057459522 -0.91780923071053522 -0.17471629365135077 4.0295277102022364 -0.091338938448627352 -4.2935612676853401 3.4447924920841761 -4.0081354460255074
leaf_weight=355.5 35.5 25 25 59 40 28 26
leaf_count=388 42 26 25 64 44 28 26
internal_value=0.014935 0.286701 0.620568 -0.704057 -1.81507 1.02936 -2.16837
internal_weight=594 431.5 380.5 162.5 99 63.5 51
internal_count=643 465 413 178 108 70 52
is_linear=0
shrinkage=0.160055


Tree=65
num_leaves=6
num_cat=0
split_feature=16 22 9 7 18
split_gain=5146.32 18673.4 9482.36 11003.7 6310.21
threshold=4.1500000000000012 0.44331818181818178 0.22029411764705883 0.49770642201834864 19.867750000000004
decision_type=2 2 2 2 8
left_child=1 4 -2 -4 -1
right_child=2 -3 3 -5 -6
leaf_value=-4.5400411067485473 3.1749920733188999 1.4808806594035253 2.4706122704975746 -0.18915254764042067 -1.2264672661203886
leaf_weight=28 25.5 44 43 421.5 32
leaf_count=28 33 53 48 445 36
internal_value=0.0124843 -1.0046 0.229956 0.0618304 -2.82171
internal_weight=594 104 490 464.5 60
internal_count=643 117 526 493 64
is_linear=0
shrinkage=0.160055


Tree=66
num_leaves=5
num_cat=0
split_feature=4 26 9 19
split_gain=5979.08 6804.33 10773.4 4476.77
threshold=1.5988935833915927 0.031032499644923401 0.3042009400705053 40.45000000000001
decision_type=2 10 2 8
left_child=1 2 -1 -3
right_child=-2 3 -4 -5
leaf_value=0.11057436231903942 2.2953745342519976 3.1998922868701003 -1.6616342261164601 0.1490243876258025
leaf_weight=407.5 27 24 111 24.5
leaf_count=439 32 24 119 29
internal_value=0.0119662 -0.100603 -0.271278 1.69276
internal_weight=594 567 518.5 48.5
internal_count=643 611 558 53
is_linear=0
shrinkage=0.160055


Tree=67
num_leaves=6
num_cat=0
split_feature=11 19 3 3 2
split_gain=4893.05 19702.2 18940.6 15108.2 12717
threshold=88.229467412424398 31.400000000000002 3.9956521739130442 3.6592757806350042 299.50000000000006
decision_type=2 8 2 2 2
left_child=3 -2 -3 4 -1
right_child=1 2 -4 -5 -6
leaf_value=-0.51259202697202511 4.7517508656547607 3.5195711482690051 -0.66366098734035395 -3.7821692982863504 1.9263495066882508
leaf_weight=280.5 25 32.5 160 29 67
leaf_count=308 25 36 175 32 67
internal_value=0.0131346 0.615912 0.0570863 -0.33579 -0.0381868
internal_weight=594 217.5 192.5 376.5 347.5
internal_count=643 236 211 407 375
is_linear=0
shrinkage=0.160055


Tree=68
num_leaves=6
num_cat=0
split_feature=0 20 12 31 8
split_gain=4976.85 17691.6 11460.1 10343.3 10003.3
threshold=55.500000000000007 0.091500000000000012 80.500000000000014 -0.76642835617028593 0.18370952621331219
decision_type=2 2 8 8 2
left_child=2 -2 -1 -3 -4
right_child=1 3 4 -5 -6
leaf_value=3.495795132184691 3.6862192737871888 -2.2272303581901705 0.74786745021495249 -0.16163027988734996 -2.0665564211357959
leaf_weight=29.5 25 80 152.5 267 40
leaf_count=36 25 80 181 267 54
internal_value=0.0147854 -0.34286 0.612937 -0.642863 0.155422
internal_weight=594 372 222 347 192.5
internal_count=643 372 271 347 235
is_linear=0
shrinkage=0.160055


Tree=69
num_leaves=5
num_cat=0
split_feature=5 25 16 18
split_gain=5222.07 8469.53 8798.98 7074.56
threshold=7.0003247385854399 0.61455720625120602 6.4500000000000011 8.7455500000000015
decision_type=2 2 2 10
left_child=3 2 -2 -1
right_child=1 -3 -4 -5
leaf_value=0.1763510734374904 -0.65217591123133223 3.0481232470280579 0.67352885481511959 -3.3242060307391874
leaf_weight=32.5 248 24 263.5 26
leaf_count=37 269 27 284 26
internal_value=0.0136373 0.171387 0.0307446 -1.40907
internal_weight=594 535.5 511.5 58.5
internal_count=643 580 553 63
is_linear=0
shrinkage=0.160055


Tree=70
num_leaves=8
num_cat=0
split_feature=27 7 18 7 10 24 6
split_gain=4929.96 14373.4 14089.8 13163.2 11390.3 11211.4 9941.33
threshold=-0.067136678933587837 0.77735411140583566 13.669500000000001 0.8686389511816458 0.77423588180509706 95.950000000000017 3.3299679772282516
decision_type=2 2 10 2 2 10 2
left_child=1 2 -1 5 -3 -2 -5
right_child=3 4 -4 6 -6 -7 -8
leaf_value=-3.4308704327596677 0.61057349599496968 -0.90949212964771453 0.067521091305567327 -1.6156867616228361 1.3398727428389707 3.9951351963328987 1.1237167946844371
leaf_weight=62.5 67 101.5 55 80 131 39.5 57.5
leaf_count=74 75 109 55 84 139 43 64
internal_value=0.0130181 -0.371594 -1.80653 0.563984 0.358201 1.89128 -0.470275
internal_weight=594 350 117.5 244 232.5 106.5 137.5
internal_count=643 377 129 266 248 118 148
is_linear=0
shrinkage=0.160055


Tree=71
num_leaves=8
num_cat=0
split_feature=4 4 4 34 1 7 26
split_gain=4817.53 20072 15222.5 13682.9 11777.7 10908.4 6533.19
threshold=1.1439162276757036 1.0802843601895737 1.2421182266009854 -0.24999999999999992 215.50000000000003 1.0339653276069767 -0.045533768001640391
decision_type=2 2 2 10 2 2 10
left_child=1 5 3 -2 -4 -1 -3
right_child=2 6 4 -5 -6 -7 -8
leaf_value=1.2232168436923558 0.080676468026049816 -4.4350751806138078 0.26159171673428089 3.3544017092906251 -2.3107000329806437 -1.574831062051943 -1.0157575090739031
leaf_weight=113 64 35 180 66 60 51 25
leaf_count=122 70 38 201 70 60 55 27
internal_value=0.0132491 -0.571103 0.367603 1.75559 -0.388376 0.348836 -3.05023
internal_weight=594 224 370 130 240 164 60
internal_count=643 242 401 140 261 177 65
is_linear=0
shrinkage=0.160055


Tree=72
num_leaves=8
num_cat=0
split_feature=2 33 12 32 16 20 5
split_gain=4085.62 21227.9 16173.1 10988.8 9031.96 7390.79 7082.33
threshold=275.50000000000006 0.29923418170252486 92.500000000000014 -0.10263611255434928 4.5500000000000007 0.13950000000000004 12.250434782608698
decision_type=2 8 10 8 2 2 2
left_child=3 5 -3 4 -1 -2 -5
right_child=1 2 -4 6 -6 -7 -8
leaf_value=-1.1748874788301438 -0.30571193246492545 4.1372238870650788 0.42611316004575406 -0.56046405602463156 2.0790657997948316 -3.2686705857022464 -3.005902410938349
leaf_weight=31 95 51 72 214.5 69 27 34.5
leaf_count=38 95 51 72 240 79 27 41
internal_value=0.0097907 0.50963 1.98575 -0.341552 1.0687 -0.982617 -0.90992
internal_weight=594 245 123 349 100 122 249
internal_count=643 245 123 398 117 122 281
is_linear=0
shrinkage=0.160055


Tree=73
num_leaves=7
num_cat=0
split_feature=0 20 5 19 19 9
split_gain=5037.45 12105.4 10733.5 26916.4 13145.4 7000.73
threshold=55.500000000000007 0.091500000000000012 8.5962553405378248 37.850000000000001 29.775000000000002 0.23958132355778503
decision_type=2 2 2 8 10 2
left_child=2 -2 4 -4 -1 -3
right_child=1 5 3 -5 -6 -7
leaf_value=1.5885574699758422 2.9818436275517399 1.2440340641749414 5.2396929623952673 0.10552775307143694 -2.2276852795753914 -0.87725508469813196
leaf_weight=38 25 45 35.5 92.5 56 302
leaf_count=52 25 45 36 127 56 302
internal_value=0.00841637 -0.351389 0.610209 1.55893 -0.684468 -0.599386
internal_weight=594 372 222 128 94 347
internal_count=643 372 271 163 108 347
is_linear=0
shrinkage=0.160055


Tree=74
num_leaves=8
num_cat=0
split_feature=26 23 11 23 19 16 7
split_gain=4514.16 8865.97 12776.5 7946.66 8269.11 7337.54 4187.28
threshold=-0.0016660456456473497 0.34404301075268823 58.369784785421551 0.30850000000000005 38.650000000000013 6.1500000000000012 0.9805463966085729
decision_type=10 2 2 2 10 2 2
left_child=1 5 -3 6 -5 -1 -2
right_child=3 2 -4 4 -6 -7 -8
leaf_value=-0.66512676361905854 -2.3856899228157076 0.69651531716758375 -2.876525994169508 2.5967543812944793 -0.27494632723333756 0.85223204962192234 0.45101800249607404
leaf_weight=149.5 24 41 66 67 41 177.5 28
leaf_count=166 26 44 69 73 41 192 32
internal_value=0.0118031 -0.256197 -1.51362 0.735839 1.51402 0.158603 -0.878471
internal_weight=594 434 107 160 108 327 52
internal_count=643 471 113 172 114 358 58
is_linear=0
shrinkage=0.160055


Tree=75
num_leaves=7
num_cat=0
split_feature=27 0 14 7 7 34
split_gain=4496.83 11712.6 13366.8 11549.1 11316.2 9928.49
threshold=-0.067136678933587837 29.500000000000004 40.500000000000007 0.77735411140583566 0.67150331177031541 -0.14999999999999852
decision_type=2 2 2 2 2 10
left_child=3 -2 -3 4 -1 -5
right_child=1 2 -4 5 -6 -7
leaf_value=-0.76313114782591884 3.1825318892834296 -0.39452677661012225 3.5482114503835391 -0.57036413476029724 -4.4573575319104206 1.548015967018348
leaf_weight=90.5 35.5 184.5 24 137.5 27 95
leaf_count=99 57 185 24 149 30 99
internal_value=0.0111884 0.537397 0.0740313 -0.356138 -1.64236 0.298123
internal_weight=594 244 208.5 350 117.5 232.5
internal_count=643 266 209 377 129 248
is_linear=0
shrinkage=0.160055


Tree=76
num_leaves=5
num_cat=0
split_feature=4 4 28 4
split_gain=3706.96 5351.21 15978.5 10949
threshold=1.5988935833915927 1.2901452172998 0.56419753086419766 1.1439162276757036
decision_type=2 2 2 2
left_child=1 3 -3 -1
right_child=-2 2 -4 -5
leaf_value=-0.48100530531410968 1.8089165743279727 -0.057605907859431697 -3.8997312764000465 1.2239837156381006
leaf_weight=224 27 141.5 33.5 168
leaf_count=242 32 151 37 181
internal_value=0.0109785 -0.0776607 -0.811013 0.250955
internal_weight=594 567 175 392
internal_count=643 611 188 423
is_linear=0
shrinkage=0.160055


Tree=77
num_leaves=4
num_cat=0
split_feature=28 28 22
split_gain=3992.63 7894.41 6477.05
threshold=0.63888888888888895 0.62037037037037046 0.38250000000000001
decision_type=2 2 2
left_child=1 2 -1
right_child=-2 -3 -4
leaf_value=-1.6464077211412198 1.5961142384370177 -2.6709249885054938 0.22642952683789261
leaf_weight=51.5 37 28 477.5
leaf_count=55 41 28 519
internal_value=0.00859596 -0.0995205 0.0413497
internal_weight=594 557 529
internal_count=643 602 574
is_linear=0
shrinkage=0.160055


Tree=78
num_leaves=6
num_cat=0
split_feature=14 0 10 15 22
split_gain=3848.01 15817 11077.8 10041.6 6846.2
threshold=5.5000000000000009 30.500000000000004 0.7113797608612964 3.8050000000000002 0.47733928571428574
decision_type=2 2 2 2 2
left_child=2 -2 -1 -4 -3
right_child=1 4 3 -5 -6
leaf_value=1.3181226956355405 3.9906290709818779 0.15631786207823326 -4.4212677303740398 -0.29540295894776047 -2.0317645857668483
leaf_weight=35 25.5 434.5 27.5 32.5 39
leaf_count=45 43 435 39 42 39
internal_value=0.00691163 0.185101 -0.921259 -2.22776 -0.0277925
internal_weight=594 499 95 60 473.5
internal_count=643 517 126 81 474
is_linear=0
shrinkage=0.160055


Tree=79
num_leaves=7
num_cat=0
split_feature=4 9 16 4 28 4
split_gain=3543.7 16651.5 13611.6 11467 14913.2 8312.04
threshold=1.0182652210175147 0.25878239407651177 6.7500000000000009 1.1401754385964915 0.55864197530864212 1.2421182266009854
decision_type=2 2 2 2 2 2
left_child=1 2 -1 4 -2 -5
right_child=3 -3 -4 5 -6 -7
leaf_value=-2.6550099762073818 -3.0239030299875393 3.5145411401515267 1.6790487653583683 1.2339907751954664 0.86355447793032958 -0.32758336448963776
leaf_weight=38 69 37.5 34.5 136 39 240
leaf_count=42 73 39 39 146 43 261
internal_value=0.00730121 0.823104 -0.597793 -0.179419 -1.62504 0.23901
internal_weight=594 110 72.5 484 108 376
internal_count=643 120 81 523 116 407
is_linear=0
shrinkage=0.160055


Tree=80
num_leaves=5
num_cat=0
split_feature=15 11 10 11
split_gain=3562.14 6391.16 11813.3 7226.56
threshold=5.1150000000000011 88.229467412424398 0.76196842373312978 65.059890554094608
decision_type=2 2 2 2
left_child=1 3 -3 -1
right_child=-2 2 -4 -5
leaf_value=0.53162326610552046 -1.4333009950554041 0.3327937816801872 3.8822221774022441 -0.88702005165874176
leaf_weight=162.5 40 154.5 27.5 209.5
leaf_count=180 45 165 31 222
internal_value=0.0064226 0.11276 0.887327 -0.267552
internal_weight=594 554 182 372
internal_count=643 598 196 402
is_linear=0
shrinkage=0.160055


Tree=81
num_leaves=5
num_cat=0
split_feature=30 8 8 28
split_gain=3549.91 5586.46 9532.73 3743.53
threshold=2.9049620659782884 0.25207700101317126 0.22950460693651353 0.54798328349052994
decision_type=10 2 2 2
left_child=1 2 -1 -3
right_child=-2 3 -4 -5
leaf_value=0.14023793787639646 -1.7210000177085263 3.0134382811328773 -2.3889983943633397 0.24290889834584348
leaf_weight=476 28 25.5 40.5 24
leaf_count=512 33 28 43 27
internal_value=0.00634029 0.094666 -0.0623036 1.70145
internal_weight=594 566 516.5 49.5
internal_count=643 610 555 55
is_linear=0
shrinkage=0.160055


Tree=82
num_leaves=8
num_cat=0
split_feature=2 32 25 25 32 23 23
split_gain=3794.2 12530.3 13007.9 12225.5 8985.04 9273.48 8313.69
threshold=275.50000000000006 -0.035964912280701845 0.52366946778711498 0.42124060150375936 -0.10263611255434928 0.3283356643356643 0.33250000000000002
decision_type=2 8 2 2 8 2 2
left_child=4 2 -2 -3 6 -6 -1
right_child=1 3 -4 -5 5 -7 -8
leaf_value=2.4391353603020312 0.17252133635428576 -0.80753292394791309 -4.1305575348631347 2.2584016320479368 -1.5877939697272911 0.43195985165050588 -0.45912081005157418
leaf_weight=48 64 47 24 110 157.5 91.5 52
leaf_count=59 64 47 24 110 182 99 58
internal_value=0.00563389 0.487324 -1.03415 1.34127 -0.33294 -0.846832 0.942381
internal_weight=594 245 88 157 349 249 100
internal_count=643 245 88 157 398 281 117
is_linear=0
shrinkage=0.160055


Tree=83
num_leaves=7
num_cat=0
split_feature=6 0 14 4 4 6
split_gain=3437.79 11104.8 13491.9 8555.46 10240.5 6873.12
threshold=4.3592375366568925 37.500000000000007 10.500000000000002 1.3942001591723041 1.3569102576381573 3.4375214408233279
decision_type=2 2 2 2 2 2
left_child=3 -2 -3 4 -1 -5
right_child=1 2 -4 5 -6 -7
leaf_value=-0.13947487902825034 3.7397413550191252 -2.6910131315693993 1.403095488898743 -3.8218194415768858 3.1674044722226342 -0.16370491718169033
leaf_weight=405 24.5 31 57 27 24.5 25
leaf_count=436 38 31 57 29 25 27
internal_value=0.00588225 0.798455 -0.0531288 -0.180565 0.0560543 -2.09926
internal_weight=594 112.5 88 481.5 429.5 52
internal_count=643 126 88 517 461 56
is_linear=0
shrinkage=0.160055


Tree=84
num_leaves=5
num_cat=0
split_feature=31 22 22 30
split_gain=3230.62 4797.51 16799.5 10459.3
threshold=-3.0346475607859622 0.47733928571428574 0.46439436619718311 -1.5431390063551607
decision_type=8 2 2 10
left_child=-1 2 -2 -3
right_child=1 3 -4 -5
leaf_value=-1.7738734023638458 -0.029431711517443195 -3.4249541748598924 3.3119435150273762 0.74988695244326165
leaf_weight=24 469 28.5 41 31.5
leaf_count=27 493 39 44 40
internal_value=0.00716179 0.0851174 0.245123 -1.25672
internal_weight=594 570 510 60
internal_count=643 616 537 79
is_linear=0
shrinkage=0.160055


Tree=85
num_leaves=6
num_cat=0
split_feature=26 14 24 16 18
split_gain=3650.19 9100.3 8944.65 12509.9 7186.71
threshold=-0.0040682453361008493 49.500000000000007 92.850000000000009 4.5500000000000007 7.7518500000000001
decision_type=8 2 8 2 8
left_child=2 4 -1 -4 -2
right_child=1 -3 3 -5 -6
leaf_value=-2.578809570794927 -2.5152191689295491 3.2065848801243084 -2.9376269856311485 1.037370420051325 0.23294321513218433
leaf_weight=43.5 25 24 25.5 85.5 390.5
leaf_count=48 25 24 28 92 426
internal_value=0.0052224 0.240553 -0.661466 0.106184 0.0619687
internal_weight=594 439.5 154.5 111 415.5
internal_count=643 475 168 120 451
is_linear=0
shrinkage=0.160055


Tree=86
num_leaves=4
num_cat=0
split_feature=10 10 10
split_gain=3516.6 9469.84 10811.6
threshold=0.87745722606479803 0.84711591033351563 0.82310799959851466
decision_type=2 2 2
left_child=1 2 -1
right_child=-2 -3 -4
leaf_value=0.13496610239598969 -1.7313708717153675 2.7436454998596873 -2.5848223611903025
leaf_weight=495.5 27.5 31.5 39.5
leaf_count=534 31 36 42
internal_value=0.00362173 0.0907368 -0.0702726
internal_weight=594 566.5 535
internal_count=643 612 576
is_linear=0
shrinkage=0.160055


Tree=87
num_leaves=5
num_cat=0
split_feature=24 24 2 14
split_gain=3538.01 13615.8 8119.25 1902.29
threshold=90.350000000000009 91.450000000000017 376.50000000000006 9.5000000000000018
decision_type=8 8 2 2
left_child=3 -2 -3 -1
right_child=1 2 -4 -5
leaf_value=0.27568201674942805 -3.2913997150940593 -0.059692040153845521 2.8429403624344216 2.2837522966176711
leaf_weight=24 31.5 489.5 25 24
leaf_count=28 35 531 25 24
internal_value=0.00276562 -0.113952 0.086572 1.30574
internal_weight=594 546 514.5 48
internal_count=643 591 556 52
is_linear=0
shrinkage=0.160055


Tree=88
num_leaves=4
num_cat=0
split_feature=28 28 1
split_gain=3719.46 5366.9 4750.04
threshold=0.63888888888888895 0.62037037037037046 182.50000000000003
decision_type=2 2 2
left_child=1 2 -1
right_child=-2 -3 -4
leaf_value=-0.56799527261970528 1.535080736650289 -2.2216904169862683 0.40796390363969159
leaf_weight=213 37 28 316
leaf_count=258 41 28 316
internal_value=0.00282463 -0.101518 0.0146683
internal_weight=594 557 529
internal_count=643 602 574
is_linear=0
shrinkage=0.160055


Tree=89
num_leaves=5
num_cat=0
split_feature=4 9 6 6
split_gain=3547.46 12849.6 11367.9 8218.69
threshold=1.4753613376114925 0.32413399314807773 4.749462530712532 4.3592375366568925
decision_type=2 2 2 2
left_child=2 -2 3 -1
right_child=1 -3 -4 -5
leaf_value=-0.094528155330025704 3.5671991235805267 -0.85936913915128288 -2.6635892735926188 2.5400289735799153
leaf_weight=455 29 37.5 41 31.5
leaf_count=487 30 44 48 34
internal_value=0.00251549 1.09518 -0.137038 0.0808977
internal_weight=594 66.5 527.5 486.5
internal_count=643 74 569 521
is_linear=0
shrinkage=0.160055


Tree=90
num_leaves=4
num_cat=0
split_feature=15 16 27
split_gain=3307.13 5441.65 5062.53
threshold=5.1150000000000011 10.350000000000003 0.18306624044674849
decision_type=2 2 2
left_child=1 2 -1
right_child=-2 -3 -4
leaf_value=-0.34052634844765672 -1.3835392297652263 2.0681233729387665 0.75620418149622659
leaf_weight=370 40 33 151
leaf_count=396 45 36 166
internal_value=0.00368895 0.106154 -0.0218272
internal_weight=594 554 521
internal_count=643 598 562
is_linear=0
shrinkage=0.160055


Tree=91
num_leaves=4
num_cat=0
split_feature=26 23 2
split_gain=3401.05 5874.71 5783.17
threshold=-0.064069907871598678 0.38550000000000006 275.50000000000006
decision_type=8 2 2
left_child=-1 2 -2
right_child=1 -3 -4
leaf_value=1.7764335672679605 -0.64705574529075505 2.1410997165757912 0.40994830249090358
leaf_weight=25.5 310.5 28 230
leaf_count=30 354 29 230
internal_value=0.00385617 -0.0786216 -0.19734
internal_weight=594 568.5 540.5
internal_count=643 613 584
is_linear=0
shrinkage=0.160055


Tree=92
num_leaves=8
num_cat=0
split_feature=17 8 1 1 16 10 33
split_gain=3326.15 9507.45 15211.4 13629 8620.47 7648.13 5825.59
threshold=33.650000000000013 0.20652238057301348 229.00000000000003 173.50000000000003 6.1500000000000012 0.78157150205761328 -0.48428837244626705
decision_type=2 2 2 2 2 2 8
left_child=4 2 -2 -3 5 -1 -6
right_child=1 3 -4 -5 6 -7 -8
leaf_value=0.60338451942530613 0.74753391339157715 1.4719549277980362 -2.2881875664066689 -2.8452477621695902 -0.28755975035541692 -1.8237615481811642 2.6663911138827716
leaf_weight=93 225.5 25 51 68 24 50.5 57
leaf_count=102 244 34 51 68 26 56 62
internal_value=0.00427197 -0.290718 0.181394 -1.68141 0.48893 -0.257454 1.79829
internal_weight=594 369.5 276.5 93 224.5 143.5 81
internal_count=643 397 295 102 246 158 88
is_linear=0
shrinkage=0.160055


Tree=93
num_leaves=8
num_cat=0
split_feature=3 4 4 19 32 17 16
split_gain=3272.14 11843.9 12015.1 8390 8859.89 8615.15 7797.36
threshold=2.9130898203592821 1.1503424657534251 1.1970589638393287 35.425000000000004 -0.09630506728878839 33.95000000000001 5.9500000000000011
decision_type=2 2 2 10 10 2 2
left_child=3 6 -3 5 -5 -1 -2
right_child=1 2 -4 4 -6 -7 -8
leaf_value=0.51099971847525327 -4.3045142680298509 2.3623678464053435 -0.24197079096947147 3.2877134839923734 -0.45400495752079584 -2.6661781891700747 -0.92567049089779607
leaf_weight=88 24 53.5 270.5 44 25 28 61
leaf_count=98 26 57 293 44 25 35 65
internal_value=0.00396815 -0.248635 0.193991 0.560765 1.94485 -0.272081 -1.91852
internal_weight=594 409 324 185 69 116 85
internal_count=643 441 350 202 69 133 91
is_linear=0
shrinkage=0.160055


Tree=94
num_leaves=7
num_cat=0
split_feature=28 20 23 2 20 2
split_gain=3112.72 9059.92 10792.2 7649.4 27522.1 9640.82
threshold=0.47839506172839502 0.15050000000000002 0.32950000000000002 317.50000000000006 0.10522727272727271 245.50000000000003
decision_type=2 2 2 2 2 2
left_child=1 2 -1 5 -5 -2
right_child=3 -3 -4 4 -6 -7
leaf_value=-0.10738009797705969 1.0540657025568576 2.0645949646153663 -2.7540727292409626 -1.7907258715497518 5.2186459256450695 -0.7373667241050037
leaf_weight=134 127 30 55 26 30 192
leaf_count=146 157 36 56 26 30 192
internal_value=0.00219256 -0.476004 -0.887986 0.28198 1.98988 -0.0231018
internal_weight=594 219 189 375 56 319
internal_count=643 238 202 405 56 349
is_linear=0
shrinkage=0.160055


Tree=95
num_leaves=6
num_cat=0
split_feature=24 14 22 28 23
split_gain=3433.76 11420.6 18759.4 10703.9 6450.8
threshold=97.250000000000014 28.500000000000004 0.44832432432432434 0.53209876543209889 0.37050000000000005
decision_type=10 2 2 2 2
left_child=1 4 -3 -2 -1
right_child=3 2 -4 -5 -6
leaf_value=0.013173956945206603 3.5493178419821421 -0.26101894073343601 -5.4002586776397212 -0.79576592385614164 2.1303494007282922
leaf_weight=411.5 25.5 61 25 31.5 39.5
leaf_count=454 27 61 25 32 44
internal_value=0.00558116 -0.120566 -1.79973 1.17567 0.20289
internal_weight=594 537 86 57 451
internal_count=643 584 86 59 498
is_linear=0
shrinkage=0.160055


Tree=96
num_leaves=5
num_cat=0
split_feature=28 24 14 32
split_gain=2812.91 4175.66 10113.3 7564.68
threshold=0.63888888888888895 97.250000000000014 28.500000000000004 0.16372628812498063
decision_type=2 10 2 8
left_child=1 2 -1 -3
right_child=-2 3 -4 -5
leaf_value=0.08454066759773976 1.3370628773111117 -0.52161563942520128 -1.858226752169678 3.1894310639553702
leaf_weight=421 37 29.5 81 25.5
leaf_count=464 41 30 81 27
internal_value=0.00455905 -0.0861851 -0.231994 1.2251
internal_weight=594 557 502 55
internal_count=643 602 545 57
is_linear=0
shrinkage=0.160055


Tree=97
num_leaves=5
num_cat=0
split_feature=21 20 8 8
split_gain=2852.56 6015.23 4278.59 6029.74
threshold=0.25250000000000006 0.091500000000000012 0.098783913654173119 0.12499999999999996
decision_type=2 2 2 2
left_child=1 -1 -2 -4
right_child=2 -3 3 -5
leaf_value=0.76923724344874211 1.6486593970456476 -2.5928311465355582 -1.5650148542939384 0.18381935552073952
leaf_weight=24 42 29.5 56 442.5
leaf_count=26 45 33 60 479
internal_value=0.0056564 -1.09813 0.116731 -0.0153695
internal_weight=594 53.5 540.5 498.5
internal_count=643 59 584 539
is_linear=0
shrinkage=0.160055


Tree=98
num_leaves=4
num_cat=0
split_feature=24 24 0
split_gain=2774.49 5618.57 6022.54
threshold=89.65000000000002 91.450000000000017 49.500000000000007
decision_type=8 8 2
left_child=-1 -2 -3
right_child=1 2 -4
leaf_value=1.3982831375579443 -1.7557944120304991 0.98412079372103778 -0.25538332243643985
leaf_weight=33.5 46 135.5 379
leaf_count=36 51 177 379
internal_value=0.00504865 -0.0805559 0.0723268
internal_weight=594 560.5 514.5
internal_count=643 607 556
is_linear=0
shrinkage=0.160055


Tree=99
num_leaves=7
num_cat=0
split_feature=14 6 27 28 27 28
split_gain=3256.25 10151.2 11211 4447.75 10922 10300.8
threshold=5.5000000000000009 3.2020096262032758 -0.085387499869270481 0.42901234567901231 -0.36897091044087998 0.44582470669427193
decision_type=2 2 2 2 2 2
left_child=1 -1 -3 4 -2 -5
right_child=3 2 -4 5 -6 -7
leaf_value=-2.6030110701948788 3.7430415734216025 -1.6578694594321934 3.0018416459561656 -2.9707996625094268 0.024423572986844885 0.15979061903143954
leaf_weight=44 28 25.5 25.5 28 67 376
leaf_count=58 29 34 34 31 69 388
internal_value=0.00466848 -0.849154 0.684864 0.168588 1.14791 -0.0639563
internal_weight=594 95 51 499 95 404
internal_count=643 126 68 517 98 419
is_linear=0
shrinkage=0.160055


Tree=100
num_leaves=8
num_cat=0
split_feature=23 20 15 30 16 4 30
split_gain=3017.3 10584 8033.2 6922.99 5447.33 8306 5994.14
threshold=0.29800662251655635 0.10633333333333332 4.1250000000000009 -0.068561492509318492 9.2500000000000018 1.3908432262569834 1.6235276233516551
decision_type=2 2 2 10 2 2 8
left_child=1 2 -1 -3 5 -2 -6
right_child=4 3 -4 -5 6 -7 -8
leaf_value=-1.2708598576730781 0.30797218604995097 -3.0694316545472304 2.1959397768509392 -0.25111043373959591 0.23336378398558169 -1.8270156480192872 3.5377639608344764
leaf_weight=27 324.5 46.5 43.5 42.5 32.5 53.5 24
leaf_count=30 342 59 47 50 34 56 25
internal_value=0.00394763 -0.589281 0.869022 -1.74129 0.222565 0.00178901 1.67399
internal_weight=594 159.5 70.5 89 434.5 378 56.5
internal_count=643 186 77 109 457 398 59
is_linear=0
shrinkage=0.160055


Tree=101
num_leaves=8
num_cat=0
split_feature=17 8 25 1 21 30 0
split_gain=2879.2 7247.44 13631.8 9174.63 6996.39 9868.31 8432.15
threshold=33.650000000000013 0.20652238057301348 0.55640373197625126 173.50000000000003 0.29337500000000005 2.3972072651971952 55.500000000000007
decision_type=2 2 2 2 2 8 2
left_child=4 2 -2 -3 6 -6 -1
right_child=1 3 -4 -5 5 -7 -8
leaf_value=1.1155644593641123 -0.40159957203867491 1.1053070739930264 2.4512042067840643 -2.439047987004038 2.3794959409264309 -0.80135140873955435 -1.6520599583153341
leaf_weight=49.5 224.5 25 52 68 75.5 36.5 63
leaf_count=59 239 34 56 68 82 42 63
internal_value=0.00399235 -0.270464 0.141788 -1.48465 0.454913 1.34496 -0.435202
internal_weight=594 369.5 276.5 93 224.5 112 112.5
internal_count=643 397 295 102 246 124 122
is_linear=0
shrinkage=0.160055


Tree=102
num_leaves=5
num_cat=0
split_feature=5 22 25 25
split_gain=2791.87 5291.2 5188.64 6053.96
threshold=7.0003247385854399 0.44050000000000006 0.61455720625120602 0.51871871871871889
decision_type=2 2 2 2
left_child=1 -1 3 -2
right_child=2 -3 -4 -5
leaf_value=-2.3670001277598098 0.28663141732249731 0.65587968514610817 2.3722154530364539 -1.083314793461553
leaf_weight=32.5 409 26 24 102.5
leaf_count=34 442 29 27 111
internal_value=0.00523687 -1.03501 0.120589 0.010534
internal_weight=594 58.5 535.5 511.5
internal_count=643 63 580 553
is_linear=0
shrinkage=0.160055


Tree=103
num_leaves=6
num_cat=0
split_feature=7 18 19 7 7
split_gain=2634.29 12400.9 8796.84 6983.28 4914.66
threshold=1.4554860866502293 16.807900000000004 32.375000000000007 1.3217647058823532 1.1767623469818491
decision_type=2 8 10 2 2
left_child=3 -2 -3 4 -1
right_child=1 2 -4 -5 -6
leaf_value=0.14845849629998098 1.2868025347983487 -0.12250243362398844 -4.1928456038540691 2.0661307242582527 -1.5406312561482904
leaf_weight=406 42 25 29 43.5 48.5
leaf_count=438 42 38 29 45 51
internal_value=0.00415915 -0.75907 -2.34479 0.15251 -0.0347613
internal_weight=594 96 54 498 454.5
internal_count=643 109 67 534 489
is_linear=0
shrinkage=0.160055


Tree=104
num_leaves=8
num_cat=0
split_feature=1 33 12 4 2 31 25
split_gain=2941.39 7588.39 7947.43 7092.09 10793.2 9696.14 5254.24
threshold=182.50000000000003 1.711374378003067 96.500000000000014 1.1721443965517244 245.50000000000003 -4.0789545319506137 0.35538545653362502
decision_type=2 8 10 2 2 10 2
left_child=3 6 -3 5 -5 -1 -2
right_child=1 2 -4 4 -6 -7 -8
leaf_value=-3.7934804088872616 1.7862203186678287 2.7385846315802587 -0.30190785985374735 1.4247429106158931 -1.4343323853911711 -0.37368094228778531 -0.39904382683763523
leaf_weight=30.5 31 55 36 84.5 55 66 236
leaf_count=37 31 55 36 111 55 82 236
internal_value=0.00292224 0.291819 1.54551 -0.434704 0.295331 -1.48227 -0.139626
internal_weight=594 358 91 236 139.5 96.5 267
internal_count=643 358 91 285 166 119 267
is_linear=0
shrinkage=0.160055


Tree=105
num_leaves=5
num_cat=0
split_feature=1 32 0 17
split_gain=2432.19 8197.86 5060.34 5082.75
threshold=154.50000000000003 0.17557853774171336 29.500000000000004 33.650000000000013
decision_type=2 8 2 2
left_child=1 -1 -2 -4
right_child=2 -3 3 -5
leaf_value=0.95708103930150357 2.3502314544313476 -2.3011653550007849 0.68793983092080258 -0.37638158688575657
leaf_weight=35.5 24 42.5 181 311
leaf_count=61 24 66 181 311
internal_value=0.00228208 -0.824878 0.128667 0.0157666
internal_weight=594 78 516 492
internal_count=643 127 516 492
is_linear=0
shrinkage=0.160055


Tree=106
num_leaves=5
num_cat=0
split_feature=4 30 6 32
split_gain=2576.89 12765.1 7434.48 6459.53
threshold=1.4753613376114925 1.2036593796688984 4.749462530712532 0.12610691786520858
decision_type=2 8 2 10
left_child=2 -2 3 -1
right_child=1 -3 -4 -5
leaf_value=-0.21723345711430769 -0.95478397486264666 3.4733350353976875 -2.1599784372890118 1.2841043445289553
leaf_weight=397.5 38.5 28 41 89
leaf_count=429 42 32 48 92
internal_value=0.00216877 0.933438 -0.116772 0.0594836
internal_weight=594 66.5 527.5 486.5
internal_count=643 74 569 521
is_linear=0
shrinkage=0.160055


Tree=107
num_leaves=6
num_cat=0
split_feature=5 5 4 1 1
split_gain=2564.5 13629.2 7300.47 8109.3 6684.35
threshold=8.623305396850677 8.8274560117302077 1.0747815566608419 247.50000000000003 231.00000000000003
decision_type=2 2 2 2 2
left_child=2 -2 -1 -4 -3
right_child=1 4 3 -5 -6
leaf_value=2.0127991741736646 3.811828671190356 -0.22911139801035688 -0.32055266305588298 -3.1627656075488182 2.0343780260471904
leaf_weight=25 24.5 345 132.5 31 36
leaf_count=28 26 378 144 31 36
internal_value=0.00254915 0.22923 -0.483725 -0.875337 -0.0104897
internal_weight=594 405.5 188.5 163.5 381
internal_count=643 440 203 175 414
is_linear=0
shrinkage=0.160055


Tree=108
num_leaves=5
num_cat=0
split_feature=34 34 25 16
split_gain=2285.74 9402.24 6801.91 6163.71
threshold=1.2500000000000002 0.75000000000000011 0.44985207100591723 4.1500000000000012
decision_type=10 10 2 2
left_child=1 3 -2 -1
right_child=2 -3 -4 -5
leaf_value=-1.2721677508949325 0.91502688099650054 2.7133908275134622 -2.2448868559988027 0.20528504542575479
leaf_weight=87 30.5 32.5 38.5 405.5
leaf_count=98 31 36 40 438
internal_value=0.00427798 0.118614 -0.854971 -0.0577483
internal_weight=594 525 69 492.5
internal_count=643 572 71 536
is_linear=0
shrinkage=0.160055


Tree=109
num_leaves=7
num_cat=0
split_feature=7 18 19 18 13 28
split_gain=2557.37 8439.25 6123.1 5871.75 6681.36 5788.39
threshold=1.4554860866502293 16.807900000000004 32.375000000000007 13.261800000000003 1.0000000180025095e-35 0.63888888888888895
decision_type=2 8 10 8 2 2
left_child=3 -2 -3 4 -1 -5
right_child=1 2 -4 5 -6 -7
leaf_value=-0.18685776465826046 0.94201237280979844 -0.19698879413532894 -3.5969711733637251 0.3095830981727814 -2.9821229550973203 2.7089301868974305
leaf_weight=117 42 25 29 328 26 27
leaf_count=117 42 38 29 361 26 30
internal_value=0.00440806 -0.747596 -2.05499 0.150576 -0.712207 0.49914
internal_weight=594 96 54 498 143 355
internal_count=643 109 67 534 143 391
is_linear=0
shrinkage=0.160055


Tree=110
num_leaves=6
num_cat=0
split_feature=14 6 0 0 30
split_gain=2640.97 7811.28 7346.95 5149.7 4803.98
threshold=5.5000000000000009 3.2020096262032758 30.500000000000004 27.500000000000004 -1.0000000180025095e-35
decision_type=2 2 2 2 8
left_child=1 -1 -2 -3 -4
right_child=2 3 4 -5 -6
leaf_value=-2.3043519344517129 2.7442204043508975 -0.92361213571490142 0.66760765717893356 2.2409888150272272 -0.3854225289584684
leaf_weight=44 25.5 27 175.5 24 298
leaf_count=58 43 44 176 24 298
internal_value=0.00298103 -0.765953 0.150606 0.580018 0.00545927
internal_weight=594 95 499 51 473.5
internal_count=643 126 517 68 474
is_linear=0
shrinkage=0.160055


Tree=111
num_leaves=8
num_cat=0
split_feature=14 30 24 10 30 19 24
split_gain=2291.02 6148.86 10270.1 5806.98 7407.02 7250 4237.48
threshold=10.500000000000002 0.30969815569962172 94.750000000000014 0.68323556653288064 0.17624181464220448 35.725000000000009 94.65000000000002
decision_type=2 8 8 2 8 8 10
left_child=1 6 -3 4 -2 -5 -1
right_child=3 2 -4 5 -6 -7 -8
leaf_value=-2.3487501645997382 0.85241997244377987 1.2830352133084397 -1.23818366730889 -0.39697058244237637 -2.6697033989472985 1.2507064545907687 -0.037233426387748389
leaf_weight=52 26.5 95.5 71.5 115 34 166.5 33
leaf_count=61 28 110 85 115 35 171 38
internal_value=0.00294688 -0.362443 0.20265 0.272452 -1.13814 0.578562 -1.46217
internal_weight=594 252 167 342 60.5 281.5 85
internal_count=643 294 195 349 63 286 99
is_linear=0
shrinkage=0.160055


Tree=112
num_leaves=7
num_cat=0
split_feature=26 23 29 17 9 23
split_gain=2263.26 7606.17 6994.81 6474.64 12964.6 7240.26
threshold=-0.0040682453361008493 0.34650000000000003 3.5000000000000004 37.750000000000007 0.30373119491019956 0.35150000000000003
decision_type=8 2 2 2 2 2
left_child=1 2 -1 4 -2 -5
right_child=3 -3 -4 5 -6 -7
leaf_value=0.97746533482127018 1.4491804580664736 -2.348990124682834 -1.7467934637441729 -1.169690558053764 -0.82335540944145225 1.4762287539166383
leaf_weight=79.5 181.5 41.5 33.5 127 98.5 32.5
leaf_count=86 195 45 37 140 106 34
internal_value=0.00148264 -0.52348 0.161622 0.186793 0.64965 -0.624736
internal_weight=594 154.5 113 439.5 280 159.5
internal_count=643 168 123 475 301 174
is_linear=0
shrinkage=0.160055


Tree=113
num_leaves=6
num_cat=0
split_feature=24 1 14 1 5
split_gain=2294.29 11284.1 5779.23 11190.2 5517.68
threshold=97.250000000000014 188.50000000000003 28.500000000000004 192.50000000000003 8.5962553405378248
decision_type=10 2 2 2 2
left_child=2 -2 4 -4 -1
right_child=1 -3 3 -5 -6
leaf_value=-0.58351730743204633 -1.3920876038918824 3.0477534644061426 0.61194927344796179 -3.0121082005637683 0.56628408405709152
leaf_weight=172 27 30 41 45 279
leaf_count=186 29 30 41 45 312
internal_value=0.000437937 0.956886 -0.102669 -1.29714 0.127459
internal_weight=594 57 537 86 451
internal_count=643 59 584 86 498
is_linear=0
shrinkage=0.160055


Tree=114
num_leaves=8
num_cat=0
split_feature=27 7 10 33 31 12 18
split_gain=2980.16 9157.51 8348 11820.6 8218.68 7785.74 3352.09
threshold=0.18306624044674849 0.8686389511816458 0.75683836958326434 1.0125846734671657 -0.46183186020627981 99.500000000000014 20.663000000000004
decision_type=2 2 2 10 10 8 8
left_child=2 4 5 -4 -2 -1 -3
right_child=1 6 3 -5 -6 -7 -8
leaf_value=-2.2701107708960047 0.11906626178665508 -1.2391257531698552 -0.10665056300769617 3.0869038747143547 3.412670191342376 0.058509744145593762 0.58570668331404019
leaf_weight=79 37 58 234 33 40 68 45
leaf_count=82 44 58 252 35 43 76 53
internal_value=0.000983529 0.542927 -0.235382 0.298068 1.85177 -1.19978 -0.443896
internal_weight=594 180 414 267 77 147 103
internal_count=643 198 445 287 87 158 111
is_linear=0
shrinkage=0.160055


Tree=115
num_leaves=5
num_cat=0
split_feature=4 21 6 21
split_gain=2558.46 7351.62 6135.65 4696.58
threshold=1.4753613376114925 0.27824050632911396 4.749462530712532 0.28207883817427387
decision_type=2 2 2 2
left_child=2 -2 3 -1
right_child=1 -3 -4 -5
leaf_value=-0.56331383618541575 2.1969076429853525 -1.2410907519022945 -1.9719569292166299 0.44964558641071906
leaf_weight=194.5 42 24.5 41 292
leaf_count=206 45 29 48 315
internal_value=0.00272164 0.930654 -0.115793 0.0443464
internal_weight=594 66.5 527.5 486.5
internal_count=643 74 569 521
is_linear=0
shrinkage=0.160055


Tree=116
num_leaves=4
num_cat=0
split_feature=24 24 1
split_gain=2558.82 4051.02 5281.61
threshold=90.050000000000011 91.450000000000017 268.50000000000006
decision_type=8 8 2
left_child=-1 -2 -3
right_child=1 2 -4
leaf_value=1.2385995172023097 -1.6081147974155774 -0.082122390947021992 2.2589324910250235
leaf_weight=39 40.5 489.5 25
leaf_count=43 44 531 25
internal_value=0.00210415 -0.0868487 0.035778
internal_weight=594 555 514.5
internal_count=643 600 556
is_linear=0
shrinkage=0.160055


Tree=117
num_leaves=7
num_cat=0
split_feature=8 5 3 31 14 22
split_gain=2259.08 6588.24 5723.35 8312.94 5393.56 4410.55
threshold=0.20652238057301348 11.209352058729655 2.7681334723670497 -0.46183186020627981 26.500000000000004 0.3785
decision_type=2 2 2 8 2 2
left_child=1 5 3 -2 -4 -1
right_child=2 -3 4 -5 -6 -7
leaf_value=-1.8685831608213048 -1.1230396604191808 2.3686556509124177 -0.51440558722537111 1.947221137551056 -3.3347850948400377 0.16511699948942632
leaf_weight=28.5 45.5 32 50 43 26 369
leaf_count=29 50 37 58 45 26 398
internal_value=0.00222971 0.195433 -0.500353 0.373796 -1.50994 0.0149968
internal_weight=594 429.5 164.5 88.5 76 397.5
internal_count=643 464 179 95 84 427
is_linear=0
shrinkage=0.160055


Tree=118
num_leaves=8
num_cat=0
split_feature=23 25 7 12 25 26 25
split_gain=2186.79 13691.6 7349.98 7114.17 5318.64 9893.55 7745.71
threshold=0.29800662251655635 0.4425170068027211 0.63755227209367182 100.50000000000001 0.45414497396876247 -0.00024347937043099998 0.44374779576002193
decision_type=2 2 2 10 2 10 2
left_child=1 3 -3 -1 6 -6 -2
right_child=4 2 -4 -5 5 -7 -8
leaf_value=-3.6975777757395147 0.41089865955998295 -1.5197617484745285 1.5462873565335062 -0.22072893058573625 -0.9100739603877106 1.5809313561851541 3.4201798575218922
leaf_weight=37.5 181 27 70 25 177.5 52 24
leaf_count=51 191 32 78 25 187 55 24
internal_value=0.00128472 -0.503741 0.686076 -2.33213 0.187402 -0.341269 0.778044
internal_weight=594 159.5 97 62.5 434.5 229.5 205
internal_count=643 186 110 76 457 242 215
is_linear=0
shrinkage=0.160055


Tree=119
num_leaves=5
num_cat=0
split_feature=24 24 0 31
split_gain=2162.34 4347.74 3889.14 1491.63
threshold=90.350000000000009 91.450000000000017 49.500000000000007 -0.043591460953165746
decision_type=8 8 2 8
left_child=3 -2 -3 -1
right_child=1 2 -4 -5
leaf_value=0.11414447751720139 -1.8850736978641525 0.75654981119277898 -0.23949442236045523 1.8857909597526759
leaf_weight=24 31.5 135.5 379 24
leaf_count=26 35 177 379 26
internal_value=0.00166791 -0.089578 0.0237816 1.0203
internal_weight=594 546 514.5 48
internal_count=643 591 556 52
is_linear=0
shrinkage=0.160055


Tree=120
num_leaves=4
num_cat=0
split_feature=2 6 4
split_gain=2111.12 3953.04 4140.31
threshold=122.00000000000001 1.8179802710243129 1.2421182266009854
decision_type=2 2 2
left_child=-1 -2 -3
right_child=1 2 -4
leaf_value=-1.0590030436552407 -1.3776857418934383 0.60577648605069934 -0.31625429601973742
leaf_weight=43.5 42.5 291 217
leaf_count=87 43 293 220
internal_value=0.00150591 0.0870683 0.212069
internal_weight=594 550.5 508
internal_count=643 556 513
is_linear=0
shrinkage=0.160055


Tree=121
num_leaves=8
num_cat=0
split_feature=22 9 9 25 24 25 33
split_gain=2000.55 9632.38 8694.13 7921.64 5467.96 9192.07 9057.48
threshold=0.43150000000000005 0.29938212746481557 0.28992753623188411 0.49447361993160727 94.950000000000017 0.51871871871871889 -0.17950128027963472
decision_type=2 2 2 2 10 2 10
left_child=4 2 -2 -3 6 -6 -1
right_child=1 3 -4 -5 5 -7 -8
leaf_value=1.4153302987076157 0.46301961892641369 -2.2901362139866377 3.3464926947433797 0.67307747828184827 -0.15925533091417018 -3.1909702624742091 -0.8067775109523897
leaf_weight=88.5 167.5 53.5 31 39.5 79 37 98
leaf_count=95 186 62 34 43 81 39 103
internal_value=0.000604276 0.299306 0.927801 -1.03777 -0.287273 -1.14521 0.249599
internal_weight=594 291.5 198.5 93 302.5 116 186.5
internal_count=643 325 220 105 318 120 198
is_linear=0
shrinkage=0.160055


Tree=122
num_leaves=7
num_cat=0
split_feature=27 27 26 10 33 33
split_gain=2458.19 8181 8022.5 6027.71 8294.52 3978.49
threshold=0.18306624044674849 0.33972021525289559 0.025729333599127904 0.75683836958326434 1.2882999392872152 0.71233412595807566
decision_type=2 2 10 2 10 10
left_child=3 -2 -3 5 -5 -1
right_child=1 2 -4 4 -6 -7
leaf_value=-0.62678673251882333 2.7930340468850283 -0.74354809164047075 1.8524294197628133 -0.046190993902813685 3.0155062401012236 -2.754996305618413
leaf_weight=120 31.5 107 41.5 243 24 27
leaf_count=129 33 118 47 262 25 29
internal_value=0.000541413 0.492743 -0.0105615 -0.214129 0.239206 -1.0336
internal_weight=594 180 148.5 414 267 147
internal_count=643 198 165 445 287 158
is_linear=0
shrinkage=0.160055


Tree=123
num_leaves=7
num_cat=0
split_feature=21 3 9 14 18 28
split_gain=2224.91 6956.48 10968.8 5278.86 8975.06 4510.37
threshold=0.31723015873015875 3.802826214733543 0.25937646507266759 15.500000000000002 16.427450000000004 0.4824074074074074
decision_type=2 2 2 2 8 2
left_child=3 2 -2 5 -5 -1
right_child=1 -3 -4 4 -6 -7
leaf_value=-0.95401845680140007 -2.0224091482224624 -2.9353238940374484 1.591259620300012 -0.29947089319781856 2.0873790985479559 0.26414548933433368
leaf_weight=128.5 36.5 25 49.5 80 80 194.5
leaf_count=141 44 30 55 80 82 211
internal_value=0.00188838 -0.640986 0.051954 0.150645 0.899487 -0.221924
internal_weight=594 111 86 483 160 323
internal_count=643 129 99 514 162 352
is_linear=0
shrinkage=0.160055


Tree=124
num_leaves=8
num_cat=0
split_feature=8 34 14 34 15 3 28
split_gain=2128.82 4806.21 7647.94 4371.12 5123.64 3749.44 2470.97
threshold=0.20652238057301348 -0.89999999999999847 33.500000000000007 0.10000000000000141 2.5750000000000006 2.7681334723670497 0.50308641975308654
decision_type=2 8 2 8 2 2 2
left_child=1 6 -3 5 -5 -2 -1
right_child=3 2 -4 4 -6 -7 -8
leaf_value=-2.34449970860847 1.8154149573598806 0.15463151923381258 2.6380849284034222 0.61009258623339979 -1.8201222669750141 -0.6895634775634446 -0.098252891514805943
leaf_weight=25.5 30.5 346 34 31 74 29 24
leaf_count=28 34 374 34 34 79 32 28
internal_value=0.00153959 0.189092 0.383154 -0.486338 -1.10364 0.603253 -1.27884
internal_weight=594 429.5 380 164.5 105 59.5 49.5
internal_count=643 464 408 179 113 66 56
is_linear=0
shrinkage=0.160055


Tree=125
num_leaves=6
num_cat=0
split_feature=11 19 3 3 19
split_gain=2803.92 7348.03 8526.19 6461.31 5277.71
threshold=88.229467412424398 31.400000000000002 3.9956521739130442 3.6592757806350042 35.95000000000001
decision_type=2 8 2 2 8
left_child=3 -2 -3 4 -1
right_child=1 2 -4 -5 -6
leaf_value=-0.86795275716828613 2.9842297766263308 2.4394402616734241 -0.36731295758590993 -2.5158782561892497 0.41596258311288298
leaf_weight=130.5 25 32.5 160 29 217
leaf_count=131 25 36 175 32 244
internal_value=0.00207408 0.458386 0.116676 -0.262047 -0.0673015
internal_weight=594 217.5 192.5 376.5 347.5
internal_count=643 236 211 407 375
is_linear=0
shrinkage=0.160055


Tree=126
num_leaves=6
num_cat=0
split_feature=27 9 34 3 2
split_gain=2429.51 8084.91 7912.21 11204.6 4259.26
threshold=0.50863419592854242 0.32304369918699194 1.4500000000000031 4.3612428842504753 225.50000000000003
decision_type=2 2 8 2 2
left_child=1 4 3 -2 -1
right_child=2 -3 -4 -5 -6
leaf_value=-1.007746976846384 3.8791422758651346 -2.7014962443250745 -1.0890679333491693 -0.048049544443431291 0.25029283383428458
leaf_weight=84 31.5 29 42 43.5 364
leaf_count=115 37 32 47 48 364
internal_value=0.00295811 -0.157604 0.65336 1.63061 0.0126974
internal_weight=594 477 117 75 448
internal_count=643 511 132 85 479
is_linear=0
shrinkage=0.160055


Tree=127
num_leaves=6
num_cat=0
split_feature=4 9 8 2 4
split_gain=2623.52 6534.39 4992.62 9672.65 4627.46
threshold=1.4753613376114925 0.32413399314807773 0.13053270661966312 256.50000000000006 1.1439162276757036
decision_type=2 2 2 2 2
left_child=2 -2 3 -1 -4
right_child=1 -3 4 -5 -6
leaf_value=0.79757398187233686 2.7047336418671244 -0.45447636282324078 -0.38085535161273876 -2.1901563420021271 0.68966035331098574
leaf_weight=44.5 29 37.5 210 71 202
leaf_count=53 30 44 226 71 219
internal_value=0.00315872 0.942815 -0.116855 -1.04206 0.144407
internal_weight=594 66.5 527.5 115.5 412
internal_count=643 74 569 124 445
is_linear=0
shrinkage=0.160055


Tree=128
num_leaves=5
num_cat=0
split_feature=4 30 6 32
split_gain=1874.46 7448.99 4253.57 3377.24
threshold=1.4753613376114925 1.2036593796688984 4.749462530712532 0.12610691786520858
decision_type=2 8 2 10
left_child=2 -2 3 -1
right_child=1 -3 -4 -5
leaf_value=-0.16520707679254734 -0.64687739668104438 2.7368716307360264 -1.6439554865492518 0.92036084518971206
leaf_weight=397.5 38.5 28 41 89
leaf_count=429 42 32 48 92
internal_value=0.00296581 0.79723 -0.0984784 0.0348613
internal_weight=594 66.5 527.5 486.5
internal_count=643 74 569 521
is_linear=0
shrinkage=0.160055


Tree=129
num_leaves=4
num_cat=0
split_feature=26 23 2
split_gain=1986.77 2742 3972.95
threshold=-0.064069907871598678 0.38550000000000006 275.50000000000006
decision_type=8 2 2
left_child=-1 2 -2
right_child=1 -3 -4
leaf_value=1.3576046886915132 -0.51409432691637924 1.4562828259768827 0.36196949384869781
leaf_weight=25.5 310.5 28 230
leaf_count=30 354 29 230
internal_value=0.00281308 -0.0602249 -0.141321
internal_weight=594 568.5 540.5
internal_count=643 613 584
is_linear=0
shrinkage=0.160055


Tree=130
num_leaves=4
num_cat=0
split_feature=10 10 10
split_gain=1827.32 5367.4 6243.41
threshold=0.87745722606479803 0.84711591033351563 0.82310799959851466
decision_type=2 2 2
left_child=1 2 -1
right_child=-2 -3 -4
leaf_value=0.10062862663399424 -1.2475965829066371 2.0631273358837467 -1.9661882915732436
leaf_weight=495.5 27.5 31.5 39.5
leaf_count=534 31 36 42
internal_value=0.00307629 0.0658725 -0.0553396
internal_weight=594 566.5 535
internal_count=643 612 576
is_linear=0
shrinkage=0.160055


Tree=131
num_leaves=6
num_cat=0
split_feature=24 24 5 2 31
split_gain=1784.87 2799.61 3291.89 3212.96 770.099
threshold=90.350000000000009 91.450000000000017 9.7072143651676495 299.50000000000006 -0.043591460953165746
decision_type=8 10 2 2 8
left_child=4 2 -2 -3 -1
right_child=1 3 -4 -5 -6
leaf_value=0.2678465318311552 -2.1301005457006066 -0.16632184827943064 0.28573850469135115 0.83958418187256523 1.5507053648791433
leaf_weight=24 33.5 386 24.5 102 24
leaf_count=26 37 425 27 102 26
internal_value=0.00230247 -0.0805989 -1.12203 0.0452114 0.927768
internal_weight=594 546 58 488 48
internal_count=643 591 64 527 52
is_linear=0
shrinkage=0.160055


end of trees

feature_importances:
ff_avg_speed=34
p_gf=30
K9_delta=30
G=29
WHIP=28
K_BB_pct=28
K9=24
weighted_whiff_pct=23
chase_pct=23
avg_hard_hit_pct=22
team_win_pct=22
ERA=21
HR9=21
LOB_pct=21
zone_pct=21
GB_pct=21
p_ipouts=20
BB9=20
p_bfp=18
BABIP_allowed=16
ERA_delta=16
brl_percent_allowed=15
xera=14
ev95percent_against=14
swstr_pct=14
BABIP_gap=14
BB9_delta=14
ff_velo_delta=14
ERA_FIP_gap=12
WHIP_delta=12
ERA_minus=11
xFIP_minus=11
csw_pct=9
is_closer=7
experience=1

parameters:
[boosting: gbdt]
[objective: huber]
[metric: huber]
[tree_learner: serial]
[device_type: cpu]
[data_sample_strategy: bagging]
[data: ]
[valid: ]
[num_iterations: 132]
[learning_rate: 0.160055]
[num_leaves: 31]
[num_threads: 16]
[seed: 123]
[deterministic: 0]
[force_col_wise: 0]
[force_row_wise: 0]
[histogram_pool_size: -1]
[max_depth: 3]
[min_data_in_leaf: 20]
[min_sum_hessian_in_leaf: 24]
[bagging_fraction: 0.566505]
[pos_bagging_fraction: 1]
[neg_bagging_fraction: 1]
[bagging_freq: 0]
[bagging_seed: 19053]
[bagging_by_query: 0]
[feature_fraction: 0.597555]
[feature_fraction_bynode: 1]
[feature_fraction_seed: 13104]
[extra_trees: 0]
[extra_seed: 3265]
[early_stopping_round: 0]
[early_stopping_min_delta: 0]
[first_metric_only: 0]
[max_delta_step: 0]
[lambda_l1: 4.7638e-06]
[lambda_l2: 0.996422]
[linear_lambda: 0]
[min_gain_to_split: 0]
[drop_rate: 0.1]
[max_drop: 50]
[skip_drop: 0.5]
[xgboost_dart_mode: 0]
[uniform_drop: 0]
[drop_seed: 23075]
[top_rate: 0.2]
[other_rate: 0.1]
[min_data_per_group: 100]
[max_cat_threshold: 32]
[cat_l2: 10]
[cat_smooth: 10]
[max_cat_to_onehot: 4]
[top_k: 20]
[monotone_constraints: ]
[monotone_constraints_method: basic]
[monotone_penalty: 0]
[feature_contri: ]
[forcedsplits_filename: ]
[refit_decay_rate: 0.9]
[cegb_tradeoff: 1]
[cegb_penalty_split: 0]
[cegb_penalty_feature_lazy: ]
[cegb_penalty_feature_coupled: ]
[path_smooth: 0]
[interaction_constraints: ]
[verbosity: -1]
[saved_feature_importance_type: 0]
[use_quantized_grad: 0]
[num_grad_quant_bins: 4]
[quant_train_renew_leaf: 0]
[stochastic_rounding: 1]
[linear_tree: 0]
[max_bin: 255]
[max_bin_by_feature: ]
[min_data_in_bin: 3]
[bin_construct_sample_cnt: 200000]
[data_random_seed: 440]
[is_enable_sparse: 1]
[enable_bundle: 1]
[use_missing: 1]
[zero_as_missing: 0]
[feature_pre_filter: 1]
[pre_partition: 0]
[two_round: 0]
[header: 0]
[label_column: ]
[weight_column: ]
[group_column: ]
[ignore_column: ]
[categorical_feature: ]
[forcedbins_filename: ]
[precise_float_parser: 0]
[parser_config_file: ]
[objective_seed: 32363]
[num_class: 1]
[is_unbalance: 0]
[scale_pos_weight: 1]
[sigmoid: 1]
[boost_from_average: 1]
[reg_sqrt: 0]
[alpha: 147.776]
[fair_c: 1]
[poisson_max_delta_step: 0.7]
[tweedie_variance_power: 1.5]
[lambdarank_truncation_level: 30]
[lambdarank_norm: 1]
[label_gain: ]
[lambdarank_position_bias_regularization: 0]
[eval_at: ]
[multi_error_top_k: 1]
[auc_mu_weights: ]
[num_machines: 1]
[local_listen_port: 12400]
[time_out: 120]
[machine_list_filename: ]
[machines: ]
[gpu_platform_id: -1]
[gpu_device_id: -1]
[gpu_use_dp: 0]
[num_gpu: 1]

end of parameters

pandas_categorical:[]
