tree
version=v4
num_class=1
num_tree_per_iteration=1
label_index=0
max_feature_idx=35
objective=regression
feature_names=G p_ipouts p_bfp IP ERA WHIP K9 BB9 HR9 K_pct BB_pct K_BB_pct BABIP_allowed LOB_pct ERA_minus FIP FIP_minus xFIP xFIP_minus is_starter is_closer p_gs p_gf xera brl_percent_allowed ev95percent_against avg_ev_against est_woba weighted_whiff_pct avg_hard_hit_pct GB_pct BABIP_gap ERA_FIP_gap LOB_pct_dev team_win_pct experience
feature_infos=[3:83] [30:698] [40:951] [10:232.66666666666663] [0:13.090909090909092] [0.55434782608695654:2.7428571428571429] [2.7972972972972974:17.666666666666668] [0.66442953020134232:10.216216216216216] [0:7.2000000000000002] [0.076411960132890297:0.53000000000000003] [0.020220588235294101:0.2413793103448276] [-0.022988505747126398:0.44094488188976377] [0.10000000000000001:0.47727272727272729] [0.4098360655737705:1.3461538461538458] [0:305.1889266819029] [0.84877673864011793:12.182110071973453] [19.787568614163742:264.45113758002094] [1.0460276200451748:7.3199679025507667] [24.386086896203707:176.91637679664495] [0:1] [0:1] [0:35] [0:67] [1.4199999999999999:10.619999999999999] [0:23.100000000000001] [14:54] [81.700000000000003:94.5] [0.182:0.46000000000000002] [2.028:39.237400000000001] [7.5999999999999996:60] [0.20624999999999999:0.80645161290322576] [-0.1725993625243859:0.17622228721462041] [-3.8639282537916335:6.7269808371174591] [-0.31016393442622942:0.62615384615384584] [0.29012345679012341:0.71666666666666667] [0:7]
tree_sizes=2636 2715 2717 2705 2708 2727 2695 2724 2705 2691 2693 2729 2722 2736 2703 2722 2706 2686 2719 2724 2718 2721 2726 2730 2743 2728 2701 2729 2729 2720 2762 2732 2720 2723 2715 2741 2723 2751 2720 2734 2725 2721 2734 2695 2734 2704 2744 2729 2714 2715 2699 2736 2712 2731 2686 2727 2698 2758 2733 2732 2707 2728 2726 2710 2701 2703 2724 2726 2721 2716 2727 2729 2723 2702 2690 2692 2724 2727 2735 2735 2740 2751 2714 2740 2728 2746 2734 2750 2745 2781 2747 2723 2734 2741 2728 2755 2727 2758 2746 2740 2730 2745 2742 2726 2734 2745 2740 2739 2758 2741 2749 2752 2770 2768 2742 2750 2732 2727 2782 2764 2791 2760 2709 2787 2759 2772 2759 2733 2800 2791 2798 2694 2757 2773 2779 2803 2731 2790 2813 2728 2782 2806 2774 2761 2707 2752 2739 2874 2771 2789 2779 2773 2743 2781 2766 2734 2767 2792 2781 2791 2797 2811 2781 2765 2806 2828 2789 2793 2819 2772 2719 2762 2824 2829 2775 2778 2789 2787 2794 2738 2826 2825 2792 2787 2806 2775 2776 2822 2660 2499 2742 2819 2828 2823 2798 2821 2765 2331 2804 2771 2330 2781 2755 2794 2364 2793 2809 2335 2810 2379 2841 2343 2866 2782 2766 2826 2836 2774 2791 2805 2830 2289 2810 2777 2797 2299 2784 2807 2827 2210 2799 2219 2791 2492 2811 2796 2131 2827 2806 1986 2840 2221 2850 2819 2842 2813 2779 2071 2051 2820 2801 2590 2819 2197 2791 2488 2219 2853 2781 2791 2819 2829 2815 2797 2813 1931 2818 2824 2783 2773 1854 2797 2788 1829 2814 2765 1911 2818 2783 2860 2778 2794 1680 2060 2809 2781 2042 2820 2796 2832 2817 2774 2833 1996 2147 2790 2814 2808 2809 2837 2791 2041 2788 2753 2019 2735 2832 2807 2859 1905 2793 2781 2807 2823 1697 2803 1394 2833 2831 2813 2003 2206 2781 2776 1894 2827 2792 2487 2283 2478 2772 2751 2815 2179 2812 2794 2748 2773 2825 1471 1874 2821 2796 2794 2005 2805 2783 2785 2268 2814

Tree=0
num_leaves=31
num_cat=0
split_feature=21 17 11 9 21 17 11 22 21 20 15 16 9 29 4 4 6 9 30 12 9 23 31 11 17 15 9 13 21 1
split_gain=6.15394e+06 3.61386e+06 1.57365e+06 967344 586986 644317 577042 485402 335577 452510 330309 200694 197585 194355 229497 316106 183882 144636 144119 142415 171491 141532 121171 116573 175497 114670 112584 110118 108765 106148
threshold=19.500000000000004 3.5532042722417256 0.23377158244891491 0.19767245170675599 7.5000000000000009 4.4236888619370154 0.24426496895717142 33.500000000000007 7.5000000000000009 1.0000000180025095e-35 4.4735690597231201 109.35732172673812 0.27500351307502652 32.141666666666673 3.0315048265526521 3.4578775987309007 8.3423475258918316 0.22098412895482858 0.47839423846359036 0.30969867672849022 0.26530879514750488 4.2150000000000007 0.028911364049259404 0.11154612319950961 4.6534856411894951 4.2987957289061187 0.23552221822972808 0.75965284824795487 2.5000000000000004 189.50000000000003
decision_type=2 2 2 2 2 2 2 2 2 2 2 2 2 8 2 2 2 2 2 2 2 2 8 2 2 2 2 2 2 2
left_child=2 6 4 11 7 16 19 17 9 -4 13 23 -9 26 -15 -16 22 -1 25 20 27 -20 -6 24 -3 -17 -5 -2 29 -19
right_child=1 3 8 10 5 -7 -8 12 -10 -11 -12 -13 -14 14 15 18 -18 28 21 -21 -22 -23 -24 -25 -26 -27 -28 -29 -30 -31
leaf_value=198.96727811752814 202.89579818108635 199.49661998759586 199.96903643342864 201.62805198600401 200.78517517140057 199.348606342159 204.71114628572434 199.83356279985671 202.74574473552141 201.48565442822212 200.33418289855294 199.43331789698192 201.29750075093722 199.79650391601635 202.66219103098953 200.5662498723446 200.88780791856303 199.12544969788823 201.00154882798921 201.82462172043637 203.5230639138978 202.66832096494625 199.71231565255198 200.86261895699354 200.92619847506347 201.74698691359816 203.10337843205838 201.6029410972553 199.85895894888642 199.59132923375026
leaf_weight=376.5 33 55 88 24 32 209 35 59 18.5 78.5 77 98 29 21 34 82 112 363.5 22 35 49 21 72.5 49 27 22 20 24 72.5 144
leaf_count=416 33 55 103 24 40 227 35 59 27 81 77 98 29 21 34 82 127 405 22 35 49 21 75 49 27 22 20 24 86 144
internal_value=200.117 201.23 199.628 200.652 199.469 199.924 203.042 199.284 200.89 200.684 201.164 199.93 200.316 201.424 201.234 201.4 200.479 199.189 201.108 202.628 202.893 201.816 200.041 200.302 199.967 200.816 202.299 202.351 199.333 199.258
internal_weight=2383 728 1655 552 1470 425.5 176 1044.5 185 166.5 323 229 88 246 202 181 216.5 956.5 147 141 106 43 104.5 131 82 104 44 57 580 507.5
internal_count=2547 728 1819 552 1608 469 176 1139 211 184 323 229 88 246 202 181 242 1051 147 141 106 43 115 131 82 104 44 57 635 549
is_linear=0
shrinkage=1


Tree=1
num_leaves=31
num_cat=0
split_feature=21 17 11 9 21 17 11 22 21 20 15 26 23 4 4 23 35 6 25 9 21 6 31 17 15 25 32 6 30 15
split_gain=5.9765e+06 3.50966e+06 1.52828e+06 939452 570061 625740 560404 472519 325902 439462 320785 209087 208467 202273 364517 187029 187410 178580 161555 131152 149941 129286 117677 113271 111562 110060 108270 104969 122125 92005.4
threshold=19.500000000000004 3.5532042722417256 0.23377158244891491 0.19767245170675599 7.5000000000000009 4.4236888619370154 0.24426496895717142 26.500000000000004 7.5000000000000009 1.0000000180025095e-35 4.4735690597231201 86.550000000000011 2.8350000000000004 3.0315048265526521 3.4578775987309007 4.5600000000000014 2.5000000000000004 8.3423475258918316 31.150000000000002 0.21956001912960307 2.5000000000000004 9.9840597758406009 0.028911364049259404 4.4873494133990253 4.3187018790855474 33.250000000000007 0.0095633526828291012 9.1818367346938796 0.47922830374753456 3.1341303155343323
decision_type=2 2 2 2 2 2 2 2 2 2 2 10 2 2 2 2 2 2 10 2 2 2 8 2 2 10 2 2 2 2
left_child=2 6 4 15 7 17 18 19 9 -4 11 -5 -9 -13 -15 16 23 22 -2 -1 -21 -14 -6 26 27 -7 -3 28 -16 -11
right_child=1 3 8 10 5 25 -8 12 -10 29 -12 13 21 14 24 -17 -18 -19 -20 20 -22 -23 -24 -25 -26 -27 -28 -29 -30 -31
leaf_value=-1.1496400667225295 3.5593426449548602 -0.37529776579404384 -0.14622383475970893 2.445811173265191 0.65806293395500937 -0.10286688792736545 4.5270208240738787 1.3952229058486332 2.5901612335320912 1.6341903356076779 0.21361994370170306 -0.043258158507715451 -0.66970810322150498 2.5722010555744217 0.13413117535792568 -0.52134196655302811 -0.74404567557292889 0.75920513861010508 2.2513242850501416 -0.88691091875154904 -0.19199672275901744 0.40347815932879738 -0.3992164497995549 1.6130228336605343 1.9137373900441141 -0.92725424501811626 1.0496981508803338 1.4227597677331933 1.2666778502268858 0.48356478540341941
leaf_weight=357.5 24 23 88 29 32 43 35 20 18.5 59 77 27 58 38 57 138 25 112 117 493.5 75.5 40 72.5 21 23 166 22 41 31 19.5
leaf_count=396 24 23 103 29 40 46 35 20 27 61 77 27 58 38 57 138 25 127 117 535 90 40 75 21 23 181 22 41 31 20
internal_value=5.53575e-08 1.09655 -0.482348 0.527186 -0.638901 -0.190838 2.88226 -0.821429 0.761613 0.558436 1.03163 1.28768 0.0440754 1.1329 1.30004 -0.184327 0.32675 0.356333 2.47397 -0.93166 -0.794704 -0.231673 -0.0754551 0.732357 0.981993 -0.757644 0.32137 0.815863 0.5331 1.34837
internal_weight=2383 728 1655 552 1470 425.5 176 1044.5 185 166.5 323 246 118 217 190 229 91 216.5 141 926.5 569 98 104.5 66 152 209 45 129 88 78.5
internal_count=2547 728 1819 552 1608 469 176 1139 211 184 323 246 118 217 190 229 91 242 141 1021 625 98 115 66 152 227 45 129 88 81
is_linear=0
shrinkage=0.0145222


Tree=2
num_leaves=31
num_cat=0
split_feature=21 17 11 9 21 17 11 22 21 20 15 26 4 4 16 9 25 12 9 24 8 9 11 17 15 16 25 21 1 13
split_gain=5.80418e+06 3.40847e+06 1.48421e+06 912365 553624 607697 544246 459175 316505 426791 311536 203059 196441 354007 192986 187563 156897 156038 148494 141578 170649 136409 112649 170532 108345 128342 106886 102313 102787 93949.2
threshold=19.500000000000004 3.5532042722417256 0.23377158244891491 0.19767245170675599 7.5000000000000009 4.4236888619370154 0.24426496895717142 33.500000000000007 7.5000000000000009 1.0000000180025095e-35 4.4735690597231201 86.550000000000011 3.0315048265526521 3.4578775987309007 109.35732172673812 0.27500351307502652 31.150000000000002 0.27546039995480737 0.20502844586255678 7.2500000000000009 0.93958455975107225 0.22098412895482858 0.11154612319950961 4.6534856411894951 4.3187018790855474 99.152979123509638 33.250000000000007 2.5000000000000004 189.50000000000003 0.68744527145359025
decision_type=2 2 2 2 2 2 2 2 2 2 2 10 2 2 2 2 10 2 2 10 2 2 2 2 2 2 10 2 2 2
left_child=2 6 4 14 7 18 16 21 9 -4 11 -5 -13 -14 22 -9 -2 -18 -6 20 -19 -1 23 -3 25 -15 -7 28 -23 -20
right_child=1 3 8 10 5 26 -8 15 -10 -11 -12 12 13 24 -16 -17 17 19 29 -21 -22 27 -24 -25 -26 -27 -28 -29 -30 -31
leaf_value=-1.1171059188963497 3.5076540633037712 -0.61022173791181156 -0.14410034522701812 2.4102931206385638 -0.19329374954940146 -0.10137306970629548 4.4612793262469541 -0.27569557973809694 2.5525471963816906 1.3287885375731514 0.21051772076596606 -0.042629960550590193 2.5348474371355003 1.0725751188861723 -0.66906486909542739 1.1506331119722819 3.0472584907299818 2.226488232739436 1.2664069870968788 2.8779068770593548 0.68509044521467677 -0.9651097495859251 0.73387298380777177 0.79898914829307255 1.8859461805761566 0.022747101867016076 -0.91378851311428033 -0.25181885159199174 -0.50666462580974569 0.40719739429494889
leaf_weight=376.5 24 55 88 29 71 43 35 59 18.5 78.5 77 27 38 96 98 29 34 33 35.5 22 28 363.5 49 27 23 33 166 72.5 144 110
leaf_count=416 24 55 103 29 78 46 35 59 27 81 77 27 38 96 98 29 34 33 41 22 28 405 49 27 23 33 181 86 144 123
internal_value=1.11455e-07 1.08062 -0.475343 0.519531 -0.629622 -0.188067 2.8404 -0.8095 0.750553 0.550326 1.01665 1.26898 1.11645 1.28116 -0.18165 0.194347 2.43805 2.21863 0.351158 1.87918 1.51897 -0.901856 0.182981 -0.146212 0.967733 0.804015 -0.746641 -0.762128 -0.835029 0.616835
internal_weight=2383 728 1655 552 1470 425.5 176 1044.5 185 166.5 323 246 217 190 229 88 141 117 216.5 83 61 956.5 131 82 152 129 209 580 507.5 145.5
internal_count=2547 728 1819 552 1608 469 176 1139 211 184 323 246 217 190 229 88 141 117 242 83 61 1051 131 82 152 129 227 635 549 164
is_linear=0
shrinkage=0.0145222


Tree=3
num_leaves=31
num_cat=0
split_feature=1 17 11 9 11 19 9 22 16 19 20 16 16 16 26 9 9 25 12 9 29 24 8 11 17 9 18 17 1 11
split_gain=5.41273e+06 3.35695e+06 1.46753e+06 900842 545551 444810 485897 430365 352810 317207 427253 219076 198524 193567 235485 186096 182155 161052 164136 138655 126383 122086 143666 119149 168838 117037 139898 104454 102797 100327
threshold=328.50000000000006 3.5532042722417256 0.23377158244891491 0.19767245170675599 0.24426496895717142 1.0000000180025095e-35 0.20022779043280184 33.500000000000007 105.56825180511493 1.0000000180025095e-35 1.0000000180025095e-35 109.35732172673812 91.799985711246023 78.391186410523815 86.850000000000009 0.24495893975119928 0.27500351307502652 31.150000000000002 0.27546039995480737 0.22098412895482858 43.550000000000004 7.2500000000000009 0.93958455975107225 0.11354010477959842 4.6534856411894951 0.2324241672865526 95.492736577887072 3.7590141067060765 187.50000000000003 0.087585884864251867
decision_type=2 2 2 2 2 2 2 2 2 2 2 2 2 2 10 2 2 10 2 2 8 10 2 2 2 2 2 2 2 2
left_child=2 4 5 11 17 7 29 19 13 10 -4 23 20 -5 -15 25 -9 -2 -19 -1 -8 22 -20 24 -3 26 -16 -17 -21 -7
right_child=1 3 9 8 -6 6 12 16 -10 -11 -12 -13 -14 14 15 27 -18 18 21 28 -22 -23 -24 -25 -26 -27 -28 -29 -30 -31
leaf_value=-1.0884844689653952 3.4567159829108625 -0.49132104998130827 -0.17020572979775292 0.1793072781365504 4.3964925116616413 -0.96569600161629376 1.6487098061401047 -0.27169189890869344 0.17525587497144551 2.4287555935252998 1.3094916863717567 -0.71986167042543991 -0.037163983804950028 2.5560120158427933 1.7298109846208849 1.3499086305382451 1.1339236287585941 3.0030061032686559 2.1278901987933616 -0.86301131348095417 0.39577846481650819 2.7660115440290172 0.73651569458705313 0.79707935201130042 0.92544568023210105 -0.094173348961479914 0.69589476838338105 2.721965044145862 -0.45153411035281665 -0.31568162073829803
leaf_weight=373 24 68 86.5 31 35 124 29.5 59 87 21 78.5 100 127.5 32 46 25 29 34 34 397 40 21 29 44 24 20 69 22 189 84
leaf_count=400 24 68 100 31 35 139 36 59 87 31 81 100 147 32 46 25 29 34 34 442 54 21 29 44 24 20 69 22 189 95
internal_value=1.77798e-07 1.02626 -0.466766 0.482083 2.77254 -0.622342 -0.213663 -0.780426 0.969689 0.747727 0.533773 -0.203871 0.303199 1.25179 1.40715 1.20515 0.191525 2.37226 2.15168 -0.869615 0.927604 1.80708 1.48742 0.175535 -0.121728 0.931149 1.10947 1.99216 -0.7303 -0.703191
internal_weight=2383 745 1638 568 177 1452 405 1047 332 186 165 236 197 245 214 182 88 142 118 959 69.5 84 63 136 92 135 115 47 586 208
internal_count=2547 745 1802 568 177 1590 471 1119 332 212 181 236 237 245 214 182 88 142 118 1031 90 84 63 136 92 135 115 47 631 234
is_linear=0
shrinkage=0.0145222


Tree=4
num_leaves=31
num_cat=0
split_feature=21 17 11 23 21 17 11 22 11 2 21 20 29 23 6 6 25 12 24 8 6 12 25 16 13 25 7 2 15 24
split_gain=5.48056e+06 3.21367e+06 1.40051e+06 860095 524984 580823 513109 436529 351065 305493 299638 402908 220455 196417 167015 151427 147868 146997 134264 161538 121660 120049 104480 103332 112570 102854 100676 97909 119114 95620.4
threshold=19.500000000000004 3.5532042722417256 0.23377158244891491 4.5600000000000014 7.5000000000000009 4.4236888619370154 0.24426496895717142 26.500000000000004 0.13399047985912391 817.50000000000011 7.5000000000000009 1.0000000180025095e-35 34.525000000000006 2.8350000000000004 8.3423475258918316 7.6246872549385722 31.150000000000002 0.27546039995480737 7.2500000000000009 0.93958455975107225 9.9840597758406009 0.27872479326853333 38.750000000000007 87.457360754016946 0.68744527145359025 32.650000000000013 3.3634273075167651 302.50000000000006 3.5418754135735484 7.7500000000000009
decision_type=2 2 2 2 2 2 2 2 2 2 2 2 10 2 2 2 10 2 10 2 2 2 10 2 2 10 2 2 2 10
left_child=2 6 4 8 7 14 16 27 26 12 11 -4 -10 -9 29 21 -2 -18 19 -19 -15 -5 -14 -16 -25 -7 -3 -1 -29 -6
right_child=1 3 10 15 5 25 -8 13 9 -11 -12 -13 22 20 23 -17 17 18 -20 -21 -22 -23 -24 24 -26 -27 -28 28 -30 -31
leaf_value=-0.94063327417730747 3.4065176221513913 0.12345708957403694 -0.14060816126420078 0.28617094154244405 0.18709692776659323 -0.015661319805392242 4.3326463600845839 1.3564775591863132 1.5906529447231759 2.8689169427537471 2.4822493214686818 1.2904751514345352 0.25523894752191423 -0.64762004809773321 1.3210809783237665 0.2953203957566356 2.9593963717136615 2.163253826138213 2.7982482224010177 0.66356819918568333 0.39343363258574704 -0.75659043857828356 1.388960002231882 1.3118575651923794 0.037677098504073227 -0.87359317382984214 0.9831151200632513 0.3727505183553747 -0.7917852538501472 -0.81643307723825176
leaf_weight=840.5 24 96 88 30 77.5 35.5 35 20 99 24 18.5 78.5 60 58 40.5 74 34 33 22 28 40 104 24 20.5 51 173.5 41 27 59 27
leaf_count=935 24 96 103 30 85 38 35 20 99 24 27 81 60 58 49 74 34 33 22 28 40 104 24 22 56 189 41 27 59 30
internal_value=2.3954e-07 1.05006 -0.461901 0.505242 -0.611767 -0.181784 2.75882 -0.78693 0.950988 1.3284 0.728927 0.534108 1.12636 0.0449603 0.345383 -0.231955 2.36814 2.15513 1.82566 1.47488 -0.2227 -0.523136 0.579164 0.734992 0.403006 -0.727868 0.380729 -0.89288 -0.426175 -0.0721902
internal_weight=2383 728 1655 552 1470 425.5 176 1044.5 344 207 185 166.5 183 118 216.5 208 141 117 83 61 98 134 84 112 71.5 209 137 926.5 86 104.5
internal_count=2547 728 1819 552 1608 469 176 1139 344 207 211 184 183 118 242 208 141 117 83 61 98 134 84 127 78 227 137 1021 86 115
is_linear=0
shrinkage=0.0145222


Tree=5
num_leaves=31
num_cat=0
split_feature=21 17 11 9 21 17 11 22 15 21 20 23 26 4 4 16 6 25 24 9 21 6 31 15 16 11 17 16 13 25
split_gain=5.32254e+06 3.12101e+06 1.36013e+06 837873 509847 564076 498314 423942 291779 290999 391290 190754 190423 189017 339839 180432 162200 143604 120991 120154 140229 118152 112973 106212 121347 105152 162087 100353 109324 100010
threshold=19.500000000000004 3.5532042722417256 0.23377158244891491 0.19767245170675599 7.5000000000000009 4.4236888619370154 0.24426496895717142 26.500000000000004 4.4735690597231201 7.5000000000000009 1.0000000180025095e-35 2.8350000000000004 86.550000000000011 3.0315048265526521 3.4578775987309007 109.35732172673812 8.3423475258918316 31.150000000000002 7.2500000000000009 0.21956001912960307 2.5000000000000004 9.9840597758406009 0.028911364049259404 4.3187018790855474 99.152979123509638 0.11154612319950961 4.6534856411894951 87.457360754016946 0.68744527145359025 33.250000000000007
decision_type=2 2 2 2 2 2 2 2 2 2 2 2 10 2 2 2 2 10 10 2 2 2 8 2 2 2 2 2 2 10
left_child=2 6 4 15 7 16 17 19 12 10 -4 -9 -5 -14 -15 25 22 -2 -19 -1 -21 -13 -6 24 -16 26 -3 -18 -29 -7
right_child=1 3 9 8 5 29 -8 11 -10 -11 -12 21 13 14 23 -17 27 18 -20 20 -22 -23 -24 -25 -26 -27 -28 28 -30 -31
leaf_value=-1.0885539325938216 3.3570482824959882 -0.59189670083702317 -0.13856623445332647 2.3237269126022562 0.64756553956678675 -0.093130134012925414 4.2697275018035254 1.3367789064406752 0.19414575934624353 2.4462022803759704 1.2717346794607005 -0.63821523199729513 -0.066179743772223534 2.4606993156370409 1.0243052470755962 -0.64533786940585736 1.3018961755973366 1.8803813055518566 3.0197084618500938 -0.83799658161983814 -0.16596333227598409 0.38772017407330656 -0.38836611120431952 1.834392971598001 0.003488636196043296 0.71077663384856737 0.78198070727474944 1.2928068525521987 0.037129945103129246 -0.87897943605424089
leaf_weight=357.5 24 55 88 29 32 43 35 20 77 18.5 78.5 58 27 38 96 98 40.5 92 25 493.5 75.5 40 72.5 23 33 49 27 20.5 51 166
leaf_count=396 24 55 103 29 40 46 35 20 77 27 81 58 27 38 96 98 49 92 25 535 90 40 75 23 33 49 27 22 56 181
internal_value=2.83517e-07 1.03481 -0.455193 0.497904 -0.602883 -0.179144 2.71876 -0.775502 0.9743 0.718341 0.526352 0.0443074 1.21849 1.07079 1.23236 -0.174043 0.340367 2.33375 2.12384 -0.879914 -0.748825 -0.219466 -0.0711419 0.925264 0.763167 0.17853 -0.139521 0.724318 0.397154 -0.717298
internal_weight=2383 728 1655 552 1470 425.5 176 1044.5 323 185 166.5 118 246 217 190 229 216.5 141 117 926.5 569 98 104.5 152 129 131 82 112 71.5 209
internal_count=2547 728 1819 552 1608 469 176 1139 323 211 184 118 246 217 190 229 242 141 117 1021 625 98 115 152 129 131 82 127 78 227
is_linear=0
shrinkage=0.0145222


Tree=6
num_leaves=31
num_cat=0
split_feature=21 17 9 23 21 17 9 20 21 22 16 8 2 5 6 6 26 15 9 30 4 6 31 26 25 9 21 32 13 16
split_gain=5.16907e+06 3.03102e+06 1.28387e+06 819267 530635 540090 407149 330302 439806 301776 279122 299931 250191 197615 162319 142997 142641 136605 135987 123299 140754 114797 109715 109607 99158 91690 100551 90797.4 83930.9 115022
threshold=19.500000000000004 3.5532042722417256 0.2966921815199563 4.5600000000000014 7.5000000000000009 4.4236888619370154 0.30651047798445968 1.0000000180025095e-35 8.5000000000000018 30.500000000000004 104.50896403703983 0.8337398373983741 817.50000000000011 1.1992990654205611 8.3423475258918316 7.6246872549385722 87.15000000000002 3.198568013432435 0.26530879514750488 0.44239278420694356 4.249365482233503 7.5852135374697829 0.028911364049259404 88.250000000000014 33.250000000000007 0.21956001912960307 2.5000000000000004 0.24226828198163355 0.68744527145359025 87.457360754016946
decision_type=2 2 2 2 2 2 2 2 2 2 2 2 2 2 2 2 10 2 2 2 2 2 8 10 10 2 2 2 2 2
left_child=2 6 4 10 9 14 18 8 -4 25 11 21 13 23 22 -5 -11 -9 -2 -15 -21 -3 -6 -13 -7 -1 -27 -20 -16 -30
right_child=1 3 7 15 5 24 -8 17 -10 16 -12 12 -14 19 28 -17 -18 -19 27 20 -22 -23 -24 -25 -26 26 -28 -29 29 -31
leaf_value=-1.0699533424924506 1.9303837965299335 -0.52186753789826223 -0.24095434370801752 -0.51177336209108293 0.63816156771436439 -0.091777703496757332 4.1067173071089247 1.5112245703686362 1.8180420399565709 0.66430338020006485 0.16179969437595401 2.2534192099189418 2.6442363862379499 0.15384597535296052 1.4121182361914322 0.28357604255487906 -0.4970330830081664 0.33479827597249429 3.2433177976946359 0.63989036505197761 1.9299001784482568 0.84278923736360767 -0.38272621403298723 1.0981234436938767 -0.8747596760874673 -0.84772608157447682 -0.25654720946602633 2.1032454512469307 1.2337584959166505 0.053606837734793814
leaf_weight=359.5 78 26 138 134 32 43 34 68 26 38 78 43 29 39 28.5 74 54 30 41 44 30 26 72.5 29 165 455.5 70 23 27.5 47.5
leaf_count=398 78 26 167 134 40 46 34 70 35 38 78 43 29 39 33 74 54 31 41 44 30 26 75 29 179 487 81 23 33 52
internal_value=3.41064e-07 1.01979 -0.448583 0.490674 -0.623999 -0.189633 2.67927 0.484067 0.0854751 -0.808948 0.925712 1.14972 1.39009 1.19349 0.333627 -0.228813 -0.0173499 1.1511 2.33748 0.814627 1.16287 0.160462 -0.0701087 1.7881 -0.712894 -0.891239 -0.768977 2.83362 0.741263 0.486333
internal_weight=2383 728 1655 552 1393 416 176 262 164 977 344 266 214 185 208 208 92 98 142 113 74 52 104.5 72 208 885 525.5 64 103.5 75
internal_count=2547 728 1819 552 1516 458 176 303 202 1058 344 266 214 185 233 208 92 101 142 113 74 52 115 72 225 966 568 64 118 85
is_linear=0
shrinkage=0.0145222


Tree=7
num_leaves=31
num_cat=0
split_feature=21 17 11 23 21 17 11 20 11 2 19 20 29 9 9 9 12 9 9 21 13 31 26 7 34 16 5 4 15 2
split_gain=5.02003e+06 2.94363e+06 1.28866e+06 795645 480613 531165 473661 401899 326349 286870 279167 380324 209801 175490 132912 130893 124564 156543 111352 129256 109443 102643 99792.9 96652.7 92522.1 92155.9 163793 89884.5 86993.6 86524.6
threshold=19.500000000000004 3.5532042722417256 0.23377158244891491 4.5600000000000014 7.5000000000000009 4.4236888619370154 0.24426496895717142 1.0000000180025095e-35 0.13399047985912391 817.50000000000011 1.0000000180025095e-35 1.0000000180025095e-35 34.525000000000006 0.27500351307502652 0.19767245170675599 0.20502844586255678 0.30969867672849022 0.26530879514750488 0.21956001912960307 2.5000000000000004 0.75965284824795487 -0.10465939956652494 87.350000000000009 3.3634273075167651 0.48549382716049388 84.148611021837809 1.1992990654205611 3.1093207354443311 3.1341303155343323 669.50000000000011
decision_type=2 2 2 2 2 2 2 2 2 2 2 2 10 2 2 2 2 2 2 2 2 10 10 2 2 2 2 2 2 2
left_child=2 6 4 8 7 15 16 18 23 12 11 -4 -10 24 -5 -6 17 20 -1 -20 -2 -21 -15 -3 -9 -14 -27 -19 -13 -25
right_child=1 3 10 14 5 -7 -8 13 9 -11 -12 28 25 22 -16 -17 -18 27 19 21 -22 -23 -24 29 -26 26 -28 -29 -30 -31
leaf_value=-1.0720183994584471 2.5382496403147186 0.11037046782004843 -0.16038059718118902 -0.48694117770687056 -0.18145419767908266 -0.69663283084577143 4.1524843544810377 -0.74607120791048542 1.5333035161353477 2.7689778162595871 2.3205389314267655 1.5136156957740028 -0.3138950404691504 1.4082675646185305 0.28994322175532866 0.57914888650370189 1.5138087282067751 2.5762434066065443 -0.82871470870074271 0.17811745046934899 1.2493742009184663 -0.9783483216300165 0.032776909529661218 0.26906572661513622 0.14262529524101061 1.6754608547027277 0.18786239611059377 3.8331995527403273 0.39477013994248594 1.6037211694309106
leaf_weight=347.5 33 96 86.5 138 71 209 35 60 99 24 20 59 20 22 70 145.5 35 28 475 52 24 23.5 22.5 20 42 27 37 21 19.5 21
leaf_count=385 33 96 100 138 78 227 35 60 99 24 30 61 20 22 70 164 35 28 516 60 24 30 23 20 43 27 37 21 20 21
internal_value=3.85103e-07 1.00498 -0.442068 0.483548 -0.585826 -0.174415 2.64036 -0.753423 0.912269 1.27616 0.700218 0.503811 1.08037 -0.0481524 -0.22549 0.329713 2.26501 2.51304 -0.868481 -0.739998 1.99558 -0.181845 0.712801 0.36245 -0.380138 0.546557 0.815449 3.11496 1.23569 0.952678
internal_weight=2383 728 1655 552 1470 425.5 176 1044.5 344 207 185 165 183 146.5 208 216.5 141 106 898 550.5 57 75.5 44.5 137 102 84 64 49 78.5 41
internal_count=2547 728 1819 552 1608 469 176 1139 344 207 211 181 183 148 208 242 141 106 991 606 57 90 45 137 103 84 64 49 81 41
is_linear=0
shrinkage=0.0145222


Tree=8
num_leaves=31
num_cat=0
split_feature=21 17 9 23 21 17 9 20 21 22 16 8 2 6 29 6 15 12 9 12 34 26 31 13 25 2 15 9 29 34
split_gain=4.87528e+06 2.85876e+06 1.21452e+06 772704 500849 509371 385056 310346 415648 286309 270389 287975 236653 154586 142816 135449 130038 128265 176647 116109 113288 107122 106453 106287 96577.3 88104 95636.5 85928.8 85866.8 82280.6
threshold=19.500000000000004 3.5532042722417256 0.2966921815199563 4.5600000000000014 7.5000000000000009 4.4236888619370154 0.30651047798445968 1.0000000180025095e-35 8.5000000000000018 33.500000000000007 104.50896403703983 0.8337398373983741 836.50000000000011 8.3423475258918316 34.233333333333341 7.6246872549385722 3.198568013432435 0.30969867672849022 0.26530879514750488 0.27872479326853333 0.54798328349052994 86.950000000000017 0.028911364049259404 0.75965284824795487 32.650000000000013 699.00000000000011 3.8084502160837865 0.22098412895482858 38.38333333333334 0.44135802469135804
decision_type=2 2 2 2 2 2 2 2 2 2 2 2 2 2 8 2 2 2 2 2 2 10 8 2 10 2 2 2 8 2
left_child=2 6 4 10 9 13 17 8 -4 27 11 20 14 22 -13 19 -9 18 23 -5 -3 -11 -6 -2 -7 28 -27 -1 -16 -21
right_child=1 3 7 15 5 24 -8 16 -10 21 -12 12 -14 -15 25 -17 -18 -19 -20 29 -22 -23 -24 -25 -26 26 -28 -29 -30 -31
leaf_value=-1.02730936323369 2.5013891325572719 0.70804582297782126 -0.23223907593289991 0.2983087547933137 0.62755978653980948 -0.0026321126887755867 3.9901962931229522 1.4693918126519574 1.7694099318750733 0.75120244534192393 0.14715309476704339 1.7862188080967041 2.7816843862305585 0.72170623589842964 -0.026965567940425796 0.27646701041053973 0.32159288758631049 1.5064717274448189 3.1492740258679639 -0.21051254651811233 -0.67339164774208515 -0.35422171501411215 -0.37803724112292253 1.2312308156904284 -0.83438121291120004 2.0994214461815908 0.90193980425004039 -0.73929935117458523 0.99556573789579872 -1.0501232216191618
leaf_weight=376.5 33 31 138 30 32 35.5 34 68 26 29 78 59 22 103.5 29 74 30 35 50 40 21 51 72.5 24 172.5 22 39 520.5 43 64
leaf_count=416 33 31 167 30 40 38 34 70 35 29 78 59 22 118 29 74 31 35 50 40 21 51 75 24 187 22 39 562 43 64
internal_value=4.39733e-07 0.990383 -0.435648 0.476526 -0.606261 -0.184263 2.60202 0.471462 0.0850987 -0.785945 0.899021 1.11949 1.35503 0.323899 1.19156 -0.222215 1.11803 2.26963 2.51926 -0.497607 0.150157 0.0464961 -0.0701021 1.9666 -0.692424 0.927754 1.33383 -0.860187 0.583715 -0.727198
internal_weight=2383 728 1655 552 1393 416 176 262 164 977 344 266 214 208 192 208 98 142 107 134 52 80 104.5 57 208 133 61 897 72 104
internal_count=2547 728 1819 552 1516 458 176 303 202 1058 344 266 214 233 192 208 101 142 107 134 52 80 115 57 225 133 61 978 72 104
is_linear=0
shrinkage=0.0145222


Tree=9
num_leaves=31
num_cat=0
split_feature=21 17 9 9 21 17 9 20 21 22 26 18 28 16 2 17 6 29 26 15 12 9 18 31 6 32 12 1 28 10
split_gain=4.73471e+06 2.77633e+06 1.1795e+06 755640 486408 494684 373953 301398 403664 278182 269447 179731 234517 168152 158234 167841 150129 139757 133839 126288 124567 171554 104600 103384 100787 98413 94011.5 90272.1 89540.4 87115.9
threshold=19.500000000000004 3.5532042722417256 0.2966921815199563 0.19767245170675599 7.5000000000000009 4.4236888619370154 0.30651047798445968 1.0000000180025095e-35 8.5000000000000018 30.500000000000004 88.750000000000014 98.954087523777375 18.464200000000002 109.35732172673812 792.50000000000011 3.8982774810608536 8.3423475258918316 40.116666666666674 87.15000000000002 3.198568013432435 0.30969867672849022 0.26530879514750488 85.910703542509012 0.028911364049259404 8.6494614684466047 -0.15347498702010592 0.28940689286668453 429.50000000000006 20.764100000000003 0.1197843928755906
decision_type=2 2 2 2 2 2 2 2 2 2 10 2 8 2 2 2 2 8 10 2 2 2 2 8 2 2 2 2 10 2
left_child=2 6 4 13 9 16 20 8 -4 -1 11 14 -13 27 15 24 23 28 -11 -9 21 22 -2 -6 -5 -19 -14 -3 -12 -7
right_child=1 3 7 10 5 29 -8 19 -10 18 17 12 26 -15 -16 -17 -18 25 -20 -21 -22 -23 -24 -25 -26 -27 -28 -29 -30 -31
leaf_value=-0.85353915490115706 2.4131750801420919 -0.41365957675751897 -0.22886646785697051 0.010347688424399069 0.61844634618794903 -0.80079245729264403 3.9322505055281121 1.448053154403389 1.7437145951282882 0.64577917391707729 -0.70677284382235361 1.8303215077318977 0.63526943909787914 -0.62348985868158946 2.4851773585501737 2.0757342359107978 0.71122552933034799 0.25921653522651228 -0.47915400788290591 0.31692271660973459 1.4845946917491994 3.1035399993199699 1.1234893690504633 -0.37254735093960184 1.2582121539958806 1.3415160071633243 -0.68906049384479096 0.42005342021763364 0.46686594149802085 0.063493179486308213
leaf_weight=885 36 39 138 21 32 179.5 34 68 26 38 29 24 26 98 31 36 103.5 34 54 30 35 50 21 72.5 39 37 20 92 26 28.5
leaf_count=966 36 39 167 21 40 193 34 70 35 38 29 24 26 98 31 36 118 34 54 31 35 50 21 75 39 37 20 92 26 32
internal_value=4.76479e-07 0.976001 -0.429322 0.469606 -0.597457 -0.181587 2.56423 0.464616 0.0838629 -0.774531 0.92202 1.25746 0.666627 -0.168515 1.58312 1.29182 0.319196 0.397555 -0.014507 1.10179 2.23667 2.48267 1.93804 -0.0690841 0.821462 0.823236 0.0594729 0.171848 -0.151962 -0.682369
internal_weight=2383 728 1655 552 1393 416 176 262 164 977 323 197 70 229 127 96 208 126 92 98 142 107 57 104.5 60 71 46 131 55 208
internal_count=2547 728 1819 552 1516 458 176 303 202 1058 323 197 70 229 127 96 233 126 92 101 142 107 57 115 60 71 46 131 55 225
is_linear=0
shrinkage=0.0145222


Tree=10
num_leaves=31
num_cat=0
split_feature=21 17 11 9 21 17 11 22 26 19 22 16 4 4 5 26 16 28 6 25 12 31 24 8 9 4 5 1 11 17
split_gain=4.5982e+06 2.69628e+06 1.1913e+06 733852 439771 484959 439359 371286 264550 263140 283831 244248 231293 238426 167150 163528 163304 140512 139785 138622 135023 130177 122612 154154 112520 108270 100801 98575.7 96706.8 143466
threshold=19.500000000000004 3.5532042722417256 0.23377158244891491 0.19767245170675599 7.5000000000000009 4.4236888619370154 0.24426496895717142 33.500000000000007 86.550000000000011 1.0000000180025095e-35 40.500000000000007 99.152979123509638 3.0315048265526521 3.4969061020613568 1.2005747126436785 86.450000000000017 109.35732172673812 17.377600000000005 8.3423475258918316 31.150000000000002 0.27546039995480737 0.038311959850200354 7.2500000000000009 0.93958455975107225 0.22098412895482858 4.3567915521481275 1.3483450290025558 493.50000000000006 0.11334682860998646 4.6534856411894951
decision_type=2 2 2 2 2 2 2 2 10 2 2 2 2 2 2 10 2 8 2 10 2 8 10 2 2 2 2 2 2 2
left_child=2 6 4 16 7 18 19 24 -5 10 -4 12 -10 -14 -13 -9 28 -15 26 -2 -21 -12 23 -22 -1 27 -6 -19 29 -3
right_child=1 3 9 8 5 -7 -8 15 11 -11 21 14 13 17 -16 -17 -18 25 -20 20 22 -23 -24 -25 -26 -27 -28 -29 -30 -31
leaf_value=-1.0001688150755639 3.1708695453057518 -0.49656708443224562 0.11567571534768549 2.2074718720386373 0.28351763596887414 -0.6667528191583445 3.9833342711464379 1.2033262236174496 -0.11303498530618614 2.2483224464811102 0.76944545652588692 1.3514701812826919 2.3955219230695874 0.086851236229225734 -0.0049311134610298697 -0.20230419996286825 -0.61443546307205454 0.22946501017177462 0.67037284400335628 2.7300538738595965 1.9807203678916141 2.3413373303511134 2.5729029983239733 0.51571249486165205 -0.67776940799673424 2.0275671035898495 -0.64665790659278333 1.4526499369133763 0.73380791308162729 0.77487998276405601
leaf_weight=376.5 24 61 120 30 65 209 35 24 27 20 25 24 35 26 95 64 98 24 112 34 33 20 22 28 580 29 39.5 33 43 27
leaf_count=416 24 61 136 30 73 227 35 24 27 30 25 24 35 26 95 64 98 24 127 34 33 20 22 28 635 29 42 33 43 27
internal_value=5.17635e-07 0.961827 -0.423087 0.462786 -0.561307 -0.167765 2.527 -0.721625 0.90863 0.675201 0.484515 0.775641 1.12239 1.3493 0.268632 0.181053 -0.166068 1.02235 0.313937 2.16549 1.95924 1.46808 1.64348 1.30826 -0.804673 1.30517 -0.0680808 0.937629 0.169353 -0.106462
internal_weight=2383 728 1655 552 1470 425.5 176 1044.5 323 185 165 293 174 147 119 88 229 112 216.5 141 117 45 83 61 956.5 86 104.5 57 131 88
internal_count=2547 728 1819 552 1608 469 176 1139 323 211 181 293 174 147 119 88 229 112 242 141 117 45 83 61 1051 86 115 57 131 88
is_linear=0
shrinkage=0.0145222


Tree=11
num_leaves=31
num_cat=0
split_feature=21 17 11 23 21 17 11 20 11 2 19 20 29 9 9 9 26 4 24 18 1 9 21 27 13 11 23 26 26 8
split_gain=4.46562e+06 2.61854e+06 1.15695e+06 720994 427091 470976 426691 362833 297738 263829 255553 341291 196722 162970 123909 117043 116070 152348 117825 125397 101645 99570 123699 94589.2 110857 111898 94162.8 116024 93251.6 92520.9
threshold=19.500000000000004 3.5532042722417256 0.23377158244891491 4.5600000000000014 7.5000000000000009 4.4236888619370154 0.24426496895717142 1.0000000180025095e-35 0.13399047985912391 817.50000000000011 1.0000000180025095e-35 1.0000000180025095e-35 34.525000000000006 0.27500351307502652 0.1444266346089628 0.20502844586255678 87.750000000000014 2.8151548363025842 7.2500000000000009 86.044334289510616 222.50000000000003 0.21956001912960307 2.5000000000000004 0.32750000000000007 0.69608173444294719 0.091295327440014368 4.3650000000000011 88.350000000000009 87.350000000000009 0.8388067662298081
decision_type=2 2 2 2 2 2 2 2 2 2 2 2 10 2 2 2 10 2 10 2 2 2 2 2 2 2 2 10 10 2
left_child=2 6 4 8 7 15 16 20 26 12 11 -4 -10 -9 -5 -6 17 -2 19 -18 21 -1 -23 -16 -25 -26 27 -3 -15 -22
right_child=1 3 10 14 5 -7 -8 13 9 -11 -12 -13 -14 28 23 -17 18 -19 -20 -21 29 22 -24 24 25 -27 -28 -29 -30 -31
leaf_value=-1.0681328993541792 1.6571441599874581 0.43125746519335745 -0.151707344886545 -1.2765801385770479 -0.17398943900671518 -0.65707012484163352 3.9254883600106174 -0.36095262698172831 1.462578293174404 2.6433633398052141 2.2156724845406455 1.1707831905665431 0.50708524062819493 1.3645645112903766 -1.0183840855358428 0.54524818847387257 1.920059479172989 3.2545194710315437 2.7243855924375229 0.53804175056815051 0.35434912901881888 -0.82674870764395081 -0.14605588216833268 -0.49604225536702568 -0.44562669616742595 0.5876723088409308 0.96491849603944779 -0.64817348653992357 0.034918520171056552 -0.70887782119524267
leaf_weight=317.5 20 70 86.5 21 71 209 35 102 99 24 20 78.5 84 22 21 145.5 45 34 22 20 28 443 64.5 58 31 77 37 30 22.5 45
leaf_count=355 20 70 100 21 78 227 35 103 99 24 30 81 84 22 21 164 45 34 22 20 28 484 79 58 31 77 37 30 23 45
internal_value=5.85325e-07 0.94786 -0.416943 0.456066 -0.553156 -0.165329 2.4903 -0.711146 0.864179 1.21175 0.665395 0.477479 1.02399 -0.0410286 -0.218891 0.309378 2.13404 2.66291 1.80576 1.49483 -0.820469 -0.866428 -0.740237 -0.10011 0.0160588 0.291077 0.339014 0.107427 0.692277 -0.301065
internal_weight=2383 728 1655 552 1470 425.5 176 1044.5 344 207 185 165 183 146.5 208 216.5 141 54 87 65 898 825 507.5 187 166 108 137 100 44.5 73
internal_count=2547 728 1819 552 1608 469 176 1139 344 207 211 181 183 148 208 242 141 54 87 65 991 918 563 187 166 108 137 100 45 73
is_linear=0
shrinkage=0.0145222


Tree=12
num_leaves=31
num_cat=0
split_feature=21 17 11 23 21 17 11 22 11 2 19 22 29 26 25 6 12 31 6 24 29 12 9 25 31 31 16 15 7 25
split_gain=4.33686e+06 2.54304e+06 1.12359e+06 700206 414777 457396 414388 352126 289153 256222 248184 269950 191050 157040 133717 133191 132129 126424 122314 116716 126486 111427 106102 99824.9 126720 99489.6 94828.9 106086 92714.9 91831
threshold=19.500000000000004 3.5532042722417256 0.23377158244891491 4.5600000000000014 7.5000000000000009 4.4236888619370154 0.24426496895717142 33.500000000000007 0.13399047985912391 817.50000000000011 1.0000000180025095e-35 40.500000000000007 34.525000000000006 86.550000000000011 31.150000000000002 8.3423475258918316 0.27546039995480737 0.038311959850200354 7.6246872549385722 7.2500000000000009 32.216666666666676 0.27872479326853333 0.22098412895482858 38.750000000000007 -0.007069691243518199 0.028911364049259404 87.457360754016946 4.3324757442402602 3.3634273075167651 32.650000000000013
decision_type=2 2 2 2 2 2 2 2 2 2 2 2 10 10 10 2 2 8 2 10 10 2 2 10 10 8 2 2 2 10
left_child=2 6 4 8 7 15 14 22 28 12 11 -4 -10 -9 -2 25 -16 -13 21 20 -18 -5 -1 24 -14 -6 -17 -28 -3 -7
right_child=1 3 10 18 5 29 -8 13 9 -11 -12 17 23 -15 16 26 19 -19 -20 -21 -22 -23 -24 -25 -26 -27 27 -29 -30 -31
leaf_value=-0.97153377599293689 3.0904843421842441 0.087200314079869917 0.11083748135237431 0.30229313553897985 0.60644279063199735 0.025431383430380219 3.8684821109639826 1.1521099125276515 1.4413385316821157 2.6049764862636575 2.1834966850357911 0.74126948364719081 0.67282414801170332 -0.20819250014632043 2.6629923591836113 1.2142698779371603 1.8905921830312324 2.2903346436225531 0.258174729765069 2.4949262259529208 0.56641226843587922 -0.70232509868422488 -0.65846334469316659 1.2912700731287534 -0.72639515097603446 -0.36570644813790976 -0.14082435452404635 0.99269327798190865 0.91217078706024524 -0.78522269639258635
leaf_weight=376.5 24 96 120 30 32 35.5 35 25 99 24 20 25 39 63 34 40.5 32 20 74 22 29 104 580 24 21 72.5 41.5 30 41 173.5
leaf_count=416 24 96 136 30 40 38 35 25 99 24 30 25 39 63 34 49 32 20 74 22 29 104 635 24 21 75 45 33 41 189
internal_value=6.06687e-07 0.934095 -0.410888 0.449443 -0.545123 -0.162928 2.45414 -0.700818 0.851629 1.19415 0.655733 0.470545 1.00912 0.17826 2.10305 0.304885 1.90049 1.42976 -0.215712 1.58813 1.26107 -0.47741 -0.781695 0.499721 0.183096 -0.0680138 0.652813 0.33478 0.334091 -0.647528
internal_weight=2383 728 1655 552 1470 425.5 176 1044.5 344 207 185 165 183 88 141 216.5 117 45 208 83 61 134 956.5 84 60 104.5 112 71.5 137 209
internal_count=2547 728 1819 552 1608 469 176 1139 344 207 211 181 183 88 141 242 117 45 208 83 61 134 1051 84 60 115 127 78 137 227
is_linear=0
shrinkage=0.0145222


Tree=13
num_leaves=31
num_cat=0
split_feature=21 17 11 23 21 17 11 20 11 2 19 20 29 9 26 25 6 12 9 24 29 3 15 25 31 31 9 21 17 34
split_gain=4.21181e+06 2.46971e+06 1.0912e+06 680016 402817 444208 402440 344566 280816 248834 241028 325889 185541 157275 135061 129862 129351 128320 119188 113350 122839 98735.3 123127 96946.6 123067 96621 94055.2 120207 92754.5 144918
threshold=19.500000000000004 3.5532042722417256 0.23377158244891491 4.5600000000000014 7.5000000000000009 4.4236888619370154 0.24426496895717142 1.0000000180025095e-35 0.13399047985912391 817.50000000000011 1.0000000180025095e-35 1.0000000180025095e-35 34.525000000000006 0.25511321769262946 86.450000000000017 31.150000000000002 8.3423475258918316 0.27546039995480737 0.1444266346089628 7.2500000000000009 32.216666666666676 74.166666666666671 3.5418754135735484 38.750000000000007 -0.007069691243518199 0.028911364049259404 0.21956001912960307 2.5000000000000004 3.9696286735849777 0.51083122459934061
decision_type=2 2 2 2 2 2 2 2 2 2 2 2 10 2 10 10 2 2 2 10 10 2 2 10 10 8 2 2 2 2
left_child=2 6 4 8 7 16 15 21 -3 12 11 -4 -10 -9 -15 -2 25 -17 -5 20 -19 26 -23 24 -14 -6 -1 -28 -18 -30
right_child=1 3 10 18 5 -7 -8 13 9 -11 -12 -13 23 14 -16 17 28 19 -20 -21 -22 22 -24 -25 -26 -27 27 -29 29 -31
leaf_value=-1.0385125130372539 3.0456044258043025 0.32923932345111767 -0.15111381463962814 -1.2499267712603892 0.5976360200873615 -0.63812454790221762 3.8123039740914431 -0.50219446601011608 1.4204072358095321 2.5671471119385898 2.15178806953389 1.141191726014916 0.66305336395207015 1.4625233667312783 0.056383809054885076 2.6243203531311221 0.31652186648787461 1.8631369415132784 -0.096083472589001503 2.4586950507151641 0.55818683388842538 0.54114630264117303 -0.71568415984318368 1.2725182928595447 -0.71584648564668052 -0.36039560994116776 -0.80510835929246471 -0.13409061569987249 0.33965939157018249 2.0357888096695191
leaf_weight=317.5 24 137 86.5 21 32 209 35 75 99 24 20 78.5 39 20 51.5 34 69.5 32 187 22 29 25 48 24 21 72.5 443 64.5 21.5 21
leaf_count=355 24 137 100 21 40 227 35 76 99 24 30 81 39 20 52 34 80 32 187 22 29 25 48 24 21 75 484 79 24 23
internal_value=6.65971e-07 0.92053 -0.404921 0.442916 -0.537206 -0.160562 2.4185 -0.690641 0.839262 1.17681 0.64621 0.463711 0.994468 -0.0376108 0.449715 2.07251 0.300458 1.87289 -0.212579 1.56506 1.24276 -0.797176 -0.285262 0.492464 0.180437 -0.067026 -0.842473 -0.719826 0.643333 1.17776
internal_weight=2383 728 1655 552 1470 425.5 176 1044.5 344 207 185 165 183 146.5 71.5 141 216.5 117 208 83 61 898 73 84 60 104.5 825 507.5 112 42.5
internal_count=2547 728 1819 552 1608 469 176 1139 344 207 211 181 183 148 72 141 242 117 208 83 61 991 73 84 60 115 918 563 127 47
is_linear=0
shrinkage=0.0145222


Tree=14
num_leaves=31
num_cat=0
split_feature=21 17 11 9 21 17 11 20 15 21 20 4 4 16 9 30 29 30 23 25 6 12 28 31 13 1 15 5 4 16
split_gain=4.09037e+06 2.3985e+06 1.05973e+06 663871 391203 431400 390836 334631 246433 234580 306938 167907 298156 154006 153838 152973 136144 137024 134467 126117 125621 124620 116713 115085 113078 95888.4 119577 95391.6 95088.5 92236.7
threshold=19.500000000000004 3.5532042722417256 0.23377158244891491 0.19767245170675599 7.5000000000000009 4.4236888619370154 0.24426496895717142 1.0000000180025095e-35 4.4735690597231201 7.5000000000000009 1.0000000180025095e-35 3.0315048265526521 3.4578775987309007 109.35732172673812 0.27500351307502652 0.44716017677974201 32.32500000000001 0.47839423846359036 4.2150000000000007 31.150000000000002 8.3423475258918316 0.27546039995480737 19.295500000000004 -0.0039830580923257497 0.7690015586320712 222.50000000000003 3.5418754135735484 1.3483450290025558 3.8128286072552089 87.457360754016946
decision_type=2 2 2 2 2 2 2 2 2 2 2 2 2 2 2 2 8 2 2 10 2 2 10 10 2 2 2 2 2 2
left_child=2 6 4 13 7 20 19 25 11 10 -4 -5 15 -3 -9 -13 -14 22 -19 -2 27 -21 28 -24 -23 -1 -27 -6 -18 -22
right_child=1 3 9 8 5 -7 -8 14 -10 -11 -12 12 16 -15 -16 -17 17 18 -20 21 29 24 23 -25 -26 26 -28 -29 -30 -31
leaf_value=-0.83023816982781384 3.0013762783752078 0.16409655380861682 -0.12445361690403824 0.1375660222605937 0.27598212670973077 -0.62885759528185514 3.756941455351785 -0.3478953840444664 0.14356407525703846 2.188171002278664 1.1246192121913012 3.1242815496829577 1.975307502682381 -0.5970512388398842 0.67539880914304196 1.3876638723024188 0.91120609860602808 0.68860587057013345 2.3132418173355642 2.5862098970912544 1.1877201448113419 1.86424086764165 1.851938513355349 0.33157409807218891 0.64976465364721336 0.53328780894186512 -0.70529094037587559 -0.62889213285793544 -0.3151689397875605 0.3203343727142543
leaf_weight=825 24 131 88 34 65 209 35 102 77 18.5 78.5 23 24 98 44.5 20 20 22 21 34 40.5 61 21 21 22 25 48 39.5 40 71.5
leaf_count=918 24 131 103 34 73 227 35 103 77 27 81 23 24 98 45 20 20 22 21 34 49 61 21 21 22 25 48 42 40 78
internal_value=7.03859e-07 0.907162 -0.399041 0.436484 -0.529405 -0.15823 2.38338 -0.680611 0.860537 0.636826 0.46445 1.08496 1.23689 -0.161635 -0.0370645 2.31657 0.96218 0.794485 1.48205 2.04241 0.296095 1.84569 0.504627 1.09177 1.54234 -0.785599 -0.28112 -0.0660527 0.0936257 0.63399
internal_weight=2383 728 1655 552 1470 425.5 176 1044.5 323 185 166.5 246 212 229 146.5 43 169 145 43 141 216.5 117 102 42 83 898 73 104.5 60 112
internal_count=2547 728 1819 552 1608 469 176 1139 323 211 184 246 212 229 148 43 169 145 43 141 242 117 102 42 83 991 73 115 60 127
is_linear=0
shrinkage=0.0145222


Tree=15
num_leaves=31
num_cat=0
split_feature=21 17 11 23 21 17 11 22 11 19 20 1 25 26 28 25 6 12 1 6 13 12 9 31 4 28 17 8 34 23
split_gain=3.97243e+06 2.32935e+06 1.02918e+06 647348 379923 418961 379567 326293 266678 228331 307731 213808 163010 148893 127092 122481 121999 121027 116061 114895 109818 107993 99363.4 93060.7 92239.1 132923 90879.7 146629 140083 90873.1
threshold=19.500000000000004 3.5532042722417256 0.23377158244891491 4.5600000000000014 7.5000000000000009 4.4236888619370154 0.24426496895717142 33.500000000000007 0.13399047985912391 1.0000000180025095e-35 1.0000000180025095e-35 592.50000000000011 33.650000000000013 86.550000000000011 12.737300000000003 31.150000000000002 8.3423475258918316 0.27546039995480737 528.50000000000011 7.6246872549385722 0.7690015586320712 0.27872479326853333 0.22098412895482858 0.028911364049259404 3.8240044247787615 20.127700000000004 3.9696286735849777 1.0321000374672165 0.51083122459934061 4.3650000000000011
decision_type=2 2 2 2 2 2 2 2 2 2 2 2 10 10 10 10 2 2 2 2 2 2 2 8 2 10 2 2 2 2
left_child=2 6 4 8 7 16 15 22 29 10 -4 12 -10 -9 -14 -2 23 -17 24 21 -19 -5 -1 -6 -16 -26 27 -18 -28 -3
right_child=1 3 9 19 5 -7 -8 13 11 -11 -12 -13 14 -15 18 17 26 20 -20 -21 -22 -23 -24 -25 25 -27 28 -29 -30 -31
leaf_value=-0.93229212730093591 2.9577903727815391 0.09232978507608984 -0.14750025045501167 0.30454706038091162 0.58720783206757687 -0.6197252261742433 3.7023831027642102 1.1237420519241736 1.589536637372629 2.092961480424846 1.1082873666377555 2.3020909187447138 1.4890558129736848 -0.20080381678668779 -0.56999663535030676 2.5486528697414381 1.1133565748210037 1.8371681703660181 1.3035425741781814 0.24987912421871741 0.64032880079048105 -0.68447122222681345 -0.62932670120434875 -0.35300721755860903 -0.26100913637039347 1.3747810150557389 0.32978207699465428 -0.24661114611178356 1.997374627846789 0.93470901709952281
leaf_weight=376.5 24 100 86.5 30 32 209 35 25 58 20 78.5 29 29 63 27 34 28 61 22 74 22 104 580 72.5 22 20 21.5 41.5 21 37
leaf_count=416 24 100 100 30 40 227 35 25 58 30 81 29 29 63 27 34 33 61 22 74 22 104 635 75 22 20 24 47 23 37
internal_value=7.52981e-07 0.893988 -0.393246 0.430145 -0.521717 -0.155932 2.34876 -0.670727 0.816854 0.627578 0.449951 1.1458 0.957408 0.175491 0.651875 2.01275 0.291795 1.81889 0.385077 -0.209411 1.51994 -0.463049 -0.748581 -0.0650935 0.0922271 0.517944 0.624783 0.301292 1.15378 0.319836
internal_weight=2383 728 1655 552 1470 425.5 176 1044.5 344 185 165 207 178 88 120 141 216.5 117 91 208 83 134 956.5 104.5 69 42 112 69.5 42.5 137
internal_count=2547 728 1819 552 1608 469 176 1139 344 211 181 207 178 88 120 141 242 117 91 208 83 134 1051 115 69 42 127 80 47 137
is_linear=0
shrinkage=0.0145222


Tree=16
num_leaves=31
num_cat=0
split_feature=21 11 11 1 6 9 21 9 20 26 21 20 18 29 16 27 9 13 26 13 30 11 12 4 8 28 8 31 13 30
split_gain=3.85789e+06 2.13678e+06 999503 538289 516257 514952 368968 330723 317765 257262 222035 289762 198121 158590 152523 152116 148649 147712 128025 126629 115476 161478 141957 115448 114114 120251 112142 108573 104639 102945
threshold=19.500000000000004 0.17210625558238776 0.23377158244891491 598.00000000000011 9.4752527012896497 0.19767245170675599 7.5000000000000009 0.23679853607528753 1.0000000180025095e-35 86.750000000000014 7.5000000000000009 1.0000000180025095e-35 110.17037452651034 32.875000000000007 109.35732172673812 0.33850000000000008 0.25511321769262946 0.74618555330252978 86.450000000000017 0.80141456746078077 0.46679636835278865 0.22175293138139177 0.28006024096385546 4.95055012224939 1.4602492102492104 20.534050000000004 1.0276150126339638 0.039730823177677059 0.77936436276080356 0.41373694260361676
decision_type=2 2 2 2 2 2 2 2 2 10 2 2 2 8 2 2 2 2 10 2 2 2 2 2 2 10 2 8 2 2
left_child=2 5 6 13 -5 14 8 15 -1 -7 11 -4 17 28 -2 29 -10 23 -18 26 21 -15 -22 -11 25 -19 -9 -28 -3 -8
right_child=1 3 10 4 -6 9 7 19 16 12 -12 -13 -14 20 -16 -17 18 24 -20 -21 22 -23 -24 -25 -26 -27 27 -29 -30 -31
leaf_value=-0.76329522211609346 0.16850974962546147 3.0290790295493002 -0.12142861009972439 1.5043067917984472 4.3280222893979188 2.1013520544488036 -0.6945374433462036 1.1265973898290631 -0.48553039024863692 1.4055193912845279 2.1277594744755914 1.0921926694306439 -0.33166077368530111 0.4770679554838016 -0.58532698190350241 -0.72532698564081699 1.4259802929970742 1.0083415658737109 0.056956919696820645 1.7210444133619167 2.8337495596038851 2.0139358484614682 1.3151709652006174 0.20715447577411958 -0.58424643168494128 -0.30985112867711423 0.85754022283146369 -0.54836855080949942 1.6253402244171751 0.0959390439658665
leaf_weight=898 134 24 88 22 36 28 46 26 75 88 18.5 78.5 38 46 98 143.5 20 54 51.5 17.5 20 21 37 21 20 20 18 32.5 21 142
leaf_count=991 134 24 103 22 36 28 50 31 76 88 27 81 38 46 98 157 20 54 52 21 20 21 37 21 20 20 23 34 21 153
internal_value=7.92675e-07 0.881006 -0.387535 2.04984 3.25697 0.351414 -0.51414 -0.153668 -0.660987 0.783792 0.618464 0.45076 0.630712 1.63555 -0.149922 -0.369261 -0.0338671 0.810861 0.439906 0.606643 1.36755 0.958781 1.84802 1.17464 0.389025 0.652073 0.351708 -0.04725 2.37402 -0.0974764
internal_weight=2383 728 1655 227 58 501 1470 425.5 1044.5 269 185 166.5 241 169 232 331.5 146.5 203 71.5 94 124 67 57 109 94 74 76.5 50.5 45 188
internal_count=2547 728 1819 227 58 501 1608 469 1139 269 211 184 241 169 232 360 148 203 72 109 124 67 57 109 94 74 88 57 45 203
is_linear=0
shrinkage=0.0145222


Tree=17
num_leaves=31
num_cat=0
split_feature=21 11 11 1 6 9 21 11 22 26 19 22 18 8 5 8 16 9 13 28 31 30 6 4 8 28 25 9 13 9
split_gain=3.74666e+06 2.07517e+06 970684 522768 501372 500104 358330 322399 309356 249844 216304 241648 192408 179057 164959 174830 148125 145144 143453 125202 122779 113217 115368 112119 110823 116784 108389 96098 96041 88329.2
threshold=19.500000000000004 0.17210625558238776 0.23377158244891491 598.00000000000011 9.4752527012896497 0.19767245170675599 7.5000000000000009 0.12842251811658867 33.500000000000007 86.750000000000014 1.0000000180025095e-35 40.500000000000007 110.17037452651034 1.0276150126339638 1.1208543817263343 1.2984055501460567 109.35732172673812 0.27500351307502652 0.74618555330252978 19.143300000000004 0.038311959850200354 0.53665426484773338 5.4977876106194703 4.95055012224939 1.4602492102492104 20.534050000000004 30.050000000000004 0.22098412895482858 0.77997214484679678 0.32746117630524912
decision_type=2 2 2 2 2 2 2 2 2 10 2 2 2 2 2 2 2 2 2 8 8 2 2 2 2 10 10 2 2 2
left_child=2 5 6 14 -5 16 8 21 27 -7 11 29 18 19 28 -16 -2 -10 23 -9 -13 22 -8 -11 25 -20 -24 -1 -3 -4
right_child=1 3 10 4 -6 9 7 13 17 12 -12 20 -14 -15 15 -17 -18 -19 24 -21 -22 -23 26 -25 -26 -27 -28 -29 -30 -31
leaf_value=-0.90786136337661039 0.16606262949074355 2.6666927530225277 -0.39475701212347231 1.4824613295147013 4.2651704918771474 2.0708362435821743 -1.5417042352697075 1.8604773452715122 -0.24091328247547758 1.3851082548756479 2.0357513252464265 0.6656454017981257 -0.32684438990004039 0.038839456208873593 1.6270678386046642 0.26101716164996441 -0.57682679137179749 1.0138046933240386 0.99369833846050948 0.3895689187047745 2.1922153232012249 0.34606052464175768 0.61556361244131619 0.20414617670475385 -0.57576203972199669 -0.30535150087526397 -0.58057605756470343 -0.60991582347042939 1.6420932615474078 0.41240915172027776
leaf_weight=376.5 134 35 47 22 36 28 24 23 59 88 20 25 38 120.5 62 29 98 29 54 26 20 31 17.5 21 20 20 183.5 580 43 73
leaf_count=416 134 35 52 22 36 28 25 26 59 88 30 25 38 138 62 29 98 29 54 31 20 35 19 21 20 20 195 635 43 84
internal_value=8.3222e-07 0.868212 -0.381907 2.02007 3.20968 0.346311 -0.506674 -0.151436 -0.651388 0.77241 0.609483 0.436598 0.621553 0.339827 1.6118 1.19174 -0.147745 0.172576 0.799086 1.08 1.34413 -0.476706 -0.590065 1.15758 0.383376 0.642604 -0.476434 -0.727194 2.10186 0.0962688
internal_weight=2383 728 1655 227 58 501 1470 425.5 1044.5 269 185 165 241 169.5 169 91 232 88 203 49 45 256 225 109 94 74 201 956.5 78 120
internal_count=2547 728 1819 227 58 501 1608 469 1139 269 211 181 241 195 169 91 232 88 203 57 45 274 239 109 94 74 214 1051 78 136
is_linear=0
shrinkage=0.0145222


Tree=18
num_leaves=31
num_cat=0
split_feature=21 17 11 23 11 21 17 20 11 2 21 20 29 9 26 4 5 6 9 0 27 13 11 25 31 1 15 5 23 26
split_gain=3.63863e+06 2.15205e+06 942696 596904 354978 347998 390538 301754 245198 227623 210034 276742 168431 141690 137209 131237 240560 113976 112545 97062.3 94588 103987 103485 93206.4 116744 93162 115698 90169.7 90143.6 110678
threshold=19.500000000000004 3.5532042722417256 0.23377158244891491 4.5600000000000014 0.26236644645624335 7.5000000000000009 4.4236888619370154 1.0000000180025095e-35 0.13399047985912391 817.50000000000011 7.5000000000000009 1.0000000180025095e-35 34.525000000000006 0.24980376766091053 86.450000000000017 2.8886304909560727 1.1233178444270113 8.3423475258918316 0.1444266346089628 30.500000000000004 0.32750000000000007 0.69608173444294719 0.091295327440014368 38.750000000000007 -0.007069691243518199 222.50000000000003 3.5418754135735484 1.3483450290025558 4.3650000000000011 88.350000000000009
decision_type=2 2 2 2 2 2 2 2 2 2 2 2 10 2 10 2 2 2 2 2 2 2 2 10 10 2 2 2 2 10
left_child=2 4 5 8 15 7 17 25 28 12 11 -4 -10 -9 -15 -2 19 27 -5 -17 -20 -22 -23 24 -14 -1 -27 -7 29 -3
right_child=1 3 10 18 -6 6 -8 13 9 -11 -12 -13 23 14 -16 16 -18 -19 20 -21 21 22 -24 -25 -26 26 -28 -29 -30 -31
leaf_value=-0.78562535580427417 1.2738532074627333 0.3942077512860504 -0.12166190788030021 -1.2123925749180395 3.9360454569363297 0.27062380313819623 -0.59702150319459368 -0.52959052063164969 1.3279414615890877 2.4262745845333331 2.0685716139041359 1.0643782192318174 0.60792716958579485 1.3873051044776041 0.021937294942842099 2.4417223377469406 1.7593345431644347 0.60488934187825572 -1.0094357836344221 3.8725620648606638 -0.47097993372373798 -0.41710972034026611 0.57659052743378059 1.2086778935234801 -0.73508746044364426 0.55671856828118971 -0.6616044138287428 -0.60913482487065729 0.91691799880360814 -0.66005852753056504
leaf_weight=825 39 70 88 21 23 65 209 66 99 24 18.5 78.5 39 21 59.5 20 74 112 21 20 58 31 77 24 21 25 48 39.5 37 30
leaf_count=918 39 70 103 21 23 73 227 67 99 24 27 81 39 21 60 20 74 127 21 20 58 31 77 24 21 25 48 42 37 30
internal_value=8.64953e-07 0.855603 -0.376361 0.409762 2.25392 -0.499316 -0.149237 -0.641928 0.781098 1.09652 0.600632 0.437523 0.922117 -0.0308121 0.378125 2.00104 2.24981 0.283036 -0.20437 3.15717 -0.0911677 0.0250007 0.291361 0.443819 0.13787 -0.741626 -0.24437 -0.0619175 0.304517 0.0779266
internal_weight=2383 728 1655 552 176 1470 425.5 1044.5 344 207 185 166.5 183 146.5 80.5 153 114 216.5 208 40 187 166 108 84 60 898 73 104.5 137 100
internal_count=2547 728 1819 552 176 1608 469 1139 344 207 211 184 183 148 81 153 114 242 208 40 187 166 108 84 60 991 73 115 137 100
is_linear=0
shrinkage=0.0145222


Tree=19
num_leaves=31
num_cat=0
split_feature=21 17 11 23 11 21 17 22 11 2 19 20 29 26 4 5 6 9 0 34 9 21 31 2 24 17 8 34 7 16
split_gain=3.53372e+06 2.09e+06 915515 579694 344743 337964 379278 293678 238128 221060 204916 277608 163575 149323 127453 233624 110690 109300 94263.7 92927 91292.5 108350 100134 92363.5 89977.6 89543.6 136838 133603 87713 86749.2
threshold=19.500000000000004 3.5532042722417256 0.23377158244891491 4.5600000000000014 0.26236644645624335 7.5000000000000009 4.4236888619370154 30.500000000000004 0.13399047985912391 817.50000000000011 1.0000000180025095e-35 1.0000000180025095e-35 34.525000000000006 87.15000000000002 2.8886304909560727 1.1233178444270113 8.3423475258918316 0.1444266346089628 30.500000000000004 0.48916877540065951 0.21956001912960307 2.5000000000000004 -0.10465939956652494 280.50000000000006 7.7500000000000009 3.9696286735849777 1.0321000374672165 0.51083122459934061 3.3634273075167651 84.148611021837809
decision_type=2 2 2 2 2 2 2 2 2 2 2 2 10 10 2 2 2 2 2 2 2 2 10 2 10 2 2 2 2 2
left_child=2 4 5 8 14 7 16 20 28 12 11 -4 -10 19 -2 18 24 -5 -16 -9 -1 23 -23 -22 -7 26 -18 -27 -3 -14
right_child=1 3 10 17 -6 6 -8 13 9 -11 -12 -13 29 -15 15 -17 25 -19 -20 -21 21 22 -24 -25 -26 27 -28 -29 -30 -31
leaf_value=-0.89472334925267016 1.2553542479161739 0.059956642238651936 -0.14381951745816557 -1.194786288094706 3.8788864629830688 0.19050178173582247 -0.58835146585497167 0.055282913922338375 1.3086569243648081 2.3910402958974184 1.9801244364054629 1.0489212036902302 -0.39745471140353994 -0.35727996794246625 2.4062638451576026 1.733785278702076 1.0594843560995464 -0.089843757057406895 3.8163250221761622 1.4230115874885902 -0.7679629437405916 0.26957683531906418 -0.85649666609640984 -0.25267524508577094 -0.78296712895246956 0.31648422970880191 -0.25429334783573343 1.9450517601387654 0.86236512580727553 0.69825888581905471
leaf_weight=359.5 39 96 86.5 21 23 77.5 209 20 99 24 20 78.5 20 60 20 74 28 187 20 22 417.5 52 24.5 89 27 21.5 41.5 21 41 64
leaf_count=398 39 96 100 21 23 85 227 20 99 24 30 81 20 60 20 74 33 187 20 22 459 60 31 89 30 24 47 23 41 64
internal_value=8.97483e-07 0.843178 -0.370895 0.403812 2.22119 -0.492065 -0.147069 -0.632606 0.769755 1.08059 0.591909 0.423637 0.908725 0.107603 1.97198 2.21714 0.278926 -0.201402 3.11132 0.771718 -0.712714 -0.600479 -0.0910634 -0.677419 -0.0610183 0.596105 0.275001 1.1212 0.300095 0.437374
internal_weight=2383 728 1655 552 176 1470 425.5 1044.5 344 207 185 165 183 102 153 114 216.5 208 40 42 942.5 583 76.5 506.5 104.5 112 69.5 42.5 137 84
internal_count=2547 728 1819 552 176 1608 469 1139 344 207 211 181 183 102 153 114 242 208 40 42 1037 639 91 548 115 127 80 47 137 84
is_linear=0
shrinkage=0.0145222


Tree=20
num_leaves=31
num_cat=0
split_feature=21 17 9 9 21 17 11 26 20 21 22 9 1 18 25 24 23 35 12 12 6 15 25 15 25 1 31 25 31 11
split_gain=3.43183e+06 2.02974e+06 893412 563422 358972 366116 334803 228758 224885 294881 213485 190564 151121 127653 124661 165890 118792 177162 115396 114320 112673 111709 102754 103002 111271 100952 100871 89297.1 88597.9 83733
threshold=19.500000000000004 3.5532042722417256 0.2966921815199563 0.19767245170675599 7.5000000000000009 4.4236888619370154 0.26236644645624335 86.550000000000011 1.0000000180025095e-35 3.5000000000000004 45.500000000000007 0.2533558558558559 493.50000000000006 79.790844518935529 31.150000000000002 7.2500000000000009 4.5600000000000014 2.5000000000000004 0.27546039995480737 0.2931426332288401 8.3423475258918316 3.198568013432435 37.650000000000013 4.5863326121525629 38.850000000000001 195.50000000000003 -0.0025084709723200492 33.250000000000007 0.028911364049259404 0.11587384913584232
decision_type=2 2 2 2 2 2 2 10 2 2 2 2 2 2 10 10 2 2 2 2 2 2 10 2 10 2 10 10 8 2
left_child=2 6 4 16 10 20 14 -5 9 -4 25 22 -13 -11 -2 18 17 19 -16 -3 28 -10 29 24 -24 -1 -20 -7 -6 -9
right_child=1 3 8 7 5 27 -8 11 21 13 -12 12 -14 -15 15 -17 -18 -19 26 -21 -22 -23 23 -25 -26 -27 -28 -29 -30 -31
leaf_value=-0.7875151164689802 2.8595088737951597 0.062252148677460289 -0.26035648533197708 1.9963902706683112 0.57633615179058129 0.0040275873749550939 3.8225574489285554 -0.17012831580396309 1.2885476773204518 1.8607910093636335 0.41804875907394989 0.70768706547644444 2.144617811152254 0.16301814363104244 2.2028615955007442 2.7206162855445415 -0.42165507347349435 -0.78686279180848229 1.4988473771798254 1.2715951105288346 0.61586493289193578 0.2247123405986835 -0.45371732150657335 -0.77984555718978099 0.93562374973547358 -0.42681198957342492 0.26747230579345466 -0.73900177589737581 -0.34105765238603641 0.81512911706001312
leaf_weight=729 26 34 125 30 32 43 23 21 68 23.5 37 33 29 15.499999999999998 31 29 138 25 47 32 103.5 30 20 23 31 211 20 165 72.5 136
leaf_count=810 26 34 148 30 40 46 23 21 70 33 37 33 29 21 31 29 138 25 47 32 118 31 20 23 31 211 20 179 75 136
internal_value=9.26345e-07 0.830934 -0.365509 0.397948 -0.511839 -0.154577 2.18893 0.788605 0.412498 0.0836061 -0.663959 0.664938 1.37981 1.18604 1.94335 1.75578 -0.153067 0.254243 1.47025 0.648604 0.276242 0.962886 0.473066 0.0269382 0.390785 -0.706549 1.13128 -0.585395 -0.0601322 0.683343
internal_weight=2383 728 1655 552 1393 416 176 323 262 164 977 293 62 39 153 127 229 91 98 66 208 98 231 74 51 940 67 208 104.5 157
internal_count=2547 728 1819 552 1516 458 176 323 303 202 1058 293 62 54 153 127 229 91 98 66 233 101 231 74 51 1021 67 225 115 157
is_linear=0
shrinkage=0.0145222


Tree=21
num_leaves=31
num_cat=0
split_feature=21 17 9 9 21 17 11 26 20 21 22 16 4 4 5 16 28 18 25 4 31 12 13 27 17 15 1 25 1 11
split_gain=3.33288e+06 1.97122e+06 867652 547177 348622 355560 325804 222162 218400 286378 207330 197584 212984 206162 144972 135438 124241 123972 112802 112307 111010 110863 105770 101636 150373 100022 98041.2 86722.4 85731.7 83283
threshold=19.500000000000004 3.5532042722417256 0.2966921815199563 0.19767245170675599 7.5000000000000009 4.4236888619370154 0.24426496895717142 86.550000000000011 1.0000000180025095e-35 3.5000000000000004 45.500000000000007 99.152979123509638 3.0315048265526521 3.4969061020613568 1.2005747126436785 109.35732172673812 17.377600000000005 79.790844518935529 31.150000000000002 4.3567915521481275 0.061514029750440707 0.27546039995480737 0.7690015586320712 0.29550000000000004 3.773238628704906 3.198568013432435 195.50000000000003 33.250000000000007 493.50000000000006 0.11334682860998646
decision_type=2 2 2 2 2 2 2 10 2 2 2 2 2 2 2 2 8 2 10 2 8 2 2 2 2 2 2 10 2 2
left_child=2 6 4 15 10 23 18 -5 9 -4 26 12 -9 -14 -13 29 -15 -11 -2 28 25 -20 -23 24 -6 -10 -1 -7 -18 -3
right_child=1 3 8 7 5 27 -8 11 20 17 -12 14 13 16 -16 -17 19 -19 21 -21 -22 22 -24 -25 -26 -27 -28 -29 -30 -31
leaf_value=-0.77607868143164582 2.7527649813233901 -0.10133651868748758 -0.25657556645535595 1.967398698121039 0.18044108506541215 0.0039690979939391727 3.4112384657898405 -0.21836393678958818 1.0094305531822818 1.8337686015431987 0.41197785246595509 1.2077174369444792 2.157759839203838 0.0012062916572066411 -0.055498744996703354 -0.55916810131851979 0.11206756777226803 0.1606508328694746 2.3582396287825675 1.8825571023586147 1.5833409962221798 1.6849994848655527 0.51042667250549201 0.11923671580658195 2.0220380191038236 -0.21238634277404836 -0.42061375846353599 -0.72826987461579695 1.2527828118540021 0.67843738938286469
leaf_weight=729 24 88 125 30 22.5 43 35 27 39.5 23.5 37 24 35 26 95 98 24 15.499999999999998 34 29 36.5 61 22 169.5 15.999999999999998 22 211 165 33 43
leaf_count=810 24 88 148 30 25 46 35 27 41 33 37 24 35 26 95 98 24 21 34 29 37 61 22 187 21 23 211 179 33 43
internal_value=9.5799e-07 0.818867 -0.360201 0.392169 -0.504406 -0.152332 2.15714 0.777152 0.406508 0.082392 -0.654317 0.655282 0.967151 1.1849 0.19927 -0.150844 0.880873 1.16882 1.84584 1.14682 0.948903 1.65979 1.37367 0.27223 0.945792 0.572359 -0.696288 -0.576894 0.772485 0.154621
internal_weight=2383 728 1655 552 1393 416 176 323 262 164 977 293 174 147 119 229 112 39 141 86 98 117 83 208 38.5 61.5 940 208 57 131
internal_count=2547 728 1819 552 1516 458 176 323 303 202 1058 293 174 147 119 229 112 54 141 86 101 117 83 233 46 64 1021 225 57 131
is_linear=0
shrinkage=0.0145222


Tree=22
num_leaves=31
num_cat=0
split_feature=21 17 11 23 11 21 17 20 11 2 19 20 25 28 9 26 4 5 9 6 27 13 11 21 23 26 17 8 34 24
split_gain=3.23678e+06 1.91438e+06 845330 534560 317835 309877 346820 274916 220881 211368 190720 253174 157837 139091 132973 128699 126425 222327 104502 103620 92740.9 99505.8 97643.4 89820.6 87168.4 107303 86887.6 131636 129348 86834.4
threshold=19.500000000000004 3.5532042722417256 0.23377158244891491 4.5600000000000014 0.26236644645624335 7.5000000000000009 4.4236888619370154 1.0000000180025095e-35 0.13399047985912391 817.50000000000011 1.0000000180025095e-35 1.0000000180025095e-35 33.650000000000013 12.737300000000003 0.24980376766091053 86.450000000000017 2.8886304909560727 1.1233178444270113 0.1444266346089628 8.3423475258918316 0.32750000000000007 0.69608173444294719 0.091295327440014368 30.500000000000004 4.3650000000000011 88.350000000000009 3.9696286735849777 1.0321000374672165 0.51083122459934061 7.7500000000000009
decision_type=2 2 2 2 2 2 2 2 2 2 2 2 10 10 2 10 2 2 2 2 2 2 2 2 2 10 2 2 2 10
left_child=2 4 5 8 16 7 19 -1 24 12 11 -4 -10 -14 -9 -16 -2 23 -5 29 -20 -22 -23 -18 25 -3 27 -21 -28 -7
right_child=1 3 10 18 -6 6 -8 14 9 -11 -12 -13 13 -15 15 -17 17 -19 20 26 21 22 -24 -25 -26 -27 28 -29 -30 -31
leaf_value=-0.70113813096921895 1.1728064737001163 0.37415237753170905 -0.13405439904869604 -1.1660416201642647 3.7175085661665133 0.18448531321505435 -0.56303164619800417 -0.50586080508134268 1.4723444485976989 2.3186480562513765 1.9094596219138045 1.0049877189427263 1.4457100090376909 0.2937980306054167 1.3508736123220748 0.028521506497560481 2.3147575742702484 1.6591781159438066 -0.99487812656332164 1.0263109398335082 -0.45576693707687937 -0.39821715544605385 0.56702721239277909 3.691183304855548 0.88775997796439177 -0.66391633194947519 0.29864270728206871 -0.26225228347554758 1.9010630763059031 -0.77182954964525319
leaf_weight=898 39 70 86.5 21 23 77.5 209 66 61 24 20 78.5 29 93 21 59.5 20 74 21 28 58 31 77 20 37 30 21.5 41.5 21 27
leaf_count=991 39 70 100 21 23 85 227 67 61 24 30 81 29 93 21 60 20 74 21 33 58 31 77 20 37 30 24 47 23 30
internal_value=1.00024e-06 0.806975 -0.35497 0.386474 2.12582 -0.471402 -0.141054 -0.605977 0.737883 1.03725 0.570194 0.407855 0.869195 0.567617 -0.0226697 0.373487 1.88654 2.1307 -0.194703 0.266306 -0.0856202 0.0294082 0.289966 3.003 0.28555 0.0627305 0.57319 0.256884 1.09044 -0.0626026
internal_weight=2383 728 1655 552 176 1470 425.5 1044.5 344 207 185 165 183 122 146.5 80.5 153 114 208 216.5 187 166 108 40 137 100 112 69.5 42.5 104.5
internal_count=2547 728 1819 552 176 1608 469 1139 344 207 211 181 183 122 148 81 153 114 208 242 187 166 108 40 137 100 127 80 47 115
is_linear=0
shrinkage=0.0145222


Tree=23
num_leaves=31
num_cat=0
split_feature=21 17 9 9 21 17 11 26 20 21 22 6 26 31 16 29 4 5 18 31 6 15 1 32 28 5 10 11 33 29
split_gain=3.14345e+06 1.85918e+06 821950 519283 329541 335599 308671 212996 205304 270862 197180 152577 192674 176915 130040 125347 122780 215917 118282 107904 106025 96722.3 94970.1 92445.7 88937.3 86260.9 82881 111716 82878.6 105836
threshold=19.500000000000004 3.5532042722417256 0.2966921815199563 0.19767245170675599 7.5000000000000009 4.4236888619370154 0.26236644645624335 88.750000000000014 1.0000000180025095e-35 3.5000000000000004 45.500000000000007 9.234550084889646 86.550000000000011 -0.051221447224767395 109.35732172673812 40.116666666666674 2.8886304909560727 1.1233178444270113 79.790844518935529 0.061514029750440707 8.3423475258918316 3.198568013432435 195.50000000000003 -0.15347498702010592 26.626950000000004 1.3483450290025558 0.1197843928755906 0.061381475667189905 -0.032554728546409693 42.625000000000007
decision_type=2 2 2 2 2 2 2 10 2 2 2 2 10 10 2 8 2 2 2 8 2 2 2 2 8 2 2 2 2 8
left_child=2 6 4 14 10 20 16 11 9 -4 22 12 -5 -13 -3 -9 -2 24 -11 21 25 -10 -1 -17 -18 -6 27 -7 -22 -30
right_child=1 3 8 7 5 26 -8 15 19 18 -12 13 -14 -15 -16 23 17 -19 -20 -21 28 -23 -24 -25 -26 -27 -28 -29 29 -31
leaf_value=-0.75538348769464558 1.1557749263220907 0.15118691643133778 -0.24747689148968038 2.0755521333298605 0.2635601999570521 -1.4321761115256453 3.6635229324184926 -0.2308134943096542 0.98087256430648384 1.7882765398525369 0.40394416986313553 0.90154170212400764 0.60264440869443281 2.6471205506503379 -0.54823447423814131 0.14609186597432225 2.2745420109793324 1.6350833413145394 0.15400427069826006 1.5478089173169001 1.2606917779316351 -0.22062012257809999 -0.40553033134472644 1.1950637394101391 3.6441810169825093 -0.59691871833307641 0.16716640556407231 -0.50230517493795568 0.90100149375543648 -0.19043907074269825
leaf_weight=729 39 131 125 22 65 33.5 23 55 39.5 23.5 37 25 126 24 98 34 20 74 15.499999999999998 36.5 28.5 22 211 37 20 39.5 28.5 146 36.5 38.5
leaf_count=810 39 131 148 22 73 35 23 55 41 33 37 25 126 24 98 34 20 74 21 37 33 23 211 37 20 42 32 158 40 45
internal_value=1.02482e-06 0.795256 -0.349815 0.380861 -0.490171 -0.147867 2.09495 0.755904 0.396428 0.08218 -0.635922 1.05415 0.821595 1.75653 -0.148129 0.289603 1.85914 2.09976 1.13877 0.92231 0.264606 0.551072 -0.676853 0.692742 2.95939 -0.0616935 -0.56034 -0.675849 0.594057 0.34073
internal_weight=2383 728 1655 552 1393 416 176 323 262 164 977 197 148 49 229 126 153 114 39 98 208 61.5 940 71 40 104.5 208 179.5 103.5 75
internal_count=2547 728 1819 552 1516 458 176 323 303 202 1058 197 148 49 229 126 153 114 54 101 233 64 1021 71 40 115 225 193 118 85
is_linear=0
shrinkage=0.0145222


Tree=24
num_leaves=31
num_cat=0
split_feature=21 17 11 23 11 21 17 22 11 2 19 20 25 26 28 4 5 9 6 27 13 7 21 9 21 31 23 26 2 31
split_gain=3.05282e+06 1.80558e+06 800685 508928 299771 292396 326791 262280 210519 204173 181418 238313 150436 140961 134806 119240 209692 100754 97509.6 90224.5 96045.4 94210.9 87231.2 86018.1 104413 96539.7 85362.5 103795 84812.3 84685.7
threshold=19.500000000000004 3.5532042722417256 0.23377158244891491 4.5600000000000014 0.26236644645624335 7.5000000000000009 4.4236888619370154 30.500000000000004 0.13399047985912391 817.50000000000011 1.0000000180025095e-35 1.0000000180025095e-35 33.650000000000013 87.15000000000002 12.737300000000003 2.8886304909560727 1.1233178444270113 0.1444266346089628 8.3423475258918316 0.32750000000000007 0.69608173444294719 3.861904761904762 30.500000000000004 0.21956001912960307 2.5000000000000004 -0.10465939956652494 4.3650000000000011 88.350000000000009 280.50000000000006 0.028911364049259404
decision_type=2 2 2 2 2 2 2 2 2 2 2 2 10 10 10 2 2 2 2 2 2 2 2 2 2 10 2 10 2 8
left_child=2 4 5 8 15 7 18 23 26 12 11 -4 -10 -9 -14 -2 22 -5 29 -19 -21 -22 -17 -1 28 -26 27 -3 -25 -7
right_child=1 3 10 17 -6 6 -8 13 9 -11 -12 -13 14 -15 -16 16 -18 19 -20 20 21 -23 -24 24 25 -27 -28 -29 -30 -31
leaf_value=-0.84115266754559004 1.138990690319664 0.36240493943440877 -0.12842810466764745 -1.1454999855900287 3.6103214920881506 0.56146007416081811 -0.54676753945932999 0.75599904871056622 1.4341408017286656 2.2698730745225921 1.8618655974531733 0.97667842779155423 1.415341013570323 -0.34093244767848752 0.28131104558209979 2.2381672055703281 1.6113384582667172 -0.98147042690082431 0.55596359425625086 -0.44784030280512938 0.52020793105828167 -0.49670317099565514 3.5946045885215261 -0.71782789430248728 0.29864822277156072 -0.80702896216564313 0.87255492519913402 -0.65855220867469533 -0.22405314442609642 -0.33545070143650357
leaf_weight=359.5 39 70 86.5 21 23 32 209 42 61 24 20 78.5 29 60 93 20 74 21 112 58 83 25 20 417.5 52 24.5 37 30 89 72.5
leaf_count=398 39 70 100 21 23 40 227 42 61 24 30 81 29 60 93 20 74 21 127 58 83 25 20 459 60 31 37 30 89 75
internal_value=1.06204e-06 0.783707 -0.344735 0.37533 2.06452 -0.458051 -0.137156 -0.588775 0.718211 1.01047 0.555667 0.397336 0.845302 0.110746 0.550879 1.83214 2.06927 -0.191742 0.258266 -0.0846332 0.028824 0.284811 2.91641 -0.664479 -0.555535 -0.0554596 0.276616 0.0561165 -0.631064 -0.0607976
internal_weight=2383 728 1655 552 176 1470 425.5 1044.5 344 207 185 165 183 102 122 153 114 208 216.5 187 166 108 40 942.5 583 76.5 137 100 506.5 104.5
internal_count=2547 728 1819 552 176 1608 469 1139 344 207 211 181 183 102 122 153 114 208 242 187 166 108 40 1037 639 91 137 100 548 115
is_linear=0
shrinkage=0.0145222


Tree=25
num_leaves=31
num_cat=0
split_feature=21 17 9 23 21 17 11 11 2 20 21 20 25 28 25 24 18 34 12 29 31 6 9 15 27 13 11 24 25 7
split_gain=2.96479e+06 1.75351e+06 779676 494254 311496 316612 291128 204449 199132 194263 255808 172455 138731 137590 118449 159887 112976 108910 108608 107213 104903 100018 97848.8 92993.8 87623 93276.1 92468.8 84150.3 83811.8 83322.3
threshold=19.500000000000004 3.5532042722417256 0.2966921815199563 4.5600000000000014 7.5000000000000009 4.4236888619370154 0.26236644645624335 0.13399047985912391 796.50000000000011 1.0000000180025095e-35 3.5000000000000004 1.0000000180025095e-35 33.650000000000013 12.737300000000003 31.150000000000002 7.2500000000000009 79.790844518935529 0.48549382716049388 0.27546039995480737 32.216666666666676 0.061514029750440707 8.3423475258918316 0.1444266346089628 3.198568013432435 0.32750000000000007 0.69608173444294719 0.091295327440014368 7.7500000000000009 33.250000000000007 3.3634273075167651
decision_type=2 2 2 2 2 2 2 2 2 2 2 2 10 10 10 10 2 2 2 10 8 2 2 2 2 2 2 10 10 2
left_child=2 6 4 7 11 21 14 29 12 10 -4 -1 -9 -14 -2 18 -12 -13 -16 -20 23 27 -5 -11 -24 -26 -27 -6 -7 -3
right_child=1 3 9 22 5 28 -8 8 -10 20 16 17 13 -15 15 -17 -18 -19 19 -21 -22 -23 24 -25 25 26 -28 -29 -30 -31
leaf_value=-0.6927102752232267 2.6985767932559184 0.038548244543518351 -0.2389752256655098 -1.1288651027313057 0.18332447709789249 0.02676991973854596 3.5578925552295044 1.3741009851415007 1.9774627459860774 0.95401263370869005 1.7429685573404519 -0.51510919505156583 1.4248029079311646 0.22240522506219601 2.0531240673562166 2.5699221062638751 0.14577461179556964 0.33757104835666957 1.5858479273490456 0.42386825851744636 1.5153554627066763 0.57698943606164121 -0.967217578347916 -0.22409468547758415 -0.44133670649131362 -0.3890248517320381 0.5502948486825896 -0.75809439614718355 -0.69307620582479013 0.8206156538126762
leaf_weight=850 26 96 125 21 77.5 43 23 57 36 39.5 23.5 68 26 88 31 29 15.499999999999998 59 34 33 36.5 103.5 21 22 58 31 77 27 165 41
leaf_count=930 26 96 148 21 85 46 23 57 36 41 33 68 26 88 31 29 21 60 34 33 37 118 21 23 58 31 77 30 179 41
internal_value=1.08384e-06 0.772326 -0.339729 0.36988 -0.476428 -0.143628 2.03454 0.707781 0.995799 0.387071 0.0813898 -0.618132 0.789129 0.49664 1.80553 1.6227 1.10819 -0.118982 1.34239 1.01353 0.898616 0.257007 -0.188957 0.532577 -0.0834042 0.0284054 0.280675 -0.0599147 -0.544262 0.272599
internal_weight=2383 728 1655 552 1393 416 176 344 207 262 164 977 171 114 153 127 39 127 98 67 98 208 208 61.5 187 166 108 104.5 208 137
internal_count=2547 728 1819 552 1516 458 176 344 207 303 202 1058 171 114 153 127 54 128 98 67 101 233 208 64 187 166 108 115 225 137
is_linear=0
shrinkage=0.0145222


Tree=26
num_leaves=31
num_cat=0
split_feature=21 17 11 9 11 21 17 22 26 16 4 4 19 20 6 23 5 16 28 4 25 12 33 2 17 2 8 29 17 32
split_gain=2.87931e+06 1.70296e+06 758183 481858 284177 275930 308410 248746 200912 181655 205226 193484 172404 224288 142529 138412 135052 123792 117565 112132 106881 103592 102333 94150 88658.8 82813.2 83898.1 81268.8 80531.9 80434.7
threshold=19.500000000000004 3.5532042722417256 0.23377158244891491 0.19767245170675599 0.24426496895717142 7.5000000000000009 4.5542429667314659 30.500000000000004 86.550000000000011 99.152979123509638 3.0315048265526521 3.4969061020613568 1.0000000180025095e-35 1.0000000180025095e-35 8.320261079420801 2.8350000000000004 1.2005747126436785 109.35732172673812 17.377600000000005 4.3567915521481275 31.150000000000002 0.27546039995480737 0.04923076923076921 314.50000000000006 3.5920798407945074 302.50000000000006 0.8388067662298081 44.025000000000006 4.4652861438940805 0.17352927638631899
decision_type=2 2 2 2 2 2 2 2 10 2 2 2 2 2 2 2 2 2 8 2 10 2 2 2 2 2 2 10 2 2
left_child=2 4 5 17 20 7 14 25 -5 10 -10 -12 13 -4 -7 -9 -11 -3 -13 29 -2 -22 -23 -8 -17 -1 -27 -16 -18 -20
right_child=1 3 12 8 -6 6 23 15 9 16 11 18 -14 -15 27 24 28 -19 19 -21 21 22 -24 -25 -26 26 -28 -29 -30 -31
leaf_value=-0.690007221494083 2.5970594755663594 0.14697320271190958 -0.12302285033691818 1.8576743533385331 3.1762386658531638 -0.14456611057051102 -0.29765738325235985 1.1923753473772059 -0.25480086118971396 1.1459761385527421 2.0651408338674431 -0.027565960828174221 1.8147177854732395 0.94907313090110845 0.70021119505034657 0.58730454269026577 0.22808733391975092 -0.53543828495747459 0.31171340430500627 1.8220033032970435 2.2083164225375311 1.5628112323409318 0.40748074689707081 -0.98522910356606286 -0.46218404874082769 0.37010885175636538 -0.5561630087848588 -0.33267094227592353 -0.666516032182628 1.4547872626622775
leaf_weight=852.5 24 131 86.5 30 35 133.5 91 20 27 24 35 26 20 78.5 104 24 63 98 37 29 34 61 22 78 58 32 58 19 32 20
leaf_count=947 24 131 100 30 35 146 106 20 27 24 35 26 30 81 118 24 63 98 37 29 34 61 22 78 58 32 58 21 32 20
internal_value=1.11067e-06 0.761111 -0.334795 0.364508 2.005 -0.445063 -0.133333 -0.572052 0.725783 0.609888 0.908922 1.12267 0.541383 0.387036 0.184022 0.109182 0.172644 -0.145064 0.828138 1.08684 1.71426 1.53316 1.25658 -0.615 -0.155015 -0.645777 -0.226822 0.54066 -0.0732541 0.712799
internal_weight=2383 728 1655 552 176 1470 425.5 1044.5 323 293 174 147 185 165 256.5 102 119 229 112 86 141 117 83 169 82 942.5 90 123 95 57
internal_count=2547 728 1819 552 176 1608 469 1139 323 293 174 147 211 181 285 102 119 229 112 86 141 117 83 184 82 1037 90 139 95 57
is_linear=0
shrinkage=0.0145222


Tree=27
num_leaves=31
num_cat=0
split_feature=1 17 11 16 11 19 17 11 22 19 22 1 16 8 23 9 27 25 31 18 12 8 34 25 12 13 29 16 1 1
split_gain=2.69825e+06 1.68086e+06 751340 499926 283103 256475 299728 248414 239631 173048 194555 169936 235647 159156 143120 141196 137223 133265 115551 109587 113137 109173 108207 107848 106214 102467 99873.2 97086.4 95294.6 92487.9
threshold=328.50000000000006 3.5532042722417256 0.23377158244891491 105.20188122580358 0.24426496895717142 1.0000000180025095e-35 4.8196404567536488 0.11875742280285036 26.500000000000004 1.0000000180025095e-35 40.500000000000007 607.50000000000011 78.391186410523815 1.4411538461538462 2.8350000000000004 0.14749679075738123 0.29350000000000004 32.750000000000007 0.038311959850200354 84.658505995044592 0.2917663476874004 1.8503718199608616 0.58359213250517616 31.150000000000002 0.27546039995480737 0.7690015586320712 42.750000000000007 97.701618341427746 500.50000000000006 360.50000000000006
decision_type=2 2 2 2 2 2 2 2 2 2 2 2 2 2 2 2 2 10 8 2 2 2 2 10 2 2 8 2 2 2
left_child=2 4 5 7 23 8 16 27 -1 10 -4 12 -9 19 -10 -5 26 -8 -12 -14 -21 -19 -18 -2 -25 -26 -7 -3 29 -17
right_child=1 3 9 15 -6 6 17 11 14 -11 18 -13 13 -15 -16 28 22 21 -20 20 -22 -23 -24 24 25 -27 -28 -29 -30 -31
leaf_value=-0.63921522806864228 2.5593450186808662 -0.33918824788589347 0.076044246181771885 -1.3060355211051375 3.1301132084248402 1.8697486567966948 0.58614741942028625 -0.53728702241469639 1.1750597631677797 1.781059050171607 0.5375196638396037 2.1304391510469318 2.1177336986702215 -0.11081535652481388 -0.17294532910084626 0.38127346270534024 -0.092566162422794904 -1.1824734041694422 2.01847101526476 1.363564385488615 0.60525911429562351 -0.23637009729327152 0.84629057862793389 2.1762471856832013 1.5070493056781098 0.33569969615900591 0.26898343236412575 0.66033234042916 0.38128961472669465 -0.51357599314575209
leaf_weight=929 24 57 120 22 35 15.499999999999998 14.999999999999998 25 20 21 25 22 20 26 98 32 211.5 77.5 20 82 84 38.5 29.5 34 63 21 17.5 32 64 102
leaf_count=1001 24 57 136 22 35 18 19 25 20 31 25 22 20 26 98 32 240 87 20 82 84 46 37 34 63 21 24 32 64 102
internal_value=1.13663e-06 0.724587 -0.329557 0.339523 1.96027 -0.440875 -0.13055 0.68208 -0.560915 0.539443 0.381415 0.909524 0.796187 0.953437 0.055533 -0.202339 0.142617 -0.701907 1.19573 1.1022 0.979846 -0.868467 0.0223572 1.67192 1.49142 1.21421 1.02087 0.0201911 -0.0797038 -0.29988
internal_weight=2383 745 1638 568 177 1452 405 348 1047 186 165 259 237 212 118 220 274 131 45 186 166 116 241 142 118 84 33 89 198 134
internal_count=2547 745 1802 568 177 1590 471 348 1119 212 181 259 237 212 118 220 319 152 45 186 166 133 277 142 118 84 42 89 198 134
is_linear=0
shrinkage=0.0145222


Tree=28
num_leaves=31
num_cat=0
split_feature=21 17 9 23 21 17 11 16 8 20 21 22 2 4 12 1 34 18 31 26 6 9 15 1 27 13 7 13 16 24
split_gain=2.71909e+06 1.60564e+06 722975 459049 287442 294321 270058 189264 228493 179855 236632 174320 167810 119645 157149 188145 112034 105655 100030 98580.9 93402.6 92019.5 89367.5 88929.7 85216.5 89207.7 89175 81306.2 96893.7 81265.7
threshold=19.500000000000004 3.5532042722417256 0.2966921815199563 4.5600000000000014 7.5000000000000009 4.4236888619370154 0.26236644645624335 104.50896403703983 0.8337398373983741 1.0000000180025095e-35 3.5000000000000004 45.500000000000007 836.50000000000011 2.8886304909560727 0.30969867672849022 598.00000000000011 0.54798328349052994 79.790844518935529 0.061514029750440707 86.550000000000011 8.3423475258918316 0.1444266346089628 3.198568013432435 195.50000000000003 0.32750000000000007 0.69608173444294719 3.861904761904762 0.68744527145359025 87.457360754016946 7.7500000000000009
decision_type=2 2 2 2 2 2 2 2 2 2 2 2 2 2 2 2 2 2 8 10 2 2 2 2 2 2 2 2 2 10
left_child=2 6 4 7 11 20 13 8 16 10 -4 23 19 -2 15 -15 -3 -12 22 -10 29 -5 -11 -1 -23 -26 -27 -22 -29 -6
right_child=1 3 9 21 5 -7 -8 -9 12 18 17 -13 -14 14 -16 -17 -18 -19 -20 -21 27 24 -24 -25 25 26 -28 28 -30 -31
leaf_value=-0.70758179094276907 1.0325651484635703 0.55598264767810479 -0.22772455128181468 -1.0955190150640042 0.18175767174040097 -0.52356269274968625 3.4146443039909111 0.05112813493874796 1.750238417035836 0.92243560206938879 1.6818308714934314 0.38462828456238274 2.2757897301650831 1.8968406686999102 1.154344599453083 3.5011045126562013 -0.81779272674756465 0.13725553651696923 1.4689818025718555 0.80366183132747404 1.2184854108579612 -0.95326990412167167 -0.2324724360061757 -0.36903746738097176 -0.43079816122198417 0.50431127984377089 -0.48504784355726349 0.99329521449411451 -0.089870944593073404 -0.74338489846466793
leaf_weight=729 39 31 125 21 77.5 208 23 78 27 39.5 23.5 37 22 58 35 21 21 15.499999999999998 36.5 165 28.5 21 22 211 58 83 25 27.5 47.5 27
leaf_count=810 39 31 148 21 85 225 23 78 27 41 33 37 22 58 35 21 21 21 37 165 33 21 23 211 58 83 25 33 52 30
internal_value=1.16304e-06 0.739632 -0.325347 0.354528 -0.456981 -0.137289 1.94746 0.680172 0.864628 0.374526 0.0803991 -0.593104 1.07444 1.72689 1.96442 2.3233 0.00118694 1.06797 0.866736 0.936777 0.248985 -0.184039 0.509299 -0.63159 -0.081678 0.0285855 0.275292 0.558204 0.307293 -0.0572761
internal_weight=2383 728 1655 552 1393 416 176 344 266 262 164 977 214 153 114 79 52 39 98 192 208 208 61.5 940 187 166 108 103.5 75 104.5
internal_count=2547 728 1819 552 1516 458 176 344 266 303 202 1058 214 153 114 79 52 54 101 192 233 208 64 1021 187 166 108 118 85 115
is_linear=0
shrinkage=0.0145222


Tree=29
num_leaves=31
num_cat=0
split_feature=21 17 9 9 21 17 11 26 20 21 22 6 26 31 6 24 29 4 5 18 31 4 17 17 18 32 2 15 1 28
split_gain=2.64069e+06 1.55935e+06 702129 449337 279154 286992 262271 190185 174669 229810 169294 144529 175053 168065 139344 127860 117737 116195 193469 102609 97146.1 97104.6 105784 109186 98583.5 88677.8 88310.5 86790.7 86365.5 83391.9
threshold=19.500000000000004 3.5532042722417256 0.2966921815199563 0.19767245170675599 7.5000000000000009 4.5542429667314659 0.26236644645624335 88.750000000000014 1.0000000180025095e-35 3.5000000000000004 45.500000000000007 9.234550084889646 86.550000000000011 -0.051221447224767395 8.320261079420801 7.8500000000000005 40.116666666666674 2.8886304909560727 1.1233178444270113 79.790844518935529 0.061514029750440707 4.6337322264417571 4.4873494133990253 4.1636632500564419 111.30026979009277 -0.15347498702010592 314.50000000000006 3.198568013432435 195.50000000000003 26.626950000000004
decision_type=2 2 2 2 2 2 2 10 2 2 2 2 10 10 2 10 8 2 2 2 8 2 2 2 2 2 2 2 2 8
left_child=2 6 4 21 10 14 17 11 9 -4 28 12 -5 -13 15 -6 -9 -2 29 -11 27 22 23 -3 -24 -18 -7 -10 -1 -19
right_child=1 3 8 7 5 26 -8 16 20 19 -12 13 -14 -15 -16 -17 25 18 -20 -21 -22 -23 24 -25 -26 -27 -28 -29 -30 -31
leaf_value=-0.69730614963158388 1.0175701813701532 0.30479640847035189 -0.22441749836452116 1.9489798543985368 0.11479270624566713 -0.28876796515499942 3.3650569476888075 -0.24674507900565437 0.90903992244553511 1.6574074128422378 0.379042695233891 0.83034850062118559 0.54503694907882327 2.5317072788170143 0.55034256367531953 -0.93242364553774415 0.11294071856156242 2.086459792600122 1.4960332824294003 0.13526233159969578 1.4476491937662184 -0.48234352015724979 1.3650158627191604 -0.78973701669027607 0.085156805733415705 1.1403131588270536 -0.9563810879447755 -0.22909646720848645 -0.36367824361236772 3.4127035358250457
leaf_weight=729 39 40 125 22 101 90 23 55 39.5 23.5 37 25 126 24 114.5 32.5 34 20 74 15.499999999999998 36.5 100 22 37 30 37 78 22 211 20
leaf_count=810 39 40 148 22 111 104 23 55 41 33 37 25 126 24 130 35 34 20 74 21 37 100 22 37 30 37 78 23 211 20
internal_value=1.18601e-06 0.728891 -0.320622 0.349379 -0.450345 -0.135295 1.91917 0.69825 0.369087 0.0792316 -0.584491 0.980069 0.753735 1.66368 0.178647 -0.140149 0.257626 1.70181 1.93589 1.05246 0.854149 -0.142696 0.120596 -0.221149 0.626641 0.648335 -0.598733 0.501903 -0.622417 2.74961
internal_weight=2383 728 1655 552 1393 416 176 323 262 164 977 197 148 49 248 133.5 126 153 114 39 98 229 129 77 52 71 168 61.5 940 40
internal_count=2547 728 1819 552 1516 458 176 323 303 202 1058 197 148 49 276 146 126 153 114 54 101 229 129 77 52 71 182 64 1021 40
is_linear=0
shrinkage=0.0145222


Tree=30
num_leaves=31
num_cat=0
split_feature=21 17 9 23 19 11 11 11 2 20 21 22 9 15 25 28 17 4 5 2 25 31 18 31 9 15 23 26 27 13
split_gain=2.56455e+06 1.51439e+06 681884 437039 272501 338318 254709 183720 183203 169633 223183 163131 156965 129153 126873 130790 113873 112845 187891 109452 103117 102882 99650.1 94345.1 89053.7 84288.2 84010.1 97888.1 83180.9 85347.8
threshold=19.500000000000004 3.5532042722417256 0.2966921815199563 4.5600000000000014 1.0000000180025095e-35 0.088813045127038262 0.26236644645624335 0.13399047985912391 796.50000000000011 1.0000000180025095e-35 3.5000000000000004 45.500000000000007 0.26968623245838969 4.2063315811809465 33.650000000000013 12.737300000000003 4.1137108013381258 2.8886304909560727 1.1233178444270113 295.50000000000006 32.750000000000007 -0.023312050996958943 79.790844518935529 0.061514029750440707 0.1444266346089628 3.198568013432435 4.3650000000000011 88.350000000000009 0.32750000000000007 0.69608173444294719
decision_type=2 2 2 2 2 2 2 2 2 2 2 2 2 2 10 10 2 2 2 2 10 10 2 8 2 2 2 10 2 2
left_child=2 6 4 7 11 20 17 26 14 10 -4 16 13 21 -9 -16 19 -2 -19 -1 -6 -7 -12 25 -5 -11 27 -3 -26 -30
right_child=1 3 9 24 5 12 -8 8 -10 23 22 -13 -14 -15 15 -17 -18 18 -20 -21 -22 -23 -24 -25 28 -27 -28 -29 29 -31
leaf_value=-0.55248199717592106 1.0027929690097281 0.32821632951301383 -0.22115848977719518 -1.0778625365979335 0.27212346861971703 0.19158737443979251 3.3161897893650587 1.2962555664672637 1.8766564353124033 0.8958387866587304 1.6333385836237622 0.37353822123427233 1.3039403038487518 -0.23389115705428681 1.362069344766915 0.18976221700305262 -0.77347919688798927 2.7096765775593212 1.4743076993317619 0.028311171049991788 -0.89857281266065303 1.2535316866436848 0.13329805469426984 1.4266263980662641 -0.94161269659080937 -0.22576954759230608 0.84071530388402937 -0.66326642725461282 -0.42089035830303012 0.26975519207819559
leaf_weight=413.5 39 70 125 21 18.5 83.5 23 57 36 39.5 23.5 37 23.5 137.5 26 88 461 40 74 82 111.5 25 15.499999999999998 36.5 21 22 37 30 58 108
leaf_count=435 39 70 148 21 21 95 23 57 36 41 33 37 29 156 26 88 501 40 74 82 126 34 21 37 21 23 37 30 58 108
internal_value=1.20831e-06 0.718306 -0.315966 0.344305 -0.443805 -0.123498 1.8913 0.662047 0.935075 0.363727 0.078081 -0.572605 0.170016 0.0616919 0.736843 0.457134 -0.609204 1.6771 1.90778 -0.456367 -0.731973 0.436278 1.03718 0.841745 -0.181191 0.494614 0.249516 0.0307702 -0.0804936 0.0284449
internal_weight=2383 728 1655 552 1393 399.5 176 344 207 262 164 993.5 269.5 246 171 114 956.5 153 114 495.5 130 108.5 39 98 208 61.5 137 100 187 166
internal_count=2547 728 1819 552 1516 461 176 344 207 303 202 1055 314 285 171 114 1018 153 114 517 147 129 54 101 208 64 137 100 187 166
is_linear=0
shrinkage=0.0145222


Tree=31
num_leaves=31
num_cat=0
split_feature=21 17 11 9 11 21 17 22 26 21 22 6 6 26 31 23 29 4 5 31 0 15 4 17 17 23 32 9 2 30
split_gain=2.4906e+06 1.47072e+06 662580 427921 247365 243647 359802 252684 181114 152618 178587 142044 139694 168769 162843 132438 113016 109591 182473 108626 96637.3 96583.5 92313.1 103519 105534 104496 86431.2 83569 82929.6 89913.5
threshold=19.500000000000004 3.5532042722417256 0.23377158244891491 0.19767245170675599 0.26236644645624335 2.5000000000000004 4.8196404567536488 26.500000000000004 88.750000000000014 6.5000000000000009 40.500000000000007 8.2725353979954424 9.234550084889646 86.550000000000011 -0.051221447224767395 2.8350000000000004 40.116666666666674 2.8886304909560727 1.1233178444270113 0.038311959850200354 40.500000000000007 5.0575667949628818 4.6337322264417571 4.4873494133990253 4.1636632500564419 4.5600000000000014 -0.15347498702010592 0.32746117630524912 229.50000000000003 0.50441697491844995
decision_type=2 2 2 2 2 2 2 2 10 2 2 2 2 10 10 2 8 2 2 8 2 2 2 2 2 2 2 2 2 2
left_child=2 4 5 22 17 7 11 -1 12 10 27 21 13 -5 -14 -9 -10 -2 -19 -12 28 -7 23 24 -3 -25 -18 -4 29 -13
right_child=1 3 9 8 -6 6 -8 15 16 -11 19 20 14 -15 -16 -17 26 18 -20 -21 -22 -23 -24 25 -26 -27 -28 -29 -30 -31
leaf_value=-0.66146165634805398 0.98823036252906571 0.29482122869036059 -0.41435253658634558 1.9058538693350413 3.2680321855930039 -0.08714929284859424 -0.77173342263110101 1.1424279493762275 -0.24438162301702138 1.6892458550699401 0.50200879687746325 -0.24919454216369857 0.80657363228940326 0.52734344380668641 2.4812915306778391 -0.15776336650348546 0.10400045034223598 2.6703264876600823 1.4528976439344452 1.9378961133389532 -0.45185902333593864 -0.91447386999119906 -0.47206205235804044 1.3766041787237204 -0.78124952434084227 0.058927628899289618 1.1182753954212719 0.37332609109318993 0.68847892232627617 1.0109619528821869
leaf_weight=769.5 39 40 46.5 22 23 184 160 20 55 20.5 25 52 25 126 24 95 34 40 74 20 30 35.5 100 22 37 30 37 73 108.5 15.499999999999998
leaf_count=835 39 40 52 22 23 198 183 20 55 29 25 66 25 126 24 95 34 40 74 20 30 42 100 22 37 30 37 85 119 20
internal_value=1.22701e-06 0.707875 -0.311378 0.339305 1.86384 -0.414459 -0.184664 -0.566573 0.679761 0.507699 0.360452 0.0360909 0.954777 0.732261 1.62686 0.0683597 0.249774 1.65274 1.88007 1.14019 0.309982 -0.220955 -0.140901 0.115814 -0.222253 0.616412 0.632569 0.0668232 0.439842 0.0401785
internal_weight=2383 728 1655 552 176 1470 585.5 884.5 323 185 164.5 425.5 197 148 49 115 126 153 114 45 206 219.5 229 129 77 52 71 119.5 176 67.5
internal_count=2547 728 1819 552 176 1608 658 950 323 211 182 475 197 148 49 115 126 153 114 45 235 240 229 129 77 52 71 137 205 86
is_linear=0
shrinkage=0.0145222


Tree=32
num_leaves=31
num_cat=0
split_feature=21 17 9 9 19 9 1 9 26 27 22 21 22 6 26 31 31 31 16 17 1 8 29 10 17 32 25 28 1 4
split_gain=2.41879e+06 1.42832e+06 646352 415583 259410 304214 232451 243426 175892 173738 158801 169972 154352 135666 163902 158148 126867 116215 112758 109886 125144 136690 109757 96752.8 91349.5 83939.2 81028.6 72786.8 71456.1 84347
threshold=19.500000000000004 3.5532042722417256 0.2966921815199563 0.19767245170675599 1.0000000180025095e-35 0.16748472561433458 600.50000000000011 0.28848504795937563 88.750000000000014 0.33750000000000008 40.500000000000007 8.5000000000000018 45.500000000000007 9.234550084889646 86.550000000000011 -0.051221447224767395 -0.0015332122323235998 -0.00070274800100074994 109.35732172673812 4.1137108013381258 222.50000000000003 0.8388067662298081 40.116666666666674 0.048597053531264055 2.8725683554855301 -0.15347498702010592 39.050000000000004 20.689150000000001 429.50000000000006 3.9831825890333525
decision_type=2 2 2 2 2 2 2 2 10 2 2 2 2 2 10 10 10 8 2 2 2 2 8 2 2 2 10 10 2 2
left_child=2 6 4 18 12 -6 26 -8 13 16 11 24 19 14 -5 -15 23 -12 28 20 -1 -22 27 -7 -4 -24 -2 -10 -3 -30
right_child=1 3 10 8 5 9 7 -9 22 -11 17 -13 -14 15 -16 -17 -18 -19 -20 -21 21 -23 25 -25 -26 -27 -28 -29 29 -31
leaf_value=-0.53212837309946892 1.7245286398535185 -0.38106195335816928 0.48619383923090759 1.8781771592900973 -0.76891586404439816 1.2528977177027623 1.7865150631475093 3.8712580312255058 -0.75960422202805766 -0.41677650194500337 0.22541574460896194 1.2735580058115876 0.36334438611089281 0.79486057445300862 0.51968528563217065 2.4452582864431154 1.2497135416764868 1.6157448686343547 -0.51142583096746475 -0.75396153818264589 0.91702363294193012 -0.42783036669513363 0.10249015763852147 0.099550787724262985 -0.2064620921601841 1.1020357735206849 0.88070056659279894 0.29715548886865251 -0.1190783917208917 0.7636962429778662
leaf_weight=430.5 96 39 59.5 22 110 17 27 21 28 86.5 21 26 37 25 126 24 29 32 98 461 28 37 34 157 123.5 37 32 27 42 50
leaf_count=452 96 39 66 22 122 21 27 21 28 106 21 35 37 25 126 24 38 32 98 501 28 37 34 174 149 37 32 27 42 50
internal_value=1.24995e-06 0.697595 -0.306856 0.334378 -0.431319 -0.118801 1.83677 2.69861 0.669889 0.128221 0.354892 0.174849 -0.556987 0.940912 0.721627 1.60323 0.360449 1.06486 -0.138854 -0.592588 -0.44245 0.151493 0.246146 0.212236 0.0187462 0.623383 1.51357 -0.240833 0.139864 0.360692
internal_weight=2383 728 1655 552 1393 399.5 176 48 323 289.5 262 209 993.5 197 148 49 203 53 229 956.5 495.5 65 126 174 183 71 128 55 131 92
internal_count=2547 728 1819 552 1516 461 176 48 323 339 303 250 1055 197 148 49 233 53 229 1018 517 65 126 195 215 71 128 55 131 92
is_linear=0
shrinkage=0.0145222


Tree=33
num_leaves=31
num_cat=0
split_feature=21 17 9 23 21 17 11 16 8 20 21 1 22 25 24 34 5 30 23 12 29 18 31 9 6 9 15 34 30 13
split_gain=2.34905e+06 1.38713e+06 627716 405778 252296 260888 235179 173430 215214 159325 207070 156381 151221 108909 154542 107424 106812 126694 109485 100339 103452 93754.6 88309.1 85035 82566.9 81656.7 80996.4 80756.7 105493 79467.5
threshold=19.500000000000004 3.5532042722417256 0.2966921815199563 4.5600000000000014 7.5000000000000009 4.4236888619370154 0.26236644645624335 104.50896403703983 0.8337398373983741 1.0000000180025095e-35 3.5000000000000004 607.50000000000011 45.500000000000007 31.150000000000002 7.2500000000000009 0.54798328349052994 1.1517874015748035 0.47922830374753456 4.2150000000000007 0.27546039995480737 32.216666666666676 79.790844518935529 0.061514029750440707 0.1444266346089628 8.3423475258918316 0.22098412895482858 3.198568013432435 0.52160493827160503 0.44376849112426037 0.68744527145359025
decision_type=2 2 2 2 2 2 2 2 2 2 2 2 2 10 10 2 2 2 2 2 10 2 8 2 2 2 2 2 2 2
left_child=2 6 4 7 12 24 13 8 15 10 -4 16 25 -2 19 -3 -10 27 -19 -15 -21 -12 26 -5 -6 -1 -11 28 -18 -26
right_child=1 3 9 23 5 -7 -8 -9 11 22 21 -13 -14 14 -16 -17 17 18 -20 20 -22 -23 -24 -25 29 -27 -28 -29 -30 -31
leaf_value=-0.74969584396120381 2.4605879857721957 0.51754486855582194 -0.21532796937478188 -1.0530379953299704 -0.049819946628323127 -0.48921842311930025 3.1792654051035112 0.033534270995868969 1.476262259169969 0.87047374694004254 1.5749883455926075 2.1756037917989617 0.35806787383013028 1.8365105101328179 2.3602045798017999 -0.82766465600747763 -0.52221922147987743 0.60082888171915505 1.9879691771346619 1.3994654293787765 0.25805416242892987 0.11999700575345452 1.3788670606023201 -0.078432562141279152 1.1816313797071565 -0.47482742115247301 -0.22901467156925806 0.86847557966182631 0.76716563584192698 0.28080140703846945
leaf_weight=388.5 26 31 125 21 104.5 208 23 78 48 39.5 23.5 22 37 31 29 21 32 24 24 34 33 15.499999999999998 36.5 187 28.5 551.5 22 41 23 75
leaf_count=428 26 31 148 21 115 225 23 78 48 41 33 22 37 31 29 21 32 24 24 34 33 21 37 187 33 593 23 41 23 85
internal_value=1.27431e-06 0.687464 -0.302399 0.329522 -0.425056 -0.125545 1.8101 0.63569 0.812261 0.349738 0.0729066 1.01588 -0.552585 1.60427 1.42895 -0.0257148 0.882993 0.685233 1.29441 1.15337 0.837282 0.996729 0.813005 -0.176832 0.238129 -0.58843 0.477162 0.380641 0.0169795 0.528859
internal_weight=2383 728 1655 552 1393 416 176 344 266 262 164 214 977 153 127 52 192 144 48 98 67 39 98 208 208 940 61.5 96 55 103.5
internal_count=2547 728 1819 552 1516 458 176 344 266 303 202 214 1058 153 127 52 192 144 48 98 67 54 101 208 233 1021 64 96 55 118
is_linear=0
shrinkage=0.0145222


Tree=34
num_leaves=31
num_cat=0
split_feature=21 17 11 23 11 21 17 22 11 1 21 20 6 23 25 24 28 25 24 12 8 0 1 4 28 23 26 6 12 34
split_gain=2.28132e+06 1.34714e+06 610557 394079 229314 226620 338506 236325 170996 153742 142459 184521 132494 125325 113178 100260 99332.7 97743.7 96222.9 101756 136387 91655.5 90571 89078.8 120631 82087.5 93012.3 80199.7 98235 85673.1
threshold=19.500000000000004 3.5532042722417256 0.23377158244891491 4.5600000000000014 0.24426496895717142 2.5000000000000004 4.8196404567536488 26.500000000000004 0.13399047985912391 592.50000000000011 6.5000000000000009 1.0000000180025095e-35 8.2725353979954424 2.8350000000000004 33.650000000000013 7.8500000000000005 12.737300000000003 31.150000000000002 7.2500000000000009 0.27546039995480737 0.93958455975107225 40.500000000000007 528.50000000000011 3.8240044247787615 20.127700000000004 4.3650000000000011 88.350000000000009 7.6246872549385722 0.27872479326853333 0.44135802469135804
decision_type=2 2 2 2 2 2 2 2 2 2 2 2 2 2 10 10 10 10 10 2 2 2 2 2 10 2 10 2 2 2
left_child=2 4 5 8 17 7 12 -1 25 14 11 -4 15 -9 -10 -7 -16 -2 19 -19 -21 -14 23 -18 -25 26 -3 28 -5 -30
right_child=1 3 10 27 -6 6 -8 13 9 -11 -12 -13 21 -15 16 -17 22 18 -20 20 -22 -23 -24 24 -26 -27 -28 -29 29 -31
leaf_value=-0.63542792687521132 2.3668619941741076 0.30218360545630862 -0.11869073493780534 0.3459213371659377 2.8359376236917431 -0.022384560696046288 -0.74477060358194791 1.1151999550507299 1.2568289913937143 1.8703719904304943 1.6298010077590539 0.85507246018889083 0.42977414990282464 -0.14959450865595528 1.2156552169155537 -0.72435858856199564 -0.66981863934687147 1.8098406801223823 2.1483784180934227 1.4205638602995485 0.042573304122427991 -0.43863802705324828 1.0510220661375567 -0.34273873501005897 1.215579018245283 0.81286343180499054 -0.6642907769715829 0.20946308135117084 -0.070126163431414007 -0.92686969282432607
leaf_weight=769.5 24 70 86 30 35 161 160 20 58 29 20.5 78.5 176 95 29 58.5 27 31 25 33 28 30 22 22 20 37 30 74 40 64
leaf_count=835 24 70 101 30 35 174 183 20 58 29 29 81 205 95 29 66 27 31 25 33 28 30 22 22 20 37 30 74 40 64
internal_value=1.30406e-06 0.677481 -0.298008 0.324737 1.78381 -0.39696 -0.17534 -0.543662 0.626458 0.889861 0.488256 0.345993 0.0387825 0.0703725 0.730112 -0.209472 0.475529 1.52264 1.34946 1.13235 0.788048 0.303306 0.23966 -0.0190391 0.399321 0.228468 0.01224 -0.174264 -0.386173 -0.597354
internal_weight=2383 728 1655 552 176 1470 585.5 884.5 344 207 185 164.5 425.5 115 178 219.5 120 141 117 92 61 206 91 69 42 137 100 208 134 104
internal_count=2547 728 1819 552 176 1608 658 950 344 207 211 182 475 115 178 240 120 141 117 92 61 235 91 69 42 137 100 208 134 104
is_linear=0
shrinkage=0.0145222


Tree=35
num_leaves=31
num_cat=0
split_feature=21 17 11 23 11 21 17 22 16 8 2 19 20 6 23 5 30 4 5 34 24 0 27 28 2 30 25 8 6 12
split_gain=2.21554e+06 1.3083e+06 592952 382716 223255 220086 328746 229511 166927 206438 149341 138822 177501 128674 121712 110879 121347 109305 171563 104461 97369.1 89012.8 83606.8 79558.7 78684.5 87400.8 77946.5 114346 77887.2 95402.6
threshold=19.500000000000004 3.5532042722417256 0.23377158244891491 4.5600000000000014 0.26236644645624335 2.5000000000000004 4.8196404567536488 26.500000000000004 104.50896403703983 0.8337398373983741 836.50000000000011 1.0000000180025095e-35 1.0000000180025095e-35 8.2725353979954424 2.8350000000000004 1.1517874015748035 0.47922830374753456 2.8886304909560727 1.1233178444270113 0.54798328349052994 7.8500000000000005 40.500000000000007 0.31550000000000006 26.626950000000004 229.50000000000003 0.50441697491844995 32.150000000000013 1.8252056404230319 7.6246872549385722 0.27872479326853333
decision_type=2 2 2 2 2 2 2 2 2 2 2 2 2 2 2 2 2 2 2 2 10 2 2 8 2 2 10 2 2 2
left_child=2 4 5 8 17 7 13 -1 9 19 15 12 -4 20 -9 -11 -17 -2 23 -3 -7 24 -18 -19 25 -15 -8 -28 29 -5
right_child=1 3 11 28 -6 6 26 14 -10 10 -12 -13 -14 21 -16 16 22 18 -20 -21 -22 -23 -24 -25 -26 -27 27 -29 -30 -31
